{"train_loss": 0.39538463950157166, "train_grad": 0, "test_loss": 0.4038698375225067, "test_grad": 0, "train_loss_grad": 0.0018126019276678562, "test_loss_grad": 0.001791744725778699, "_timestamp": 1717482543.1978219, "_runtime": 146.99437975883484, "_step": 99, "gradients/net.0.weight": {"_type": "histogram", "values": [1.0, 0.0, 0.0, 0.0, 0.0, 0.0, 0.0, 1.0, 0.0, 1.0, 0.0, 1.0, 0.0, 1.0, 0.0, 1.0, 0.0, 1.0, 2.0, 1.0, 1.0, 3.0, 2.0, 5.0, 2.0, 702.0, 7.0, 7.0, 5.0, 0.0, 2.0, 1.0, 2.0, 3.0, 4.0, 3.0, 1.0, 7.0, 6.0, 1.0, 4.0, 6.0, 7.0, 2.0, 1.0, 4.0, 3.0, 6.0, 7.0, 703.0, 4.0, 6.0, 2.0, 2.0, 1.0, 0.0, 0.0, 0.0, 1.0, 0.0, 1.0, 0.0, 1.0, 1.0], "bins": [-0.03227948024868965, -0.0314178392291069, -0.030556200072169304, -0.029694559052586555, -0.028832919895648956, -0.027971278876066208, -0.02710963971912861, -0.02624799869954586, -0.02538635954260826, -0.024524718523025513, -0.023663079366087914, -0.022801438346505165, -0.021939799189567566, -0.021078158169984818, -0.02021651901304722, -0.01935487799346447, -0.01849323883652687, -0.017631597816944122, -0.016769958660006523, -0.015908317640423775, -0.015046678483486176, -0.014185037463903427, -0.013323398306965828, -0.01246175728738308, -0.011600116267800331, -0.010738476179540157, -0.009876836091279984, -0.00901519600301981, -0.008153555914759636, -0.007291915360838175, -0.006430275272578001, -0.005568635184317827, -0.004706995561718941, -0.003845355473458767, -0.002983715385198593, -0.0021220750641077757, -0.0012604349758476019, -0.00039879465475678444, 0.00046284543350338936, 0.0013244855217635632, 0.002186125610023737, 0.0030477656982839108, 0.0039094057865440845, 0.004771046340465546, 0.0056326864287257195, 0.006494326516985893, 0.007355966605246067, 0.00821760669350624, 0.009079246781766415, 0.009940886870026588, 0.010802526958286762, 0.011664167046546936, 0.01252580713480711, 0.013387447223067284, 0.014249088242650032, 0.015110727399587631, 0.01597236841917038, 0.016834009438753128, 0.017695648595690727, 0.018557289615273476, 0.019418928772211075, 0.020280569791793823, 0.021142208948731422, 0.02200384996831417, 0.02286548912525177]}, "gradients/net.2.weight": {"_type": "histogram", "values": [2.0, 0.0, 0.0, 0.0, 0.0, 0.0, 0.0, 0.0, 0.0, 0.0, 0.0, 0.0, 1.0, 0.0, 0.0, 2.0, 4.0, 3.0, 1.0, 0.0, 2.0, 0.0, 0.0, 0.0, 447.0, 289.0, 3.0, 2.0, 3.0, 5.0, 2.0, 1.0, 3.0, 4.0, 4.0, 3.0, 4.0, 3.0, 2.0, 3.0, 5.0, 4.0, 3.0, 3.0, 5.0, 4.0, 4.0, 4.0, 3.0, 2.0, 8.0, 4.0, 517.0, 160.0, 3.0, 1.0, 3.0, 2.0, 2.0, 3.0, 1.0, 1.0, 0.0, 1.0], "bins": [-0.027858246117830276, -0.02714388072490692, -0.026429515331983566, -0.02571514993906021, -0.025000784546136856, -0.0242864191532135, -0.023572053760290146, -0.02285768836736679, -0.022143322974443436, -0.02142895758152008, -0.020714592188596725, -0.02000022679567337, -0.019285861402750015, -0.01857149600982666, -0.017857130616903305, -0.01714276522397995, -0.016428397968411446, -0.01571403257548809, -0.014999667182564735, -0.01428530178964138, -0.013570936396718025, -0.01285657100379467, -0.01214220467954874, -0.011427839286625385, -0.01071347389370203, -0.009999108500778675, -0.00928474310785532, -0.00857037678360939, -0.007856011390686035, -0.007141646463423967, -0.006427280604839325, -0.00571291521191597, -0.0049985479563474655, -0.00428418256342411, -0.0035698169376701117, -0.002855451311916113, -0.002141085918992758, -0.0014267205260694027, -0.0007123546674847603, 2.010725438594818e-06, 0.0007163761183619499, 0.0014307416277006269, 0.0021451071370393038, 0.0028594727627933025, 0.0035738381557166576, 0.004288203548640013, 0.005002569407224655, 0.00571693480014801, 0.006431300193071365, 0.0071456655859947205, 0.007860030978918076, 0.00857439637184143, 0.009288761764764786, 0.010003127157688141, 0.01071749348193407, 0.011431858874857426, 0.01214622426778078, 0.012860589660704136, 0.013574955053627491, 0.01428932137787342, 0.015003686770796776, 0.01571805216372013, 0.016432417556643486, 0.01714678294956684, 0.017861148342490196]}, "gradients/net.0.bias": {"_type": "histogram", "values": [1.0, 0.0, 0.0, 0.0, 0.0, 1.0, 0.0, 0.0, 0.0, 0.0, 0.0, 1.0, 60.0, 0.0, 0.0, 0.0, 0.0, 0.0, 0.0, 0.0, 0.0, 0.0, 0.0, 1.0, 1.0, 0.0, 0.0, 0.0, 0.0, 0.0, 0.0, 0.0, 0.0, 1.0, 0.0, 0.0, 0.0, 0.0, 0.0, 0.0, 0.0, 0.0, 0.0, 0.0, 0.0, 0.0, 0.0, 1.0, 0.0, 0.0, 0.0, 0.0, 0.0, 0.0, 59.0, 0.0, 0.0, 0.0, 0.0, 0.0, 0.0, 0.0, 1.0, 1.0], "bins": [-0.016028771176934242, -0.015553101897239685, -0.015077432617545128, -0.01460176333785057, -0.014126094989478588, -0.013650425709784031, -0.013174756430089474, -0.012699087150394917, -0.012223418802022934, -0.011747749522328377, -0.01127208024263382, -0.010796410962939262, -0.01032074261456728, -0.009845073334872723, -0.009369404055178165, -0.008893734775483608, -0.008418065495789051, -0.007942396216094494, -0.007466727402061224, -0.006991058122366667, -0.006515389308333397, -0.00603972002863884, -0.0055640507489442825, -0.005088381469249725, -0.0046127126552164555, -0.004137043375521898, -0.0036613745614886284, -0.003185705281794071, -0.0027100362349301577, -0.002234367188066244, -0.001758697908371687, -0.0012830288615077734, -0.0008073588833212852, -0.0003316897782497108, 0.00014397932682186365, 0.000619648490101099, 0.0010953175369650126, 0.001570986583828926, 0.0020466558635234833, 0.002522324910387397, 0.0029979939572513103, 0.003473663004115224, 0.003949332050979137, 0.004425001330673695, 0.004900670610368252, 0.005376339424401522, 0.005852008704096079, 0.006327677518129349, 0.006803346797823906, 0.007279016077518463, 0.007754684891551733, 0.008230354636907578, 0.00870602298527956, 0.009181692264974117, 0.009657361544668674, 0.010133030824363232, 0.010608699172735214, 0.011084368452429771, 0.011560037732124329, 0.012035707011818886, 0.012511375360190868, 0.012987044639885426, 0.013462713919579983, 0.01393838319927454, 0.014414052478969097]}, "gradients/net.2.bias": {"_type": "histogram", "values": [1.0, 0.0, 0.0, 0.0, 0.0, 0.0, 0.0, 0.0, 1.0, 0.0, 1.0, 0.0, 1.0, 0.0, 0.0, 0.0, 0.0, 0.0, 0.0, 0.0, 0.0, 0.0, 0.0, 0.0, 0.0, 0.0, 1.0, 1.0, 1.0, 0.0, 0.0, 0.0, 0.0, 1.0, 0.0, 0.0, 0.0, 0.0, 0.0, 0.0, 0.0, 1.0, 0.0, 0.0, 1.0, 0.0, 0.0, 0.0, 0.0, 0.0, 0.0, 1.0, 0.0, 0.0, 0.0, 0.0, 0.0, 0.0, 0.0, 0.0, 0.0, 0.0, 0.0, 1.0], "bins": [-0.022194495424628258, -0.02147911861538887, -0.020763739943504333, -0.020048363134264946, -0.01933298446238041, -0.01861760765314102, -0.017902228981256485, -0.017186852172017097, -0.01647147536277771, -0.015756098553538322, -0.015040719881653786, -0.014325343072414398, -0.013609964400529861, -0.012894587591290474, -0.012179209850728512, -0.01146383211016655, -0.010748453438282013, -0.01003307569772005, -0.009317697957158089, -0.008602321147918701, -0.007886942476034164, -0.00717156520113349, -0.006456187926232815, -0.005740810185670853, -0.0050254324451088905, -0.004310054704546928, -0.00359467719681561, -0.0028792996890842915, -0.0021639219485223293, -0.0014485442079603672, -0.0007331669330596924, -1.7789192497730255e-05, 0.0006975866854190826, 0.001412964309565723, 0.0021283419337123632, 0.0028437194414436817, 0.003559097182005644, 0.004274474922567606, 0.004989852197468281, 0.005705229938030243, 0.006420607678592205, 0.007135985419154167, 0.00785136315971613, 0.008566740900278091, 0.009282117709517479, 0.009997496381402016, 0.010712873190641403, 0.011428250931203365, 0.012143628671765327, 0.01285900641232729, 0.013574384152889252, 0.01428976096212864, 0.015005139634013176, 0.015720516443252563, 0.0164358951151371, 0.017151271924376488, 0.017866648733615875, 0.018582025542855263, 0.0192974042147398, 0.020012781023979187, 0.020728159695863724, 0.02144353650510311, 0.0221589133143425, 0.022874291986227036, 0.023589670658111572]}, "_wandb": {"runtime": 146}}