{"train_loss": 0.0009531099931336939, "train_grad": 0.000808992306701839, "train_H": 6.884547474328429e-05, "test_loss": 0.0009850022615864873, "test_grad": 0.0008582237642258406, "test_h": 0, "test_H": 4.102363163838163e-05, "_timestamp": 1720047758.251398, "_runtime": 1797.2521409988403, "_step": 99, "gradients/NN.net.2.bias": {"_type": "histogram", "values": [1.0], "bins": [-0.0008162673329934478, -0.0008162673329934478]}, "gradients/NN.net.2.weight": {"_type": "histogram", "values": [1.0, 1.0, 0.0, 0.0, 0.0, 3.0, 0.0, 1.0, 2.0, 3.0, 3.0, 2.0, 1.0, 4.0, 3.0, 2.0, 11.0, 3.0, 10.0, 7.0, 11.0, 13.0, 16.0, 16.0, 17.0, 27.0, 30.0, 34.0, 34.0, 33.0, 39.0, 27.0, 22.0, 21.0, 16.0, 22.0, 9.0, 9.0, 13.0, 5.0, 4.0, 6.0, 2.0, 3.0, 8.0, 3.0, 2.0, 2.0, 6.0, 0.0, 0.0, 0.0, 1.0, 0.0, 0.0, 3.0, 0.0, 0.0, 0.0, 0.0, 0.0, 0.0, 0.0, 1.0], "bins": [-0.008961101062595844, -0.008650216273963451, -0.008339332416653633, -0.00802844762802124, -0.007717562839388847, -0.007406678516417742, -0.007095794193446636, -0.006784909404814243, -0.006474025081843138, -0.006163140758872032, -0.005852255970239639, -0.005541371647268534, -0.005230487324297428, -0.004919602535665035, -0.00460871821269393, -0.004297833424061537, -0.003986949101090431, -0.003676064545288682, -0.0033651799894869328, -0.003054295666515827, -0.002743411110714078, -0.0024325265549123287, -0.002121642231941223, -0.001810757676139474, -0.0014998731203377247, -0.0011889885645359755, -0.000878104125149548, -0.0005672196275554597, -0.0002563351299613714, 5.4549367632716894e-05, 0.0003654338652268052, 0.0006763183628208935, 0.0009872028604149818, 0.001298087416216731, 0.0016089718556031585, 0.0019198562949895859, 0.002230740850791335, 0.0025416254065930843, 0.00285250972956419, 0.003163394285365939, 0.0034742788411676884, 0.0037851633969694376, 0.004096047952771187, 0.004406932275742292, 0.004717816598713398, 0.005028701387345791, 0.0053395857103168964, 0.005650470498949289, 0.005961354821920395, 0.0062722391448915005, 0.006583123933523893, 0.006894008256494999, 0.007204893045127392, 0.007515777368098497, 0.007826661691069603, 0.008137546479701996, 0.008448431268334389, 0.008759315125644207, 0.0090701999142766, 0.009381084702908993, 0.009691968560218811, 0.010002853348851204, 0.010313738137483597, 0.010624621994793415, 0.010935506783425808]}, "gradients/NN.net.0.bias": {"_type": "histogram", "values": [1.0, 0.0, 1.0, 0.0, 1.0, 0.0, 0.0, 1.0, 0.0, 1.0, 2.0, 0.0, 2.0, 0.0, 0.0, 2.0, 2.0, 1.0, 3.0, 3.0, 4.0, 5.0, 3.0, 9.0, 18.0, 23.0, 34.0, 67.0, 112.0, 69.0, 43.0, 27.0, 18.0, 8.0, 10.0, 12.0, 3.0, 3.0, 2.0, 4.0, 4.0, 1.0, 5.0, 2.0, 1.0, 0.0, 2.0, 2.0, 0.0, 0.0, 0.0, 0.0, 0.0, 0.0, 0.0, 0.0, 0.0, 0.0, 0.0, 0.0, 0.0, 0.0, 0.0, 1.0], "bins": [-0.0013449471443891525, -0.001298002665862441, -0.0012510581873357296, -0.00120411382522434, -0.0011571693466976285, -0.001110224868170917, -0.0010632803896442056, -0.001016336027532816, -0.0009693915490061045, -0.000922447070479393, -0.0008755025919526815, -0.000828558171633631, -0.0007816136931069195, -0.000734669272787869, -0.0006877247942611575, -0.000640780373942107, -0.0005938358954153955, -0.000546891416888684, -0.0004999469965696335, -0.0004530025471467525, -0.00040605809772387147, -0.00035911361919716, -0.000312169169774279, -0.000265224720351398, -0.00021828027092851698, -0.00017133582150563598, -0.00012439137208275497, -7.744690810795873e-05, -3.0502458685077727e-05, 1.6441994375782087e-05, 6.33864474366419e-05, 0.00011033090413548052, 0.00015727535355836153, 0.00020421980298124254, 0.00025116425240412354, 0.00029810870182700455, 0.00034505315124988556, 0.000391997629776597, 0.00043894207919947803, 0.00048588652862235904, 0.0005328309489414096, 0.000579775427468121, 0.0006267199059948325, 0.0006736643263138831, 0.0007206088048405945, 0.0007675532251596451, 0.0008144977036863565, 0.0008614421240054071, 0.0009083866025321186, 0.00095533108105883, 0.0010022755013778806, 0.001049219979904592, 0.0010961644584313035, 0.0011431088205426931, 0.0011900532990694046, 0.001236997777596116, 0.0012839422561228275, 0.001330886734649539, 0.0013778310967609286, 0.00142477557528764, 0.0014717200538143516, 0.001518664532341063, 0.0015656088944524527, 0.0016125533729791641, 0.0016594978515058756]}, "gradients/NN.net.0.weight": {"_type": "histogram", "values": [1.0, 1.0, 0.0, 0.0, 1.0, 1.0, 4.0, 1.0, 5.0, 7.0, 9.0, 4.0, 8.0, 20.0, 17.0, 27.0, 25.0, 46.0, 23.0, 31.0, 49.0, 60.0, 73.0, 57.0, 90.0, 95.0, 97.0, 124.0, 172.0, 237.0, 273.0, 443.0, 1241.0, 901.0, 419.0, 305.0, 230.0, 152.0, 134.0, 128.0, 93.0, 87.0, 68.0, 60.0, 66.0, 42.0, 42.0, 37.0, 26.0, 21.0, 17.0, 12.0, 15.0, 5.0, 11.0, 5.0, 4.0, 5.0, 5.0, 3.0, 3.0, 3.0, 1.0, 2.0], "bins": [-0.0026760753244161606, -0.0025949059054255486, -0.00251373671926558, -0.002432567300274968, -0.0023513981141149998, -0.0022702286951243877, -0.0021890595089644194, -0.0021078900899738073, -0.002026720903813839, -0.001945551484823227, -0.0018643821822479367, -0.0017832128796726465, -0.0017020434606820345, -0.0016208741581067443, -0.001539704855531454, -0.0014585355529561639, -0.0013773662503808737, -0.0012961969478055835, -0.0012150276452302933, -0.001133858342655003, -0.0010526890400797129, -0.0009715196792967618, -0.0008903503185138106, -0.0008091810159385204, -0.0007280117133632302, -0.00064684241078794, -0.0005656731082126498, -0.0004845037474296987, -0.0004033344448544085, -0.0003221651422791183, -0.00024099581059999764, -0.0001598264934727922, -7.865694351494312e-05, 2.5123736122623086e-06, 8.368169073946774e-05, 0.00016485100786667317, 0.0002460203249938786, 0.0003271896275691688, 0.00040835895924828947, 0.0004895282909274101, 0.0005706975935027003, 0.0006518668960779905, 0.0007330361986532807, 0.0008142055594362319, 0.0008953748620115221, 0.0009765441645868123, 0.0010577135253697634, 0.0011388828279450536, 0.0012200521305203438, 0.001301221433095634, 0.0013823907356709242, 0.0014635600382462144, 0.0015447293408215046, 0.0016258987598121166, 0.0017070680623874068, 0.001788237364962697, 0.0018694066675379872, 0.0019505759701132774, 0.0020317453891038895, 0.002112914575263858, 0.00219408399425447, 0.0022752531804144382, 0.0023564225994050503, 0.0024375917855650187, 0.0025187612045556307]}, "_wandb": {"runtime": 1796}}