{"train_loss": 2.3514680833613966e-06, "test_loss": 3.8949660847720224e-06, "_timestamp": 1717622297.3413136, "_runtime": 390.05806255340576, "_step": 499, "parameters/net.0.weight": {"_type": "histogram", "values": [1.0, 1.0, 2.0, 4.0, 0.0, 2.0, 2.0, 1.0, 4.0, 7.0, 8.0, 9.0, 8.0, 6.0, 23.0, 34.0, 27.0, 31.0, 49.0, 32.0, 57.0, 57.0, 67.0, 88.0, 75.0, 99.0, 87.0, 109.0, 128.0, 117.0, 120.0, 117.0, 138.0, 138.0, 114.0, 150.0, 128.0, 116.0, 117.0, 113.0, 94.0, 79.0, 60.0, 76.0, 63.0, 57.0, 45.0, 42.0, 39.0, 27.0, 20.0, 26.0, 10.0, 12.0, 15.0, 6.0, 5.0, 1.0, 4.0, 1.0, 1.0, 1.0, 0.0, 2.0], "bins": [-0.2661280632019043, -0.2580204904079437, -0.24991294741630554, -0.24180538952350616, -0.2336978316307068, -0.22559025883674622, -0.21748270094394684, -0.20937514305114746, -0.20126758515834808, -0.1931600272655487, -0.18505246937274933, -0.17694491147994995, -0.16883733868598938, -0.1607297956943512, -0.15262222290039062, -0.14451466500759125, -0.13640710711479187, -0.1282995492219925, -0.12019199132919312, -0.11208442598581314, -0.10397686809301376, -0.09586931020021439, -0.08776174485683441, -0.07965418696403503, -0.07154662907123566, -0.06343907117843628, -0.0553315095603466, -0.04722394794225693, -0.03911639004945755, -0.031008832156658173, -0.022901270538568497, -0.01479370892047882, -0.006686121225357056, 0.001421438530087471, 0.009528998285531998, 0.017636558040976524, 0.02574411779642105, 0.03385167568922043, 0.041959237307310104, 0.05006679892539978, 0.05817435681819916, 0.06628191471099854, 0.07438947260379791, 0.08249703794717789, 0.09060459583997726, 0.09871215373277664, 0.10681971907615662, 0.114927276968956, 0.12303483486175537, 0.13114239275455475, 0.13924995064735413, 0.1473575085401535, 0.15546506643295288, 0.16357263922691345, 0.17168019711971283, 0.1797877550125122, 0.18789531290531158, 0.19600287079811096, 0.20411042869091034, 0.21221798658370972, 0.2203255593776703, 0.22843310236930847, 0.23654067516326904, 0.24464823305606842, 0.2527557909488678]}, "parameters/net.0.bias": {"_type": "histogram", "values": [1.0, 0.0, 0.0, 0.0, 0.0, 0.0, 0.0, 0.0, 0.0, 0.0, 1.0, 0.0, 0.0, 0.0, 0.0, 1.0, 1.0, 0.0, 0.0, 4.0, 4.0, 1.0, 7.0, 0.0, 3.0, 2.0, 4.0, 3.0, 7.0, 4.0, 8.0, 4.0, 6.0, 4.0, 8.0, 11.0, 10.0, 12.0, 14.0, 10.0, 12.0, 8.0, 8.0, 6.0, 10.0, 7.0, 4.0, 8.0, 4.0, 5.0, 9.0, 10.0, 5.0, 3.0, 5.0, 5.0, 2.0, 5.0, 1.0, 1.0, 3.0, 1.0, 2.0, 2.0], "bins": [-0.04305442422628403, -0.04201817885041237, -0.04098193719983101, -0.03994569182395935, -0.03890945017337799, -0.03787320479750633, -0.03683696314692497, -0.035800717771053314, -0.034764476120471954, -0.033728230744600296, -0.032691989094018936, -0.03165574371814728, -0.030619502067565918, -0.02958325669169426, -0.02854701317846775, -0.02751076966524124, -0.026474524289369583, -0.025438280776143074, -0.024402037262916565, -0.023365793749690056, -0.022329550236463547, -0.02129330486059189, -0.02025706134736538, -0.01922081783413887, -0.01818457432091236, -0.017148330807685852, -0.016112087294459343, -0.01507584284991026, -0.01403959933668375, -0.013003355823457241, -0.011967111378908157, -0.010930867865681648, -0.00989462435245514, -0.00885838083922863, -0.007822137326002121, -0.006785892881453037, -0.005749649368226528, -0.004713405855000019, -0.0036771618761122227, -0.0026409178972244263, -0.0016046743839979172, -0.0005684306379407644, 0.0004678131081163883, 0.001504056854173541, 0.002540300600230694, 0.003576544113457203, 0.004612788092344999, 0.005649032071232796, 0.006685275584459305, 0.007721519097685814, 0.008757762610912323, 0.009794007055461407, 0.010830250568687916, 0.011866494081914425, 0.012902738526463509, 0.013938982039690018, 0.014975225552916527, 0.016011469066143036, 0.017047712579369545, 0.018083956092596054, 0.019120201468467712, 0.020156443119049072, 0.02119268849492073, 0.02222893200814724, 0.02326517552137375]}, "parameters/net.2.weight": {"_type": "histogram", "values": [1.0, 1.0, 0.0, 1.0, 0.0, 3.0, 2.0, 2.0, 11.0, 10.0, 12.0, 19.0, 24.0, 59.0, 76.0, 97.0, 156.0, 227.0, 315.0, 396.0, 490.0, 712.0, 886.0, 1084.0, 1338.0, 1663.0, 1906.0, 2226.0, 2501.0, 2700.0, 3023.0, 3172.0, 3445.0, 3464.0, 3620.0, 3596.0, 3345.0, 3405.0, 3097.0, 2939.0, 2633.0, 2217.0, 2082.0, 1705.0, 1513.0, 1160.0, 1008.0, 815.0, 671.0, 459.0, 360.0, 267.0, 181.0, 151.0, 84.0, 66.0, 51.0, 29.0, 20.0, 11.0, 15.0, 4.0, 7.0, 3.0], "bins": [-0.41081199049949646, -0.3989889919757843, -0.38716599345207214, -0.3753430247306824, -0.3635200262069702, -0.35169702768325806, -0.3398740291595459, -0.32805103063583374, -0.3162280321121216, -0.3044050335884094, -0.29258203506469727, -0.2807590365409851, -0.26893606781959534, -0.2571130692958832, -0.24529007077217102, -0.23346707224845886, -0.2216441035270691, -0.20982110500335693, -0.19799812138080597, -0.1861751228570938, -0.17435213923454285, -0.1625291407108307, -0.15070614218711853, -0.13888314366340637, -0.1270601600408554, -0.11523716896772385, -0.10341417789459229, -0.09159117937088013, -0.07976818829774857, -0.067945197224617, -0.056122198700904846, -0.044299207627773285, -0.032476216554641724, -0.020653223618865013, -0.008830230683088303, 0.002992764115333557, 0.014815755188465118, 0.02663874626159668, 0.03846174478530884, 0.0502847358584404, 0.06210772693157196, 0.07393071800470352, 0.08575370907783508, 0.09757670760154724, 0.1093996986746788, 0.12122268974781036, 0.13304568827152252, 0.1448686718940735, 0.15669167041778564, 0.1685146689414978, 0.18033765256404877, 0.19216065108776093, 0.2039836347103119, 0.21580663323402405, 0.2276296317577362, 0.23945263028144836, 0.25127559900283813, 0.2630985975265503, 0.27492159605026245, 0.2867445945739746, 0.2985675632953644, 0.31039056181907654, 0.3222135603427887, 0.33403655886650085, 0.345859557390213]}, "parameters/net.2.bias": {"_type": "histogram", "values": [1.0, 0.0, 0.0, 0.0, 1.0, 0.0, 1.0, 2.0, 1.0, 1.0, 0.0, 0.0, 0.0, 3.0, 1.0, 4.0, 4.0, 5.0, 1.0, 3.0, 10.0, 8.0, 3.0, 3.0, 6.0, 8.0, 10.0, 6.0, 6.0, 9.0, 5.0, 8.0, 8.0, 14.0, 11.0, 13.0, 7.0, 6.0, 14.0, 8.0, 3.0, 11.0, 8.0, 7.0, 5.0, 6.0, 4.0, 2.0, 3.0, 2.0, 1.0, 2.0, 3.0, 0.0, 2.0, 0.0, 1.0, 1.0, 1.0, 1.0, 1.0, 0.0, 0.0, 1.0], "bins": [-0.04311966896057129, -0.04169943183660507, -0.040279190987348557, -0.03885895386338234, -0.037438713014125824, -0.03601847589015961, -0.03459823876619339, -0.03317800164222717, -0.03175776079297066, -0.03033752180635929, -0.028917282819747925, -0.027497045695781708, -0.02607680670917034, -0.024656567722558975, -0.023236330598592758, -0.021816091611981392, -0.020395852625370026, -0.01897561363875866, -0.017555374652147293, -0.016135137528181076, -0.01471489854156971, -0.013294659554958344, -0.011874421499669552, -0.01045418344438076, -0.009033944457769394, -0.007613705936819315, -0.006193467415869236, -0.004773228894919157, -0.003352990373969078, -0.001932751853018999, -0.0005125133320689201, 0.0009077247232198715, 0.0023279599845409393, 0.0037481985054910183, 0.005168437026441097, 0.006588675547391176, 0.008008914068341255, 0.009429153054952621, 0.010849391110241413, 0.012269629165530205, 0.013689868152141571, 0.015110107138752937, 0.016530346125364304, 0.01795058324933052, 0.019370822235941887, 0.020791061222553253, 0.02221129834651947, 0.023631537333130836, 0.025051776319742203, 0.02647201530635357, 0.027892254292964935, 0.029312491416931152, 0.03073273040354252, 0.032152969390153885, 0.0335732065141201, 0.03499344736337662, 0.036413684487342834, 0.03783392161130905, 0.03925416246056557, 0.040674399584531784, 0.0420946404337883, 0.04351487755775452, 0.044935114681720734, 0.04635535180568695, 0.047775592654943466]}, "parameters/net.4.weight": {"_type": "histogram", "values": [1.0, 0.0, 1.0, 0.0, 2.0, 2.0, 2.0, 1.0, 2.0, 3.0, 3.0, 4.0, 8.0, 11.0, 11.0, 17.0, 22.0, 21.0, 31.0, 42.0, 33.0, 56.0, 60.0, 86.0, 76.0, 92.0, 112.0, 89.0, 102.0, 111.0, 151.0, 154.0, 140.0, 143.0, 142.0, 135.0, 116.0, 129.0, 121.0, 108.0, 105.0, 70.0, 77.0, 81.0, 69.0, 54.0, 61.0, 41.0, 30.0, 35.0, 24.0, 14.0, 23.0, 13.0, 7.0, 7.0, 7.0, 6.0, 4.0, 2.0, 0.0, 0.0, 1.0, 1.0], "bins": [-0.27848926186561584, -0.27023938298225403, -0.2619895040988922, -0.2537396252155304, -0.24548974633216858, -0.23723986744880676, -0.22898998856544495, -0.22074010968208313, -0.2124902307987213, -0.2042403519153595, -0.19599047303199768, -0.18774059414863586, -0.17949071526527405, -0.17124083638191223, -0.16299095749855042, -0.1547410786151886, -0.14649121463298798, -0.13824133574962616, -0.12999145686626434, -0.12174157798290253, -0.11349169909954071, -0.1052418202161789, -0.09699194878339767, -0.08874206990003586, -0.08049219101667404, -0.07224231213331223, -0.06399243324995041, -0.05574255809187889, -0.047492679208517075, -0.03924280032515526, -0.03099292516708374, -0.022743046283721924, -0.014493182301521301, -0.0062433043494820595, 0.0020065736025571823, 0.01025645062327385, 0.018506329506635666, 0.026756208389997482, 0.035006083548069, 0.04325596243143082, 0.05150584131479263, 0.05975572019815445, 0.06800559908151627, 0.07625547051429749, 0.0845053493976593, 0.09275522828102112, 0.10100510716438293, 0.10925498604774475, 0.11750486493110657, 0.12575474381446838, 0.1340046226978302, 0.14225450158119202, 0.15050438046455383, 0.15875425934791565, 0.16700413823127747, 0.17525401711463928, 0.1835038959980011, 0.19175377488136292, 0.20000365376472473, 0.20825353264808655, 0.21650341153144836, 0.22475329041481018, 0.233003169298172, 0.2412530481815338, 0.24950291216373444]}, "parameters/net.4.bias": {"_type": "histogram", "values": [2.0, 0.0, 0.0, 0.0, 0.0, 0.0, 0.0, 1.0, 0.0, 0.0, 0.0, 0.0, 0.0, 1.0, 0.0, 0.0, 0.0, 0.0, 0.0, 2.0, 0.0, 1.0, 0.0, 0.0, 0.0, 0.0, 0.0, 0.0, 0.0, 0.0, 0.0, 1.0, 0.0, 0.0, 0.0, 1.0, 0.0, 0.0, 1.0, 1.0, 0.0, 0.0, 0.0, 0.0, 0.0, 0.0, 0.0, 0.0, 0.0, 0.0, 0.0, 0.0, 0.0, 0.0, 0.0, 0.0, 0.0, 0.0, 0.0, 0.0, 0.0, 0.0, 0.0, 1.0], "bins": [-0.011288213543593884, -0.01084817387163639, -0.010408135131001472, -0.00996809545904398, -0.009528055787086487, -0.009088016115128994, -0.008647976443171501, -0.008207937702536583, -0.00776789803057909, -0.007327858358621597, -0.006887819152325392, -0.006447779946029186, -0.006007740274071693, -0.005567700602114201, -0.005127661395817995, -0.0046876221895217896, -0.004247582517564297, -0.0038075430784374475, -0.0033675036393105984, -0.002927464200183749, -0.0024874247610569, -0.002047385321930051, -0.0016073458828032017, -0.0011673064436763525, -0.0007272670045495033, -0.00028722756542265415, 0.00015281187370419502, 0.0005928513128310442, 0.0010328907519578934, 0.0014729301910847425, 0.0019129696302115917, 0.002353009069338441, 0.0027930494397878647, 0.003233088878914714, 0.003673128318041563, 0.0041131675243377686, 0.004553207196295261, 0.004993246868252754, 0.00543328607454896, 0.005873325280845165, 0.006313364952802658, 0.006753404624760151, 0.007193443831056356, 0.007633483037352562, 0.008073522709310055, 0.008513562381267548, 0.008953601121902466, 0.009393640793859959, 0.009833680465817451, 0.010273720137774944, 0.010713759809732437, 0.011153798550367355, 0.011593838222324848, 0.012033877894282341, 0.01247391663491726, 0.012913956306874752, 0.013353995978832245, 0.013794035650789738, 0.01423407532274723, 0.014674114063382149, 0.015114153735339642, 0.015554193407297134, 0.015994232147932053, 0.01643427275121212, 0.01687431149184704]}, "gradients/net.4.bias": {"_type": "histogram", "values": [1.0, 0.0, 0.0, 0.0, 0.0, 0.0, 0.0, 0.0, 0.0, 0.0, 0.0, 0.0, 0.0, 1.0, 0.0, 0.0, 0.0, 1.0, 0.0, 1.0, 0.0, 0.0, 1.0, 0.0, 0.0, 0.0, 0.0, 0.0, 1.0, 0.0, 1.0, 0.0, 0.0, 1.0, 0.0, 1.0, 1.0, 1.0, 0.0, 0.0, 0.0, 0.0, 0.0, 0.0, 0.0, 0.0, 0.0, 0.0, 0.0, 0.0, 0.0, 0.0, 0.0, 0.0, 0.0, 0.0, 0.0, 0.0, 0.0, 0.0, 0.0, 0.0, 0.0, 1.0], "bins": [-0.00014001023373566568, -0.0001355425629299134, -0.00013107489212416112, -0.00012660720676649362, -0.00012213953596074134, -0.00011767186515498906, -0.00011320419434923679, -0.00010873652354348451, -0.00010426884546177462, -9.980117465602234e-05, -9.533349657431245e-05, -9.086582576856017e-05, -8.63981549628079e-05, -8.1930476881098e-05, -7.746280607534572e-05, -7.299512799363583e-05, -6.852745718788356e-05, -6.405978638213128e-05, -5.959210830042139e-05, -5.512443749466911e-05, -5.0656763050938025e-05, -4.618908860720694e-05, -4.172141780145466e-05, -3.725374335772358e-05, -3.2786068913992494e-05, -2.831839447026141e-05, -2.385072184551973e-05, -1.9383049220778048e-05, -1.4915374777046964e-05, -1.0447700333315879e-05, -5.980027708574198e-06, -1.5123550838325173e-06, 2.955319359898567e-06, 7.42299289413495e-06, 1.1890666428371333e-05, 1.6358339053113014e-05, 2.0826013496844098e-05, 2.5293687940575182e-05, 2.9761360565316863e-05, 3.4229033190058544e-05, 3.869670763378963e-05, 4.316438207752071e-05, 4.76320565212518e-05, 5.2099727327004075e-05, 5.656740177073516e-05, 6.1035076214466244e-05, 6.550274702021852e-05, 6.997042510192841e-05, 7.443809590768069e-05, 7.890576671343297e-05, 8.337344479514286e-05, 8.784111560089514e-05, 9.230879368260503e-05, 9.67764644883573e-05, 0.00010124413529410958, 0.00010571180609986186, 0.00011017948418157175, 0.00011464715498732403, 0.00011911483306903392, 0.0001235825038747862, 0.00012805017468053848, 0.00013251786003820598, 0.00013698553084395826, 0.00014145320164971054, 0.0001459208724554628]}, "gradients/net.4.weight": {"_type": "histogram", "values": [1.0, 0.0, 0.0, 0.0, 1.0, 0.0, 0.0, 1.0, 0.0, 1.0, 3.0, 3.0, 1.0, 2.0, 3.0, 3.0, 3.0, 3.0, 11.0, 7.0, 10.0, 5.0, 13.0, 20.0, 30.0, 32.0, 50.0, 76.0, 87.0, 128.0, 180.0, 256.0, 395.0, 859.0, 304.0, 210.0, 104.0, 77.0, 49.0, 39.0, 21.0, 19.0, 13.0, 8.0, 8.0, 4.0, 4.0, 6.0, 4.0, 2.0, 3.0, 4.0, 3.0, 0.0, 1.0, 1.0, 1.0, 1.0, 1.0, 0.0, 0.0, 0.0, 0.0, 1.0], "bins": [-0.00011463520058896393, -0.0001111870733438991, -0.00010773895337479189, -0.00010429082612972707, -0.00010084270616061985, -9.739457891555503e-05, -9.39464516704902e-05, -9.0498331701383e-05, -8.705020445631817e-05, -8.360207721125335e-05, -8.015395724214613e-05, -7.670582999708131e-05, -7.325770275201648e-05, -6.980958278290927e-05, -6.636145553784445e-05, -6.291332829277962e-05, -5.9465208323672414e-05, -5.6017084716586396e-05, -5.256896110950038e-05, -4.9120833864435554e-05, -4.5672710257349536e-05, -4.222458665026352e-05, -3.877645940519869e-05, -3.5328335798112676e-05, -3.188021219102666e-05, -2.843208858394064e-05, -2.498396315786522e-05, -2.1535837731789798e-05, -1.808771412470378e-05, -1.4639590517617762e-05, -1.119146509154234e-05, -7.74333966546692e-06, -4.295208782423288e-06, -8.470842658425681e-07, 2.6010402507381514e-06, 6.049164767318871e-06, 9.49728928389959e-06, 1.2945412890985608e-05, 1.639353831706103e-05, 1.984166374313645e-05, 2.328978735022247e-05, 2.6737910957308486e-05, 3.0186036383383907e-05, 3.363416180945933e-05, 3.7082285416545346e-05, 4.0530409023631364e-05, 4.397853626869619e-05, 4.742665987578221e-05, 5.0874783482868224e-05, 5.432290708995424e-05, 5.777103069704026e-05, 6.121915794210508e-05, 6.466728518716991e-05, 6.811540515627712e-05, 7.156353240134194e-05, 7.501165964640677e-05, 7.845977961551398e-05, 8.19079068605788e-05, 8.535602682968602e-05, 8.880415407475084e-05, 9.225227404385805e-05, 9.570040128892288e-05, 9.91485285339877e-05, 0.00010259664850309491, 0.00010604477574815974]}, "gradients/net.2.bias": {"_type": "histogram", "values": [3.0, 3.0, 2.0, 4.0, 3.0, 1.0, 0.0, 7.0, 6.0, 2.0, 3.0, 5.0, 6.0, 4.0, 6.0, 8.0, 4.0, 8.0, 2.0, 14.0, 11.0, 12.0, 39.0, 9.0, 9.0, 10.0, 4.0, 8.0, 12.0, 5.0, 7.0, 4.0, 6.0, 1.0, 8.0, 1.0, 3.0, 1.0, 2.0, 3.0, 4.0, 1.0, 0.0, 1.0, 0.0, 0.0, 1.0, 0.0, 1.0, 0.0, 1.0, 0.0, 0.0, 0.0, 0.0, 0.0, 0.0, 0.0, 0.0, 0.0, 0.0, 0.0, 0.0, 1.0], "bins": [-2.8181597372167744e-05, -2.6928151783067733e-05, -2.5674708012957126e-05, -2.442126424284652e-05, -2.3167818653746508e-05, -2.1914373064646497e-05, -2.066092929453589e-05, -1.9407485524425283e-05, -1.8154039935325272e-05, -1.690059434622526e-05, -1.5647150576114655e-05, -1.4393705896509346e-05, -1.3140261216904037e-05, -1.1886816537298728e-05, -1.0633371857693419e-05, -9.37992717808811e-06, -8.126482498482801e-06, -6.873037818877492e-06, -5.619593139272183e-06, -4.366148459666874e-06, -3.1127037800615653e-06, -1.8592591004562564e-06, -6.058144208509475e-07, 6.476302587543614e-07, 1.9010749383596703e-06, 3.1545196179649793e-06, 4.407964297570288e-06, 5.661408977175597e-06, 6.914853656780906e-06, 8.168298336386215e-06, 9.421743015991524e-06, 1.0675187695596833e-05, 1.1928634194191545e-05, 1.3182078873796854e-05, 1.4435523553402163e-05, 1.5688969142502174e-05, 1.694241291261278e-05, 1.8195856682723388e-05, 1.94493022718234e-05, 2.070274786092341e-05, 2.1956191631034017e-05, 2.3209635401144624e-05, 2.4463080990244634e-05, 2.5716526579344645e-05, 2.6969970349455252e-05, 2.822341411956586e-05, 2.947685970866587e-05, 3.073030529776588e-05, 3.198374906787649e-05, 3.3237192837987095e-05, 3.44906366080977e-05, 3.5744084016187117e-05, 3.6997527786297724e-05, 3.825097155640833e-05, 3.9504418964497745e-05, 4.075786273460835e-05, 4.201130650471896e-05, 4.3264750274829566e-05, 4.4518194044940174e-05, 4.577164145302959e-05, 4.7025085223140195e-05, 4.82785289932508e-05, 4.9531976401340216e-05, 5.0785420171450824e-05, 5.203886394156143e-05]}, "gradients/net.2.weight": {"_type": "histogram", "values": [2.0, 1.0, 0.0, 0.0, 0.0, 1.0, 0.0, 1.0, 1.0, 4.0, 2.0, 4.0, 4.0, 3.0, 5.0, 8.0, 10.0, 17.0, 29.0, 26.0, 39.0, 73.0, 92.0, 152.0, 224.0, 317.0, 471.0, 775.0, 1160.0, 1876.0, 3179.0, 5745.0, 13266.0, 23172.0, 6102.0, 3221.0, 1978.0, 1223.0, 815.0, 500.0, 327.0, 210.0, 171.0, 101.0, 66.0, 52.0, 40.0, 15.0, 15.0, 14.0, 8.0, 5.0, 2.0, 2.0, 3.0, 1.0, 1.0, 0.0, 1.0, 1.0, 0.0, 1.0, 1.0, 1.0], "bins": [-2.04725638468517e-05, -1.9853650883305818e-05, -1.9234737919759937e-05, -1.8615824956214055e-05, -1.799691017367877e-05, -1.737799721013289e-05, -1.6759084246587008e-05, -1.6140171283041127e-05, -1.5521258319495246e-05, -1.4902345355949365e-05, -1.4283432392403483e-05, -1.36645185193629e-05, -1.304560555581702e-05, -1.2426692592271138e-05, -1.1807778719230555e-05, -1.1188865755684674e-05, -1.0569952792138793e-05, -9.951039828592911e-06, -9.33212686504703e-06, -8.713212992006447e-06, -8.094300028460566e-06, -7.475387064914685e-06, -6.856473646621453e-06, -6.2375602283282205e-06, -5.618647264782339e-06, -4.999734301236458e-06, -4.380820882943226e-06, -3.7619076920236694e-06, -3.1429945011041127e-06, -2.524081310184556e-06, -1.9051681192649994e-06, -1.2862547009717673e-06, -6.673435564152896e-07, -4.8430365495732985e-08, 5.704828254238237e-07, 1.1893960163433803e-06, 1.808309207262937e-06, 2.4272223981824936e-06, 3.0461355891020503e-06, 3.6650490073952824e-06, 4.283961970941164e-06, 4.902874934487045e-06, 5.521788352780277e-06, 6.140701771073509e-06, 6.75961473461939e-06, 7.3785276981652714e-06, 7.997441571205854e-06, 8.616354534751736e-06, 9.235267498297617e-06, 9.854180461843498e-06, 1.047309342538938e-05, 1.1092007298429962e-05, 1.1710920261975843e-05, 1.2329833225521725e-05, 1.2948747098562308e-05, 1.3567660062108189e-05, 1.418657302565407e-05, 1.4805485989199951e-05, 1.5424398952745833e-05, 1.6043311916291714e-05, 1.6662226698827e-05, 1.728113966237288e-05, 1.790005262591876e-05, 1.8518965589464642e-05, 1.9137878553010523e-05]}, "gradients/net.0.bias": {"_type": "histogram", "values": [1.0, 0.0, 0.0, 0.0, 0.0, 0.0, 0.0, 0.0, 2.0, 1.0, 2.0, 2.0, 3.0, 4.0, 2.0, 2.0, 0.0, 1.0, 8.0, 9.0, 2.0, 7.0, 9.0, 7.0, 6.0, 8.0, 6.0, 12.0, 9.0, 6.0, 8.0, 6.0, 13.0, 13.0, 10.0, 13.0, 13.0, 7.0, 3.0, 5.0, 6.0, 9.0, 7.0, 7.0, 3.0, 3.0, 3.0, 2.0, 5.0, 2.0, 2.0, 0.0, 1.0, 0.0, 1.0, 1.0, 0.0, 0.0, 1.0, 0.0, 1.0, 1.0, 0.0, 1.0], "bins": [-5.158118801773526e-05, -4.994530536350794e-05, -4.8309422709280625e-05, -4.667354005505331e-05, -4.503765740082599e-05, -4.340177110861987e-05, -4.176588845439255e-05, -4.0130005800165236e-05, -3.849412314593792e-05, -3.68582404917106e-05, -3.522235783748329e-05, -3.358647518325597e-05, -3.1950592529028654e-05, -3.0314708055811934e-05, -2.8678825401584618e-05, -2.7042940928367898e-05, -2.5407060093129985e-05, -2.377117743890267e-05, -2.2135294784675352e-05, -2.0499410311458632e-05, -1.8863527657231316e-05, -1.7227645003004e-05, -1.5591762348776683e-05, -1.3955878785054665e-05, -1.2319996130827349e-05, -1.0684113476600032e-05, -9.048229912878014e-06, -7.412347258650698e-06, -5.7764641496760305e-06, -4.140581040701363e-06, -2.504698386474047e-06, -8.688148227520287e-07, 7.670678314752877e-07, 2.402950940449955e-06, 4.038834049424622e-06, 5.674716703651939e-06, 7.310599812626606e-06, 8.946482921601273e-06, 1.058236557582859e-05, 1.2218249139550608e-05, 1.3854131793777924e-05, 1.5490015357499942e-05, 1.712589801172726e-05, 1.8761780665954575e-05, 2.039766332018189e-05, 2.2033545974409208e-05, 2.3669428628636524e-05, 2.5305313101853244e-05, 2.694119575608056e-05, 2.8577078410307877e-05, 3.0212961064535193e-05, 3.184884553775191e-05, 3.348472819197923e-05, 3.5120610846206546e-05, 3.675649350043386e-05, 3.839237615466118e-05, 4.0028258808888495e-05, 4.166414146311581e-05, 4.330002411734313e-05, 4.4935906771570444e-05, 4.657178942579776e-05, 4.820767208002508e-05, 4.984355473425239e-05, 5.147944102645852e-05, 5.311532368068583e-05]}, "gradients/net.0.weight": {"_type": "histogram", "values": [1.0, 0.0, 2.0, 0.0, 0.0, 2.0, 0.0, 2.0, 1.0, 4.0, 4.0, 3.0, 4.0, 10.0, 11.0, 6.0, 16.0, 11.0, 28.0, 29.0, 41.0, 53.0, 50.0, 65.0, 96.0, 111.0, 146.0, 196.0, 212.0, 270.0, 264.0, 238.0, 231.0, 178.0, 161.0, 136.0, 114.0, 79.0, 62.0, 47.0, 33.0, 33.0, 30.0, 27.0, 15.0, 15.0, 9.0, 6.0, 4.0, 3.0, 2.0, 6.0, 1.0, 1.0, 1.0, 0.0, 1.0, 0.0, 0.0, 0.0, 0.0, 0.0, 0.0, 1.0], "bins": [-5.99165796302259e-05, -5.796238110633567e-05, -5.600818258244544e-05, -5.4053984058555216e-05, -5.209978553466499e-05, -5.014558701077476e-05, -4.819139212486334e-05, -4.6237193600973114e-05, -4.428299507708289e-05, -4.232879655319266e-05, -4.037459802930243e-05, -3.8420399505412206e-05, -3.6466204619500786e-05, -3.451200609561056e-05, -3.255780757172033e-05, -3.0603609047830105e-05, -2.8649410523939878e-05, -2.669521200004965e-05, -2.4741013476159424e-05, -2.27868167712586e-05, -2.0832618247368373e-05, -1.8878419723478146e-05, -1.6924223018577322e-05, -1.4970024494687095e-05, -1.3015825970796868e-05, -1.1061627446906641e-05, -9.107429832511116e-06, -7.15323176336824e-06, -5.1990336942253634e-06, -3.2448351703351364e-06, -1.290637555939611e-06, 6.635600584559143e-07, 2.617751306388527e-06, 4.571949375531403e-06, 6.5261474446742795e-06, 8.480345059069805e-06, 1.0434543582960032e-05, 1.2388742106850259e-05, 1.4342939721245784e-05, 1.629713733564131e-05, 1.8251335859531537e-05, 2.0205534383421764e-05, 2.215973290731199e-05, 2.4113929612212814e-05, 2.606812813610304e-05, 2.802232665999327e-05, 2.9976523364894092e-05, 3.193072188878432e-05, 3.3884920412674546e-05, 3.583911893656477e-05, 3.7793317460455e-05, 3.974751598434523e-05, 4.1701714508235455e-05, 4.365591303212568e-05, 4.56101079180371e-05, 4.756430644192733e-05, 4.9518504965817556e-05, 5.147270348970778e-05, 5.342690201359801e-05, 5.538110053748824e-05, 5.733529542339966e-05, 5.9289493947289884e-05, 6.124369247118011e-05, 6.319789099507034e-05, 6.515208951896057e-05]}, "_wandb": {"runtime": 389}}