{"train_loss": 2.631360302984831e-07, "train_grad": 2.7783398763858713e-06, "train_H": 1.7552864619574393e-06, "test_loss": 2.811620731790754e-07, "test_grad": 2.945230789919151e-06, "test_h": 0, "test_H": 1.8741116036835592e-06, "_timestamp": 1717580060.0590181, "_runtime": 22.090944051742554, "_step": 499, "gradients/NN.net.2.bias": {"_type": "histogram", "values": [0.0, 0.0, 0.0, 0.0, 0.0, 0.0, 0.0, 0.0, 0.0, 0.0, 0.0, 0.0, 0.0, 0.0, 0.0, 0.0, 0.0, 0.0, 0.0, 0.0, 0.0, 0.0, 0.0, 0.0, 0.0, 0.0, 0.0, 0.0, 0.0, 0.0, 0.0, 0.0, 1.0, 0.0, 0.0, 0.0, 0.0, 0.0, 0.0, 0.0, 0.0, 0.0, 0.0, 0.0, 0.0, 0.0, 0.0, 0.0, 0.0, 0.0, 0.0, 0.0, 0.0, 0.0, 0.0, 0.0, 0.0, 0.0, 0.0, 0.0, 0.0, 0.0, 0.0, 0.0], "bins": [-6.200443749548867e-07, -6.200443749548867e-07, -6.200443749548867e-07, -6.200443749548867e-07, -6.200443749548867e-07, -6.200443749548867e-07, -6.200443749548867e-07, -6.200443749548867e-07, -6.200443749548867e-07, -6.200443749548867e-07, -6.200443749548867e-07, -6.200443749548867e-07, -6.200443749548867e-07, -6.200443749548867e-07, -6.200443749548867e-07, -6.200443749548867e-07, -6.200443749548867e-07, -6.200443749548867e-07, -6.200443749548867e-07, -6.200443749548867e-07, -6.200443749548867e-07, -6.200443749548867e-07, -6.200443749548867e-07, -6.200443749548867e-07, -6.200443749548867e-07, -6.200443749548867e-07, -6.200443749548867e-07, -6.200443749548867e-07, -6.200443749548867e-07, -6.200443749548867e-07, -6.200443749548867e-07, -6.200443749548867e-07, -6.200443749548867e-07, -6.200443749548867e-07, -6.200443749548867e-07, -6.200443749548867e-07, -6.200443749548867e-07, -6.200443749548867e-07, -6.200443749548867e-07, -6.200443749548867e-07, -6.200443749548867e-07, -6.200443749548867e-07, -6.200443749548867e-07, -6.200443749548867e-07, -6.200443749548867e-07, -6.200443749548867e-07, -6.200443749548867e-07, -6.200443749548867e-07, -6.200443749548867e-07, -6.200443749548867e-07, -6.200443749548867e-07, -6.200443749548867e-07, -6.200443749548867e-07, -6.200443749548867e-07, -6.200443749548867e-07, -6.200443749548867e-07, -6.200443749548867e-07, -6.200443749548867e-07, -6.200443749548867e-07, -6.200443749548867e-07, -6.200443749548867e-07, -6.200443749548867e-07, -6.200443749548867e-07, -6.200443749548867e-07, -6.200443749548867e-07]}, "gradients/NN.net.2.weight": {"_type": "histogram", "values": [1.0, 1.0, 0.0, 1.0, 0.0, 0.0, 0.0, 3.0, 2.0, 3.0, 1.0, 1.0, 4.0, 4.0, 4.0, 6.0, 8.0, 4.0, 7.0, 13.0, 7.0, 12.0, 11.0, 12.0, 11.0, 15.0, 17.0, 19.0, 14.0, 11.0, 10.0, 22.0, 15.0, 15.0, 12.0, 16.0, 12.0, 13.0, 15.0, 17.0, 12.0, 14.0, 10.0, 15.0, 12.0, 11.0, 9.0, 11.0, 6.0, 10.0, 11.0, 10.0, 8.0, 7.0, 3.0, 3.0, 5.0, 3.0, 3.0, 1.0, 3.0, 1.0, 0.0, 5.0], "bins": [-3.0209828764782287e-05, -2.933456198661588e-05, -2.8459295208449475e-05, -2.758402843028307e-05, -2.670875983312726e-05, -2.5833493054960854e-05, -2.495822627679445e-05, -2.4082959498628043e-05, -2.3207692720461637e-05, -2.233242594229523e-05, -2.1457159164128825e-05, -2.0581890566973016e-05, -1.970662378880661e-05, -1.8831357010640204e-05, -1.7956090232473798e-05, -1.7080823454307392e-05, -1.6205554857151583e-05, -1.5330288078985177e-05, -1.445502039132407e-05, -1.3579753613157663e-05, -1.2704485925496556e-05, -1.182921914733015e-05, -1.0953952369163744e-05, -1.0078685590997338e-05, -9.20341790333623e-06, -8.328151125169825e-06, -7.452883437508717e-06, -6.577616659342311e-06, -5.702349426428555e-06, -4.827082193514798e-06, -3.951815415348392e-06, -3.0765481824346352e-06, -2.201282768510282e-06, -1.326015649283363e-06, -4.50748530056444e-07, 4.245184754836373e-07, 1.299785708397394e-06, 2.175052941311151e-06, 3.0503197194775566e-06, 3.925586952391313e-06, 4.80085418530507e-06, 5.676121418218827e-06, 6.551388651132584e-06, 7.4266554292989895e-06, 8.301922207465395e-06, 9.177189895126503e-06, 1.0052456673292909e-05, 1.0927724360954016e-05, 1.1802991139120422e-05, 1.2678257917286828e-05, 1.3553525604947936e-05, 1.4428792383114342e-05, 1.530406007077545e-05, 1.6179326848941855e-05, 1.705459362710826e-05, 1.7929860405274667e-05, 1.8805127183441073e-05, 1.968039396160748e-05, 2.0555660739773884e-05, 2.1430929336929694e-05, 2.23061961150961e-05, 2.3181462893262506e-05, 2.405672967142891e-05, 2.4931996449595317e-05, 2.5807265046751127e-05]}, "gradients/NN.net.0.bias": {"_type": "histogram", "values": [1.0, 0.0, 1.0, 1.0, 1.0, 2.0, 1.0, 0.0, 0.0, 5.0, 2.0, 2.0, 3.0, 7.0, 9.0, 3.0, 4.0, 6.0, 7.0, 11.0, 10.0, 16.0, 14.0, 27.0, 23.0, 20.0, 30.0, 37.0, 43.0, 29.0, 29.0, 35.0, 23.0, 18.0, 10.0, 11.0, 13.0, 8.0, 7.0, 9.0, 5.0, 5.0, 3.0, 0.0, 5.0, 6.0, 2.0, 1.0, 1.0, 2.0, 1.0, 0.0, 0.0, 0.0, 1.0, 0.0, 1.0, 0.0, 0.0, 0.0, 0.0, 0.0, 0.0, 1.0], "bins": [-1.398248969053384e-06, -1.3486431953424471e-06, -1.2990373079446726e-06, -1.2494315342337359e-06, -1.1998256468359614e-06, -1.1502198731250246e-06, -1.1006140994140878e-06, -1.0510082120163133e-06, -1.0014023246185388e-06, -9.517964940641832e-07, -9.021906635098276e-07, -8.525848897988908e-07, -8.029790024011163e-07, -7.533732286901795e-07, -7.037673981358239e-07, -6.541615675814683e-07, -6.045557938705315e-07, -5.549499633161759e-07, -5.053441327618202e-07, -4.55738330629174e-07, -4.061325000748184e-07, -3.5652666952046275e-07, -3.0692086738781654e-07, -2.573150368334609e-07, -2.0770920627910527e-07, -1.5810337572474964e-07, -1.0849755938124872e-07, -5.88917430377478e-08, -9.285912483392167e-09, 4.031991807096347e-08, 8.992572020360967e-08, 1.395315507579653e-07, 1.8913726762548322e-07, 2.3874309817983885e-07, 2.883489287341945e-07, 3.379547308668407e-07, 3.875605614211963e-07, 4.3716639197555196e-07, 4.867721941081982e-07, 5.363780246625538e-07, 5.859838552169094e-07, 6.355896857712651e-07, 6.851955163256207e-07, 7.348013468799763e-07, 7.844071205909131e-07, 8.340130079886876e-07, 8.836187816996244e-07, 9.3322461225398e-07, 9.828304428083356e-07, 1.0324362165192724e-06, 1.082042103917047e-06, 1.1316478776279837e-06, 1.1812537650257582e-06, 1.230859538736695e-06, 1.2804653124476317e-06, 1.3300711998454062e-06, 1.3796770872431807e-06, 1.4292828609541175e-06, 1.478888748351892e-06, 1.5284945220628288e-06, 1.5781004094606033e-06, 1.62770618317154e-06, 1.6773119568824768e-06, 1.7269178442802513e-06, 1.776523617991188e-06]}, "gradients/NN.net.0.weight": {"_type": "histogram", "values": [2.0, 1.0, 0.0, 1.0, 2.0, 2.0, 2.0, 2.0, 6.0, 4.0, 7.0, 9.0, 9.0, 15.0, 13.0, 21.0, 33.0, 35.0, 43.0, 45.0, 75.0, 69.0, 102.0, 111.0, 150.0, 164.0, 188.0, 236.0, 258.0, 485.0, 387.0, 279.0, 255.0, 193.0, 169.0, 128.0, 104.0, 92.0, 76.0, 54.0, 69.0, 43.0, 29.0, 29.0, 23.0, 23.0, 12.0, 5.0, 10.0, 5.0, 5.0, 4.0, 3.0, 4.0, 2.0, 0.0, 0.0, 1.0, 0.0, 1.0, 0.0, 0.0, 0.0, 1.0], "bins": [-1.7165273675345816e-05, -1.6592564861639403e-05, -1.6019857866922393e-05, -1.544714905321598e-05, -1.4874440239509568e-05, -1.4301732335297856e-05, -1.3729024431086145e-05, -1.3156315617379732e-05, -1.2583607713168021e-05, -1.201089980895631e-05, -1.1438190995249897e-05, -1.0865483091038186e-05, -1.0292775186826475e-05, -9.720066373120062e-06, -9.147358468908351e-06, -8.57465056469664e-06, -8.001941750990227e-06, -7.429233392031165e-06, -6.856525033072103e-06, -6.283817128860392e-06, -5.71110876990133e-06, -5.138400410942268e-06, -4.5656925067305565e-06, -3.9929841477714945e-06, -3.4202757888124324e-06, -2.8475674298533704e-06, -2.274859298267984e-06, -1.7021510529957595e-06, -1.1294428077235352e-06, -5.567344487644732e-07, 1.5973682820913382e-08, 5.886818144063e-07, 1.1613883543759584e-06, 1.7340965996481827e-06, 2.306804844920407e-06, 2.8795129765057936e-06, 3.4522213354648557e-06, 4.024929694423918e-06, 4.597637598635629e-06, 5.170345957594691e-06, 5.743054316553753e-06, 6.315762675512815e-06, 6.888471034471877e-06, 7.461178938683588e-06, 8.0338868428953e-06, 8.606595656601712e-06, 9.179303560813423e-06, 9.752011465025134e-06, 1.0324720278731547e-05, 1.0897428182943258e-05, 1.1470136996649671e-05, 1.2042844900861382e-05, 1.2615553714567795e-05, 1.3188261618779507e-05, 1.3760969522991218e-05, 1.433367833669763e-05, 1.4906386240909342e-05, 1.5479094145121053e-05, 1.6051802958827466e-05, 1.662451177253388e-05, 1.7197218767250888e-05, 1.77699275809573e-05, 1.8342636394663714e-05, 1.8915343389380723e-05, 1.9488052203087136e-05]}, "_wandb": {"runtime": 21}}