{"train_loss_d1": 0.09593980014324188, "train_H_d1": 0.19320937991142273, "test_loss_d1": 0.06465727090835571, "test_H_d1": 0.18188166618347168, "_timestamp": 1723059238.2248259, "_runtime": 7289.744095802307, "_step": 399, "parameters/net.0.NN.weight": {"_type": "histogram", "values": [1.0, 0.0, 0.0, 0.0, 0.0, 1.0, 0.0, 0.0, 0.0, 2.0, 0.0, 0.0, 0.0, 0.0, 0.0, 0.0, 0.0, 0.0, 0.0, 1.0, 0.0, 0.0, 1.0, 0.0, 1.0, 1.0, 0.0, 0.0, 2.0, 2.0, 2.0, 3.0, 6.0, 7.0, 100.0, 102.0, 5.0, 2.0, 2.0, 4.0, 1.0, 0.0, 3.0, 2.0, 3.0, 0.0, 0.0, 0.0, 0.0, 0.0, 0.0, 0.0, 0.0, 1.0, 0.0, 0.0, 0.0, 0.0, 0.0, 0.0, 0.0, 0.0, 0.0, 1.0], "bins": [-1.0311678647994995, -1.0014278888702393, -0.9716877937316895, -0.9419477581977844, -0.9122077226638794, -0.8824677467346191, -0.8527277112007141, -0.8229876756668091, -0.793247640132904, -0.763507604598999, -0.733767569065094, -0.704027533531189, -0.6742875576019287, -0.6445475220680237, -0.6148074865341187, -0.5850674510002136, -0.5553274154663086, -0.5255873799324036, -0.49584734439849854, -0.4661073386669159, -0.43636730313301086, -0.40662726759910583, -0.3768872618675232, -0.34714722633361816, -0.31740719079971313, -0.2876671552658081, -0.2579271197319031, -0.22818711400032043, -0.1984470784664154, -0.16870704293251038, -0.13896702229976654, -0.10922699421644211, -0.07948702573776245, -0.04974699765443802, -0.020006969571113586, 0.009733058512210846, 0.03947308659553528, 0.06921311467885971, 0.09895314276218414, 0.12869316339492798, 0.158433198928833, 0.18817323446273804, 0.21791325509548187, 0.2476532757282257, 0.27739331126213074, 0.30713334679603577, 0.3368733525276184, 0.36661338806152344, 0.39635342359542847, 0.4260934591293335, 0.4558334946632385, 0.48557350039482117, 0.5153135061264038, 0.5450535416603088, 0.5747935771942139, 0.6045336127281189, 0.6342736482620239, 0.664013683795929, 0.693753719329834, 0.723493754863739, 0.753233790397644, 0.7829737663269043, 0.8127138018608093, 0.8424538373947144, 0.8721938729286194]}, "parameters/net.0.NN.bias": {"_type": "histogram", "values": [1.0, 0.0, 0.0, 0.0, 1.0, 2.0, 1.0, 0.0, 1.0, 1.0, 0.0, 1.0, 0.0, 1.0, 0.0, 1.0, 0.0, 0.0, 0.0, 0.0, 0.0, 0.0, 0.0, 1.0, 8.0, 14.0, 10.0, 9.0, 8.0, 5.0, 2.0, 2.0, 0.0, 2.0, 4.0, 3.0, 1.0, 2.0, 2.0, 7.0, 14.0, 10.0, 6.0, 4.0, 0.0, 0.0, 0.0, 0.0, 0.0, 0.0, 0.0, 0.0, 1.0, 0.0, 0.0, 0.0, 0.0, 0.0, 0.0, 0.0, 0.0, 1.0, 0.0, 2.0], "bins": [-1.1204218864440918, -1.0871667861938477, -1.053911805152893, -1.0206568241119385, -0.9874017238616943, -0.954146683216095, -0.9208916425704956, -0.8876366019248962, -0.8543815612792969, -0.8211265206336975, -0.7878714799880981, -0.7546164393424988, -0.7213613986968994, -0.6881063580513, -0.6548513174057007, -0.6215962767601013, -0.588341236114502, -0.5550861954689026, -0.5218311548233032, -0.48857611417770386, -0.4553210735321045, -0.4220660328865051, -0.38881099224090576, -0.3555559515953064, -0.32230091094970703, -0.28904587030410767, -0.2557908296585083, -0.22253578901290894, -0.18928074836730957, -0.1560257077217102, -0.12277066707611084, -0.08951562643051147, -0.05626046657562256, -0.023005425930023193, 0.010249614715576172, 0.04350465536117554, 0.0767596960067749, 0.11001473665237427, 0.14326977729797363, 0.176524817943573, 0.20977985858917236, 0.24303489923477173, 0.2762899398803711, 0.30954498052597046, 0.3428000211715698, 0.3760550618171692, 0.40931010246276855, 0.4425651431083679, 0.4758201837539673, 0.5090752243995667, 0.542330265045166, 0.5755853056907654, 0.6088403463363647, 0.6420953869819641, 0.6753504276275635, 0.7086054682731628, 0.7418605089187622, 0.7751155495643616, 0.8083705902099609, 0.8416256308555603, 0.8748806715011597, 0.908135712146759, 0.9413907527923584, 0.9746457934379578, 1.0079008340835571]}, "parameters/net.2.NN.weight": {"_type": "histogram", "values": [2.0, 0.0, 4.0, 1.0, 1.0, 0.0, 1.0, 4.0, 1.0, 1.0, 5.0, 1.0, 2.0, 3.0, 7.0, 11.0, 14.0, 15.0, 21.0, 33.0, 33.0, 42.0, 38.0, 34.0, 32.0, 31.0, 23.0, 17.0, 15.0, 10.0, 14.0, 11.0, 24.0, 21.0, 17.0, 25.0, 28.0, 34.0, 29.0, 28.0, 24.0, 20.0, 16.0, 12.0, 6.0, 10.0, 6.0, 5.0, 3.0, 1.0, 3.0, 5.0, 3.0, 3.0, 4.0, 3.0, 4.0, 2.0, 1.0, 0.0, 2.0, 0.0, 0.0, 2.0], "bins": [-0.8208266496658325, -0.7929501533508301, -0.7650737166404724, -0.73719722032547, -0.7093207836151123, -0.6814442873001099, -0.6535678505897522, -0.6256913542747498, -0.5978149175643921, -0.5699384212493896, -0.542061984539032, -0.5141854882240295, -0.4863090217113495, -0.45843255519866943, -0.4305560886859894, -0.4026796221733093, -0.3748031556606293, -0.3469266891479492, -0.31905022263526917, -0.2911737561225891, -0.26329728960990906, -0.2354208081960678, -0.20754434168338776, -0.1796678751707077, -0.15179140865802765, -0.1239149421453476, -0.09603847563266754, -0.06816200166940689, -0.04028553515672684, -0.012409066781401634, 0.015467401593923569, 0.04334387183189392, 0.07122033834457397, 0.09909680485725403, 0.12697327136993408, 0.15484973788261414, 0.1827262043952942, 0.21060268580913544, 0.2384791523218155, 0.26635560393333435, 0.2942320704460144, 0.32210856676101685, 0.3499850332736969, 0.37786149978637695, 0.405737966299057, 0.43361443281173706, 0.4614908993244171, 0.48936736583709717, 0.5172438621520996, 0.5451202988624573, 0.5729967951774597, 0.6008732318878174, 0.6287497282028198, 0.6566261649131775, 0.6845026612281799, 0.7123790979385376, 0.74025559425354, 0.7681320309638977, 0.7960085272789001, 0.8238849639892578, 0.8517614603042603, 0.8796378970146179, 0.9075143933296204, 0.935390830039978, 0.9632673263549805]}, "parameters/net.2.NN.bias": {"_type": "histogram", "values": [6.0], "bins": [0.1546163558959961, 0.1546163558959961]}, "gradients/net.2.NN.bias": {"_type": "histogram", "values": [6.0], "bins": [-0.002059776335954666, -0.002059776335954666]}, "gradients/net.2.NN.weight": {"_type": "histogram", "values": [6.0, 0.0, 0.0, 0.0, 6.0, 0.0, 0.0, 0.0, 0.0, 0.0, 0.0, 0.0, 0.0, 0.0, 0.0, 0.0, 6.0, 0.0, 0.0, 12.0, 0.0, 0.0, 0.0, 0.0, 0.0, 6.0, 0.0, 6.0, 6.0, 78.0, 276.0, 276.0, 6.0, 36.0, 6.0, 6.0, 12.0, 0.0, 6.0, 0.0, 6.0, 0.0, 0.0, 0.0, 0.0, 0.0, 0.0, 0.0, 0.0, 0.0, 0.0, 0.0, 0.0, 0.0, 0.0, 0.0, 0.0, 0.0, 0.0, 0.0, 6.0, 0.0, 0.0, 6.0], "bins": [-0.01153269037604332, -0.011158009991049767, -0.010783329606056213, -0.01040864922106266, -0.010033968836069107, -0.009659288451075554, -0.009284608066082, -0.008909927681088448, -0.008535247296094894, -0.008160565979778767, -0.007785886060446501, -0.007411205675452948, -0.007036524824798107, -0.006661844439804554, -0.006287164054811001, -0.005912483669817448, -0.0055378032848238945, -0.005163122899830341, -0.004788442514836788, -0.004413762129843235, -0.004039081744849682, -0.003664401127025485, -0.0032897205092012882, -0.002915040124207735, -0.002540359739214182, -0.0021656793542206287, -0.0017909988528117537, -0.0014163183514028788, -0.0010416379664093256, -0.0006669575232081115, -0.00029227708000689745, 8.240336319431663e-05, 0.0004570828750729561, 0.0008317633182741702, 0.0012064437614753842, 0.0015811242628842592, 0.0019558046478778124, 0.0023304850328713655, 0.0027051656506955624, 0.0030798460356891155, 0.0034545264206826687, 0.003829206805676222, 0.004203887190669775, 0.004578567575663328, 0.004953248426318169, 0.005327928811311722, 0.005702609196305275, 0.006077289581298828, 0.006451969966292381, 0.0068266503512859344, 0.007201330736279488, 0.007576011121273041, 0.007950691506266594, 0.008325371891260147, 0.0087000522762537, 0.009074732661247253, 0.009449413046240807, 0.009824094362556934, 0.010198774747550488, 0.01057345513254404, 0.010948135517537594, 0.011322815902531147, 0.0116974962875247, 0.012072176672518253, 0.012446857057511806]}, "gradients/net.0.NN.bias": {"_type": "histogram", "values": [1.0, 0.0, 0.0, 0.0, 0.0, 0.0, 1.0, 0.0, 0.0, 0.0, 0.0, 0.0, 0.0, 0.0, 0.0, 0.0, 0.0, 0.0, 0.0, 0.0, 6.0, 16.0, 11.0, 8.0, 7.0, 1.0, 5.0, 4.0, 5.0, 3.0, 13.0, 20.0, 11.0, 9.0, 1.0, 2.0, 0.0, 0.0, 0.0, 0.0, 0.0, 0.0, 0.0, 0.0, 0.0, 1.0, 0.0, 1.0, 0.0, 0.0, 0.0, 0.0, 0.0, 0.0, 0.0, 0.0, 0.0, 0.0, 1.0, 0.0, 0.0, 0.0, 0.0, 1.0], "bins": [-0.0160907581448555, -0.01549937017261982, -0.01490798220038414, -0.01431659422814846, -0.01372520625591278, -0.013133817352354527, -0.012542429380118847, -0.011951041407883167, -0.011359653435647488, -0.010768265463411808, -0.010176877491176128, -0.009585489518940449, -0.008994100615382195, -0.008402712643146515, -0.007811324670910835, -0.007219936698675156, -0.006628548726439476, -0.006037160754203796, -0.005445772781968117, -0.00485438434407115, -0.00426299637183547, -0.0036716083995997906, -0.0030802201945334673, -0.002488831989467144, -0.0018974440172314644, -0.001306055928580463, -0.0007146678399294615, -0.00012327975127846003, 0.00046810833737254143, 0.0010594964260235429, 0.0016508845146745443, 0.0022422727197408676, 0.0028336606919765472, 0.003425048664212227, 0.0040164366364479065, 0.004607825074344873, 0.005199213046580553, 0.005790601018816233, 0.0063819894567132, 0.006973377428948879, 0.007564765401184559, 0.008156153373420238, 0.008747541345655918, 0.009338929317891598, 0.009930318221449852, 0.010521706193685532, 0.011113094165921211, 0.011704482138156891, 0.01229587011039257, 0.01288725808262825, 0.01347864605486393, 0.01407003402709961, 0.014661421999335289, 0.015252810902893543, 0.015844197943806648, 0.016435585916042328, 0.017026975750923157, 0.017618363723158836, 0.018209751695394516, 0.018801139667630196, 0.019392527639865875, 0.019983915612101555, 0.020575303584337234, 0.021166691556572914, 0.021758079528808594]}, "gradients/net.0.NN.weight": {"_type": "histogram", "values": [1.0, 0.0, 0.0, 0.0, 0.0, 0.0, 0.0, 0.0, 0.0, 0.0, 0.0, 0.0, 0.0, 0.0, 0.0, 0.0, 0.0, 1.0, 0.0, 1.0, 1.0, 3.0, 10.0, 13.0, 8.0, 19.0, 20.0, 20.0, 13.0, 8.0, 3.0, 3.0, 4.0, 8.0, 19.0, 30.0, 20.0, 21.0, 9.0, 13.0, 3.0, 0.0, 1.0, 2.0, 0.0, 0.0, 1.0, 0.0, 0.0, 0.0, 0.0, 0.0, 0.0, 0.0, 0.0, 0.0, 0.0, 0.0, 0.0, 0.0, 0.0, 0.0, 0.0, 1.0], "bins": [-0.10598213970661163, -0.10260653495788574, -0.09923092275857925, -0.09585531800985336, -0.09247970581054688, -0.08910410106182098, -0.08572849631309509, -0.0823528841137886, -0.07897727936506271, -0.07560167461633682, -0.07222606241703033, -0.06885045766830444, -0.06547485291957855, -0.062099240720272064, -0.05872363597154617, -0.055348027497529984, -0.051972419023513794, -0.048596810549497604, -0.045221202075481415, -0.041845597326755524, -0.038469988852739334, -0.035094380378723145, -0.03171877562999725, -0.028343167155981064, -0.024967558681964874, -0.021591950207948685, -0.018216343596577644, -0.01484073605388403, -0.011465128511190414, -0.0080895209684968, -0.0047139134258031845, -0.0013383058831095695, 0.0020373016595840454, 0.00541290920227766, 0.008788516744971275, 0.01216412428766489, 0.015539731830358505, 0.018915340304374695, 0.022290946915745735, 0.025666553527116776, 0.029042162001132965, 0.032417770475149155, 0.035793378949165344, 0.039168983697891235, 0.042544592171907425, 0.045920200645923615, 0.049295805394649506, 0.052671413868665695, 0.056047022342681885, 0.059422630816698074, 0.06279823929071426, 0.06617384403944016, 0.06954945623874664, 0.07292506098747253, 0.07630066573619843, 0.07967627793550491, 0.0830518826842308, 0.0864274874329567, 0.08980309963226318, 0.09317870438098907, 0.09655430912971497, 0.09992992132902145, 0.10330552607774734, 0.10668113827705383, 0.11005674302577972]}, "train_loss_d2": 3.196951389312744, "train_H_d2": 16.467313766479492, "test_loss_d2": 4.892031669616699, "test_H_d2": 27.70982551574707, "parameters/graph_1net.0.NN.weight": {"_type": "histogram", "values": [1.0, 0.0, 0.0, 0.0, 0.0, 0.0, 1.0, 0.0, 2.0, 0.0, 0.0, 0.0, 0.0, 0.0, 0.0, 0.0, 0.0, 0.0, 0.0, 1.0, 0.0, 0.0, 0.0, 1.0, 1.0, 0.0, 2.0, 2.0, 0.0, 1.0, 0.0, 3.0, 3.0, 6.0, 19.0, 182.0, 8.0, 5.0, 3.0, 3.0, 2.0, 3.0, 2.0, 1.0, 0.0, 0.0, 2.0, 0.0, 0.0, 0.0, 0.0, 0.0, 0.0, 0.0, 0.0, 0.0, 1.0, 0.0, 0.0, 0.0, 0.0, 0.0, 0.0, 1.0], "bins": [-0.8682868480682373, -0.843752920627594, -0.8192189931869507, -0.7946850657463074, -0.7701511383056641, -0.7456172108650208, -0.7210832834243774, -0.6965493559837341, -0.6720154285430908, -0.6474814414978027, -0.6229475140571594, -0.5984135866165161, -0.5738796591758728, -0.5493457317352295, -0.5248118042945862, -0.5002778768539429, -0.47574394941329956, -0.45121002197265625, -0.42667609453201294, -0.40214216709136963, -0.3776082396507263, -0.3530742824077606, -0.3285403549671173, -0.304006427526474, -0.2794725000858307, -0.2549385726451874, -0.23040464520454407, -0.20587070286273956, -0.18133677542209625, -0.15680284798145294, -0.13226890563964844, -0.10773497819900513, -0.08320099115371704, -0.05866705998778343, -0.03413312882184982, -0.009599197655916214, 0.014934733510017395, 0.039468664675951004, 0.06400259584188461, 0.08853653073310852, 0.11307045817375183, 0.13760438561439514, 0.16213831305503845, 0.18667225539684296, 0.21120618283748627, 0.23574011027812958, 0.2602740526199341, 0.2848079800605774, 0.3093419075012207, 0.333875834941864, 0.3584097623825073, 0.38294368982315063, 0.40747761726379395, 0.43201157450675964, 0.45654550194740295, 0.48107942938804626, 0.5056133270263672, 0.5301473140716553, 0.5546812415122986, 0.5792151689529419, 0.6037490963935852, 0.6282830238342285, 0.6528169512748718, 0.6773508787155151, 0.7018848061561584]}, "parameters/graph_1net.0.NN.bias": {"_type": "histogram", "values": [1.0, 0.0, 0.0, 0.0, 0.0, 1.0, 2.0, 0.0, 1.0, 0.0, 1.0, 1.0, 1.0, 0.0, 0.0, 1.0, 0.0, 0.0, 1.0, 0.0, 0.0, 0.0, 0.0, 1.0, 8.0, 15.0, 9.0, 13.0, 5.0, 3.0, 3.0, 0.0, 1.0, 1.0, 4.0, 2.0, 2.0, 2.0, 2.0, 1.0, 5.0, 11.0, 16.0, 4.0, 6.0, 0.0, 0.0, 0.0, 0.0, 0.0, 0.0, 1.0, 0.0, 0.0, 0.0, 0.0, 0.0, 0.0, 0.0, 0.0, 0.0, 0.0, 1.0, 2.0], "bins": [-1.1452538967132568, -1.1118754148483276, -1.0784968137741089, -1.0451183319091797, -1.0117398500442505, -0.9783613085746765, -0.9449828267097473, -0.9116042852401733, -0.8782258033752441, -0.8448472619056702, -0.8114687204360962, -0.778090238571167, -0.744711697101593, -0.7113332152366638, -0.6779546737670898, -0.6445761919021606, -0.6111976504325867, -0.5778191089630127, -0.5444406270980835, -0.5110620856285095, -0.4776836037635803, -0.44430506229400635, -0.41092655062675476, -0.3775480389595032, -0.3441695272922516, -0.310791015625, -0.2774125039577484, -0.24403397738933563, -0.21065546572208405, -0.17727695405483246, -0.14389842748641968, -0.11051991581916809, -0.07714146375656128, -0.043762948364019394, -0.010384432971477509, 0.022994082421064377, 0.05637259781360626, 0.08975110948085785, 0.12312962859869003, 0.15650814771652222, 0.1898866593837738, 0.2232651710510254, 0.256643682718277, 0.29002219438552856, 0.32340073585510254, 0.3567792475223541, 0.3901577591896057, 0.4235362708568573, 0.4569147825241089, 0.4902932941913605, 0.5236718058586121, 0.557050347328186, 0.5904288291931152, 0.6238073706626892, 0.6571858525276184, 0.6905643939971924, 0.7239428758621216, 0.7573214173316956, 0.7906999588012695, 0.8240784406661987, 0.8574569821357727, 0.8908354640007019, 0.9242140054702759, 0.9575924873352051, 0.990971028804779]}, "parameters/graph_1net.2.NN.weight": {"_type": "histogram", "values": [2.0, 1.0, 1.0, 3.0, 1.0, 0.0, 2.0, 3.0, 2.0, 3.0, 5.0, 5.0, 7.0, 9.0, 15.0, 18.0, 18.0, 35.0, 33.0, 35.0, 34.0, 27.0, 23.0, 40.0, 23.0, 22.0, 13.0, 10.0, 7.0, 14.0, 14.0, 12.0, 15.0, 17.0, 21.0, 20.0, 25.0, 28.0, 34.0, 27.0, 24.0, 20.0, 15.0, 14.0, 11.0, 6.0, 10.0, 8.0, 3.0, 5.0, 5.0, 4.0, 2.0, 2.0, 2.0, 5.0, 2.0, 1.0, 1.0, 0.0, 2.0, 0.0, 0.0, 2.0], "bins": [-0.7370591163635254, -0.7113795876502991, -0.6857000589370728, -0.6600205302238464, -0.6343410015106201, -0.6086615324020386, -0.5829820036888123, -0.5573024749755859, -0.5316229462623596, -0.5059434175491333, -0.480263888835907, -0.45458438992500305, -0.42890486121177673, -0.4032253324985504, -0.3775458335876465, -0.35186630487442017, -0.32618677616119385, -0.30050724744796753, -0.2748277187347412, -0.24914821982383728, -0.22346869111061096, -0.19778916239738464, -0.17210964858531952, -0.1464301347732544, -0.12075060606002808, -0.09507108479738235, -0.06939156353473663, -0.04371204227209091, -0.01803252100944519, 0.007647000253200531, 0.03332652151584625, 0.059006042778491974, 0.08468550443649292, 0.11036502569913864, 0.13604454696178436, 0.1617240607738495, 0.1874035894870758, 0.21308311820030212, 0.23876263201236725, 0.2644421458244324, 0.2901216745376587, 0.315801203250885, 0.34148073196411133, 0.36716023087501526, 0.3928397595882416, 0.4185192883014679, 0.4441987872123718, 0.46987831592559814, 0.49555784463882446, 0.5212373733520508, 0.5469169020652771, 0.5725964307785034, 0.598275899887085, 0.6239554286003113, 0.6496349573135376, 0.6753144860267639, 0.7009940147399902, 0.7266735434532166, 0.7523530721664429, 0.7780326008796692, 0.8037121295928955, 0.829391598701477, 0.8550711274147034, 0.8807506561279297, 0.906430184841156]}, "parameters/graph_1net.2.NN.bias": {"_type": "histogram", "values": [6.0], "bins": [0.1805340200662613, 0.1805340200662613]}, "gradients/graph_1net.2.NN.bias": {"_type": "histogram", "values": [2.0, 0.0, 0.0, 0.0, 0.0, 0.0, 0.0, 0.0, 0.0, 0.0, 0.0, 0.0, 0.0, 0.0, 0.0, 0.0, 0.0, 0.0, 0.0, 0.0, 0.0, 0.0, 0.0, 0.0, 0.0, 0.0, 0.0, 0.0, 0.0, 0.0, 0.0, 0.0, 0.0, 0.0, 0.0, 0.0, 0.0, 0.0, 0.0, 0.0, 0.0, 0.0, 0.0, 0.0, 0.0, 0.0, 0.0, 0.0, 0.0, 0.0, 0.0, 0.0, 0.0, 0.0, 0.0, 0.0, 0.0, 0.0, 0.0, 0.0, 0.0, 0.0, 0.0, 4.0], "bins": [0.29999998211860657, 0.29999998211860657, 0.29999998211860657, 0.29999998211860657, 0.29999998211860657, 0.29999998211860657, 0.29999998211860657, 0.29999998211860657, 0.29999998211860657, 0.29999998211860657, 0.29999998211860657, 0.29999998211860657, 0.29999998211860657, 0.29999998211860657, 0.29999998211860657, 0.29999998211860657, 0.29999998211860657, 0.29999998211860657, 0.29999998211860657, 0.29999998211860657, 0.29999998211860657, 0.29999998211860657, 0.29999998211860657, 0.29999998211860657, 0.29999998211860657, 0.29999998211860657, 0.29999998211860657, 0.29999998211860657, 0.29999998211860657, 0.29999998211860657, 0.29999998211860657, 0.29999998211860657, 0.30000001192092896, 0.30000001192092896, 0.30000001192092896, 0.30000001192092896, 0.30000001192092896, 0.30000001192092896, 0.30000001192092896, 0.30000001192092896, 0.30000001192092896, 0.30000001192092896, 0.30000001192092896, 0.30000001192092896, 0.30000001192092896, 0.30000001192092896, 0.30000001192092896, 0.30000001192092896, 0.30000001192092896, 0.30000001192092896, 0.30000001192092896, 0.30000001192092896, 0.30000001192092896, 0.30000001192092896, 0.30000001192092896, 0.30000001192092896, 0.30000001192092896, 0.30000001192092896, 0.30000001192092896, 0.30000001192092896, 0.30000001192092896, 0.30000001192092896, 0.30000001192092896, 0.30000001192092896, 0.30000001192092896]}, "gradients/graph_1net.2.NN.weight": {"_type": "histogram", "values": [6.0, 6.0, 6.0, 6.0, 0.0, 12.0, 0.0, 6.0, 6.0, 0.0, 6.0, 0.0, 0.0, 0.0, 0.0, 0.0, 0.0, 6.0, 36.0, 54.0, 60.0, 42.0, 48.0, 54.0, 24.0, 6.0, 12.0, 24.0, 6.0, 0.0, 0.0, 0.0, 0.0, 0.0, 12.0, 0.0, 0.0, 0.0, 6.0, 24.0, 12.0, 12.0, 6.0, 12.0, 36.0, 72.0, 72.0, 12.0, 24.0, 24.0, 0.0, 0.0, 0.0, 0.0, 0.0, 0.0, 0.0, 6.0, 0.0, 0.0, 6.0, 0.0, 0.0, 6.0], "bins": [-0.21451841294765472, -0.20813262462615967, -0.2017468512058258, -0.19536107778549194, -0.1889752894639969, -0.18258950114250183, -0.17620372772216797, -0.1698179543018341, -0.16343216598033905, -0.157046377658844, -0.15066060423851013, -0.14427483081817627, -0.1378890424966812, -0.13150325417518616, -0.1251174807548523, -0.11873169988393784, -0.11234591901302338, -0.10596013814210892, -0.09957435727119446, -0.09318857640028, -0.08680279552936554, -0.08041701465845108, -0.07403123378753662, -0.06764545291662216, -0.0612596720457077, -0.05487389117479324, -0.048488110303878784, -0.042102329432964325, -0.035716548562049866, -0.029330767691135406, -0.022944986820220947, -0.016559205949306488, -0.010173410177230835, -0.0037876293063163757, 0.0025981515645980835, 0.008983932435512543, 0.015369713306427002, 0.02175549417734146, 0.02814127504825592, 0.03452705591917038, 0.04091283679008484, 0.0472986176609993, 0.05368439853191376, 0.06007017940282822, 0.06645596027374268, 0.07284174114465714, 0.0792275220155716, 0.08561330288648605, 0.09199908375740051, 0.09838486462831497, 0.10477064549922943, 0.11115642637014389, 0.11754220724105835, 0.12392798811197281, 0.13031376898288727, 0.13669955730438232, 0.1430853307247162, 0.14947110414505005, 0.1558568924665451, 0.16224268078804016, 0.16862845420837402, 0.17501422762870789, 0.18140001595020294, 0.187785804271698, 0.19417157769203186]}, "gradients/graph_1net.0.NN.bias": {"_type": "histogram", "values": [1.0, 0.0, 1.0, 1.0, 5.0, 3.0, 3.0, 3.0, 3.0, 3.0, 5.0, 4.0, 7.0, 3.0, 1.0, 4.0, 4.0, 2.0, 2.0, 1.0, 0.0, 2.0, 4.0, 0.0, 0.0, 0.0, 2.0, 0.0, 0.0, 0.0, 1.0, 0.0, 0.0, 1.0, 1.0, 0.0, 0.0, 1.0, 1.0, 3.0, 2.0, 0.0, 0.0, 1.0, 1.0, 2.0, 1.0, 2.0, 0.0, 2.0, 1.0, 5.0, 4.0, 3.0, 1.0, 3.0, 3.0, 9.0, 2.0, 4.0, 2.0, 3.0, 2.0, 3.0], "bins": [-0.5974987149238586, -0.5789691209793091, -0.5604395866394043, -0.5419099926948547, -0.52338045835495, -0.5048508644104004, -0.4863213002681732, -0.46779173612594604, -0.44926217198371887, -0.4307326078414917, -0.4122030436992645, -0.39367347955703735, -0.3751438856124878, -0.3566143214702606, -0.33808475732803345, -0.3195551931858063, -0.3010256290435791, -0.28249606490135193, -0.26396650075912476, -0.2454369217157364, -0.22690735757350922, -0.20837779343128204, -0.18984821438789368, -0.1713186502456665, -0.15278908610343933, -0.13425952196121216, -0.11572995036840439, -0.09720037877559662, -0.07867081463336945, -0.060141246765851974, -0.0416116788983345, -0.023082111030817032, -0.0045525431632995605, 0.01397702470421791, 0.03250659257173538, 0.05103616043925285, 0.06956572830677032, 0.0880952924489975, 0.10662486404180527, 0.12515443563461304, 0.1436839997768402, 0.16221356391906738, 0.18074312806129456, 0.19927270710468292, 0.2178022712469101, 0.23633183538913727, 0.25486141443252563, 0.2733909785747528, 0.29192054271698, 0.31045010685920715, 0.3289796710014343, 0.3475092351436615, 0.36603879928588867, 0.38456839323043823, 0.4030979573726654, 0.4216275215148926, 0.44015708565711975, 0.4586866497993469, 0.4772162139415741, 0.49574577808380127, 0.5142753720283508, 0.5328049063682556, 0.5513345003128052, 0.56986403465271, 0.5883936285972595]}, "gradients/graph_1net.0.NN.weight": {"_type": "histogram", "values": [1.0, 0.0, 0.0, 0.0, 1.0, 1.0, 1.0, 3.0, 4.0, 4.0, 7.0, 5.0, 1.0, 4.0, 5.0, 1.0, 4.0, 1.0, 2.0, 4.0, 2.0, 2.0, 0.0, 2.0, 14.0, 19.0, 18.0, 10.0, 6.0, 4.0, 2.0, 6.0, 6.0, 10.0, 12.0, 16.0, 14.0, 1.0, 2.0, 1.0, 3.0, 2.0, 5.0, 6.0, 3.0, 7.0, 3.0, 7.0, 2.0, 7.0, 5.0, 3.0, 4.0, 1.0, 0.0, 0.0, 0.0, 0.0, 0.0, 0.0, 0.0, 1.0, 0.0, 1.0], "bins": [-0.7595193386077881, -0.7344526648521423, -0.7093859910964966, -0.6843193769454956, -0.6592527031898499, -0.6341860294342041, -0.6091194152832031, -0.5840527415275574, -0.5589860677719116, -0.5339193940162659, -0.5088527202606201, -0.48378610610961914, -0.4587194323539734, -0.43365275859832764, -0.4085861146450043, -0.3835194706916809, -0.35845279693603516, -0.3333861231803894, -0.30831947922706604, -0.2832528352737427, -0.2581861615180969, -0.23311950266361237, -0.2080528438091278, -0.18298618495464325, -0.1579195261001587, -0.13285286724567413, -0.10778620839118958, -0.08271954953670502, -0.05765289068222046, -0.0325862318277359, -0.007519572973251343, 0.017547085881233215, 0.04261374473571777, 0.06768040359020233, 0.09274706244468689, 0.11781372129917145, 0.142880380153656, 0.16794703900814056, 0.19301369786262512, 0.21808035671710968, 0.24314701557159424, 0.26821368932724, 0.29328033328056335, 0.3183469772338867, 0.34341365098953247, 0.3684803247451782, 0.3935469686985016, 0.41861361265182495, 0.4436802864074707, 0.46874696016311646, 0.4938136041164398, 0.5188802480697632, 0.5439469218254089, 0.5690135955810547, 0.5940802097320557, 0.6191468834877014, 0.6442135572433472, 0.6692802309989929, 0.6943469047546387, 0.7194135189056396, 0.7444801926612854, 0.7695468664169312, 0.7946134805679321, 0.8196801543235779, 0.8447468280792236]}, "train_loss_d3": 6.0763068199157715, "train_H_d3": 26.95865821838379, "test_loss_d3": 3.5557661056518555, "test_H_d3": 11.112034797668457, "parameters/graph_2net.0.NN.weight": {"_type": "histogram", "values": [1.0, 0.0, 0.0, 1.0, 0.0, 0.0, 0.0, 0.0, 0.0, 0.0, 1.0, 1.0, 1.0, 0.0, 0.0, 0.0, 0.0, 0.0, 1.0, 0.0, 1.0, 0.0, 1.0, 1.0, 1.0, 1.0, 2.0, 1.0, 1.0, 1.0, 3.0, 17.0, 52.0, 64.0, 51.0, 36.0, 10.0, 0.0, 0.0, 0.0, 1.0, 1.0, 1.0, 0.0, 0.0, 1.0, 1.0, 0.0, 0.0, 0.0, 1.0, 0.0, 0.0, 0.0, 0.0, 0.0, 0.0, 0.0, 0.0, 0.0, 0.0, 0.0, 0.0, 1.0], "bins": [-0.5688716173171997, -0.5520152449607849, -0.5351588129997253, -0.5183024406433105, -0.5014460682868958, -0.48458966612815857, -0.4677332639694214, -0.4508768916130066, -0.4340204894542694, -0.4171640872955322, -0.40030771493911743, -0.38345131278038025, -0.36659491062164307, -0.34973853826522827, -0.3328821361064911, -0.3160257637500763, -0.2991693615913391, -0.28231295943260193, -0.26545658707618713, -0.24860018491744995, -0.23174379765987396, -0.21488741040229797, -0.1980310082435608, -0.1811746209859848, -0.1643182337284088, -0.14746184647083282, -0.13060545921325684, -0.11374905705451965, -0.09689266979694366, -0.08003628253936768, -0.06317988783121109, -0.0463234968483448, -0.02946704626083374, -0.012610655277967453, 0.004245735704898834, 0.02110212668776512, 0.03795851767063141, 0.054814908653497696, 0.07167129963636398, 0.08852769434452057, 0.10538408160209656, 0.12224046885967255, 0.13909685611724854, 0.15595325827598572, 0.1728096455335617, 0.1896660327911377, 0.20652243494987488, 0.22337882220745087, 0.24023520946502686, 0.25709161162376404, 0.27394798398017883, 0.290804386138916, 0.3076607584953308, 0.324517160654068, 0.3413735628128052, 0.35822993516921997, 0.37508633732795715, 0.39194273948669434, 0.40879911184310913, 0.4256555140018463, 0.4425119161605835, 0.4593682885169983, 0.4762246906757355, 0.49308106303215027, 0.5099374651908875]}, "parameters/graph_2net.0.NN.bias": {"_type": "histogram", "values": [1.0, 0.0, 0.0, 0.0, 0.0, 0.0, 1.0, 2.0, 0.0, 0.0, 1.0, 0.0, 0.0, 2.0, 1.0, 0.0, 0.0, 1.0, 0.0, 0.0, 1.0, 0.0, 0.0, 0.0, 0.0, 0.0, 0.0, 6.0, 17.0, 10.0, 15.0, 4.0, 3.0, 4.0, 0.0, 3.0, 5.0, 1.0, 3.0, 3.0, 6.0, 21.0, 6.0, 7.0, 0.0, 0.0, 0.0, 0.0, 0.0, 0.0, 0.0, 0.0, 1.0, 0.0, 0.0, 0.0, 0.0, 0.0, 0.0, 0.0, 1.0, 0.0, 0.0, 2.0], "bins": [-1.3158860206604004, -1.278821587562561, -1.2417571544647217, -1.2046927213668823, -1.167628288269043, -1.1305638551712036, -1.0934994220733643, -1.056434988975525, -1.0193705558776855, -0.9823061227798462, -0.9452416896820068, -0.9081772565841675, -0.8711128234863281, -0.8340483903884888, -0.7969839572906494, -0.7599195241928101, -0.7228550910949707, -0.6857906579971313, -0.648726224899292, -0.6116617918014526, -0.5745973587036133, -0.5375329256057739, -0.5004684925079346, -0.4634040594100952, -0.42633962631225586, -0.3892751932144165, -0.35221076011657715, -0.3151463270187378, -0.27808189392089844, -0.24101746082305908, -0.20395302772521973, -0.16688859462738037, -0.12982428073883057, -0.09275984764099121, -0.055695414543151855, -0.0186309814453125, 0.018433451652526855, 0.05549788475036621, 0.09256231784820557, 0.12962675094604492, 0.16669118404388428, 0.20375561714172363, 0.240820050239563, 0.27788448333740234, 0.3149489164352417, 0.35201334953308105, 0.3890777826309204, 0.42614221572875977, 0.4632066488265991, 0.5002710819244385, 0.5373355150222778, 0.5743999481201172, 0.6114643812179565, 0.6485288143157959, 0.6855932474136353, 0.7226576805114746, 0.759722113609314, 0.7967865467071533, 0.8338509798049927, 0.870915412902832, 0.9079798460006714, 0.9450442790985107, 0.9821087121963501, 1.0191731452941895, 1.0562375783920288]}, "parameters/graph_2net.2.NN.weight": {"_type": "histogram", "values": [2.0, 1.0, 2.0, 3.0, 0.0, 0.0, 2.0, 2.0, 3.0, 2.0, 2.0, 2.0, 4.0, 6.0, 9.0, 14.0, 13.0, 16.0, 34.0, 34.0, 38.0, 37.0, 33.0, 20.0, 43.0, 23.0, 24.0, 21.0, 19.0, 20.0, 21.0, 24.0, 19.0, 23.0, 28.0, 32.0, 26.0, 27.0, 27.0, 18.0, 15.0, 12.0, 9.0, 6.0, 8.0, 3.0, 6.0, 3.0, 1.0, 3.0, 4.0, 5.0, 2.0, 2.0, 2.0, 5.0, 3.0, 0.0, 1.0, 1.0, 1.0, 0.0, 0.0, 2.0], "bins": [-0.7298287153244019, -0.7039381861686707, -0.6780475974082947, -0.6521570682525635, -0.6262665390968323, -0.6003759503364563, -0.5744854211807251, -0.5485948920249939, -0.5227043628692627, -0.4968137741088867, -0.4709232449531555, -0.44503268599510193, -0.41914212703704834, -0.39325159788131714, -0.36736103892326355, -0.34147050976753235, -0.31557995080947876, -0.28968939185142517, -0.26379886269569397, -0.23790830373764038, -0.21201775968074799, -0.1861272156238556, -0.160236656665802, -0.1343461126089096, -0.10845556855201721, -0.08256502449512482, -0.056674472987651825, -0.03078392520546913, -0.004893377423286438, 0.020997170358896255, 0.04688771814107895, 0.07277826964855194, 0.09866875410079956, 0.12455929815769196, 0.15044984221458435, 0.17634040117263794, 0.20223094522953033, 0.22812148928642273, 0.2540120482444763, 0.2799025774002075, 0.3057931363582611, 0.3316836953163147, 0.3575742244720459, 0.3834647834300995, 0.4093553423881531, 0.4352458715438843, 0.46113643050193787, 0.48702695965766907, 0.5129175186157227, 0.5388080477714539, 0.5646986365318298, 0.590589165687561, 0.6164796948432922, 0.6423702836036682, 0.6682608127593994, 0.6941513419151306, 0.7200418710708618, 0.7459324598312378, 0.771822988986969, 0.7977135181427002, 0.8236041069030762, 0.8494946360588074, 0.8753851652145386, 0.9012757539749146, 0.9271662831306458]}, "parameters/graph_2net.2.NN.bias": {"_type": "histogram", "values": [4.0, 0.0, 0.0, 0.0, 0.0, 0.0, 0.0, 0.0, 0.0, 0.0, 0.0, 0.0, 0.0, 0.0, 0.0, 0.0, 0.0, 0.0, 0.0, 0.0, 0.0, 0.0, 0.0, 0.0, 0.0, 0.0, 0.0, 0.0, 0.0, 0.0, 0.0, 0.0, 0.0, 0.0, 0.0, 0.0, 0.0, 0.0, 0.0, 0.0, 0.0, 0.0, 0.0, 0.0, 0.0, 0.0, 0.0, 0.0, 0.0, 0.0, 0.0, 0.0, 0.0, 0.0, 0.0, 0.0, 0.0, 0.0, 0.0, 0.0, 0.0, 0.0, 0.0, 2.0], "bins": [0.13981932401657104, 0.13981932401657104, 0.13981932401657104, 0.13981932401657104, 0.13981932401657104, 0.13981932401657104, 0.13981932401657104, 0.13981932401657104, 0.13981932401657104, 0.13981932401657104, 0.13981932401657104, 0.13981932401657104, 0.13981932401657104, 0.13981932401657104, 0.13981932401657104, 0.13981932401657104, 0.13981932401657104, 0.13981933891773224, 0.13981933891773224, 0.13981933891773224, 0.13981933891773224, 0.13981933891773224, 0.13981933891773224, 0.13981933891773224, 0.13981933891773224, 0.13981933891773224, 0.13981933891773224, 0.13981933891773224, 0.13981933891773224, 0.13981933891773224, 0.13981933891773224, 0.13981933891773224, 0.13981933891773224, 0.13981933891773224, 0.13981933891773224, 0.13981933891773224, 0.13981933891773224, 0.13981933891773224, 0.13981933891773224, 0.13981933891773224, 0.13981933891773224, 0.13981933891773224, 0.13981933891773224, 0.13981933891773224, 0.13981933891773224, 0.13981933891773224, 0.13981933891773224, 0.13981933891773224, 0.13981935381889343, 0.13981935381889343, 0.13981935381889343, 0.13981935381889343, 0.13981935381889343, 0.13981935381889343, 0.13981935381889343, 0.13981935381889343, 0.13981935381889343, 0.13981935381889343, 0.13981935381889343, 0.13981935381889343, 0.13981935381889343, 0.13981935381889343, 0.13981935381889343, 0.13981935381889343, 0.13981935381889343]}, "gradients/graph_2net.2.NN.bias": {"_type": "histogram", "values": [2.0, 0.0, 0.0, 0.0, 0.0, 0.0, 0.0, 0.0, 0.0, 0.0, 0.0, 0.0, 0.0, 0.0, 0.0, 0.0, 0.0, 0.0, 0.0, 0.0, 0.0, 0.0, 0.0, 0.0, 0.0, 0.0, 0.0, 0.0, 0.0, 0.0, 0.0, 0.0, 0.0, 0.0, 0.0, 0.0, 0.0, 0.0, 0.0, 0.0, 0.0, 0.0, 0.0, 0.0, 0.0, 0.0, 0.0, 0.0, 0.0, 0.0, 0.0, 0.0, 0.0, 0.0, 0.0, 0.0, 0.0, 0.0, 0.0, 0.0, 0.0, 0.0, 0.0, 4.0], "bins": [0.8999999165534973, 0.8999999165534973, 0.8999999165534973, 0.8999999165534973, 0.8999999165534973, 0.8999999165534973, 0.8999999165534973, 0.8999999165534973, 0.8999999165534973, 0.8999999165534973, 0.8999999165534973, 0.8999999165534973, 0.8999999165534973, 0.8999999165534973, 0.8999999165534973, 0.8999999165534973, 0.8999999761581421, 0.8999999761581421, 0.8999999761581421, 0.8999999761581421, 0.8999999761581421, 0.8999999761581421, 0.8999999761581421, 0.8999999761581421, 0.8999999761581421, 0.8999999761581421, 0.8999999761581421, 0.8999999761581421, 0.8999999761581421, 0.8999999761581421, 0.8999999761581421, 0.8999999761581421, 0.8999999761581421, 0.8999999761581421, 0.8999999761581421, 0.8999999761581421, 0.8999999761581421, 0.8999999761581421, 0.8999999761581421, 0.8999999761581421, 0.8999999761581421, 0.8999999761581421, 0.8999999761581421, 0.8999999761581421, 0.8999999761581421, 0.8999999761581421, 0.8999999761581421, 0.8999999761581421, 0.8999999761581421, 0.9000000357627869, 0.9000000357627869, 0.9000000357627869, 0.9000000357627869, 0.9000000357627869, 0.9000000357627869, 0.9000000357627869, 0.9000000357627869, 0.9000000357627869, 0.9000000357627869, 0.9000000357627869, 0.9000000357627869, 0.9000000357627869, 0.9000000357627869, 0.9000000357627869, 0.9000000357627869]}, "gradients/graph_2net.2.NN.weight": {"_type": "histogram", "values": [18.0, 12.0, 6.0, 6.0, 0.0, 0.0, 6.0, 0.0, 0.0, 0.0, 0.0, 6.0, 0.0, 6.0, 6.0, 42.0, 66.0, 36.0, 24.0, 24.0, 0.0, 18.0, 36.0, 30.0, 18.0, 6.0, 0.0, 36.0, 6.0, 0.0, 12.0, 0.0, 12.0, 0.0, 18.0, 0.0, 6.0, 18.0, 0.0, 18.0, 6.0, 0.0, 12.0, 24.0, 12.0, 36.0, 24.0, 36.0, 42.0, 18.0, 48.0, 6.0, 0.0, 0.0, 0.0, 0.0, 0.0, 0.0, 0.0, 0.0, 6.0, 0.0, 0.0, 6.0], "bins": [-0.8652584552764893, -0.8391038775444031, -0.8129492998123169, -0.7867947220802307, -0.7606401443481445, -0.7344855666160583, -0.7083309888839722, -0.682176411151886, -0.6560218334197998, -0.6298672556877136, -0.6037126779556274, -0.5775581002235413, -0.5514035224914551, -0.5252489447593689, -0.4990943670272827, -0.47293978929519653, -0.44678521156311035, -0.42063063383102417, -0.394476056098938, -0.3683214783668518, -0.3421669006347656, -0.31601232290267944, -0.28985774517059326, -0.2637031674385071, -0.2375485897064209, -0.21139401197433472, -0.18523943424224854, -0.15908485651016235, -0.13293027877807617, -0.10677570104598999, -0.08062112331390381, -0.05446654558181763, -0.02831190824508667, -0.0021573305130004883, 0.023997247219085693, 0.050151824951171875, 0.07630640268325806, 0.10246098041534424, 0.12861555814743042, 0.1547701358795166, 0.18092471361160278, 0.20707929134368896, 0.23323386907577515, 0.25938844680786133, 0.2855430245399475, 0.3116976022720337, 0.3378521800041199, 0.36400675773620605, 0.39016133546829224, 0.4163159132003784, 0.4424704909324646, 0.4686250686645508, 0.49477964639663696, 0.5209342241287231, 0.5470888018608093, 0.5732433795928955, 0.5993979573249817, 0.6255525350570679, 0.651707112789154, 0.6778616905212402, 0.7040162682533264, 0.7301708459854126, 0.7563254237174988, 0.782480001449585, 0.8086345791816711]}, "gradients/graph_2net.0.NN.bias": {"_type": "histogram", "values": [2.0, 0.0, 3.0, 4.0, 4.0, 2.0, 0.0, 3.0, 1.0, 5.0, 6.0, 5.0, 5.0, 2.0, 1.0, 2.0, 4.0, 3.0, 3.0, 2.0, 0.0, 0.0, 2.0, 0.0, 2.0, 2.0, 0.0, 1.0, 1.0, 0.0, 1.0, 1.0, 0.0, 3.0, 3.0, 1.0, 1.0, 1.0, 0.0, 1.0, 4.0, 1.0, 1.0, 0.0, 3.0, 1.0, 4.0, 2.0, 4.0, 3.0, 3.0, 2.0, 2.0, 2.0, 2.0, 2.0, 6.0, 0.0, 0.0, 2.0, 1.0, 4.0, 1.0, 1.0], "bins": [-2.4453999996185303, -2.364776849746704, -2.284153699874878, -2.2035305500030518, -2.1229076385498047, -2.0422844886779785, -1.9616613388061523, -1.8810381889343262, -1.8004150390625, -1.7197920083999634, -1.6391688585281372, -1.558545708656311, -1.4779226779937744, -1.3972995281219482, -1.316676378250122, -1.2360533475875854, -1.1554301977157593, -1.074807047843933, -0.9941839575767517, -0.9135608673095703, -0.8329377174377441, -0.7523146271705627, -0.6716915369033813, -0.5910683870315552, -0.5104452967643738, -0.42982217669487, -0.3491990566253662, -0.2685759663581848, -0.18795284628868103, -0.10732973366975784, -0.026706621050834656, 0.05391649156808853, 0.13453960418701172, 0.2151627242565155, 0.2957858443260193, 0.3764089345932007, 0.45703205466270447, 0.5376551747322083, 0.6182782649993896, 0.6989014148712158, 0.7795245051383972, 0.8601475954055786, 0.9407707452774048, 1.021393895149231, 1.1020169258117676, 1.1826400756835938, 1.26326322555542, 1.3438862562179565, 1.4245094060897827, 1.5051325559616089, 1.5857555866241455, 1.6663787364959717, 1.7470018863677979, 1.8276249170303345, 1.9082480669021606, 1.9888712167739868, 2.0694942474365234, 2.1501173973083496, 2.230740547180176, 2.311363697052002, 2.391986846923828, 2.472609758377075, 2.5532329082489014, 2.6338560581207275, 2.7144792079925537]}, "gradients/graph_2net.0.NN.weight": {"_type": "histogram", "values": [1.0, 0.0, 0.0, 1.0, 0.0, 0.0, 0.0, 0.0, 0.0, 0.0, 0.0, 0.0, 0.0, 0.0, 0.0, 0.0, 0.0, 0.0, 1.0, 2.0, 1.0, 5.0, 3.0, 7.0, 4.0, 3.0, 3.0, 4.0, 3.0, 9.0, 4.0, 11.0, 35.0, 56.0, 51.0, 5.0, 4.0, 1.0, 4.0, 1.0, 8.0, 1.0, 5.0, 1.0, 6.0, 2.0, 3.0, 3.0, 0.0, 3.0, 2.0, 0.0, 0.0, 0.0, 0.0, 0.0, 0.0, 0.0, 0.0, 1.0, 0.0, 0.0, 0.0, 2.0], "bins": [-8.186657905578613, -7.942919731140137, -7.69918155670166, -7.455443382263184, -7.211704730987549, -6.967966556549072, -6.724228382110596, -6.480490207672119, -6.236752033233643, -5.993013858795166, -5.749275207519531, -5.505537033081055, -5.261798858642578, -5.018060684204102, -4.774322509765625, -4.530584335327148, -4.286846160888672, -4.043107509613037, -3.7993693351745605, -3.555631160736084, -3.3118929862976074, -3.0681545734405518, -2.824416399002075, -2.5806782245635986, -2.336939811706543, -2.0932016372680664, -1.8494634628295898, -1.6057251691818237, -1.3619868755340576, -1.118248701095581, -0.8745104074478149, -0.6307721734046936, -0.38703393936157227, -0.14329569041728973, 0.1004425585269928, 0.3441808223724365, 0.5879190564155579, 0.8316572904586792, 1.0753955841064453, 1.3191337585449219, 1.562872052192688, 1.806610345840454, 2.0503485202789307, 2.2940866947174072, 2.537825107574463, 2.7815632820129395, 3.025301456451416, 3.2690398693084717, 3.5127780437469482, 3.756516218185425, 4.0002546310424805, 4.243992805480957, 4.487730979919434, 4.73146915435791, 4.975207328796387, 5.2189459800720215, 5.462684154510498, 5.706422328948975, 5.950160503387451, 6.193898677825928, 6.437636852264404, 6.681375503540039, 6.925113677978516, 7.168851852416992, 7.412590026855469]}, "train_loss_d4": 6.534755706787109, "train_H_d4": 24.204696655273438, "test_loss_d4": 8.20421314239502, "test_H_d4": 35.58872604370117, "parameters/graph_3net.0.NN.weight": {"_type": "histogram", "values": [1.0, 0.0, 0.0, 0.0, 0.0, 1.0, 0.0, 0.0, 0.0, 0.0, 0.0, 1.0, 0.0, 0.0, 1.0, 0.0, 0.0, 0.0, 0.0, 0.0, 1.0, 1.0, 1.0, 0.0, 0.0, 0.0, 2.0, 2.0, 3.0, 2.0, 1.0, 0.0, 6.0, 17.0, 20.0, 23.0, 69.0, 35.0, 22.0, 24.0, 7.0, 5.0, 3.0, 1.0, 2.0, 0.0, 2.0, 0.0, 0.0, 1.0, 0.0, 0.0, 0.0, 1.0, 0.0, 0.0, 0.0, 0.0, 0.0, 0.0, 0.0, 0.0, 0.0, 1.0], "bins": [-0.546891987323761, -0.5320197343826294, -0.5171474814414978, -0.5022751688957214, -0.48740291595458984, -0.47253066301345825, -0.45765841007232666, -0.4427861273288727, -0.4279138743877411, -0.4130416214466095, -0.3981693387031555, -0.3832970857620239, -0.36842483282089233, -0.35355255007743835, -0.33868029713630676, -0.3238080143928528, -0.3089357614517212, -0.2940635085105896, -0.2791912257671356, -0.26431897282600403, -0.24944670498371124, -0.23457443714141846, -0.21970218420028687, -0.20482991635799408, -0.1899576485157013, -0.1750853806734085, -0.16021311283111572, -0.14534085988998413, -0.13046859204769135, -0.11559632420539856, -0.10072406381368637, -0.08585180342197418, -0.07097956538200378, -0.0561073012650013, -0.04123503714799881, -0.026362773030996323, -0.011490508913993835, 0.0033817552030086517, 0.01825401932001114, 0.033126283437013626, 0.04799854755401611, 0.0628708153963089, 0.07774307578802109, 0.09261533617973328, 0.10748760402202606, 0.12235987186431885, 0.13723212480545044, 0.15210439264774323, 0.166976660490036, 0.1818489283323288, 0.19672119617462158, 0.21159344911575317, 0.22646571695804596, 0.24133798480033875, 0.25621023774147034, 0.2710825204849243, 0.2859547734260559, 0.3008270263671875, 0.3156993091106415, 0.33057156205177307, 0.34544384479522705, 0.36031609773635864, 0.37518835067749023, 0.3900606334209442, 0.4049328863620758]}, "parameters/graph_3net.0.NN.bias": {"_type": "histogram", "values": [1.0, 0.0, 0.0, 0.0, 0.0, 1.0, 0.0, 2.0, 0.0, 0.0, 1.0, 0.0, 1.0, 0.0, 2.0, 0.0, 1.0, 0.0, 0.0, 1.0, 0.0, 0.0, 0.0, 0.0, 0.0, 0.0, 0.0, 0.0, 9.0, 16.0, 8.0, 14.0, 4.0, 4.0, 3.0, 5.0, 4.0, 4.0, 2.0, 7.0, 13.0, 14.0, 7.0, 0.0, 0.0, 0.0, 0.0, 0.0, 0.0, 0.0, 0.0, 0.0, 1.0, 0.0, 0.0, 0.0, 0.0, 0.0, 0.0, 1.0, 0.0, 0.0, 0.0, 2.0], "bins": [-1.3381754159927368, -1.3005601167678833, -1.2629448175430298, -1.2253295183181763, -1.1877140998840332, -1.1500988006591797, -1.1124835014343262, -1.0748682022094727, -1.0372529029846191, -0.9996376037597656, -0.9620223045349121, -0.9244069457054138, -0.8867916464805603, -0.8491763472557068, -0.8115609884262085, -0.773945689201355, -0.7363303899765015, -0.698715090751648, -0.6610997915267944, -0.6234844326972961, -0.5858691334724426, -0.5482538342475891, -0.5106384754180908, -0.4730231761932373, -0.4354078769683838, -0.3977925777435303, -0.36017724871635437, -0.32256191968917847, -0.28494662046432495, -0.24733130633831024, -0.20971599221229553, -0.17210067808628082, -0.13448524475097656, -0.09686993062496185, -0.059254616498947144, -0.021639302372932434, 0.015976011753082275, 0.053591325879096985, 0.0912066400051117, 0.1288219541311264, 0.1664372682571411, 0.20405258238315582, 0.24166789650917053, 0.27928322553634644, 0.31689852476119995, 0.35451382398605347, 0.39212915301322937, 0.4297444820404053, 0.4673597812652588, 0.5049750804901123, 0.5425903797149658, 0.5802057385444641, 0.6178210377693176, 0.6554363369941711, 0.6930516958236694, 0.730666995048523, 0.7682822942733765, 0.80589759349823, 0.8435128927230835, 0.8811282515525818, 0.9187435507774353, 0.9563588500022888, 0.9939742088317871, 1.0315895080566406, 1.0692048072814941]}, "parameters/graph_3net.2.NN.weight": {"_type": "histogram", "values": [2.0, 1.0, 3.0, 2.0, 0.0, 1.0, 2.0, 2.0, 2.0, 1.0, 2.0, 2.0, 0.0, 4.0, 4.0, 8.0, 11.0, 12.0, 21.0, 26.0, 35.0, 40.0, 41.0, 34.0, 30.0, 34.0, 35.0, 26.0, 34.0, 26.0, 30.0, 22.0, 22.0, 30.0, 35.0, 26.0, 27.0, 26.0, 17.0, 17.0, 8.0, 9.0, 7.0, 6.0, 5.0, 1.0, 2.0, 4.0, 1.0, 4.0, 2.0, 5.0, 4.0, 2.0, 2.0, 4.0, 4.0, 0.0, 1.0, 0.0, 2.0, 0.0, 0.0, 2.0], "bins": [-0.74033522605896, -0.7140987515449524, -0.6878622174263, -0.6616257429122925, -0.6353892087936401, -0.6091527342796326, -0.5829162001609802, -0.5566797256469727, -0.5304431915283203, -0.5042067170143127, -0.4779702126979828, -0.45173370838165283, -0.42549723386764526, -0.3992607295513153, -0.37302422523498535, -0.3467877209186554, -0.32055121660232544, -0.2943147122859955, -0.2680782079696655, -0.24184171855449677, -0.2156052142381668, -0.18936870992183685, -0.1631322205066681, -0.13689571619033813, -0.11065921187400818, -0.08442270755767822, -0.058186210691928864, -0.031949710100889206, -0.005713209509849548, 0.02052329108119011, 0.04675979167222977, 0.07299628853797913, 0.09923285245895386, 0.1254693567752838, 0.15170586109161377, 0.17794235050678253, 0.2041788548231125, 0.23041535913944244, 0.2566518485546112, 0.28288835287094116, 0.3091248571872711, 0.3353613615036011, 0.36159786581993103, 0.387834370136261, 0.41407084465026855, 0.4403073489665985, 0.46654385328292847, 0.4927803575992584, 0.5190168619155884, 0.545253336429596, 0.5714898705482483, 0.5977263450622559, 0.6239628791809082, 0.6501993536949158, 0.6764358878135681, 0.7026723623275757, 0.728908896446228, 0.7551453709602356, 0.7813818454742432, 0.8076183795928955, 0.8338548541069031, 0.8600913882255554, 0.886327862739563, 0.9125643968582153, 0.9388008713722229]}, "parameters/graph_3net.2.NN.bias": {"_type": "histogram", "values": [4.0, 0.0, 0.0, 0.0, 0.0, 0.0, 0.0, 0.0, 0.0, 0.0, 0.0, 0.0, 0.0, 0.0, 0.0, 0.0, 0.0, 0.0, 0.0, 0.0, 0.0, 0.0, 0.0, 0.0, 0.0, 0.0, 0.0, 0.0, 0.0, 0.0, 0.0, 0.0, 0.0, 0.0, 0.0, 0.0, 0.0, 0.0, 0.0, 0.0, 0.0, 0.0, 0.0, 0.0, 0.0, 0.0, 0.0, 0.0, 0.0, 0.0, 0.0, 0.0, 0.0, 0.0, 0.0, 0.0, 0.0, 0.0, 0.0, 0.0, 0.0, 0.0, 0.0, 2.0], "bins": [0.11737901717424393, 0.11737901717424393, 0.11737901717424393, 0.11737901717424393, 0.11737901717424393, 0.11737902462482452, 0.11737902462482452, 0.11737902462482452, 0.11737902462482452, 0.11737902462482452, 0.11737902462482452, 0.11737902462482452, 0.11737902462482452, 0.11737902462482452, 0.11737903207540512, 0.11737903207540512, 0.11737903207540512, 0.11737903207540512, 0.11737903207540512, 0.11737903207540512, 0.11737903207540512, 0.11737903207540512, 0.11737903207540512, 0.11737903952598572, 0.11737903952598572, 0.11737903952598572, 0.11737903952598572, 0.11737903952598572, 0.11737903952598572, 0.11737903952598572, 0.11737903952598572, 0.11737903952598572, 0.11737903952598572, 0.11737904697656631, 0.11737904697656631, 0.11737904697656631, 0.11737904697656631, 0.11737904697656631, 0.11737904697656631, 0.11737904697656631, 0.11737904697656631, 0.11737904697656631, 0.11737905442714691, 0.11737905442714691, 0.11737905442714691, 0.11737905442714691, 0.11737905442714691, 0.11737905442714691, 0.11737905442714691, 0.11737905442714691, 0.11737905442714691, 0.11737906187772751, 0.11737906187772751, 0.11737906187772751, 0.11737906187772751, 0.11737906187772751, 0.11737906187772751, 0.11737906187772751, 0.11737906187772751, 0.11737906187772751, 0.1173790693283081, 0.1173790693283081, 0.1173790693283081, 0.1173790693283081, 0.1173790693283081]}, "gradients/graph_3net.2.NN.bias": {"_type": "histogram", "values": [6.0], "bins": [1.7999993562698364, 1.7999993562698364]}, "gradients/graph_3net.2.NN.weight": {"_type": "histogram", "values": [42.0, 6.0, 0.0, 0.0, 0.0, 0.0, 6.0, 0.0, 0.0, 0.0, 6.0, 24.0, 54.0, 24.0, 48.0, 24.0, 12.0, 30.0, 12.0, 12.0, 12.0, 36.0, 12.0, 6.0, 12.0, 6.0, 0.0, 12.0, 6.0, 0.0, 6.0, 12.0, 24.0, 6.0, 6.0, 6.0, 12.0, 0.0, 12.0, 0.0, 6.0, 6.0, 0.0, 30.0, 12.0, 6.0, 24.0, 18.0, 36.0, 30.0, 54.0, 30.0, 0.0, 18.0, 0.0, 0.0, 0.0, 0.0, 0.0, 0.0, 0.0, 6.0, 0.0, 6.0], "bins": [-1.7742310762405396, -1.7194874286651611, -1.6647436618804932, -1.6099998950958252, -1.5552562475204468, -1.5005125999450684, -1.4457688331604004, -1.3910250663757324, -1.336281418800354, -1.2815377712249756, -1.2267940044403076, -1.1720502376556396, -1.1173065900802612, -1.0625629425048828, -1.0078191757202148, -0.9530754685401917, -0.8983317613601685, -0.8435880541801453, -0.7888443470001221, -0.7341006398200989, -0.6793569326400757, -0.6246132254600525, -0.5698695182800293, -0.5151258111000061, -0.4603821039199829, -0.4056383967399597, -0.3508946895599365, -0.29615098237991333, -0.24140727519989014, -0.18666356801986694, -0.13191986083984375, -0.07717615365982056, -0.022432327270507812, 0.03231137990951538, 0.08705508708953857, 0.14179879426956177, 0.19654250144958496, 0.25128620862960815, 0.30602991580963135, 0.36077362298965454, 0.41551733016967773, 0.4702610373497009, 0.5250047445297241, 0.5797484517097473, 0.6344921588897705, 0.6892358660697937, 0.7439795732498169, 0.7987232804298401, 0.8534669876098633, 0.9082106947898865, 0.9629544019699097, 1.017698049545288, 1.072441816329956, 1.127185583114624, 1.1819292306900024, 1.2366728782653809, 1.2914166450500488, 1.3461604118347168, 1.4009040594100952, 1.4556477069854736, 1.5103914737701416, 1.5651352405548096, 1.619878888130188, 1.6746225357055664, 1.7293663024902344]}, "gradients/graph_3net.0.NN.bias": {"_type": "histogram", "values": [2.0, 0.0, 3.0, 4.0, 3.0, 1.0, 2.0, 2.0, 2.0, 2.0, 4.0, 6.0, 2.0, 4.0, 2.0, 3.0, 4.0, 1.0, 4.0, 2.0, 2.0, 1.0, 2.0, 1.0, 0.0, 3.0, 1.0, 3.0, 0.0, 3.0, 0.0, 1.0, 3.0, 2.0, 3.0, 4.0, 1.0, 1.0, 0.0, 2.0, 2.0, 3.0, 0.0, 1.0, 3.0, 3.0, 3.0, 2.0, 1.0, 2.0, 0.0, 3.0, 1.0, 3.0, 3.0, 3.0, 0.0, 1.0, 0.0, 2.0, 2.0, 3.0, 0.0, 1.0], "bins": [-5.366940498352051, -5.184447765350342, -5.001955509185791, -4.819462776184082, -4.636970520019531, -4.454477787017822, -4.2719855308532715, -4.0894927978515625, -3.9070005416870117, -3.7245078086853027, -3.542015314102173, -3.359522819519043, -3.177030324935913, -2.994537830352783, -2.8120453357696533, -2.6295528411865234, -2.4470603466033936, -2.2645678520202637, -2.082075357437134, -1.899582862854004, -1.717090368270874, -1.5345977544784546, -1.3521052598953247, -1.1696127653121948, -0.9871202707290649, -0.8046277761459351, -0.6221352815628052, -0.4396427273750305, -0.25715023279190063, -0.07465772330760956, 0.10783478617668152, 0.2903273105621338, 0.47281980514526367, 0.6553122997283936, 0.8378047943115234, 1.0202972888946533, 1.2027897834777832, 1.3852823972702026, 1.5677748918533325, 1.7502673864364624, 1.9327598810195923, 2.1152524948120117, 2.2977449893951416, 2.4802374839782715, 2.6627299785614014, 2.8452224731445312, 3.027714967727661, 3.210207462310791, 3.392699956893921, 3.575192451477051, 3.7576849460601807, 3.9401774406433105, 4.1226701736450195, 4.30516242980957, 4.487655162811279, 4.67014741897583, 4.852640151977539, 5.03513240814209, 5.217625141143799, 5.40011739730835, 5.582610130310059, 5.765102386474609, 5.947595119476318, 6.130087375640869, 6.312580108642578]}, "gradients/graph_3net.0.NN.weight": {"_type": "histogram", "values": [1.0, 0.0, 0.0, 0.0, 0.0, 0.0, 0.0, 0.0, 0.0, 0.0, 0.0, 1.0, 1.0, 0.0, 1.0, 0.0, 1.0, 0.0, 1.0, 1.0, 0.0, 2.0, 2.0, 1.0, 1.0, 1.0, 2.0, 1.0, 4.0, 0.0, 3.0, 1.0, 7.0, 15.0, 52.0, 89.0, 39.0, 5.0, 1.0, 0.0, 4.0, 2.0, 0.0, 2.0, 1.0, 1.0, 0.0, 3.0, 2.0, 1.0, 0.0, 1.0, 2.0, 1.0, 0.0, 0.0, 1.0, 0.0, 1.0, 0.0, 0.0, 0.0, 0.0, 1.0], "bins": [-14.232329368591309, -13.827375411987305, -13.4224214553833, -13.01746654510498, -12.612512588500977, -12.207558631896973, -11.802604675292969, -11.397649765014648, -10.992695808410645, -10.58774185180664, -10.182787895202637, -9.777833938598633, -9.372879028320312, -8.967925071716309, -8.562971115112305, -8.1580171585083, -7.753062725067139, -7.348108768463135, -6.943154335021973, -6.538200378417969, -6.133245944976807, -5.728291988372803, -5.323337554931641, -4.918383598327637, -4.513429641723633, -4.108475208282471, -3.7035210132598877, -3.2985668182373047, -2.893612861633301, -2.4886586666107178, -2.0837044715881348, -1.6787502765655518, -1.2737960815429688, -0.8688418865203857, -0.4638877511024475, -0.05893358588218689, 0.34602057933807373, 0.7509747743606567, 1.1559288501739502, 1.5608830451965332, 1.9658372402191162, 2.370791435241699, 2.7757456302642822, 3.1806998252868652, 3.585653781890869, 3.990607976913452, 4.395562171936035, 4.800516605377197, 5.205470561981201, 5.610424518585205, 6.015378952026367, 6.420332908630371, 6.825287342071533, 7.230241298675537, 7.635195732116699, 8.040149688720703, 8.445103645324707, 8.850057601928711, 9.255012512207031, 9.659966468811035, 10.064920425415039, 10.469874382019043, 10.874829292297363, 11.279783248901367, 11.684737205505371]}, "_wandb": {"runtime": 7289}}