{"train_loss": 0.0006081175524741411, "train_grad": 0.0004999269149266183, "train_H": 7.720485155005008e-05, "test_loss": 0.0006631017895415425, "test_grad": 0.0005707234377041459, "test_h": 0, "test_H": 4.600208922056481e-05, "_timestamp": 1717582578.797318, "_runtime": 587.6434700489044, "_step": 499, "gradients/NN.net.2.bias": {"_type": "histogram", "values": [0.0, 0.0, 0.0, 0.0, 0.0, 0.0, 0.0, 0.0, 0.0, 0.0, 0.0, 0.0, 0.0, 0.0, 0.0, 0.0, 0.0, 0.0, 0.0, 0.0, 0.0, 0.0, 0.0, 0.0, 0.0, 0.0, 0.0, 0.0, 0.0, 0.0, 0.0, 0.0, 1.0, 0.0, 0.0, 0.0, 0.0, 0.0, 0.0, 0.0, 0.0, 0.0, 0.0, 0.0, 0.0, 0.0, 0.0, 0.0, 0.0, 0.0, 0.0, 0.0, 0.0, 0.0, 0.0, 0.0, 0.0, 0.0, 0.0, 0.0, 0.0, 0.0, 0.0, 0.0], "bins": [-0.009954666718840599, -0.009954666718840599, -0.009954666718840599, -0.009954666718840599, -0.009954666718840599, -0.009954666718840599, -0.009954666718840599, -0.009954666718840599, -0.009954666718840599, -0.009954666718840599, -0.009954666718840599, -0.009954666718840599, -0.009954666718840599, -0.009954666718840599, -0.009954666718840599, -0.009954666718840599, -0.009954666718840599, -0.009954666718840599, -0.009954666718840599, -0.009954666718840599, -0.009954666718840599, -0.009954666718840599, -0.009954666718840599, -0.009954666718840599, -0.009954666718840599, -0.009954666718840599, -0.009954666718840599, -0.009954666718840599, -0.009954666718840599, -0.009954666718840599, -0.009954666718840599, -0.009954666718840599, -0.009954666718840599, -0.009954666718840599, -0.009954666718840599, -0.009954666718840599, -0.009954666718840599, -0.009954666718840599, -0.009954666718840599, -0.009954666718840599, -0.009954666718840599, -0.009954666718840599, -0.009954666718840599, -0.009954666718840599, -0.009954666718840599, -0.009954666718840599, -0.009954666718840599, -0.009954666718840599, -0.009954666718840599, -0.009954666718840599, -0.009954666718840599, -0.009954666718840599, -0.009954666718840599, -0.009954666718840599, -0.009954666718840599, -0.009954666718840599, -0.009954666718840599, -0.009954666718840599, -0.009954666718840599, -0.009954666718840599, -0.009954666718840599, -0.009954666718840599, -0.009954666718840599, -0.009954666718840599, -0.009954666718840599]}, "gradients/NN.net.2.weight": {"_type": "histogram", "values": [1.0, 1.0, 0.0, 0.0, 1.0, 1.0, 1.0, 2.0, 1.0, 1.0, 3.0, 0.0, 2.0, 3.0, 5.0, 10.0, 4.0, 9.0, 3.0, 5.0, 3.0, 10.0, 10.0, 10.0, 13.0, 13.0, 18.0, 19.0, 22.0, 25.0, 24.0, 26.0, 33.0, 24.0, 30.0, 19.0, 17.0, 21.0, 19.0, 12.0, 6.0, 14.0, 5.0, 9.0, 8.0, 5.0, 2.0, 6.0, 4.0, 9.0, 5.0, 5.0, 3.0, 3.0, 0.0, 2.0, 1.0, 2.0, 1.0, 0.0, 0.0, 0.0, 0.0, 1.0], "bins": [-0.015680979937314987, -0.01519053615629673, -0.014700092375278473, -0.014209647662937641, -0.013719203881919384, -0.013228760100901127, -0.012738315388560295, -0.012247871607542038, -0.01175742782652378, -0.011266984045505524, -0.010776540264487267, -0.010286095552146435, -0.009795651771128178, -0.00930520799010992, -0.008814763277769089, -0.008324319496750832, -0.007833875715732574, -0.007343431934714317, -0.006852987688034773, -0.006362543441355228, -0.005872099660336971, -0.005381655879318714, -0.00489121163263917, -0.004400767385959625, -0.003910323604941368, -0.0034198795910924673, -0.0029294355772435665, -0.0024389915633946657, -0.001948547549545765, -0.0014581035356968641, -0.0009676595218479633, -0.00047721550799906254, 1.3228505849838257e-05, 0.000503672519698739, 0.0009941165335476398, 0.0014845605473965406, 0.0019750045612454414, 0.0024654485750943422, 0.002955892588943243, 0.003446336602792144, 0.003936780616641045, 0.004427224397659302, 0.004917668644338846, 0.005408112891018391, 0.005898556672036648, 0.006389000453054905, 0.006879444699734449, 0.007369888946413994, 0.007860332727432251, 0.008350776508450508, 0.008841220289468765, 0.009331665001809597, 0.009822108782827854, 0.010312552563846111, 0.010802997276186943, 0.0112934410572052, 0.011783884838223457, 0.012274328619241714, 0.012764772400259972, 0.013255217112600803, 0.01374566089361906, 0.014236104674637318, 0.01472654938697815, 0.015216993167996407, 0.015707436949014664]}, "gradients/NN.net.0.bias": {"_type": "histogram", "values": [1.0, 0.0, 1.0, 0.0, 0.0, 0.0, 0.0, 0.0, 0.0, 0.0, 1.0, 1.0, 0.0, 2.0, 2.0, 2.0, 2.0, 6.0, 7.0, 4.0, 12.0, 12.0, 15.0, 22.0, 16.0, 26.0, 19.0, 23.0, 40.0, 21.0, 28.0, 27.0, 28.0, 31.0, 25.0, 14.0, 23.0, 19.0, 18.0, 14.0, 12.0, 4.0, 8.0, 4.0, 3.0, 3.0, 3.0, 2.0, 1.0, 3.0, 0.0, 1.0, 1.0, 1.0, 1.0, 1.0, 0.0, 1.0, 0.0, 0.0, 0.0, 0.0, 0.0, 1.0], "bins": [-0.004685725085437298, -0.004535646643489599, -0.004385568201541901, -0.004235489293932915, -0.004085410851985216, -0.0039353324100375175, -0.003785253968089819, -0.0036351755261421204, -0.003485096851363778, -0.0033350184094160795, -0.0031849397346377373, -0.0030348612926900387, -0.00288478285074234, -0.002734704175963998, -0.0025846257340162992, -0.002434547059237957, -0.0022844686172902584, -0.00213439017534256, -0.0019843115005642176, -0.001834233058616519, -0.0016841545002534986, -0.0015340759418904781, -0.0013839974999427795, -0.0012339189415797591, -0.0010838403832167387, -0.0009337618248537183, -0.0007836833246983588, -0.0006336048245429993, -0.00048352626617997885, -0.00033344770781695843, -0.00018336920766159892, -3.3290707506239414e-05, 0.00011678831651806831, 0.0002668668457772583, 0.00041694537503644824, 0.0005670238751918077, 0.0007171024335548282, 0.0008671809919178486, 0.0010172594338655472, 0.0011673379922285676, 0.001317416550591588, 0.0014674951089546084, 0.0016175736673176289, 0.0017676521092653275, 0.0019177306676283479, 0.0020678092259913683, 0.002217887667939067, 0.002367966342717409, 0.0025180447846651077, 0.0026681232266128063, 0.0028182019013911486, 0.002968280343338847, 0.0031183590181171894, 0.003268437460064888, 0.0034185159020125866, 0.003568594343960285, 0.0037186730187386274, 0.003868751460686326, 0.004018830135464668, 0.004168908577412367, 0.0043189870193600655, 0.004469065926969051, 0.00461914436891675, 0.0047692228108644485, 0.004919301252812147]}, "gradients/NN.net.0.weight": {"_type": "histogram", "values": [1.0, 0.0, 0.0, 0.0, 4.0, 2.0, 1.0, 0.0, 4.0, 1.0, 5.0, 4.0, 8.0, 8.0, 9.0, 18.0, 15.0, 27.0, 27.0, 53.0, 52.0, 71.0, 88.0, 125.0, 134.0, 165.0, 235.0, 287.0, 366.0, 495.0, 661.0, 718.0, 555.0, 400.0, 334.0, 242.0, 213.0, 191.0, 132.0, 102.0, 79.0, 67.0, 59.0, 46.0, 31.0, 24.0, 27.0, 14.0, 11.0, 8.0, 5.0, 7.0, 6.0, 0.0, 1.0, 2.0, 1.0, 0.0, 0.0, 1.0, 0.0, 1.0, 0.0, 1.0], "bins": [-0.005436877720057964, -0.0052634961903095245, -0.005090115126222372, -0.004916733596473932, -0.00474335253238678, -0.00456997100263834, -0.0043965894728899, -0.004223208408802748, -0.004049826879054308, -0.003876445582136512, -0.0037030642852187157, -0.003529682755470276, -0.0033563014585524797, -0.0031829201616346836, -0.0030095388647168875, -0.0028361575677990913, -0.002662776270881295, -0.002489394973963499, -0.002316013677045703, -0.002142632380127907, -0.001969250850379467, -0.0017958695534616709, -0.0016224882565438747, -0.0014491068432107568, -0.0012757255462929606, -0.0011023442493751645, -0.0009289628360420465, -0.0007555815391242504, -0.0005822001839987934, -0.0004088188288733363, -0.00023543753195554018, -6.205611862242222e-05, 0.00011132517829537392, 0.00028470653342083097, 0.00045808785944245756, 0.0006314691854640841, 0.0008048505405895412, 0.0009782318957149982, 0.0011516131926327944, 0.0013249946059659123, 0.0014983759028837085, 0.0016717571998015046, 0.0018451386131346226, 0.0020185199100524187, 0.002191901206970215, 0.0023652827367186546, 0.002538663800805807, 0.002712045330554247, 0.002885426627472043, 0.003058807924389839, 0.0032321892213076353, 0.0034055705182254314, 0.0035789520479738712, 0.0037523333448916674, 0.0039257146418094635, 0.004099096171557903, 0.004272477235645056, 0.0044458587653934956, 0.004619239829480648, 0.004792621359229088, 0.00496600242331624, 0.00513938395306468, 0.005312765017151833, 0.005486146546900272, 0.005659528076648712]}, "_wandb": {"runtime": 587}}