{"train_loss": 0.03142963722348213, "test_loss": 0.026280689984560013, "_timestamp": 1717436474.0397637, "_runtime": 10.671468734741211, "_step": 99, "gradients/net.4.bias": {"_type": "histogram", "values": [1.0, 0.0, 0.0, 0.0, 0.0, 0.0, 0.0, 0.0, 0.0, 0.0, 0.0, 0.0, 0.0, 0.0, 0.0, 0.0, 0.0, 1.0, 0.0, 0.0, 0.0, 1.0, 0.0, 0.0, 0.0, 0.0, 0.0, 0.0, 1.0, 0.0, 0.0, 0.0, 1.0, 0.0, 1.0, 0.0, 0.0, 0.0, 0.0, 0.0, 0.0, 0.0, 0.0, 0.0, 0.0, 0.0, 0.0, 0.0, 0.0, 0.0, 1.0, 0.0, 0.0, 0.0, 0.0, 0.0, 0.0, 0.0, 0.0, 0.0, 0.0, 0.0, 0.0, 1.0], "bins": [-0.08591221272945404, -0.08355076611042023, -0.08118931949138641, -0.0788278728723526, -0.07646641880273819, -0.07410497218370438, -0.07174352556467056, -0.06938207894563675, -0.06702063232660294, -0.06465918570756912, -0.06229773536324501, -0.0599362887442112, -0.05757484212517738, -0.05521339178085327, -0.05285194516181946, -0.050490498542785645, -0.04812904819846153, -0.04576760157942772, -0.04340615123510361, -0.041044704616069794, -0.03868325799703598, -0.03632181137800217, -0.033960361033678055, -0.03159891441464424, -0.02923746593296528, -0.026876017451286316, -0.024514570832252502, -0.02215312235057354, -0.019791673868894577, -0.017430227249860764, -0.0150687787681818, -0.012707332149147987, -0.010345883667469025, -0.007984436117112637, -0.005622988101094961, -0.0032615400850772858, -0.0009000925347208977, 0.0014613550156354904, 0.003822803497314453, 0.006184250116348267, 0.00854569859802723, 0.010907146148383617, 0.013268593698740005, 0.015630042180418968, 0.01799149066209793, 0.020352937281131744, 0.022714385762810707, 0.02507583238184452, 0.027437280863523483, 0.029798729345202446, 0.03216017782688141, 0.03452162444591522, 0.036883071064949036, 0.03924451768398285, 0.04160596802830696, 0.043967414647340775, 0.046328864991664886, 0.0486903116106987, 0.05105176195502281, 0.053413208574056625, 0.05577465519309044, 0.05813610553741455, 0.060497552156448364, 0.06285899877548218, 0.06522044539451599]}, "gradients/net.4.weight": {"_type": "histogram", "values": [1.0, 0.0, 0.0, 0.0, 2.0, 2.0, 1.0, 0.0, 3.0, 3.0, 2.0, 6.0, 4.0, 4.0, 3.0, 6.0, 3.0, 11.0, 6.0, 3.0, 9.0, 11.0, 16.0, 22.0, 21.0, 16.0, 29.0, 35.0, 31.0, 66.0, 65.0, 106.0, 115.0, 61.0, 63.0, 52.0, 41.0, 31.0, 21.0, 21.0, 19.0, 17.0, 12.0, 6.0, 14.0, 3.0, 7.0, 6.0, 7.0, 4.0, 6.0, 9.0, 5.0, 2.0, 3.0, 2.0, 3.0, 4.0, 1.0, 0.0, 1.0, 0.0, 0.0, 1.0], "bins": [-1.8789945840835571, -1.8213235139846802, -1.7636524438858032, -1.7059813737869263, -1.6483103036880493, -1.5906392335891724, -1.5329680442810059, -1.475296974182129, -1.417625904083252, -1.359954833984375, -1.302283763885498, -1.244612693786621, -1.1869416236877441, -1.1292705535888672, -1.0715994834899902, -1.0139284133911133, -0.9562573432922363, -0.8985862731933594, -0.8409152030944824, -0.7832441329956055, -0.7255730628967285, -0.6679019927978516, -0.6102308630943298, -0.5525597929954529, -0.4948887228965759, -0.437217652797699, -0.379546582698822, -0.3218754827976227, -0.2642044126987457, -0.20653334259986877, -0.14886224269866943, -0.09119117259979248, -0.03351998329162598, 0.024151094257831573, 0.08182217180728912, 0.13949325680732727, 0.19716432690620422, 0.2548353970050812, 0.3125064969062805, 0.37017756700515747, 0.4278486371040344, 0.4855197072029114, 0.5431907773017883, 0.6008619070053101, 0.658532977104187, 0.716204047203064, 0.7738751173019409, 0.8315461874008179, 0.8892172574996948, 0.9468883275985718, 1.0045593976974487, 1.0622304677963257, 1.1199015378952026, 1.1775726079940796, 1.235243797302246, 1.292914867401123, 1.3505859375, 1.408257007598877, 1.465928077697754, 1.5235991477966309, 1.5812702178955078, 1.6389412879943848, 1.6966123580932617, 1.7542834281921387, 1.8119544982910156]}, "gradients/net.2.bias": {"_type": "histogram", "values": [1.0, 0.0, 0.0, 0.0, 0.0, 0.0, 0.0, 0.0, 0.0, 0.0, 0.0, 0.0, 1.0, 0.0, 0.0, 1.0, 0.0, 0.0, 1.0, 2.0, 2.0, 0.0, 2.0, 2.0, 3.0, 1.0, 4.0, 7.0, 3.0, 5.0, 5.0, 6.0, 8.0, 7.0, 7.0, 7.0, 7.0, 9.0, 6.0, 2.0, 3.0, 3.0, 3.0, 3.0, 4.0, 1.0, 2.0, 1.0, 0.0, 3.0, 1.0, 2.0, 0.0, 0.0, 0.0, 0.0, 0.0, 1.0, 0.0, 0.0, 0.0, 0.0, 0.0, 2.0], "bins": [-0.1017451211810112, -0.09882288426160812, -0.09590065479278564, -0.09297841787338257, -0.09005618095397949, -0.08713395148515701, -0.08421171456575394, -0.08128948509693146, -0.07836724817752838, -0.0754450112581253, -0.07252278178930283, -0.06960054486989975, -0.06667830795049667, -0.0637560784816742, -0.06083384156227112, -0.05791160836815834, -0.054989371448755264, -0.05206713825464249, -0.04914490133523941, -0.04622266814112663, -0.043300434947013855, -0.04037819802761078, -0.037455964833498, -0.03453373163938522, -0.03161149471998215, -0.02868925966322422, -0.025767026469111443, -0.022844791412353516, -0.019922558218240738, -0.01700032316148281, -0.014078088104724884, -0.011155854910612106, -0.008233621716499329, -0.005311387591063976, -0.0023891529999673367, 0.000533081591129303, 0.0034553157165646553, 0.006377549842000008, 0.009299784898757935, 0.012222018092870712, 0.01514425314962864, 0.018066488206386566, 0.020988721400499344, 0.02391095645725727, 0.026833191514015198, 0.029755424708127975, 0.03267765790224075, 0.03559989482164383, 0.03852212801575661, 0.041444361209869385, 0.04436659812927246, 0.04728883132338524, 0.050211064517498016, 0.05313330143690109, 0.05605553463101387, 0.05897776782512665, 0.061900004744529724, 0.0648222416639328, 0.06774447113275528, 0.07066670805215836, 0.07358894497156143, 0.07651117444038391, 0.07943341135978699, 0.08235564827919006, 0.08527787774801254]}, "gradients/net.2.weight": {"_type": "histogram", "values": [1.0, 2.0, 7.0, 14.0, 9.0, 27.0, 17.0, 16.0, 27.0, 38.0, 40.0, 50.0, 59.0, 68.0, 72.0, 80.0, 106.0, 115.0, 132.0, 195.0, 257.0, 318.0, 391.0, 444.0, 476.0, 559.0, 617.0, 731.0, 731.0, 835.0, 931.0, 995.0, 973.0, 965.0, 839.0, 693.0, 608.0, 567.0, 528.0, 489.0, 410.0, 363.0, 292.0, 222.0, 186.0, 135.0, 113.0, 89.0, 93.0, 78.0, 71.0, 48.0, 63.0, 43.0, 35.0, 35.0, 23.0, 15.0, 13.0, 11.0, 10.0, 3.0, 6.0, 5.0], "bins": [-0.1625639945268631, -0.15746253728866577, -0.15236108005046844, -0.14725960791110992, -0.1421581506729126, -0.13705669343471527, -0.13195523619651794, -0.12685377895832062, -0.1217523142695427, -0.11665085703134537, -0.11154939234256744, -0.10644793510437012, -0.10134647786617279, -0.09624501317739487, -0.09114355593919754, -0.08604209125041962, -0.08094063401222229, -0.07583917677402496, -0.07073771208524704, -0.06563625484704971, -0.06053479388356209, -0.05543333292007446, -0.050331875681877136, -0.04523041471838951, -0.040128953754901886, -0.03502749279141426, -0.029926033690571785, -0.02482457458972931, -0.019723113626241684, -0.014621652662754059, -0.009520193561911583, -0.004418734461069107, 0.0006827414035797119, 0.005784201435744762, 0.010885661467909813, 0.01598712056875229, 0.021088581532239914, 0.02619004249572754, 0.031291499733924866, 0.03639296069741249, 0.041494421660900116, 0.04659588262438774, 0.051697343587875366, 0.05679880082607269, 0.06190026178956032, 0.06700172275304794, 0.07210317999124527, 0.0772046446800232, 0.08230610191822052, 0.08740755915641785, 0.09250902384519577, 0.0976104810833931, 0.10271194577217102, 0.10781340301036835, 0.11291486024856567, 0.118016317486763, 0.12311778217554092, 0.12821924686431885, 0.13332070410251617, 0.1384221613407135, 0.14352361857891083, 0.14862507581710815, 0.15372654795646667, 0.158828005194664, 0.16392946243286133]}, "gradients/net.0.bias": {"_type": "histogram", "values": [2.0, 0.0, 1.0, 0.0, 0.0, 0.0, 2.0, 0.0, 2.0, 1.0, 1.0, 1.0, 1.0, 2.0, 3.0, 3.0, 0.0, 1.0, 2.0, 0.0, 7.0, 5.0, 1.0, 1.0, 3.0, 2.0, 4.0, 9.0, 4.0, 6.0, 5.0, 9.0, 4.0, 2.0, 3.0, 1.0, 3.0, 2.0, 2.0, 4.0, 2.0, 1.0, 3.0, 1.0, 3.0, 3.0, 3.0, 2.0, 1.0, 2.0, 1.0, 1.0, 1.0, 0.0, 0.0, 2.0, 0.0, 0.0, 0.0, 0.0, 1.0, 0.0, 1.0, 1.0], "bins": [-0.04874049872159958, -0.04707358777523041, -0.04540667310357094, -0.04373976215720177, -0.0420728474855423, -0.040405936539173126, -0.038739025592803955, -0.037072114646434784, -0.035405199974775314, -0.03373828902840614, -0.032071374356746674, -0.030404463410377502, -0.028737550601363182, -0.02707063779234886, -0.02540372684597969, -0.02373681403696537, -0.02206990122795105, -0.02040298841893673, -0.01873607560992241, -0.017069164663553238, -0.015402251854538918, -0.013735339045524597, -0.012068427167832851, -0.010401515290141106, -0.008734602481126785, -0.007067690137773752, -0.005400777794420719, -0.003733865451067686, -0.002066953107714653, -0.00040004029870033264, 0.0012668715789914131, 0.002933783456683159, 0.004600699990987778, 0.006267612334340811, 0.007934524677693844, 0.00960143655538559, 0.01126834936439991, 0.01293526217341423, 0.014602174051105976, 0.016269085928797722, 0.017935998737812042, 0.019602911546826363, 0.021269824355840683, 0.022936735302209854, 0.024603648111224174, 0.026270560920238495, 0.027937471866607666, 0.029604384675621986, 0.03127129748463631, 0.03293820843100548, 0.03460512310266495, 0.03627203404903412, 0.03793894499540329, 0.03960585966706276, 0.04127277061343193, 0.0429396852850914, 0.04460659623146057, 0.04627350717782974, 0.04794042184948921, 0.04960733279585838, 0.05127424746751785, 0.052941158413887024, 0.054608069360256195, 0.056274980306625366, 0.057941894978284836]}, "gradients/net.0.weight": {"_type": "histogram", "values": [1.0, 0.0, 0.0, 1.0, 0.0, 0.0, 0.0, 1.0, 1.0, 1.0, 0.0, 1.0, 1.0, 0.0, 0.0, 0.0, 2.0, 3.0, 1.0, 2.0, 3.0, 5.0, 1.0, 2.0, 3.0, 4.0, 6.0, 8.0, 10.0, 19.0, 53.0, 231.0, 415.0, 148.0, 33.0, 11.0, 8.0, 7.0, 4.0, 6.0, 2.0, 3.0, 7.0, 4.0, 6.0, 1.0, 0.0, 2.0, 0.0, 0.0, 0.0, 2.0, 0.0, 0.0, 0.0, 0.0, 0.0, 2.0, 1.0, 1.0, 0.0, 0.0, 0.0, 1.0], "bins": [-3.931203842163086, -3.8095815181732178, -3.6879594326019287, -3.5663371086120605, -3.4447150230407715, -3.3230926990509033, -3.201470375061035, -3.079848289489746, -2.958225965499878, -2.8366036415100098, -2.7149815559387207, -2.5933592319488525, -2.4717371463775635, -2.3501148223876953, -2.2284927368164062, -2.106870412826538, -1.9852482080459595, -1.8636260032653809, -1.7420037984848022, -1.6203815937042236, -1.4987592697143555, -1.3771370649337769, -1.2555148601531982, -1.13389253616333, -1.012270450592041, -0.8906482458114624, -0.769025981426239, -0.6474037766456604, -0.525781512260437, -0.4041593074798584, -0.2825371026992798, -0.1609148383140564, -0.03929257392883301, 0.0823296532034874, 0.2039518803358078, 0.3255741000175476, 0.4471963346004486, 0.5688185691833496, 0.6904407739639282, 0.8120630383491516, 0.9336852431297302, 1.0553075075149536, 1.1769297122955322, 1.2985519170761108, 1.4201741218566895, 1.5417964458465576, 1.6634185314178467, 1.7850408554077148, 1.9066630601882935, 2.028285264968872, 2.1499075889587402, 2.2715296745300293, 2.3931519985198975, 2.5147743225097656, 2.6363964080810547, 2.758018732070923, 2.879640817642212, 3.00126314163208, 3.122885227203369, 3.2445075511932373, 3.3661296367645264, 3.4877519607543945, 3.6093740463256836, 3.7309963703155518, 3.85261869430542]}, "_wandb": {"runtime": 10}}