{"train_loss": 7.156442052291823e-07, "test_loss": 9.334123660664773e-07, "_timestamp": 1720040720.286227, "_runtime": 615.1976990699768, "_step": 999, "parameters/net.0.weight": {"_type": "histogram", "values": [1.0, 0.0, 0.0, 1.0, 0.0, 3.0, 3.0, 5.0, 4.0, 5.0, 7.0, 10.0, 11.0, 15.0, 21.0, 26.0, 35.0, 46.0, 52.0, 54.0, 66.0, 89.0, 89.0, 110.0, 104.0, 97.0, 107.0, 125.0, 142.0, 136.0, 133.0, 114.0, 149.0, 134.0, 118.0, 110.0, 92.0, 124.0, 97.0, 92.0, 82.0, 85.0, 64.0, 69.0, 47.0, 31.0, 34.0, 30.0, 20.0, 18.0, 9.0, 9.0, 18.0, 7.0, 2.0, 5.0, 4.0, 5.0, 3.0, 0.0, 0.0, 1.0, 1.0, 1.0], "bins": [-0.30298373103141785, -0.2933398485183716, -0.2836959660053253, -0.27405208349227905, -0.2644082009792328, -0.2547643184661865, -0.24512042105197906, -0.2354765385389328, -0.22583265602588654, -0.21618877351284027, -0.206544890999794, -0.19690100848674774, -0.18725711107254028, -0.17761322855949402, -0.16796934604644775, -0.1583254635334015, -0.14868158102035522, -0.13903769850730896, -0.1293938159942627, -0.11974992603063583, -0.11010604351758957, -0.1004621610045433, -0.09081827104091644, -0.08117438852787018, -0.07153050601482391, -0.06188662350177765, -0.052242737263441086, -0.04259885102510452, -0.03295496851205826, -0.023311084136366844, -0.01366719976067543, -0.004023315384984016, 0.0056205689907073975, 0.015264453366398811, 0.024908337742090225, 0.03455222398042679, 0.04419610649347305, 0.05383998900651932, 0.06348387897014618, 0.07312776148319244, 0.08277164399623871, 0.09241552650928497, 0.10205940902233124, 0.1117032989859581, 0.12134718149900436, 0.13099107146263123, 0.1406349539756775, 0.15027883648872375, 0.15992271900177002, 0.16956660151481628, 0.17921048402786255, 0.1888543665409088, 0.19849824905395508, 0.20814214646816254, 0.2177860289812088, 0.22742991149425507, 0.23707379400730133, 0.2467176765203476, 0.25636157393455505, 0.2660054564476013, 0.2756493389606476, 0.28529322147369385, 0.2949371039867401, 0.3045809864997864, 0.31422486901283264]}, "parameters/net.0.bias": {"_type": "histogram", "values": [1.0, 0.0, 2.0, 1.0, 1.0, 0.0, 2.0, 1.0, 0.0, 2.0, 0.0, 1.0, 2.0, 1.0, 2.0, 3.0, 6.0, 4.0, 8.0, 5.0, 6.0, 6.0, 9.0, 5.0, 11.0, 6.0, 8.0, 15.0, 9.0, 10.0, 9.0, 9.0, 10.0, 10.0, 8.0, 4.0, 5.0, 9.0, 8.0, 3.0, 5.0, 5.0, 9.0, 4.0, 4.0, 7.0, 6.0, 2.0, 1.0, 2.0, 4.0, 0.0, 1.0, 0.0, 0.0, 0.0, 1.0, 0.0, 0.0, 0.0, 2.0, 0.0, 0.0, 1.0], "bins": [-0.024063589051365852, -0.023274626582860947, -0.02248566225171089, -0.021696699783205986, -0.02090773545205593, -0.020118772983551025, -0.01932981051504612, -0.018540846183896065, -0.01775188371539116, -0.016962919384241104, -0.0161739569157362, -0.015384993515908718, -0.014596030116081238, -0.013807066716253757, -0.013018104247748852, -0.012229140847921371, -0.011440177448093891, -0.01065121404826641, -0.00986225064843893, -0.009073288179934025, -0.008284324780106544, -0.007495361380279064, -0.006706397980451584, -0.005917435046285391, -0.0051284716464579105, -0.00433950824663043, -0.003550545312464237, -0.002761581912636757, -0.0019726187456399202, -0.0011836555786430836, -0.0003946922952309251, 0.0003942709299735725, 0.00118323415517807, 0.0019721973221749067, 0.0027611604891717434, 0.0035501238889992237, 0.004339086823165417, 0.005128050222992897, 0.005917013622820377, 0.00670597655698657, 0.007494939956814051, 0.008283902890980244, 0.009072866290807724, 0.009861829690635204, 0.010650793090462685, 0.011439756490290165, 0.01222871895879507, 0.013017682358622551, 0.013806645758450031, 0.014595609158277512, 0.015384572558104992, 0.016173535957932472, 0.016962498426437378, 0.017751462757587433, 0.01854042522609234, 0.019329387694597244, 0.0201183520257473, 0.020907314494252205, 0.02169627882540226, 0.022485241293907166, 0.02327420376241207, 0.024063168093562126, 0.024852130562067032, 0.025641094893217087, 0.026430057361721992]}, "parameters/net.2.weight": {"_type": "histogram", "values": [1.0, 0.0, 0.0, 4.0, 8.0, 11.0, 14.0, 25.0, 34.0, 46.0, 70.0, 100.0, 128.0, 152.0, 235.0, 318.0, 423.0, 548.0, 667.0, 854.0, 1063.0, 1205.0, 1551.0, 1782.0, 1987.0, 2261.0, 2540.0, 2806.0, 3013.0, 3164.0, 3207.0, 3392.0, 3360.0, 3369.0, 3259.0, 3325.0, 2974.0, 2640.0, 2485.0, 2132.0, 1928.0, 1686.0, 1411.0, 1136.0, 983.0, 788.0, 659.0, 457.0, 359.0, 284.0, 209.0, 153.0, 104.0, 57.0, 59.0, 31.0, 33.0, 21.0, 9.0, 6.0, 3.0, 1.0, 3.0, 3.0], "bins": [-0.37708422541618347, -0.3654130697250366, -0.35374191403388977, -0.3420707583427429, -0.33039960265159607, -0.3187284469604492, -0.30705732107162476, -0.2953861653804779, -0.28371500968933105, -0.2720438539981842, -0.26037269830703735, -0.2487015426158905, -0.23703038692474365, -0.2253592312335968, -0.21368809044361115, -0.2020169347524643, -0.19034577906131744, -0.1786746233701706, -0.16700346767902374, -0.15533232688903809, -0.14366117119789124, -0.13199001550674438, -0.12031885981559753, -0.10864771157503128, -0.09697655588388443, -0.08530540019273758, -0.07363425195217133, -0.061963096261024475, -0.05029194429516792, -0.03862079232931137, -0.02694963850080967, -0.015278485603630543, -0.003607332706451416, 0.00806382019072771, 0.019734973087906837, 0.03140612691640854, 0.04307727888226509, 0.05474843084812164, 0.0664195865392685, 0.07809073477983475, 0.0897618904709816, 0.10143304616212845, 0.1131041944026947, 0.12477535009384155, 0.1364465057849884, 0.14811766147613525, 0.1597888022661209, 0.17145995795726776, 0.1831311136484146, 0.19480226933956146, 0.2064734250307083, 0.21814456582069397, 0.22981572151184082, 0.24148687720298767, 0.2531580328941345, 0.26482918858528137, 0.2765003442764282, 0.2881714999675751, 0.2998426556587219, 0.3115137815475464, 0.32318493723869324, 0.3348560929298401, 0.34652724862098694, 0.3581984043121338, 0.36986956000328064]}, "parameters/net.2.bias": {"_type": "histogram", "values": [1.0, 0.0, 1.0, 0.0, 0.0, 0.0, 0.0, 2.0, 0.0, 0.0, 1.0, 3.0, 3.0, 1.0, 1.0, 1.0, 3.0, 8.0, 6.0, 9.0, 9.0, 10.0, 6.0, 6.0, 10.0, 7.0, 7.0, 12.0, 7.0, 9.0, 11.0, 18.0, 10.0, 11.0, 11.0, 6.0, 9.0, 8.0, 8.0, 6.0, 3.0, 5.0, 5.0, 1.0, 1.0, 6.0, 3.0, 2.0, 1.0, 2.0, 2.0, 0.0, 1.0, 2.0, 0.0, 0.0, 0.0, 0.0, 0.0, 0.0, 0.0, 0.0, 0.0, 1.0], "bins": [-0.029122771695256233, -0.02805294282734394, -0.0269831120967865, -0.025913283228874207, -0.024843452498316765, -0.023773623630404472, -0.02270379289984703, -0.021633964031934738, -0.020564135164022446, -0.019494304433465004, -0.01842447556555271, -0.01735464483499527, -0.016284815967082977, -0.01521498616784811, -0.014145156368613243, -0.013075326569378376, -0.012005496770143509, -0.010935666970908642, -0.009865837171673775, -0.008796007372438908, -0.007726178038865328, -0.006656348239630461, -0.005586518906056881, -0.004516689106822014, -0.0034468593075871468, -0.0023770295083522797, -0.0013071999419480562, -0.00023737025912851095, 0.0008324594236910343, 0.0019022891065105796, 0.002972118789330125, 0.004041948355734348, 0.005111776292324066, 0.006181606091558933, 0.0072514358907938, 0.008321265690028667, 0.009391095489263535, 0.010460924357175827, 0.011530754156410694, 0.012600583955645561, 0.013670413754880428, 0.014740243554115295, 0.015810072422027588, 0.01687990315258503, 0.017949732020497322, 0.019019562751054764, 0.020089391618967056, 0.021159222349524498, 0.02222905121743679, 0.023298880085349083, 0.024368710815906525, 0.025438539683818817, 0.02650837041437626, 0.02757819928228855, 0.028648030012845993, 0.029717858880758286, 0.030787687748670578, 0.03185751661658287, 0.03292734920978546, 0.033997178077697754, 0.035067006945610046, 0.03613683581352234, 0.03720666840672493, 0.03827649727463722, 0.039346326142549515]}, "parameters/net.4.weight": {"_type": "histogram", "values": [2.0, 0.0, 1.0, 2.0, 1.0, 1.0, 6.0, 7.0, 7.0, 6.0, 7.0, 8.0, 15.0, 16.0, 14.0, 21.0, 24.0, 39.0, 39.0, 39.0, 63.0, 68.0, 79.0, 86.0, 105.0, 84.0, 111.0, 111.0, 116.0, 133.0, 150.0, 137.0, 129.0, 124.0, 126.0, 128.0, 110.0, 114.0, 92.0, 106.0, 105.0, 89.0, 69.0, 61.0, 50.0, 56.0, 40.0, 39.0, 26.0, 24.0, 19.0, 14.0, 13.0, 11.0, 7.0, 5.0, 6.0, 3.0, 3.0, 2.0, 0.0, 1.0, 1.0, 1.0], "bins": [-0.2901250422000885, -0.28115782141685486, -0.2721906304359436, -0.26322340965270996, -0.2542561888694763, -0.24528899788856506, -0.23632177710533142, -0.22735457122325897, -0.21838736534118652, -0.20942015945911407, -0.20045295357704163, -0.19148573279380798, -0.18251852691173553, -0.17355132102966309, -0.16458410024642944, -0.155616894364357, -0.14664968848228455, -0.1376824826002121, -0.12871527671813965, -0.119748055934906, -0.11078085005283356, -0.10181364417076111, -0.09284643083810806, -0.08387921750545502, -0.07491201162338257, -0.06594480574131012, -0.056977592408657074, -0.04801038280129433, -0.03904317319393158, -0.030075963586568832, -0.021108753979206085, -0.012141544371843338, -0.0031743645668029785, 0.005792845040559769, 0.014760054647922516, 0.023727264255285263, 0.03269447386264801, 0.04166168347001076, 0.050628893077373505, 0.05959610268473625, 0.068563312292099, 0.07753051817417145, 0.0864977315068245, 0.09546494483947754, 0.10443215072154999, 0.11339935660362244, 0.12236656993627548, 0.13133378326892853, 0.14030098915100098, 0.14926819503307343, 0.15823540091514587, 0.16720262169837952, 0.17616982758045197, 0.18513703346252441, 0.19410425424575806, 0.2030714601278305, 0.21203866600990295, 0.2210058718919754, 0.22997307777404785, 0.2389402985572815, 0.24790750443935394, 0.2568747103214264, 0.26584193110466003, 0.2748091220855713, 0.28377634286880493]}, "parameters/net.4.bias": {"_type": "histogram", "values": [1.0, 0.0, 0.0, 0.0, 0.0, 0.0, 0.0, 0.0, 0.0, 0.0, 0.0, 0.0, 0.0, 0.0, 0.0, 0.0, 0.0, 0.0, 0.0, 0.0, 0.0, 1.0, 1.0, 0.0, 0.0, 1.0, 0.0, 0.0, 0.0, 0.0, 1.0, 0.0, 1.0, 0.0, 0.0, 0.0, 0.0, 1.0, 0.0, 0.0, 0.0, 0.0, 0.0, 0.0, 0.0, 1.0, 0.0, 0.0, 0.0, 1.0, 1.0, 0.0, 0.0, 0.0, 0.0, 0.0, 1.0, 0.0, 0.0, 0.0, 0.0, 0.0, 0.0, 1.0], "bins": [-0.010701395571231842, -0.010397545993328094, -0.010093695484101772, -0.009789845906198025, -0.009485995396971703, -0.009182145819067955, -0.008878296241164207, -0.008574445731937885, -0.008270596154034138, -0.00796674657613039, -0.007662896066904068, -0.0073590464890003204, -0.007055196445435286, -0.006751346401870251, -0.006447496823966503, -0.006143646780401468, -0.005839796736836433, -0.0055359466932713985, -0.005232096649706364, -0.004928247071802616, -0.004624397028237581, -0.004320546984672546, -0.004016697406768799, -0.003712847363203764, -0.003408997319638729, -0.0031051472760736942, -0.002801297465339303, -0.002497447654604912, -0.002193597611039877, -0.001889747683890164, -0.0015858977567404509, -0.0012820478295907378, -0.0009781969711184502, -0.0006743470439687371, -0.0003704971168190241, -6.664718966931105e-05, 0.000237202737480402, 0.000541052664630115, 0.0008449025917798281, 0.0011487525189295411, 0.0014526024460792542, 0.0017564523732289672, 0.0020603023003786802, 0.0023641521111130714, 0.0026680021546781063, 0.002971852198243141, 0.0032757020089775324, 0.0035795518197119236, 0.0038834018632769585, 0.004187251906841993, 0.004491101950407028, 0.004794951528310776, 0.005098801571875811, 0.0054026516154408455, 0.005706501193344593, 0.006010351236909628, 0.006314201280474663, 0.006618051324039698, 0.0069219013676047325, 0.00722575094550848, 0.007529600989073515, 0.00783345103263855, 0.008137300610542297, 0.00844115111976862, 0.008745000697672367]}, "gradients/net.4.bias": {"_type": "histogram", "values": [1.0, 0.0, 0.0, 0.0, 0.0, 0.0, 0.0, 0.0, 0.0, 2.0, 0.0, 0.0, 0.0, 0.0, 0.0, 0.0, 0.0, 0.0, 1.0, 0.0, 0.0, 0.0, 0.0, 0.0, 0.0, 0.0, 0.0, 0.0, 0.0, 0.0, 0.0, 0.0, 0.0, 0.0, 0.0, 0.0, 0.0, 0.0, 0.0, 0.0, 0.0, 0.0, 1.0, 0.0, 0.0, 1.0, 0.0, 0.0, 1.0, 1.0, 1.0, 0.0, 0.0, 0.0, 0.0, 0.0, 0.0, 0.0, 0.0, 0.0, 0.0, 2.0, 0.0, 1.0], "bins": [-5.986268661217764e-05, -5.847855572937988e-05, -5.7094424846582115e-05, -5.571029396378435e-05, -5.432615944300778e-05, -5.294202856021002e-05, -5.1557897677412257e-05, -5.0173766794614494e-05, -4.878963591181673e-05, -4.740550502901897e-05, -4.60213705082424e-05, -4.4637239625444636e-05, -4.325310874264687e-05, -4.186897785984911e-05, -4.048484697705135e-05, -3.9100716094253585e-05, -3.771658521145582e-05, -3.633245069067925e-05, -3.494831980788149e-05, -3.356418892508373e-05, -3.2180058042285964e-05, -3.07959271594882e-05, -2.9411794457701035e-05, -2.8027663574903272e-05, -2.6643530873116106e-05, -2.5259399990318343e-05, -2.387526910752058e-05, -2.2491138224722818e-05, -2.110700552293565e-05, -1.972287464013789e-05, -1.8338743757340126e-05, -1.695461105555296e-05, -1.55704819917446e-05, -1.4186350199452136e-05, -1.2802219316654373e-05, -1.1418087524361908e-05, -1.0033956641564146e-05, -8.649824849271681e-06, -7.265693056979217e-06, -5.881561719434103e-06, -4.497430381888989e-06, -3.1132990443438757e-06, -1.7291674794250866e-06, -3.450360281931353e-07, 1.039095423038816e-06, 2.4232267605839297e-06, 3.807358325502719e-06, 5.191489890421508e-06, 6.5756212279666215e-06, 7.959753020259086e-06, 9.343883903056849e-06, 1.0728015695349313e-05, 1.2112146578147076e-05, 1.349627837043954e-05, 1.4880410162732005e-05, 1.6264541045529768e-05, 1.764867192832753e-05, 1.9032804630114697e-05, 2.041693551291246e-05, 2.1801066395710222e-05, 2.318519909749739e-05, 2.456932998029515e-05, 2.5953460863092914e-05, 2.733759356488008e-05, 2.8721724447677843e-05]}, "gradients/net.4.weight": {"_type": "histogram", "values": [2.0, 0.0, 0.0, 1.0, 2.0, 3.0, 2.0, 5.0, 3.0, 3.0, 2.0, 6.0, 3.0, 8.0, 8.0, 14.0, 19.0, 13.0, 17.0, 22.0, 24.0, 20.0, 29.0, 50.0, 59.0, 66.0, 72.0, 89.0, 130.0, 145.0, 160.0, 208.0, 208.0, 229.0, 205.0, 217.0, 185.0, 148.0, 132.0, 98.0, 97.0, 71.0, 61.0, 39.0, 40.0, 40.0, 28.0, 21.0, 14.0, 9.0, 8.0, 6.0, 7.0, 4.0, 3.0, 3.0, 3.0, 5.0, 1.0, 1.0, 0.0, 2.0, 1.0, 1.0], "bins": [-3.164286317769438e-05, -3.071952596656047e-05, -2.9796192393405363e-05, -2.8872857001260854e-05, -2.7949519790126942e-05, -2.7026184397982433e-05, -2.6102849005837925e-05, -2.5179513613693416e-05, -2.4256178221548907e-05, -2.33328428294044e-05, -2.2409505618270487e-05, -2.1486170226125978e-05, -2.056283483398147e-05, -1.963949944183696e-05, -1.8716164049692452e-05, -1.7792828657547943e-05, -1.6869493265403435e-05, -1.5946156054269522e-05, -1.5022820662125014e-05, -1.4099485269980505e-05, -1.3176149877835996e-05, -1.2252813576196786e-05, -1.1329478184052277e-05, -1.0406142791907769e-05, -9.482806490268558e-06, -8.55947109812405e-06, -7.636135705979541e-06, -6.712799859087681e-06, -5.789464012195822e-06, -4.866128620051313e-06, -3.942792773159454e-06, -3.0194571536412695e-06, -2.0961215341230854e-06, -1.1727859146049013e-06, -2.494501813998795e-07, 6.738854949617235e-07, 1.5972211713233264e-06, 2.5205567908415105e-06, 3.44389263773337e-06, 4.367228029877879e-06, 5.290563876769738e-06, 6.213899723661598e-06, 7.1372351158061065e-06, 8.060570507950615e-06, 8.983906809589826e-06, 9.907242201734334e-06, 1.0830577593878843e-05, 1.1753913895518053e-05, 1.2677249287662562e-05, 1.360058467980707e-05, 1.4523920981446281e-05, 1.544725637359079e-05, 1.63705917657353e-05, 1.7293927157879807e-05, 1.8217262550024316e-05, 1.9140599761158228e-05, 2.0063935153302737e-05, 2.0987270545447245e-05, 2.1910605937591754e-05, 2.2833941329736263e-05, 2.375727672188077e-05, 2.4680613933014683e-05, 2.5603949325159192e-05, 2.65272847173037e-05, 2.745062010944821e-05]}, "gradients/net.2.bias": {"_type": "histogram", "values": [2.0, 0.0, 0.0, 1.0, 1.0, 0.0, 0.0, 1.0, 2.0, 1.0, 2.0, 0.0, 1.0, 0.0, 1.0, 1.0, 1.0, 5.0, 2.0, 0.0, 4.0, 1.0, 4.0, 6.0, 6.0, 5.0, 9.0, 12.0, 7.0, 10.0, 11.0, 16.0, 15.0, 8.0, 11.0, 9.0, 12.0, 10.0, 6.0, 15.0, 10.0, 2.0, 4.0, 6.0, 3.0, 7.0, 6.0, 4.0, 3.0, 3.0, 3.0, 0.0, 1.0, 0.0, 1.0, 0.0, 1.0, 2.0, 0.0, 0.0, 0.0, 0.0, 1.0, 1.0], "bins": [-2.3161019271356054e-05, -2.2453867131844163e-05, -2.1746714992332272e-05, -2.1039561033830978e-05, -2.0332408894319087e-05, -1.9625256754807197e-05, -1.8918104615295306e-05, -1.821095065679401e-05, -1.750379851728212e-05, -1.679664637777023e-05, -1.608949423825834e-05, -1.538234209874645e-05, -1.4675189049739856e-05, -1.3968036000733264e-05, -1.3260883861221373e-05, -1.255373081221478e-05, -1.184657867270289e-05, -1.1139426533191e-05, -1.0432273484184407e-05, -9.725121344672516e-06, -9.017968295665924e-06, -8.310816156154033e-06, -7.603663561894791e-06, -6.89651096763555e-06, -6.189358373376308e-06, -5.482205779117066e-06, -4.775053184857825e-06, -4.067900590598583e-06, -3.360748223713017e-06, -2.6535956294537755e-06, -1.9464432625682093e-06, -1.2392906683089677e-06, -5.321380740497261e-07, 1.750144633660966e-07, 8.821670007819193e-07, 1.5893194813543232e-06, 2.296472075613565e-06, 3.0036246698728064e-06, 3.7107770367583726e-06, 4.417929631017614e-06, 5.125082225276856e-06, 5.832234819536097e-06, 6.539387413795339e-06, 7.2465400080545805e-06, 7.953692147566471e-06, 8.660845196573064e-06, 9.367997336084954e-06, 1.0075150385091547e-05, 1.0782302524603438e-05, 1.1489454664115328e-05, 1.219660771312192e-05, 1.2903759852633812e-05, 1.3610912901640404e-05, 1.4318065041152295e-05, 1.5025218090158887e-05, 1.5732370229670778e-05, 1.643952236918267e-05, 1.714667450869456e-05, 1.7853828467195854e-05, 1.8560980606707744e-05, 1.9268132746219635e-05, 1.9975284885731526e-05, 2.068243884423282e-05, 2.138959098374471e-05, 2.20967431232566e-05]}, "gradients/net.2.weight": {"_type": "histogram", "values": [2.0, 1.0, 0.0, 2.0, 1.0, 2.0, 3.0, 5.0, 7.0, 7.0, 10.0, 12.0, 11.0, 16.0, 20.0, 34.0, 53.0, 69.0, 62.0, 104.0, 123.0, 177.0, 261.0, 359.0, 495.0, 649.0, 1007.0, 1669.0, 2509.0, 4214.0, 7185.0, 13153.0, 13666.0, 7631.0, 4251.0, 2630.0, 1584.0, 1053.0, 711.0, 463.0, 331.0, 255.0, 189.0, 123.0, 115.0, 71.0, 61.0, 53.0, 24.0, 30.0, 14.0, 17.0, 9.0, 8.0, 7.0, 7.0, 2.0, 3.0, 2.0, 2.0, 0.0, 1.0, 0.0, 1.0], "bins": [-9.836056960921269e-06, -9.528996088192798e-06, -9.22193612495903e-06, -8.914875252230559e-06, -8.607814379502088e-06, -8.300753506773617e-06, -7.993692634045146e-06, -7.686632670811377e-06, -7.379571798082907e-06, -7.072510925354436e-06, -6.765450507373316e-06, -6.458390089392196e-06, -6.151329216663726e-06, -5.844268343935255e-06, -5.537207925954135e-06, -5.230147507973015e-06, -4.923086635244545e-06, -4.616025762516074e-06, -4.308965344534954e-06, -4.001904926553834e-06, -3.6948440538253635e-06, -3.3877834084705682e-06, -3.080722763115773e-06, -2.7736621177609777e-06, -2.4666014724061824e-06, -2.159540827051387e-06, -1.852480181696592e-06, -1.5454195363417966e-06, -1.2383588909870014e-06, -9.312982456322061e-07, -6.242376002774108e-07, -3.1717695492261555e-07, -1.011630956782028e-08, 2.96944335786975e-07, 6.040049811417703e-07, 9.110656264965655e-07, 1.2181262718513608e-06, 1.525186917206156e-06, 1.8322475625609513e-06, 2.1393082079157466e-06, 2.446368853270542e-06, 2.753429498625337e-06, 3.0604901439801324e-06, 3.3675507893349277e-06, 3.674611434689723e-06, 3.981672307418194e-06, 4.2887327253993135e-06, 4.595793143380433e-06, 4.902854016108904e-06, 5.209914888837375e-06, 5.5169753068184946e-06, 5.824035724799614e-06, 6.131096597528085e-06, 6.438157470256556e-06, 6.745217888237676e-06, 7.0522783062187955e-06, 7.359339178947266e-06, 7.666400051675737e-06, 7.973460014909506e-06, 8.280520887637977e-06, 8.587581760366447e-06, 8.894642633094918e-06, 9.201703505823389e-06, 9.508763469057158e-06, 9.815824341785628e-06]}, "gradients/net.0.bias": {"_type": "histogram", "values": [1.0, 0.0, 0.0, 0.0, 0.0, 0.0, 1.0, 0.0, 0.0, 2.0, 0.0, 0.0, 2.0, 2.0, 1.0, 1.0, 1.0, 2.0, 1.0, 3.0, 4.0, 6.0, 4.0, 3.0, 7.0, 4.0, 4.0, 10.0, 6.0, 3.0, 6.0, 13.0, 11.0, 13.0, 10.0, 11.0, 8.0, 10.0, 11.0, 9.0, 6.0, 6.0, 10.0, 3.0, 9.0, 7.0, 6.0, 5.0, 6.0, 2.0, 3.0, 2.0, 4.0, 4.0, 0.0, 2.0, 2.0, 0.0, 4.0, 2.0, 2.0, 0.0, 0.0, 1.0], "bins": [-3.344520155224018e-05, -3.250887675676495e-05, -3.157254832331091e-05, -3.063622352783568e-05, -2.9699895094381645e-05, -2.8763568479917012e-05, -2.7827243684441783e-05, -2.689091706997715e-05, -2.5954590455512516e-05, -2.5018263841047883e-05, -2.408193722658325e-05, -2.3145610612118617e-05, -2.2209283997653984e-05, -2.127295738318935e-05, -2.0336630768724717e-05, -1.9400304154260084e-05, -1.8463979358784854e-05, -1.752765274432022e-05, -1.6591326129855588e-05, -1.5654999515390955e-05, -1.4718672900926322e-05, -1.3782346286461689e-05, -1.2846019671997055e-05, -1.1909693057532422e-05, -1.0973366443067789e-05, -1.0037040738097858e-05, -9.100714123633225e-06, -8.164387509168591e-06, -7.228060894703958e-06, -6.291734734986676e-06, -5.355408120522043e-06, -4.4190819608047605e-06, -3.4827553463401273e-06, -2.5464289592491696e-06, -1.6101024584713741e-06, -6.737760145369975e-07, 2.6255042939737905e-07, 1.1988768164883368e-06, 2.13520343095297e-06, 3.0715298180439277e-06, 4.007856205134885e-06, 4.9441828195995186e-06, 5.880508979316801e-06, 6.816835593781434e-06, 7.753162208246067e-06, 8.6894888227107e-06, 9.625814527680632e-06, 1.0562141142145265e-05, 1.1498467756609898e-05, 1.2434794371074531e-05, 1.3371120985539164e-05, 1.4307446690509096e-05, 1.5243773304973729e-05, 1.6180099919438362e-05, 1.7116426533902995e-05, 1.805275314836763e-05, 1.898907976283226e-05, 1.9925406377296895e-05, 2.0861732991761528e-05, 2.1798057787236758e-05, 2.273438440170139e-05, 2.3670711016166024e-05, 2.4607037630630657e-05, 2.554336424509529e-05, 2.6479690859559923e-05]}, "gradients/net.0.weight": {"_type": "histogram", "values": [1.0, 0.0, 0.0, 0.0, 1.0, 1.0, 0.0, 1.0, 1.0, 3.0, 1.0, 4.0, 4.0, 6.0, 7.0, 11.0, 13.0, 14.0, 18.0, 16.0, 40.0, 40.0, 46.0, 60.0, 69.0, 75.0, 123.0, 169.0, 200.0, 217.0, 218.0, 215.0, 243.0, 244.0, 188.0, 180.0, 133.0, 115.0, 87.0, 71.0, 56.0, 36.0, 21.0, 29.0, 18.0, 20.0, 14.0, 12.0, 3.0, 6.0, 7.0, 4.0, 1.0, 4.0, 0.0, 2.0, 0.0, 0.0, 0.0, 1.0, 1.0, 1.0, 0.0, 1.0], "bins": [-3.067790385102853e-05, -2.9711663955822587e-05, -2.8745425879606046e-05, -2.77791859844001e-05, -2.6812946089194156e-05, -2.5846708012977615e-05, -2.488046811777167e-05, -2.3914228222565725e-05, -2.294798832735978e-05, -2.198175025114324e-05, -2.1015510355937295e-05, -2.004927046073135e-05, -1.908303238451481e-05, -1.8116792489308864e-05, -1.715055259410292e-05, -1.6184314517886378e-05, -1.5218074622680433e-05, -1.425183563696919e-05, -1.3285595741763245e-05, -1.2319356756052002e-05, -1.1353116860846058e-05, -1.0386877875134815e-05, -9.420638889423572e-06, -8.454398994217627e-06, -7.488160008506384e-06, -6.52192056804779e-06, -5.555681127589196e-06, -4.589442141877953e-06, -3.623202701419359e-06, -2.656963260960765e-06, -1.6907240478758467e-06, -7.244847211040906e-07, 2.417546056676656e-07, 1.2079939324394218e-06, 2.174233259211178e-06, 3.1404724722960964e-06, 4.10671191275469e-06, 5.072951353213284e-06, 6.039190338924527e-06, 7.005429779383121e-06, 7.971669219841715e-06, 8.937908205552958e-06, 9.904148100758903e-06, 1.0870387086470146e-05, 1.1836626072181389e-05, 1.2802865967387334e-05, 1.3769104953098577e-05, 1.4735344848304521e-05, 1.5701583834015764e-05, 1.666782372922171e-05, 1.763406180543825e-05, 1.8600301700644195e-05, 1.956654159585014e-05, 2.053277967206668e-05, 2.1499019567272626e-05, 2.246525946247857e-05, 2.3431497538695112e-05, 2.4397737433901057e-05, 2.5363977329107e-05, 2.6330217224312946e-05, 2.7296455300529487e-05, 2.8262695195735432e-05, 2.9228935090941377e-05, 3.0195173167157918e-05, 3.116141306236386e-05]}, "_wandb": {"runtime": 614}}