{"train_loss": 0.0002755301247816533, "train_grad": 3.0476910978904925e-05, "test_loss": 0.0002672409755177796, "test_grad": 3.04283184959786e-05, "_timestamp": 1717543758.510538, "_runtime": 49.442941188812256, "_step": 499, "gradients/net.0.weight": {"_type": "histogram", "values": [1.0, 2.0, 3.0, 1.0, 3.0, 1.0, 3.0, 2.0, 4.0, 5.0, 4.0, 4.0, 5.0, 10.0, 8.0, 8.0, 16.0, 17.0, 17.0, 33.0, 43.0, 53.0, 55.0, 81.0, 95.0, 134.0, 169.0, 201.0, 236.0, 275.0, 252.0, 258.0, 222.0, 164.0, 146.0, 125.0, 83.0, 77.0, 59.0, 31.0, 34.0, 26.0, 26.0, 19.0, 10.0, 9.0, 8.0, 4.0, 3.0, 3.0, 4.0, 2.0, 3.0, 4.0, 3.0, 0.0, 2.0, 1.0, 1.0, 0.0, 2.0, 0.0, 1.0, 1.0], "bins": [-4.4064850044378545e-06, -4.2605674934748095e-06, -4.114649982511764e-06, -3.96873292629607e-06, -3.822815415333025e-06, -3.67689790436998e-06, -3.530980393406935e-06, -3.38506288244389e-06, -3.2391455988545204e-06, -3.0932280878914753e-06, -2.9473108043021057e-06, -2.8013932933390606e-06, -2.6554757823760156e-06, -2.509558498786646e-06, -2.363640987823601e-06, -2.2177237042342313e-06, -2.071806193271186e-06, -1.925888682308141e-06, -1.7799713987187715e-06, -1.6340538877557265e-06, -1.4881364904795191e-06, -1.3422190932033118e-06, -1.1963015822402667e-06, -1.0503841849640594e-06, -9.04466787687852e-07, -7.585493904116447e-07, -6.126319362920185e-07, -4.6671451059410174e-07, -3.2079708489618497e-07, -1.7487968761997763e-07, -2.896223350035143e-08, 1.1695522061927477e-07, 2.628721631481312e-07, 4.08789588846048e-07, 5.547070145439648e-07, 7.00624468663591e-07, 8.465418659397983e-07, 9.924592632160056e-07, 1.1383767741790507e-06, 1.284294171455258e-06, 1.4302115687314654e-06, 1.5761289660076727e-06, 1.72204636328388e-06, 1.8679638742469251e-06, 2.01388138520997e-06, 2.15979866879934e-06, 2.305716179762385e-06, 2.4516334633517545e-06, 2.5975509743147995e-06, 2.7434684852778446e-06, 2.889385768867214e-06, 3.0353032798302593e-06, 3.181220563419629e-06, 3.327138074382674e-06, 3.473055585345719e-06, 3.618973096308764e-06, 3.7648903798981337e-06, 3.910807663487503e-06, 4.056725174450548e-06, 4.2026426854135934e-06, 4.3485601963766385e-06, 4.494477252592333e-06, 4.640394763555378e-06, 4.786312274518423e-06, 4.932229785481468e-06]}, "gradients/net.2.weight": {"_type": "histogram", "values": [2.0, 0.0, 1.0, 1.0, 3.0, 1.0, 2.0, 4.0, 5.0, 18.0, 17.0, 11.0, 24.0, 21.0, 44.0, 49.0, 50.0, 96.0, 106.0, 138.0, 160.0, 237.0, 271.0, 362.0, 432.0, 590.0, 790.0, 1019.0, 1469.0, 2327.0, 3889.0, 7852.0, 17187.0, 12766.0, 5664.0, 2960.0, 1861.0, 1270.0, 877.0, 664.0, 522.0, 373.0, 302.0, 250.0, 177.0, 150.0, 121.0, 116.0, 66.0, 51.0, 32.0, 33.0, 23.0, 18.0, 18.0, 13.0, 7.0, 8.0, 6.0, 2.0, 3.0, 2.0, 2.0, 1.0], "bins": [-1.844433427322656e-06, -1.788171516636794e-06, -1.7319097196377697e-06, -1.6756478089519078e-06, -1.6193858982660458e-06, -1.5631239875801839e-06, -1.5068621905811597e-06, -1.4506002798952977e-06, -1.3943383692094358e-06, -1.3380764585235738e-06, -1.2818146615245496e-06, -1.2255527508386876e-06, -1.1692908401528257e-06, -1.1130289294669637e-06, -1.0567671324679395e-06, -1.0005052217820776e-06, -9.442434247830533e-07, -8.879815709406103e-07, -8.317196602547483e-07, -7.754578064123052e-07, -7.191958957264433e-07, -6.629340418840002e-07, -6.066721880415571e-07, -5.504102773556951e-07, -4.941484235132521e-07, -4.3788654124909954e-07, -3.81624658984947e-07, -3.2536280514250393e-07, -2.691009228783514e-07, -2.128390406141989e-07, -1.565771867717558e-07, -1.0031530450760329e-07, -4.405342224345077e-08, 1.2208452915274393e-08, 6.847032807399955e-08, 1.2473219612729736e-07, 1.8099407839144988e-07, 2.372559606556024e-07, 2.935178144980455e-07, 3.49779696762198e-07, 4.060415790263505e-07, 4.6230346129050304e-07, 5.185653435546556e-07, 5.748271973970986e-07, 6.310890512395417e-07, 6.873509619254037e-07, 7.436128157678468e-07, 7.998746696102899e-07, 8.561365802961518e-07, 9.123984341385949e-07, 9.68660287981038e-07, 1.0249221986669e-06, 1.0811841093527619e-06, 1.1374459063517861e-06, 1.193707817037648e-06, 1.24996972772351e-06, 1.3062315247225342e-06, 1.3624934354083962e-06, 1.4187552324074204e-06, 1.4750171430932824e-06, 1.5312790537791443e-06, 1.5875409644650063e-06, 1.6438027614640305e-06, 1.7000646721498924e-06, 1.7563265828357544e-06]}, "gradients/net.4.bias": {"_type": "histogram", "values": [1.0, 0.0, 0.0, 0.0, 0.0, 2.0, 0.0, 1.0, 0.0, 0.0, 0.0, 0.0, 0.0, 0.0, 0.0, 0.0, 0.0, 0.0, 0.0, 1.0, 0.0, 0.0, 0.0, 0.0, 0.0, 0.0, 0.0, 0.0, 0.0, 0.0, 0.0, 0.0, 1.0, 0.0, 0.0, 0.0, 0.0, 0.0, 0.0, 0.0, 1.0, 0.0, 0.0, 0.0, 1.0, 0.0, 0.0, 1.0, 0.0, 0.0, 0.0, 0.0, 0.0, 0.0, 0.0, 1.0, 1.0, 0.0, 0.0, 0.0, 0.0, 0.0, 0.0, 1.0], "bins": [-4.40697522208211e-06, -4.2600463530106936e-06, -4.113117483939277e-06, -3.9661886148678605e-06, -3.819259745796444e-06, -3.672330649351352e-06, -3.5254017802799353e-06, -3.3784726838348433e-06, -3.2315438147634268e-06, -3.0846149456920102e-06, -2.9376860766205937e-06, -2.790757207549177e-06, -2.643828111104085e-06, -2.4968992420326686e-06, -2.349970372961252e-06, -2.20304127651616e-06, -2.056112634818419e-06, -1.9091837657470023e-06, -1.762254782988748e-06, -1.6153259139173315e-06, -1.4683969311590772e-06, -1.3214680620876607e-06, -1.174539193016244e-06, -1.0276102102579898e-06, -8.806813411865733e-07, -7.337524152717378e-07, -5.868234893569024e-07, -4.3989462028548587e-07, -2.9296569437065045e-07, -1.4603676845581504e-07, 8.92100615601521e-10, 1.478210833738558e-07, 2.9474995244527236e-07, 4.416788783601078e-07, 5.886078042749432e-07, 7.355366733463597e-07, 8.824655992611952e-07, 1.0293945251760306e-06, 1.1763233942474471e-06, 1.3232523770057014e-06, 1.470181246077118e-06, 1.6171101151485345e-06, 1.7640390979067888e-06, 1.9109679669782054e-06, 2.057896836049622e-06, 2.2048257051210385e-06, 2.351754574192455e-06, 2.498683670637547e-06, 2.6456125397089636e-06, 2.79254140878038e-06, 2.9394702778517967e-06, 3.0863993742968887e-06, 3.2333282433683053e-06, 3.380257112439722e-06, 3.5271859815111384e-06, 3.674114850582555e-06, 3.8210437196539715e-06, 3.967972588725388e-06, 4.114901457796805e-06, 4.261830326868221e-06, 4.408759195939638e-06, 4.555688065011054e-06, 4.702616934082471e-06, 4.849546257901238e-06, 4.996475126972655e-06]}, "gradients/net.4.weight": {"_type": "histogram", "values": [1.0, 0.0, 1.0, 0.0, 5.0, 3.0, 5.0, 6.0, 9.0, 8.0, 9.0, 16.0, 13.0, 21.0, 22.0, 33.0, 34.0, 32.0, 49.0, 49.0, 62.0, 108.0, 140.0, 171.0, 210.0, 324.0, 513.0, 246.0, 174.0, 134.0, 121.0, 99.0, 72.0, 58.0, 49.0, 47.0, 30.0, 26.0, 23.0, 25.0, 23.0, 11.0, 15.0, 10.0, 10.0, 5.0, 6.0, 9.0, 6.0, 7.0, 3.0, 1.0, 2.0, 2.0, 4.0, 1.0, 3.0, 2.0, 3.0, 0.0, 0.0, 0.0, 0.0, 1.0], "bins": [-4.992412868887186e-06, -4.804519903700566e-06, -4.616626483766595e-06, -4.428733518579975e-06, -4.240840098646004e-06, -4.052947133459384e-06, -3.8650541682727635e-06, -3.6771607483387925e-06, -3.489267555778497e-06, -3.3013743632182013e-06, -3.1134811706579057e-06, -2.92558797809761e-06, -2.73769501291099e-06, -2.549801592977019e-06, -2.361908627790399e-06, -2.1740154352301033e-06, -1.9861222426698077e-06, -1.7982290501095122e-06, -1.6103358575492166e-06, -1.4224427786757587e-06, -1.2345495861154632e-06, -1.0466563935551676e-06, -8.587633146817097e-07, -6.708701221214142e-07, -4.829769295611186e-07, -2.9508376542253245e-07, -1.0719060128394631e-07, 8.07025344329304e-08, 2.68595726993226e-07, 4.5648891955352155e-07, 6.443819984269794e-07, 8.32275190987275e-07, 1.0201683835475706e-06, 1.2080615761078661e-06, 1.3959547686681617e-06, 1.5838478475416196e-06, 1.7717410401019151e-06, 1.959634118975373e-06, 2.1475273115356686e-06, 2.335420504095964e-06, 2.5233136966562597e-06, 2.7112068892165553e-06, 2.899100081776851e-06, 3.0869932743371464e-06, 3.2748862395237666e-06, 3.4627796594577376e-06, 3.6506726246443577e-06, 3.838566044578329e-06, 4.026459009764949e-06, 4.214351974951569e-06, 4.40224539488554e-06, 4.59013836007216e-06, 4.778031780006131e-06, 4.965924745192751e-06, 5.153818165126722e-06, 5.3417111303133424e-06, 5.5296040954999626e-06, 5.717497060686583e-06, 5.905390480620554e-06, 6.093283445807174e-06, 6.281176865741145e-06, 6.469069830927765e-06, 6.656962796114385e-06, 6.844856216048356e-06, 7.032749635982327e-06]}, "gradients/net.0.bias": {"_type": "histogram", "values": [1.0, 0.0, 0.0, 0.0, 1.0, 0.0, 0.0, 1.0, 0.0, 0.0, 2.0, 0.0, 1.0, 0.0, 3.0, 4.0, 3.0, 3.0, 4.0, 4.0, 2.0, 5.0, 1.0, 2.0, 3.0, 8.0, 5.0, 6.0, 4.0, 6.0, 8.0, 6.0, 9.0, 11.0, 18.0, 10.0, 9.0, 8.0, 7.0, 13.0, 8.0, 6.0, 7.0, 6.0, 2.0, 7.0, 2.0, 4.0, 6.0, 4.0, 3.0, 3.0, 6.0, 4.0, 5.0, 2.0, 0.0, 3.0, 4.0, 0.0, 0.0, 3.0, 2.0, 1.0], "bins": [-4.447425453690812e-06, -4.324140718381386e-06, -4.20085552832461e-06, -4.077570793015184e-06, -3.954285602958407e-06, -3.8310008676489815e-06, -3.7077161323395558e-06, -3.5844311696564546e-06, -3.4611462069733534e-06, -3.3378612442902522e-06, -3.214576281607151e-06, -3.0912915462977253e-06, -2.968006583614624e-06, -2.844721620931523e-06, -2.721436885622097e-06, -2.598151922938996e-06, -2.474866960255895e-06, -2.3515819975727936e-06, -2.2282970348896924e-06, -2.1050122995802667e-06, -1.9817273368971655e-06, -1.8584423742140643e-06, -1.7351575252178009e-06, -1.6118726762215374e-06, -1.4885877135384362e-06, -1.365302750855335e-06, -1.2420179018590716e-06, -1.1187330528628081e-06, -9.95448090179707e-07, -8.721631843400246e-07, -7.488782785003423e-07, -6.2559337266066e-07, -5.023084668209776e-07, -3.790235609812953e-07, -2.55738655141613e-07, -1.3245374930193066e-07, -9.168843462248333e-09, 1.1411606237743399e-07, 2.3740096821711631e-07, 3.6068587405679864e-07, 4.83970779896481e-07, 6.072556857361633e-07, 7.305405915758456e-07, 8.538254974155279e-07, 9.771104032552103e-07, 1.1003953659383114e-06, 1.223680214934575e-06, 1.3469650639308384e-06, 1.4702500266139396e-06, 1.5935349892970407e-06, 1.7168198382933042e-06, 1.8401046872895677e-06, 1.963389649972669e-06, 2.08667461265577e-06, 2.2099593479651958e-06, 2.333244310648297e-06, 2.456529273331398e-06, 2.5798142360144993e-06, 2.7030991986976005e-06, 2.8263839340070263e-06, 2.9496688966901274e-06, 3.0729538593732286e-06, 3.1962385946826544e-06, 3.3195235573657556e-06, 3.4428085200488567e-06]}, "gradients/net.2.bias": {"_type": "histogram", "values": [2.0, 1.0, 0.0, 0.0, 0.0, 1.0, 0.0, 1.0, 1.0, 2.0, 0.0, 0.0, 1.0, 2.0, 2.0, 2.0, 3.0, 1.0, 3.0, 3.0, 6.0, 3.0, 1.0, 6.0, 6.0, 5.0, 8.0, 9.0, 10.0, 20.0, 23.0, 16.0, 15.0, 15.0, 14.0, 6.0, 11.0, 9.0, 7.0, 6.0, 3.0, 2.0, 5.0, 3.0, 4.0, 2.0, 1.0, 3.0, 1.0, 2.0, 3.0, 1.0, 0.0, 2.0, 0.0, 1.0, 0.0, 0.0, 0.0, 0.0, 0.0, 0.0, 1.0, 1.0], "bins": [-3.197097157681128e-06, -3.0936637358536245e-06, -2.9902300866524456e-06, -2.886796664824942e-06, -2.7833632429974386e-06, -2.6799295937962597e-06, -2.5764961719687562e-06, -2.4730625227675773e-06, -2.369629100940074e-06, -2.2661956791125704e-06, -2.1627620299113914e-06, -2.059328608083888e-06, -1.9558951862563845e-06, -1.8524615370552056e-06, -1.749028115227702e-06, -1.6455945797133609e-06, -1.5421611578858574e-06, -1.4387276223715162e-06, -1.3352942005440127e-06, -1.2318606650296715e-06, -1.1284271295153303e-06, -1.0249937076878268e-06, -9.215601721734856e-07, -8.181266366591444e-07, -7.146931579882221e-07, -6.112596793172997e-07, -5.078261438029585e-07, -4.043926651320362e-07, -3.0095915803940443e-07, -1.9752565094677266e-07, -9.409217227585032e-08, 9.341363238490885e-09, 1.1277484190941323e-07, 2.16208349002045e-07, 3.1964185609467677e-07, 4.230753347655991e-07, 5.265088702799403e-07, 6.299423489508627e-07, 7.33375827621785e-07, 8.368093631361262e-07, 9.402428418070485e-07, 1.0436763204779709e-06, 1.147109855992312e-06, 1.2505433915066533e-06, 1.3539768133341568e-06, 1.457410348848498e-06, 1.5608438843628392e-06, 1.6642773061903426e-06, 1.7677108417046838e-06, 1.871144377219025e-06, 1.9745777990465285e-06, 2.078011220874032e-06, 2.181444870075211e-06, 2.2848782919027144e-06, 2.388311713730218e-06, 2.491745362931397e-06, 2.5951787847589003e-06, 2.6986122065864038e-06, 2.8020458557875827e-06, 2.905479277615086e-06, 3.0089126994425897e-06, 3.1123463486437686e-06, 3.215779770471272e-06, 3.3192131922987755e-06, 3.4226468414999545e-06]}, "_wandb": {"runtime": 48}}