{"train_loss": 2.2546171294379747e-06, "test_loss": 5.26674648426706e-06, "_timestamp": 1717543807.360037, "_runtime": 23.536701202392578, "_step": 499, "parameters/net.0.weight": {"_type": "histogram", "values": [1.0, 1.0, 1.0, 2.0, 0.0, 1.0, 1.0, 5.0, 7.0, 9.0, 5.0, 7.0, 17.0, 9.0, 23.0, 19.0, 26.0, 36.0, 39.0, 54.0, 51.0, 68.0, 76.0, 67.0, 90.0, 102.0, 96.0, 138.0, 125.0, 104.0, 143.0, 115.0, 144.0, 134.0, 133.0, 120.0, 112.0, 125.0, 102.0, 114.0, 89.0, 86.0, 80.0, 62.0, 58.0, 44.0, 40.0, 34.0, 46.0, 18.0, 25.0, 14.0, 14.0, 14.0, 7.0, 7.0, 6.0, 1.0, 0.0, 0.0, 3.0, 0.0, 0.0, 2.0], "bins": [-0.3521667718887329, -0.3414052724838257, -0.33064380288124084, -0.3198823034763336, -0.3091208040714264, -0.29835933446884155, -0.2875978350639343, -0.2768363356590271, -0.2660748362541199, -0.25531333684921265, -0.2445518523454666, -0.23379036784172058, -0.22302886843681335, -0.21226738393306732, -0.2015058994293213, -0.19074440002441406, -0.17998293042182922, -0.1692214459180832, -0.15845994651317596, -0.14769846200942993, -0.1369369626045227, -0.12617547810077667, -0.11541399359703064, -0.10465250164270401, -0.09389100968837738, -0.08312951773405075, -0.07236802577972412, -0.06160654127597809, -0.05084504932165146, -0.04008355736732483, -0.029322072863578796, -0.018560580909252167, -0.007799118757247925, 0.0029623713344335556, 0.013723861426115036, 0.024485349655151367, 0.035246841609478, 0.046008333563804626, 0.05676981806755066, 0.06753131002187729, 0.07829280197620392, 0.08905429393053055, 0.09981578588485718, 0.11057727038860321, 0.12133876234292984, 0.13210025429725647, 0.1428617388010025, 0.15362322330474854, 0.16438472270965576, 0.1751462072134018, 0.18590770661830902, 0.19666919112205505, 0.20743069052696228, 0.2181921750307083, 0.22895365953445435, 0.23971515893936157, 0.2504766583442688, 0.261238157749176, 0.27199962735176086, 0.2827611267566681, 0.2935226261615753, 0.30428409576416016, 0.3150455951690674, 0.3258070945739746, 0.33656856417655945]}, "parameters/net.0.bias": {"_type": "histogram", "values": [2.0, 0.0, 0.0, 0.0, 0.0, 1.0, 0.0, 1.0, 2.0, 0.0, 0.0, 2.0, 6.0, 1.0, 4.0, 4.0, 4.0, 5.0, 10.0, 6.0, 10.0, 7.0, 10.0, 4.0, 9.0, 9.0, 4.0, 6.0, 6.0, 3.0, 6.0, 4.0, 2.0, 2.0, 7.0, 4.0, 9.0, 2.0, 9.0, 5.0, 6.0, 5.0, 7.0, 9.0, 12.0, 2.0, 10.0, 7.0, 7.0, 6.0, 3.0, 3.0, 4.0, 3.0, 1.0, 2.0, 1.0, 0.0, 0.0, 1.0, 0.0, 0.0, 0.0, 1.0], "bins": [-0.015767036005854607, -0.015276630409061909, -0.01478622481226921, -0.014295820146799088, -0.01380541455000639, -0.013315008953213692, -0.012824603356420994, -0.012334197759628296, -0.011843793094158173, -0.011353387497365475, -0.010862981900572777, -0.010372577235102654, -0.009882171638309956, -0.009391766041517258, -0.00890136044472456, -0.008410954847931862, -0.007920549251139164, -0.007430143654346466, -0.0069397385232150555, -0.0064493329264223576, -0.005958927795290947, -0.005468522198498249, -0.004978116601705551, -0.004487711004912853, -0.003997305873781443, -0.0035069005098193884, -0.003016495145857334, -0.0025260895490646362, -0.002035684185102582, -0.0015452788211405277, -0.0010548732243478298, -0.0005644678603857756, -7.406249642372131e-05, 0.00041634292574599385, 0.000906748347915709, 0.001397153828293085, 0.0018875591922551394, 0.0023779645562171936, 0.0028683701530098915, 0.0033587755169719458, 0.003849180880934, 0.004339586477726698, 0.0048299916088581085, 0.005320397205650806, 0.005810802802443504, 0.006301207933574915, 0.006791613530367613, 0.0072820186614990234, 0.007772424258291721, 0.00826282985508442, 0.008753235451877117, 0.009243641048669815, 0.009734045714139938, 0.010224451310932636, 0.010714856907725334, 0.011205262504518032, 0.01169566810131073, 0.012186073698103428, 0.012676479294896126, 0.013166883960366249, 0.013657289557158947, 0.014147695153951645, 0.014638100750744343, 0.01512850634753704, 0.015618911013007164]}, "parameters/net.2.weight": {"_type": "histogram", "values": [4.0, 4.0, 2.0, 7.0, 13.0, 15.0, 14.0, 28.0, 45.0, 67.0, 103.0, 144.0, 161.0, 249.0, 308.0, 427.0, 548.0, 760.0, 883.0, 1053.0, 1261.0, 1494.0, 1725.0, 2055.0, 2326.0, 2490.0, 2687.0, 3091.0, 3154.0, 3288.0, 3323.0, 3313.0, 3332.0, 3216.0, 3109.0, 2869.0, 2613.0, 2449.0, 2162.0, 1931.0, 1620.0, 1444.0, 1244.0, 1025.0, 769.0, 655.0, 541.0, 401.0, 332.0, 228.0, 176.0, 125.0, 77.0, 62.0, 43.0, 17.0, 19.0, 14.0, 8.0, 7.0, 1.0, 4.0, 0.0, 1.0], "bins": [-0.39910441637039185, -0.386370986700058, -0.3736375570297241, -0.36090415716171265, -0.3481707274913788, -0.3354372978210449, -0.32270389795303345, -0.3099704682826996, -0.2972370386123657, -0.28450360894203186, -0.271770179271698, -0.2590367794036865, -0.24630334973335266, -0.2335699200630188, -0.22083650529384613, -0.20810309052467346, -0.1953696608543396, -0.18263623118400574, -0.16990281641483307, -0.1571694016456604, -0.14443597197532654, -0.13170254230499268, -0.11896912753582001, -0.10623570531606674, -0.09350228309631348, -0.08076886087656021, -0.06803543865680695, -0.05530201643705368, -0.042568594217300415, -0.02983517199754715, -0.017101749777793884, -0.004368327558040619, 0.008365094661712646, 0.021098516881465912, 0.03383193910121918, 0.04656536132097244, 0.05929878354072571, 0.07203220576047897, 0.08476562798023224, 0.0974990501999855, 0.11023247241973877, 0.12296589463949203, 0.1356993168592453, 0.14843273162841797, 0.16116616129875183, 0.1738995909690857, 0.18663300573825836, 0.19936642050743103, 0.2120998501777649, 0.22483327984809875, 0.23756669461727142, 0.2503001093864441, 0.26303353905677795, 0.2757669687271118, 0.2885003685951233, 0.30123379826545715, 0.313967227935791, 0.3267006576061249, 0.33943408727645874, 0.3521674871444702, 0.3649009168148041, 0.37763434648513794, 0.3903677463531494, 0.4031011760234833, 0.41583460569381714]}, "parameters/net.2.bias": {"_type": "histogram", "values": [2.0, 0.0, 0.0, 0.0, 2.0, 0.0, 1.0, 2.0, 0.0, 1.0, 3.0, 1.0, 6.0, 3.0, 5.0, 8.0, 5.0, 6.0, 9.0, 6.0, 8.0, 4.0, 5.0, 7.0, 3.0, 3.0, 6.0, 3.0, 7.0, 7.0, 6.0, 2.0, 3.0, 2.0, 3.0, 10.0, 2.0, 8.0, 2.0, 9.0, 5.0, 9.0, 7.0, 10.0, 14.0, 5.0, 7.0, 7.0, 4.0, 5.0, 6.0, 2.0, 3.0, 1.0, 3.0, 0.0, 0.0, 1.0, 1.0, 2.0, 2.0, 0.0, 0.0, 2.0], "bins": [-0.014613088220357895, -0.014143074862658978, -0.013673060573637486, -0.013203047215938568, -0.01273303385823965, -0.012263020500540733, -0.011793006211519241, -0.011322992853820324, -0.010852979496121407, -0.01038296613842249, -0.009912951849400997, -0.00944293849170208, -0.008972925134003162, -0.008502911776304245, -0.008032897487282753, -0.007562884129583836, -0.007092869840562344, -0.006622856017202139, -0.0061528426595032215, -0.005682828836143017, -0.005212815478444099, -0.004742801655083895, -0.00427278783172369, -0.003802774241194129, -0.003332760650664568, -0.002862747060135007, -0.002392733469605446, -0.0019227196462452412, -0.0014527060557156801, -0.000982692465186119, -0.0005126786418259144, -4.266505129635334e-05, 0.0004273485392332077, 0.0008973621879704297, 0.0013673758367076516, 0.0018373895436525345, 0.0023074031341820955, 0.0027774167247116566, 0.0032474305480718613, 0.0037174441386014223, 0.004187457729130983, 0.004657471552491188, 0.0051274849101901054, 0.00559749873355031, 0.006067512556910515, 0.006537525914609432, 0.007007539737969637, 0.007477553561329842, 0.007947566919028759, 0.008417580276727676, 0.008887594565749168, 0.009357607923448086, 0.009827621281147003, 0.010297635570168495, 0.010767648927867413, 0.01123766228556633, 0.011707676574587822, 0.01217768993228674, 0.012647704221308231, 0.013117717579007149, 0.013587730936706066, 0.014057744294404984, 0.014527758583426476, 0.014997771941125393, 0.01546778529882431]}, "parameters/net.4.weight": {"_type": "histogram", "values": [2.0, 1.0, 4.0, 0.0, 5.0, 5.0, 15.0, 14.0, 17.0, 16.0, 27.0, 25.0, 42.0, 39.0, 58.0, 63.0, 74.0, 72.0, 93.0, 85.0, 118.0, 113.0, 124.0, 147.0, 126.0, 166.0, 147.0, 143.0, 132.0, 137.0, 141.0, 114.0, 114.0, 101.0, 79.0, 101.0, 78.0, 64.0, 46.0, 37.0, 38.0, 35.0, 32.0, 26.0, 12.0, 11.0, 9.0, 6.0, 6.0, 6.0, 2.0, 3.0, 0.0, 0.0, 0.0, 0.0, 0.0, 0.0, 0.0, 0.0, 0.0, 0.0, 0.0, 1.0], "bins": [-0.3174072206020355, -0.30551305413246155, -0.2936188876628876, -0.2817247211933136, -0.26983052492141724, -0.25793635845184326, -0.2460421919822693, -0.2341480255126953, -0.22225385904312134, -0.21035969257354736, -0.1984655261039734, -0.18657134473323822, -0.17467717826366425, -0.16278301179409027, -0.1508888304233551, -0.13899466395378113, -0.12710049748420715, -0.11520633101463318, -0.10331215709447861, -0.09141798317432404, -0.07952381670475006, -0.06762965023517609, -0.055735476315021515, -0.04384130239486694, -0.03194713592529297, -0.020052965730428696, -0.008158795535564423, 0.0037353746592998505, 0.015629544854164124, 0.027523715049028397, 0.03941788524389267, 0.05131205916404724, 0.0632062554359436, 0.07510042190551758, 0.08699459582567215, 0.09888876974582672, 0.1107829362154007, 0.12267710268497467, 0.13457128405570984, 0.1464654505252838, 0.1583596169948578, 0.17025378346443176, 0.18214794993400574, 0.1940421313047409, 0.20593629777431488, 0.21783046424388885, 0.22972464561462402, 0.241618812084198, 0.253512978553772, 0.26540714502334595, 0.2773013114929199, 0.2891954779624939, 0.30108964443206787, 0.31298384070396423, 0.3248780071735382, 0.3367721736431122, 0.34866634011268616, 0.36056050658226013, 0.3724546730518341, 0.3843488395214081, 0.39624303579330444, 0.4081372022628784, 0.4200313687324524, 0.43192553520202637, 0.44381970167160034]}, "parameters/net.4.bias": {"_type": "histogram", "values": [1.0, 0.0, 0.0, 0.0, 0.0, 1.0, 0.0, 0.0, 0.0, 0.0, 1.0, 0.0, 1.0, 0.0, 0.0, 0.0, 0.0, 0.0, 0.0, 0.0, 0.0, 0.0, 0.0, 0.0, 1.0, 1.0, 0.0, 0.0, 0.0, 0.0, 0.0, 0.0, 0.0, 0.0, 0.0, 0.0, 0.0, 0.0, 1.0, 0.0, 0.0, 0.0, 0.0, 1.0, 0.0, 0.0, 0.0, 0.0, 1.0, 0.0, 1.0, 1.0, 0.0, 0.0, 0.0, 0.0, 0.0, 0.0, 0.0, 0.0, 0.0, 0.0, 0.0, 1.0], "bins": [-0.006160188000649214, -0.005931618623435497, -0.005703049711883068, -0.005474480334669352, -0.005245911423116922, -0.005017342045903206, -0.004788773134350777, -0.00456020375713706, -0.004331634379923344, -0.004103065002709627, -0.003874496091157198, -0.0036459267139434814, -0.0034173578023910522, -0.0031887884251773357, -0.002960219280794263, -0.00273165013641119, -0.002503081224858761, -0.002274512080475688, -0.002045942936092615, -0.0018173736752942204, -0.0015888045309111476, -0.0013602353865280747, -0.00113166612572968, -0.0009030969813466072, -0.0006745278369635344, -0.00044595866347663105, -0.00021738948998972774, 1.1179712601006031e-05, 0.00023974885698407888, 0.00046831800136715174, 0.0006968872621655464, 0.0009254564065486193, 0.0011540250852704048, 0.0013825942296534777, 0.0016111633740365505, 0.0018397326348349452, 0.0020683016628026962, 0.0022968710400164127, 0.0025254401843994856, 0.0027540093287825584, 0.0029825784731656313, 0.003211147617548704, 0.003439716761931777, 0.00366828590631485, 0.0038968552835285664, 0.0041254241950809956, 0.004353993572294712, 0.004582562483847141, 0.004811131861060858, 0.005039701238274574, 0.0052682701498270035, 0.00549683952704072, 0.005725408438593149, 0.005953977815806866, 0.006182546727359295, 0.006411116104573011, 0.006639685481786728, 0.006868254859000444, 0.007096823770552874, 0.00732539314776659, 0.007553962059319019, 0.007782531436532736, 0.008011100813746452, 0.008239669725298882, 0.00846823863685131]}, "gradients/net.4.bias": {"_type": "histogram", "values": [1.0, 0.0, 1.0, 0.0, 0.0, 0.0, 0.0, 0.0, 0.0, 1.0, 0.0, 0.0, 0.0, 0.0, 2.0, 0.0, 0.0, 0.0, 0.0, 0.0, 0.0, 0.0, 0.0, 0.0, 0.0, 1.0, 0.0, 0.0, 0.0, 0.0, 0.0, 0.0, 1.0, 0.0, 0.0, 0.0, 1.0, 1.0, 0.0, 0.0, 0.0, 0.0, 1.0, 0.0, 0.0, 0.0, 0.0, 0.0, 0.0, 0.0, 0.0, 0.0, 1.0, 0.0, 0.0, 0.0, 0.0, 0.0, 0.0, 0.0, 0.0, 0.0, 0.0, 1.0], "bins": [-0.00018368683231528848, -0.00017654625116847456, -0.00016940567002166063, -0.0001622650888748467, -0.00015512450772803277, -0.00014798392658121884, -0.00014084335998632014, -0.00013370276428759098, -0.00012656219769269228, -0.00011942161654587835, -0.00011228103539906442, -0.00010514045425225049, -9.799987310543656e-05, -9.085929195862263e-05, -8.371871808776632e-05, -7.657813694095239e-05, -6.943754851818085e-05, -6.229696737136692e-05, -5.515638622455299e-05, -4.801580871571787e-05, -4.087522756890394e-05, -3.373464642209001e-05, -2.6594068913254887e-05, -1.9453487766440958e-05, -1.2312906619627029e-05, -5.172326382307801e-06, 1.968253855011426e-06, 9.108833182835951e-06, 1.624941432964988e-05, 2.338999547646381e-05, 3.053057298529893e-05, 3.767115413211286e-05, 4.481172072701156e-05, 5.195230187382549e-05, 5.909288302063942e-05, 6.623346416745335e-05, 7.337404531426728e-05, 8.051462646108121e-05, 8.765520033193752e-05, 9.479578147875145e-05, 0.00010193636262556538, 0.00010907694377237931, 0.00011621752491919324, 0.00012335809879004955, 0.00013049867993686348, 0.0001376392610836774, 0.00014477984223049134, 0.00015192042337730527, 0.0001590610045241192, 0.00016620158567093313, 0.00017334216681774706, 0.00018048274796456099, 0.00018762332911137491, 0.00019476391025818884, 0.00020190447685308754, 0.0002090450725518167, 0.0002161856391467154, 0.00022332622029352933, 0.00023046680144034326, 0.0002376073825871572, 0.0002447479637339711, 0.0002518885303288698, 0.000259029126027599, 0.0002661696926224977, 0.00027331028832122684]}, "gradients/net.4.weight": {"_type": "histogram", "values": [1.0, 4.0, 1.0, 3.0, 5.0, 4.0, 0.0, 1.0, 7.0, 3.0, 10.0, 4.0, 8.0, 11.0, 9.0, 29.0, 20.0, 44.0, 51.0, 63.0, 102.0, 172.0, 204.0, 274.0, 442.0, 466.0, 252.0, 197.0, 143.0, 108.0, 100.0, 74.0, 50.0, 40.0, 32.0, 29.0, 16.0, 13.0, 10.0, 11.0, 10.0, 7.0, 6.0, 8.0, 5.0, 4.0, 3.0, 2.0, 1.0, 1.0, 2.0, 1.0, 1.0, 0.0, 0.0, 2.0, 3.0, 1.0, 0.0, 0.0, 1.0, 0.0, 0.0, 1.0], "bins": [-0.0001432422868674621, -0.00013755119289271533, -0.00013186009891796857, -0.0001261690049432218, -0.00012047791096847504, -0.00011478681699372828, -0.0001090957157430239, -0.00010340462176827714, -9.771352779353037e-05, -9.202243381878361e-05, -8.633133984403685e-05, -8.064023859333247e-05, -7.49491446185857e-05, -6.925805064383894e-05, -6.356695666909218e-05, -5.7875862694345415e-05, -5.218476871959865e-05, -4.649367474485189e-05, -4.0802580770105124e-05, -3.511148315737955e-05, -2.942038918263279e-05, -2.3729295207886025e-05, -1.8038197595160455e-05, -1.234710362041369e-05, -6.656009645666927e-06, -9.649147614254616e-07, 4.726180122816004e-06, 1.0417275916552171e-05, 1.6108369891298935e-05, 2.17994638660457e-05, 2.749056147877127e-05, 3.318165545351803e-05, 3.887273487634957e-05, 4.456382885109633e-05, 5.0254922825843096e-05, 5.5946020438568667e-05, 6.163711077533662e-05, 6.732820475008339e-05, 7.301930600078776e-05, 7.871039997553453e-05, 8.440149395028129e-05, 9.009258792502806e-05, 9.578368189977482e-05, 0.0001014747831504792, 0.00010716587712522596, 0.00011285697109997272, 0.00011854806507471949, 0.00012423915904946625, 0.00012993025302421302, 0.00013562134699895978, 0.00014131244097370654, 0.0001470035349484533, 0.00015269462892320007, 0.00015838572289794683, 0.00016407683142460883, 0.00016976791084744036, 0.00017545901937410235, 0.00018115011334884912, 0.00018684120732359588, 0.00019253230129834265, 0.0001982233952730894, 0.00020391448924783617, 0.00020960558322258294, 0.00021529669174924493, 0.00022098777117207646]}, "gradients/net.2.bias": {"_type": "histogram", "values": [2.0, 0.0, 0.0, 0.0, 1.0, 0.0, 1.0, 2.0, 2.0, 0.0, 1.0, 0.0, 4.0, 4.0, 3.0, 1.0, 0.0, 2.0, 5.0, 5.0, 4.0, 4.0, 10.0, 7.0, 11.0, 10.0, 12.0, 13.0, 16.0, 17.0, 20.0, 9.0, 13.0, 12.0, 6.0, 2.0, 9.0, 4.0, 7.0, 2.0, 5.0, 1.0, 5.0, 1.0, 3.0, 1.0, 2.0, 0.0, 1.0, 1.0, 2.0, 3.0, 0.0, 0.0, 1.0, 1.0, 1.0, 2.0, 1.0, 0.0, 2.0, 0.0, 1.0, 1.0], "bins": [-8.622210589237511e-05, -8.328333933604881e-05, -8.034458005568013e-05, -7.740581349935383e-05, -7.446704694302753e-05, -7.152828038670123e-05, -6.858952110633254e-05, -6.565075455000624e-05, -6.271198799367994e-05, -5.977322507533245e-05, -5.683445851900615e-05, -5.3895695600658655e-05, -5.0956929044332355e-05, -4.801816612598486e-05, -4.507940320763737e-05, -4.214063665131107e-05, -3.920187373296358e-05, -3.6263110814616084e-05, -3.3324344258289784e-05, -3.038558133994229e-05, -2.744681478361599e-05, -2.45080518652685e-05, -2.1569287127931602e-05, -1.8630522390594706e-05, -1.569175765325781e-05, -1.2752992915920913e-05, -9.814228178584017e-06, -6.875464350741822e-06, -3.936699613404926e-06, -9.979348760680296e-07, 1.940828951774165e-06, 4.879593689111061e-06, 7.818358426447958e-06, 1.0757123163784854e-05, 1.369588790112175e-05, 1.6634650819469243e-05, 1.9573417375795543e-05, 2.2512180294143036e-05, 2.5450945031479932e-05, 2.838970976881683e-05, 3.132847632514313e-05, 3.426723924349062e-05, 3.720600579981692e-05, 4.0144768718164414e-05, 4.3083535274490714e-05, 4.602229819283821e-05, 4.89610611111857e-05, 5.1899827667512e-05, 5.483859058585949e-05, 5.7777353504206985e-05, 6.0716120060533285e-05, 6.365488661685959e-05, 6.659364589722827e-05, 6.953241245355457e-05, 7.247117900988087e-05, 7.540994556620717e-05, 7.834870484657586e-05, 8.128747140290216e-05, 8.422623068327084e-05, 8.716499723959714e-05, 9.010376379592344e-05, 9.304253035224974e-05, 9.598128963261843e-05, 9.892005618894473e-05, 0.00010185882274527103]}, "gradients/net.2.weight": {"_type": "histogram", "values": [2.0, 1.0, 0.0, 0.0, 0.0, 4.0, 1.0, 5.0, 5.0, 7.0, 5.0, 6.0, 13.0, 24.0, 40.0, 29.0, 53.0, 84.0, 100.0, 141.0, 194.0, 270.0, 332.0, 483.0, 717.0, 912.0, 1409.0, 2292.0, 3756.0, 6725.0, 13676.0, 15529.0, 7103.0, 4055.0, 2399.0, 1405.0, 1057.0, 745.0, 554.0, 343.0, 290.0, 207.0, 156.0, 90.0, 77.0, 65.0, 47.0, 30.0, 27.0, 19.0, 10.0, 13.0, 5.0, 5.0, 3.0, 2.0, 2.0, 3.0, 3.0, 2.0, 1.0, 0.0, 2.0, 1.0], "bins": [-5.9559886722126976e-05, -5.764270463259891e-05, -5.572552254307084e-05, -5.380834045354277e-05, -5.189116200199351e-05, -4.997397627448663e-05, -4.805679782293737e-05, -4.61396157334093e-05, -4.422243364388123e-05, -4.230525155435316e-05, -4.0388069464825094e-05, -3.8470887375297025e-05, -3.6553705285768956e-05, -3.4636526834219694e-05, -3.2719344744691625e-05, -3.0802162655163556e-05, -2.8884980565635487e-05, -2.696779847610742e-05, -2.505061638657935e-05, -2.3133436116040684e-05, -2.1216254026512615e-05, -1.9299071936984546e-05, -1.738189166644588e-05, -1.5464709576917812e-05, -1.3547527487389743e-05, -1.1630345397861674e-05, -9.713164217828307e-06, -7.79598303779494e-06, -5.878800948266871e-06, -3.961618858738802e-06, -2.0444376787054352e-06, -1.2725649867206812e-07, 1.7899219528771937e-06, 3.7071035876579117e-06, 5.62428522243863e-06, 7.541466857219348e-06, 9.458648492000066e-06, 1.1375830581528135e-05, 1.3293011761561502e-05, 1.5210192941594869e-05, 1.7127375031122938e-05, 1.9044557120651007e-05, 2.0961739210179076e-05, 2.287891948071774e-05, 2.479610157024581e-05, 2.671328365977388e-05, 2.8630463930312544e-05, 3.054764601984061e-05, 3.246482810936868e-05, 3.438201019889675e-05, 3.629919228842482e-05, 3.821637437795289e-05, 4.013355646748096e-05, 4.205073491903022e-05, 4.396791700855829e-05, 4.588509909808636e-05, 4.7802281187614426e-05, 4.9719463277142495e-05, 5.1636645366670564e-05, 5.355382745619863e-05, 5.5471005907747895e-05, 5.738819163525477e-05, 5.930537008680403e-05, 6.122255581431091e-05, 6.313973426586017e-05]}, "gradients/net.0.bias": {"_type": "histogram", "values": [2.0, 0.0, 0.0, 0.0, 0.0, 0.0, 0.0, 1.0, 1.0, 0.0, 0.0, 2.0, 2.0, 0.0, 0.0, 1.0, 1.0, 2.0, 3.0, 4.0, 4.0, 4.0, 3.0, 8.0, 5.0, 4.0, 5.0, 12.0, 13.0, 11.0, 7.0, 9.0, 5.0, 9.0, 11.0, 14.0, 11.0, 11.0, 10.0, 10.0, 6.0, 9.0, 6.0, 6.0, 7.0, 5.0, 6.0, 7.0, 4.0, 2.0, 1.0, 0.0, 1.0, 1.0, 3.0, 0.0, 2.0, 1.0, 0.0, 0.0, 3.0, 0.0, 0.0, 1.0], "bins": [-0.00017224260955117643, -0.0001673717488301918, -0.00016250088810920715, -0.00015763002738822252, -0.00015275916666723788, -0.00014788832049816847, -0.00014301745977718383, -0.0001381465990561992, -0.00013327573833521456, -0.00012840487761422992, -0.00012353401689324528, -0.00011866316344821826, -0.00011379230272723362, -0.00010892144200624898, -0.00010405058856122196, -9.917972784023732e-05, -9.430886711925268e-05, -8.943800639826804e-05, -8.45671456772834e-05, -7.969629223225638e-05, -7.482543151127174e-05, -6.995457079028711e-05, -6.508371734526008e-05, -6.0212856624275446e-05, -5.534199590329081e-05, -5.047113518230617e-05, -4.560027809930034e-05, -4.072942101629451e-05, -3.585856029530987e-05, -3.0987699574325234e-05, -2.6116842491319403e-05, -2.1245985408313572e-05, -1.6375124687328935e-05, -1.15042657853337e-05, -6.633406883338466e-06, -1.762547981343232e-06, 3.108310920652002e-06, 7.979169822647236e-06, 1.285002872464247e-05, 1.77208858076483e-05, 2.259174652863294e-05, 2.7462605430628173e-05, 3.233346433262341e-05, 3.720432141562924e-05, 4.2075182136613876e-05, 4.694604285759851e-05, 5.1816899940604344e-05, 5.6687757023610175e-05, 6.155861774459481e-05, 6.642947846557945e-05, 7.130033918656409e-05, 7.617119263159111e-05, 8.104205335257575e-05, 8.591291407356039e-05, 9.078376751858741e-05, 9.565462823957205e-05, 0.00010052548896055669, 0.00010539634968154132, 0.00011026721040252596, 0.00011513806384755298, 0.00012000892456853762, 0.00012487977801356465, 0.00012975063873454928, 0.00013462149945553392, 0.00013949236017651856]}, "gradients/net.0.weight": {"_type": "histogram", "values": [2.0, 0.0, 0.0, 0.0, 1.0, 2.0, 0.0, 3.0, 3.0, 4.0, 3.0, 13.0, 9.0, 13.0, 10.0, 19.0, 28.0, 26.0, 34.0, 46.0, 70.0, 76.0, 109.0, 140.0, 141.0, 168.0, 177.0, 253.0, 236.0, 244.0, 218.0, 195.0, 143.0, 137.0, 121.0, 89.0, 82.0, 62.0, 40.0, 31.0, 28.0, 15.0, 16.0, 12.0, 13.0, 5.0, 11.0, 2.0, 3.0, 2.0, 6.0, 1.0, 2.0, 3.0, 0.0, 2.0, 1.0, 1.0, 0.0, 0.0, 0.0, 0.0, 0.0, 1.0], "bins": [-0.00014378871128428727, -0.0001388013770338148, -0.00013381402823142707, -0.0001288266939809546, -0.0001238393597304821, -0.000118852018204052, -0.0001138646766776219, -0.00010887734242714942, -0.00010389000090071931, -9.890265937428921e-05, -9.391532512381673e-05, -8.892798359738663e-05, -8.394064207095653e-05, -7.895330782048404e-05, -7.396596629405394e-05, -6.897862476762384e-05, -6.399129051715136e-05, -5.900395262870006e-05, -5.401661474024877e-05, -4.902927321381867e-05, -4.4041935325367376e-05, -3.905459743691608e-05, -3.406725591048598e-05, -2.907991802203469e-05, -2.4092580133583397e-05, -1.9105242245132104e-05, -1.4117902537691407e-05, -9.130563739745412e-06, -4.143224941799417e-06, 8.44112946651876e-07, 5.831452654092573e-06, 1.081879236153327e-05, 1.5806115698069334e-05, 2.0793453586520627e-05, 2.5780793293961324e-05, 3.076813300140202e-05, 3.5755470889853314e-05, 4.074280877830461e-05, 4.573015030473471e-05, 5.0717488193186e-05, 5.570482608163729e-05, 6.0692163970088586e-05, 6.567950185853988e-05, 7.066684338496998e-05, 7.565418491140008e-05, 8.064151916187257e-05, 8.562886068830267e-05, 9.061620221473277e-05, 9.560353646520525e-05, 0.00010059087799163535, 0.00010557821224210784, 0.00011056555376853794, 0.00011555288801901042, 0.00012054022954544052, 0.00012552757107187063, 0.0001305149053223431, 0.00013550225412473083, 0.0001404895883752033, 0.00014547693717759103, 0.0001504642714280635, 0.000155451605678536, 0.00016043893992900848, 0.0001654262887313962, 0.00017041362298186868, 0.00017540095723234117]}, "_wandb": {"runtime": 23}}