{"train_loss": 0.014213372953236103, "train_grad": 0, "test_loss": 0.013828576542437077, "test_grad": 0, "train_loss_grad": 0.0003191350551787764, "test_loss_grad": 0.0005676685832440853, "_timestamp": 1717484035.2217453, "_runtime": 1219.3545503616333, "_step": 499, "gradients/net.0.weight": {"_type": "histogram", "values": [1.0, 0.0, 0.0, 1.0, 0.0, 0.0, 0.0, 0.0, 0.0, 0.0, 0.0, 0.0, 0.0, 0.0, 0.0, 0.0, 0.0, 0.0, 0.0, 1.0, 0.0, 2.0, 0.0, 1.0, 4.0, 4.0, 1.0, 3.0, 7.0, 8.0, 14.0, 21.0, 41.0, 87.0, 138.0, 369.0, 988.0, 794.0, 288.0, 130.0, 55.0, 49.0, 19.0, 16.0, 8.0, 8.0, 4.0, 1.0, 0.0, 1.0, 0.0, 4.0, 0.0, 0.0, 1.0, 0.0, 1.0, 0.0, 0.0, 1.0, 0.0, 0.0, 0.0, 1.0], "bins": [-0.0038633199874311686, -0.0037585687823593616, -0.0036538175772875547, -0.003549066372215748, -0.0034443149343132973, -0.003339563962072134, -0.0032348125241696835, -0.0031300613190978765, -0.0030253101140260696, -0.0029205589089542627, -0.002815807703882456, -0.002711056498810649, -0.002606305293738842, -0.0025015538558363914, -0.0023968026507645845, -0.0022920514456927776, -0.0021873002406209707, -0.002082549035549164, -0.001977797830477357, -0.0018730465089902282, -0.0017682953039184213, -0.0016635440988466144, -0.0015587927773594856, -0.0014540415722876787, -0.0013492903672158718, -0.001244539162144065, -0.001139787957072258, -0.0010350366355851293, -0.0009302854305133224, -0.0008255342254415154, -0.0007207829621620476, -0.0006160316988825798, -0.0005112804938107729, -0.00040652925963513553, -0.00030177802545949817, -0.0001970267912838608, -9.227555710822344e-05, 1.247564796358347e-05, 0.00011722691124305129, 0.0002219781745225191, 0.000326729379594326, 0.0004314806137699634, 0.0005362318479456007, 0.0006409831112250686, 0.0007457343162968755, 0.0008504855213686824, 0.0009552367846481502, 0.001059988047927618, 0.001164739252999425, 0.0012694904580712318, 0.0013742416631430387, 0.0014789929846301675, 0.0015837441897019744, 0.0016884953947737813, 0.00179324671626091, 0.001897997921332717, 0.002002749126404524, 0.0021075003314763308, 0.0022122515365481377, 0.0023170027416199446, 0.0024217539466917515, 0.002526505384594202, 0.002631256589666009, 0.002736007794737816, 0.0028407589998096228]}, "gradients/net.2.weight": {"_type": "histogram", "values": [1.0, 3.0, 1.0, 3.0, 2.0, 4.0, 0.0, 2.0, 1.0, 2.0, 0.0, 3.0, 3.0, 1.0, 3.0, 5.0, 2.0, 5.0, 2.0, 11.0, 12.0, 11.0, 13.0, 18.0, 23.0, 32.0, 45.0, 53.0, 65.0, 115.0, 278.0, 1356.0, 497.0, 193.0, 98.0, 55.0, 42.0, 25.0, 12.0, 6.0, 7.0, 9.0, 8.0, 8.0, 5.0, 3.0, 2.0, 2.0, 2.0, 1.0, 0.0, 1.0, 2.0, 3.0, 1.0, 1.0, 1.0, 2.0, 2.0, 0.0, 2.0, 3.0, 2.0, 2.0], "bins": [-0.00267073349095881, -0.0025864343624562025, -0.002502135233953595, -0.002417836105450988, -0.0023335369769483805, -0.0022492380812764168, -0.0021649389527738094, -0.002080639824271202, -0.0019963406957685947, -0.0019120415672659874, -0.00182774243876338, -0.0017434433102607727, -0.0016591442981734872, -0.0015748451696708798, -0.0014905460411682725, -0.001406247029080987, -0.0013219477841630578, -0.0012376486556604505, -0.0011533495271578431, -0.0010690505150705576, -0.0009847513865679502, -0.0009004522580653429, -0.0008161531295627356, -0.0007318540592677891, -0.0006475549307651818, -0.0005632558022625744, -0.000478956731967628, -0.00039465760346502066, -0.00031035850406624377, -0.00022605940466746688, -0.00014176027616485953, -5.74612058699131e-05, 2.6837922632694244e-05, 0.00011113702930742875, 0.00019543613598216325, 0.00027973524993285537, 0.00036403434933163226, 0.00044833344873040915, 0.0005326325772330165, 0.0006169316475279629, 0.0007012307760305703, 0.0007855299045331776, 0.000869828974828124, 0.0009541281033307314, 0.0010384272318333387, 0.001122726360335946, 0.0012070254888385534, 0.001291324500925839, 0.0013756236294284463, 0.0014599227579310536, 0.001544221886433661, 0.0016285208985209465, 0.0017128200270235538, 0.0017971191555261612, 0.0018814182840287685, 0.001965717412531376, 0.0020500165410339832, 0.0021343156695365906, 0.002218614798039198, 0.0023029139265418053, 0.0023872130550444126, 0.00247151218354702, 0.0025558113120496273, 0.002640110207721591, 0.0027244093362241983]}, "gradients/net.0.bias": {"_type": "histogram", "values": [1.0, 0.0, 0.0, 0.0, 0.0, 0.0, 0.0, 0.0, 0.0, 0.0, 0.0, 0.0, 0.0, 0.0, 0.0, 0.0, 0.0, 0.0, 0.0, 0.0, 0.0, 0.0, 1.0, 0.0, 0.0, 0.0, 0.0, 3.0, 0.0, 1.0, 0.0, 2.0, 2.0, 3.0, 3.0, 4.0, 8.0, 7.0, 17.0, 8.0, 20.0, 39.0, 35.0, 32.0, 17.0, 14.0, 11.0, 9.0, 5.0, 5.0, 4.0, 1.0, 2.0, 0.0, 0.0, 0.0, 0.0, 0.0, 1.0, 0.0, 0.0, 0.0, 0.0, 1.0], "bins": [-0.003663328941911459, -0.003576371818780899, -0.003489414695650339, -0.003402457572519779, -0.0033155004493892193, -0.0032285433262586594, -0.0031415862031280994, -0.0030546290799975395, -0.0029676719568669796, -0.0028807148337364197, -0.0027937577106058598, -0.0027068005874753, -0.00261984346434474, -0.00253288634121418, -0.00244592921808362, -0.00235897209495306, -0.0022720149718225002, -0.0021850578486919403, -0.0020981007255613804, -0.0020111436024308205, -0.0019241864793002605, -0.0018372293561697006, -0.0017502722330391407, -0.0016633151099085808, -0.0015763579867780209, -0.001489400863647461, -0.001402443740516901, -0.001315486617386341, -0.0012285294942557812, -0.0011415723711252213, -0.0010546152479946613, -0.0009676581248641014, -0.0008807007689028978, -0.0007937436457723379, -0.000706786522641778, -0.0006198293995112181, -0.0005328722763806581, -0.00044591515325009823, -0.0003589580301195383, -0.0002720009069889784, -0.00018504378385841846, -9.808666072785854e-05, -1.1129537597298622e-05, 7.58275855332613e-05, 0.00016278470866382122, 0.00024974183179438114, 0.00033669895492494106, 0.000423656078055501, 0.0005106132011860609, 0.0005975703243166208, 0.0006845274474471807, 0.0007714845705777407, 0.0008584416937083006, 0.0009453988168388605, 0.0010323559399694204, 0.0011193130630999804, 0.0012062701862305403, 0.0012932273093611002, 0.0013801844324916601, 0.00146714155562222, 0.00155409867875278, 0.0016410558018833399, 0.0017280129250138998, 0.0018149700481444597, 0.0019019271712750196]}, "gradients/net.2.bias": {"_type": "histogram", "values": [1.0, 0.0, 0.0, 0.0, 0.0, 0.0, 0.0, 0.0, 3.0, 0.0, 0.0, 0.0, 0.0, 1.0, 0.0, 0.0, 0.0, 1.0, 0.0, 0.0, 0.0, 0.0, 0.0, 0.0, 0.0, 0.0, 0.0, 0.0, 0.0, 1.0, 0.0, 0.0, 0.0, 0.0, 0.0, 0.0, 1.0, 0.0, 1.0, 0.0, 0.0, 0.0, 0.0, 0.0, 0.0, 0.0, 0.0, 0.0, 0.0, 0.0, 0.0, 0.0, 0.0, 0.0, 1.0, 0.0, 0.0, 0.0, 0.0, 0.0, 0.0, 0.0, 0.0, 2.0], "bins": [-0.0011654086410999298, -0.001098567503504455, -0.0010317263659089804, -0.0009648851701058447, -0.00089804403251037, -0.0008312028949148953, -0.0007643616991117597, -0.0006975205615162849, -0.0006306794239208102, -0.0005638382863253355, -0.0004969971487298608, -0.00043015595292672515, -0.00036331481533125043, -0.0002964736777357757, -0.00022963251103647053, -0.00016279134433716536, -9.595020674169064e-05, -2.9109054594300687e-05, 3.773209755308926e-05, 0.00010457324970047921, 0.00017141440184786916, 0.00023825553944334388, 0.00030509670614264905, 0.00037193787284195423, 0.00043877901043742895, 0.0005056201480329037, 0.0005724612856283784, 0.000639302481431514, 0.0007061436190269887, 0.0007729847566224635, 0.0008398259524255991, 0.0009066670900210738, 0.0009735082276165485, 0.0010403493652120233, 0.001107190502807498, 0.0011740316404029727, 0.0012408727779984474, 0.001307714032009244, 0.0013745551696047187, 0.0014413963072001934, 0.0015082374447956681, 0.0015750785823911428, 0.0016419197199866176, 0.0017087608575820923, 0.0017756021115928888, 0.0018424431327730417, 0.0019092843867838383, 0.001976125407963991, 0.0020429666619747877, 0.0021098079159855843, 0.002176648937165737, 0.0022434901911765337, 0.0023103312123566866, 0.002377172466367483, 0.002444013487547636, 0.0025108547415584326, 0.002577695995569229, 0.0026445372495800257, 0.0027113782707601786, 0.002778219524770975, 0.002845060545951128, 0.0029119017999619246, 0.0029787428211420774, 0.003045584075152874, 0.003112425096333027]}, "_wandb": {"runtime": 1218}}