{"train_loss": 0.011260833591222763, "train_grad": 0.03234926238656044, "test_loss": 0.011632275767624378, "test_grad": 0.03174879401922226, "_timestamp": 1717630093.586137, "_runtime": 81.72209095954895, "_step": 11, "gradients/linear.bias": {"_type": "histogram", "values": [1.0, 0.0, 0.0, 0.0, 0.0, 1.0, 0.0, 0.0, 1.0, 0.0, 0.0, 0.0, 1.0, 0.0, 0.0, 0.0, 0.0, 0.0, 0.0, 0.0, 0.0, 1.0, 0.0, 0.0, 0.0, 0.0, 0.0, 2.0, 0.0, 0.0, 0.0, 1.0, 1.0, 0.0, 1.0, 0.0, 0.0, 0.0, 0.0, 0.0, 0.0, 0.0, 1.0, 0.0, 0.0, 0.0, 0.0, 0.0, 0.0, 0.0, 0.0, 0.0, 0.0, 0.0, 0.0, 0.0, 0.0, 0.0, 0.0, 0.0, 0.0, 0.0, 0.0, 1.0], "bins": [-9.069512452697381e-05, -8.71255761012435e-05, -8.355602767551318e-05, -7.998647924978286e-05, -7.641693810001016e-05, -7.284738239832222e-05, -6.927784124854952e-05, -6.57082928228192e-05, -6.213874439708889e-05, -5.856919597135857e-05, -5.499964754562825e-05, -5.143010275787674e-05, -4.786055433214642e-05, -4.42910059064161e-05, -4.072146111866459e-05, -3.7151912692934275e-05, -3.358236426720396e-05, -3.001281584147364e-05, -2.6443269234732725e-05, -2.287372262799181e-05, -1.9304174202261493e-05, -1.5734625776531175e-05, -1.216507916979026e-05, -8.595532563049346e-06, -5.025984137319028e-06, -1.4564366210834123e-06, 2.1131108951522037e-06, 5.68265841138782e-06, 9.252205927623436e-06, 1.2821754353353754e-05, 1.6391300960094668e-05, 1.9960847566835582e-05, 2.3530403268523514e-05, 2.7099951694253832e-05, 3.066950011998415e-05, 3.423904490773566e-05, 3.780859333346598e-05, 4.1378141759196296e-05, 4.494768654694781e-05, 4.8517234972678125e-05, 5.208678339840844e-05, 5.565633182413876e-05, 5.922588024986908e-05, 6.27954286755994e-05, 6.63649698253721e-05, 6.993452552706003e-05, 7.350406667683274e-05, 7.707361510256305e-05, 8.064316352829337e-05, 8.421271195402369e-05, 8.778226037975401e-05, 9.135180880548432e-05, 9.492135723121464e-05, 9.849089838098735e-05, 0.00010206044680671766, 0.00010562999523244798, 0.0001091995436581783, 0.00011276909208390862, 0.00011633864050963894, 0.00011990818893536925, 0.00012347773008514196, 0.0001270472857868299, 0.0001306168269366026, 0.00013418638263829052, 0.00013775592378806323]}, "gradients/linear.weight": {"_type": "histogram", "values": [1.0, 0.0, 0.0, 0.0, 0.0, 1.0, 0.0, 1.0, 1.0, 1.0, 1.0, 0.0, 1.0, 4.0, 5.0, 7.0, 3.0, 7.0, 12.0, 9.0, 10.0, 20.0, 26.0, 38.0, 20.0, 47.0, 45.0, 53.0, 53.0, 54.0, 82.0, 72.0, 91.0, 69.0, 80.0, 77.0, 75.0, 70.0, 44.0, 65.0, 62.0, 44.0, 49.0, 52.0, 33.0, 33.0, 29.0, 13.0, 18.0, 15.0, 10.0, 5.0, 6.0, 4.0, 1.0, 4.0, 5.0, 2.0, 1.0, 2.0, 1.0, 0.0, 0.0, 2.0], "bins": [-0.00020884642435703427, -0.00020281309843994677, -0.00019677975797094405, -0.00019074643205385655, -0.00018471310613676906, -0.00017867976566776633, -0.00017264643975067884, -0.00016661311383359134, -0.00016057977336458862, -0.00015454644744750112, -0.0001485131069784984, -0.0001424797810614109, -0.00013644644059240818, -0.00013041311467532068, -0.0001243797887582332, -0.00011834645556518808, -0.00011231312237214297, -0.00010627978917909786, -0.00010024645598605275, -9.421313006896526e-05, -8.817979687592015e-05, -8.214646368287504e-05, -7.611313776578754e-05, -7.007980457274243e-05, -6.404647137969732e-05, -5.801313818665221e-05, -5.197980863158591e-05, -4.594647907651961e-05, -3.99131458834745e-05, -3.387981269042939e-05, -2.7846483135363087e-05, -2.1813153580296785e-05, -1.5779820387251675e-05, -9.74648901319597e-06, -3.713157639140263e-06, 2.3201737349154428e-06, 8.353505108971149e-06, 1.4386836483026855e-05, 2.042016785708256e-05, 2.6453497412148863e-05, 3.248683060519397e-05, 3.852016379823908e-05, 4.4553493353305385e-05, 5.058682290837169e-05, 5.6620156101416796e-05, 6.26534892944619e-05, 6.86868152115494e-05, 7.472014840459451e-05, 8.075348159763962e-05, 8.678681479068473e-05, 9.282014798372984e-05, 9.885347390081733e-05, 0.00010488680709386244, 0.00011092014028690755, 0.00011695346620399505, 0.00012298679212108254, 0.00012902013259008527, 0.00013505345850717276, 0.0001410867989761755, 0.00014712012489326298, 0.0001531534653622657, 0.0001591867912793532, 0.0001652201171964407, 0.00017125345766544342, 0.00017728678358253092]}, "gradients/gru_block.bias_hh_l0": {"_type": "histogram", "values": [1.0, 0.0, 0.0, 0.0, 0.0, 0.0, 1.0, 0.0, 0.0, 1.0, 1.0, 0.0, 1.0, 2.0, 0.0, 1.0, 1.0, 1.0, 3.0, 0.0, 0.0, 4.0, 6.0, 2.0, 3.0, 5.0, 6.0, 4.0, 10.0, 12.0, 20.0, 16.0, 28.0, 42.0, 66.0, 40.0, 28.0, 21.0, 7.0, 9.0, 4.0, 11.0, 6.0, 1.0, 1.0, 3.0, 2.0, 3.0, 2.0, 1.0, 1.0, 0.0, 2.0, 2.0, 0.0, 0.0, 0.0, 1.0, 0.0, 0.0, 0.0, 0.0, 1.0, 1.0], "bins": [-8.323241490870714e-05, -8.077607344603166e-05, -7.831973198335618e-05, -7.586339779663831e-05, -7.340705633396283e-05, -7.095071487128735e-05, -6.849438068456948e-05, -6.6038039221894e-05, -6.358169775921851e-05, -6.112535629654303e-05, -5.866901847184636e-05, -5.621268064714968e-05, -5.37563391844742e-05, -5.129999772179872e-05, -4.884365989710204e-05, -4.638732207240537e-05, -4.3930980609729886e-05, -4.1474639147054404e-05, -3.901830132235773e-05, -3.6561963497661054e-05, -3.410562203498557e-05, -3.164928057231009e-05, -2.9192942747613415e-05, -2.6736603103927337e-05, -2.4280263460241258e-05, -2.182392381655518e-05, -1.93675841728691e-05, -1.6911244529183023e-05, -1.4454904885496944e-05, -1.1998565241810866e-05, -9.542225598124787e-06, -7.085885954438709e-06, -4.62954631075263e-06, -2.1732066670665517e-06, 2.8313297661952674e-07, 2.7394726203056052e-06, 5.195812263991684e-06, 7.652151907677762e-06, 1.010849155136384e-05, 1.256483119504992e-05, 1.5021170838735998e-05, 1.7477510482422076e-05, 1.9933850126108155e-05, 2.2390189769794233e-05, 2.484652941348031e-05, 2.730286905716639e-05, 2.975920870085247e-05, 3.2215546525549144e-05, 3.4671887988224626e-05, 3.712822945090011e-05, 3.958456727559678e-05, 4.204090510029346e-05, 4.449724656296894e-05, 4.695358802564442e-05, 4.9409925850341097e-05, 5.186626367503777e-05, 5.4322605137713253e-05, 5.6778946600388736e-05, 5.923528442508541e-05, 6.169162224978209e-05, 6.414796371245757e-05, 6.660430517513305e-05, 6.906063936185092e-05, 7.15169808245264e-05, 7.397332228720188e-05]}, "gradients/gru_block.weight_hh_l0": {"_type": "histogram", "values": [1.0, 0.0, 0.0, 0.0, 0.0, 0.0, 1.0, 1.0, 3.0, 8.0, 5.0, 5.0, 13.0, 18.0, 37.0, 36.0, 49.0, 76.0, 87.0, 123.0, 130.0, 239.0, 341.0, 475.0, 717.0, 1009.0, 1644.0, 2987.0, 8024.0, 21372.0, 5129.0, 2337.0, 1380.0, 890.0, 586.0, 432.0, 282.0, 178.0, 127.0, 108.0, 73.0, 73.0, 37.0, 38.0, 28.0, 11.0, 15.0, 9.0, 4.0, 2.0, 4.0, 4.0, 2.0, 0.0, 0.0, 1.0, 0.0, 0.0, 0.0, 0.0, 0.0, 0.0, 0.0, 1.0], "bins": [-9.976747969631106e-05, -9.636449249228463e-05, -9.296151256421581e-05, -8.955852536018938e-05, -8.615554543212056e-05, -8.275255822809413e-05, -7.93495710240677e-05, -7.594659109599888e-05, -7.254360389197245e-05, -6.914061668794602e-05, -6.57376367598772e-05, -6.233464955585077e-05, -5.893166598980315e-05, -5.5528682423755527e-05, -5.21256988577079e-05, -4.872271529166028e-05, -4.5319731725612655e-05, -4.191674815956503e-05, -3.851376459351741e-05, -3.5110781027469784e-05, -3.170779382344335e-05, -2.830481025739573e-05, -2.4901826691348106e-05, -2.149884130631108e-05, -1.8095857740263455e-05, -1.4692873264721129e-05, -1.1289888789178804e-05, -7.88690522313118e-06, -4.483920747588854e-06, -1.0809362720465288e-06, 2.322047294001095e-06, 5.725032679038122e-06, 9.128016245085746e-06, 1.2531000720628072e-05, 1.5933985196170397e-05, 1.933696876221802e-05, 2.2739954147255048e-05, 2.6142937713302672e-05, 2.9545921279350296e-05, 3.294890484539792e-05, 3.635189204942435e-05, 3.9754875615471974e-05, 4.31578591815196e-05, 4.656084638554603e-05, 4.996382995159365e-05, 5.3366813517641276e-05, 5.67697970836889e-05, 6.0172780649736524e-05, 6.357576057780534e-05, 6.697874778183177e-05, 7.038172770990059e-05, 7.378471491392702e-05, 7.718769484199584e-05, 8.059068204602227e-05, 8.39936692500487e-05, 8.739664917811751e-05, 9.079963638214394e-05, 9.420262358617038e-05, 9.760560351423919e-05, 0.00010100859071826562, 0.00010441157064633444, 0.00010781455785036087, 0.00011121753777842969, 0.00011462052498245612, 0.00011802351218648255]}, "gradients/gru_block.bias_ih_l0": {"_type": "histogram", "values": [2.0, 0.0, 0.0, 1.0, 1.0, 1.0, 0.0, 2.0, 0.0, 0.0, 0.0, 1.0, 3.0, 3.0, 1.0, 4.0, 4.0, 1.0, 5.0, 3.0, 8.0, 5.0, 4.0, 9.0, 9.0, 23.0, 23.0, 57.0, 87.0, 40.0, 26.0, 10.0, 8.0, 6.0, 4.0, 7.0, 3.0, 4.0, 3.0, 2.0, 1.0, 1.0, 1.0, 3.0, 2.0, 0.0, 0.0, 2.0, 0.0, 0.0, 2.0, 0.0, 0.0, 0.0, 1.0, 0.0, 0.0, 0.0, 0.0, 0.0, 0.0, 0.0, 0.0, 1.0], "bins": [-0.00010603719420032576, -0.00010225071309832856, -9.846423927228898e-05, -9.467775817029178e-05, -9.089127706829458e-05, -8.710479596629739e-05, -8.331831486430019e-05, -7.953184103826061e-05, -7.574535993626341e-05, -7.195887883426622e-05, -6.817240500822663e-05, -6.438592390622944e-05, -6.059944280423224e-05, -5.681296170223504e-05, -5.3026484238216653e-05, -4.9240006774198264e-05, -4.545352567220107e-05, -4.166704457020387e-05, -3.788056710618548e-05, -3.409408964216709e-05, -3.0307608540169895e-05, -2.65211292571621e-05, -2.273464997415431e-05, -1.8948170691146515e-05, -1.5161691408138722e-05, -1.1375212125130929e-05, -7.588732842123136e-06, -3.802253559115343e-06, -1.5774276107549667e-08, 3.7707050069002435e-06, 7.557184289908037e-06, 1.134366357291583e-05, 1.5130135579966009e-05, 1.8916614862973802e-05, 2.2703094145981595e-05, 2.6489573428989388e-05, 3.027605271199718e-05, 3.406253381399438e-05, 3.784901127801277e-05, 4.163548874203116e-05, 4.5421969844028354e-05, 4.920845094602555e-05, 5.299492841004394e-05, 5.678140587406233e-05, 6.0567886976059526e-05, 6.435436807805672e-05, 6.81408419040963e-05, 7.19273230060935e-05, 7.57138041080907e-05, 7.95002852100879e-05, 8.328676631208509e-05, 8.707324013812467e-05, 9.085972124012187e-05, 9.464620234211907e-05, 9.843267616815865e-05, 0.00010221915727015585, 0.00010600563837215304, 0.00010979211947415024, 0.00011357860057614744, 0.00011736507440218702, 0.00012115155550418422, 0.0001249380293302238, 0.000128724510432221, 0.0001325109915342182, 0.0001362974726362154]}, "gradients/gru_block.weight_ih_l0": {"_type": "histogram", "values": [1.0, 0.0, 0.0, 0.0, 0.0, 0.0, 1.0, 3.0, 1.0, 2.0, 2.0, 3.0, 5.0, 8.0, 3.0, 9.0, 10.0, 9.0, 9.0, 20.0, 20.0, 14.0, 22.0, 34.0, 29.0, 52.0, 51.0, 70.0, 66.0, 101.0, 149.0, 310.0, 1345.0, 1292.0, 283.0, 126.0, 101.0, 76.0, 66.0, 50.0, 48.0, 33.0, 29.0, 21.0, 28.0, 27.0, 15.0, 12.0, 13.0, 10.0, 0.0, 7.0, 3.0, 4.0, 4.0, 1.0, 2.0, 4.0, 0.0, 1.0, 2.0, 0.0, 0.0, 1.0], "bins": [-0.0001546849380247295, -0.00014999654376879334, -0.0001453081495128572, -0.00014061975525692105, -0.0001359313610009849, -0.00013124296674504876, -0.00012655457248911262, -0.00012186617095721886, -0.00011717777670128271, -0.00011248938244534656, -0.00010780098818941042, -0.00010311259393347427, -9.842419240158051e-05, -9.373579814564437e-05, -8.904740388970822e-05, -8.435900963377208e-05, -7.967061537783593e-05, -7.498222112189978e-05, -7.029382686596364e-05, -6.560543261002749e-05, -6.091703471611254e-05, -5.6228640460176393e-05, -5.154024256626144e-05, -4.6851848310325295e-05, -4.216345405438915e-05, -3.7475059798453e-05, -3.278666554251686e-05, -2.8098267648601905e-05, -2.340987339266576e-05, -1.8721479136729613e-05, -1.4033083061804064e-05, -9.344686986878514e-06, -4.65627817902714e-06, 3.2116986403707415e-08, 4.720512151834555e-06, 9.408907317265403e-06, 1.409730248269625e-05, 1.8785696738632396e-05, 2.3474092813557945e-05, 2.8162488888483495e-05, 3.285088314441964e-05, 3.7539277400355786e-05, 4.222767165629193e-05, 4.6916069550206885e-05, 5.160446380614303e-05, 5.6292858062079176e-05, 6.098125595599413e-05, 6.566965021193027e-05, 7.035804446786642e-05, 7.504643872380257e-05, 7.973483297973871e-05, 8.442322723567486e-05, 8.9111621491611e-05, 9.380001574754715e-05, 9.848841727944091e-05, 0.00010317681153537706, 0.0001078652057913132, 0.00011255360004724935, 0.00011724199430318549, 0.00012193038855912164, 0.0001266187900910154, 0.00013130718434695154, 0.0001359955786028877, 0.00014068397285882384, 0.00014537236711475998]}}