{"train_loss": 0.10339689254760742, "test_loss": 0.13726629316806793, "_timestamp": 1717542788.8937395, "_runtime": 270.77656054496765, "_step": 246, "parameters/net.0.weight": {"_type": "histogram", "values": [2.0, 2.0, 4.0, 4.0, 3.0, 4.0, 7.0, 15.0, 11.0, 17.0, 12.0, 21.0, 22.0, 29.0, 41.0, 47.0, 46.0, 59.0, 66.0, 71.0, 90.0, 85.0, 95.0, 88.0, 108.0, 114.0, 125.0, 124.0, 123.0, 95.0, 114.0, 123.0, 122.0, 109.0, 121.0, 93.0, 88.0, 91.0, 96.0, 84.0, 70.0, 62.0, 57.0, 52.0, 55.0, 34.0, 36.0, 27.0, 26.0, 18.0, 10.0, 13.0, 8.0, 7.0, 9.0, 5.0, 2.0, 2.0, 3.0, 1.0, 2.0, 1.0, 0.0, 1.0], "bins": [-0.2934873700141907, -0.28373587131500244, -0.2739843726158142, -0.264232873916626, -0.25448137521743774, -0.2447298914194107, -0.23497840762138367, -0.22522690892219543, -0.2154754102230072, -0.20572391152381897, -0.19597241282463074, -0.1862209290266037, -0.17646943032741547, -0.16671793162822723, -0.1569664478302002, -0.14721494913101196, -0.13746345043182373, -0.1277119517326355, -0.11796046048402786, -0.10820896923542023, -0.098457470536232, -0.08870597183704376, -0.07895448058843613, -0.06920298933982849, -0.05945149064064026, -0.049699995666742325, -0.03994850069284439, -0.030197005718946457, -0.020445510745048523, -0.010694015771150589, -0.000942520797252655, 0.00880897045135498, 0.018560469150543213, 0.028311964124441147, 0.03806345909833908, 0.047814954072237015, 0.05756644904613495, 0.06731794774532318, 0.07706943899393082, 0.08682093024253845, 0.09657242894172668, 0.10632392764091492, 0.11607541888952255, 0.1258269101381302, 0.13557840883731842, 0.14532990753650665, 0.1550813913345337, 0.16483289003372192, 0.17458438873291016, 0.1843358874320984, 0.19408738613128662, 0.20383886992931366, 0.2135903686285019, 0.22334186732769012, 0.23309335112571716, 0.2428448498249054, 0.25259634852409363, 0.26234784722328186, 0.2720993459224701, 0.2818508446216583, 0.29160231351852417, 0.3013538122177124, 0.31110531091690063, 0.32085680961608887, 0.3306083083152771]}, "parameters/net.0.bias": {"_type": "histogram", "values": [1.0, 0.0, 1.0, 0.0, 0.0, 0.0, 1.0, 1.0, 1.0, 2.0, 1.0, 0.0, 1.0, 4.0, 1.0, 2.0, 4.0, 1.0, 3.0, 2.0, 3.0, 3.0, 4.0, 6.0, 4.0, 8.0, 7.0, 6.0, 7.0, 11.0, 9.0, 10.0, 8.0, 6.0, 7.0, 9.0, 8.0, 18.0, 11.0, 11.0, 5.0, 11.0, 6.0, 5.0, 5.0, 6.0, 6.0, 2.0, 4.0, 6.0, 2.0, 4.0, 1.0, 2.0, 1.0, 1.0, 0.0, 0.0, 3.0, 0.0, 0.0, 2.0, 1.0, 1.0], "bins": [-0.07160959392786026, -0.06949710100889206, -0.06738460808992386, -0.06527212262153625, -0.06315962970256805, -0.061047136783599854, -0.05893464386463165, -0.05682215467095375, -0.05470966547727585, -0.05259717255830765, -0.050484683364629745, -0.048372190445661545, -0.04625970125198364, -0.04414720833301544, -0.04203471541404724, -0.03992222622036934, -0.03780973330140114, -0.03569724038243294, -0.033584751188755035, -0.031472258269786835, -0.029359769076108932, -0.027247276157140732, -0.02513478510081768, -0.02302229404449463, -0.020909802988171577, -0.018797311931848526, -0.016684820875525475, -0.014572328887879848, -0.012459837831556797, -0.010347346775233746, -0.00823485478758812, -0.006122363731265068, -0.004009872674942017, -0.0018973813857883215, 0.0002151099033653736, 0.0023276014253497124, 0.004440092481672764, 0.006552583537995815, 0.008665075525641441, 0.010777566581964493, 0.012890057638287544, 0.015002548694610596, 0.017115039750933647, 0.0192275308072567, 0.0213400237262249, 0.0234525129199028, 0.025565005838871002, 0.027677496895194054, 0.029789987951517105, 0.031902480870485306, 0.03401497006416321, 0.03612746298313141, 0.03823995217680931, 0.04035244509577751, 0.042464934289455414, 0.044577427208423615, 0.046689920127391815, 0.048802413046360016, 0.05091490224003792, 0.05302739515900612, 0.05513988435268402, 0.05725237727165222, 0.05936487019062042, 0.061477359384298325, 0.06358984857797623]}, "parameters/net.2.weight": {"_type": "histogram", "values": [1.0, 0.0, 2.0, 4.0, 4.0, 4.0, 6.0, 17.0, 28.0, 33.0, 36.0, 86.0, 127.0, 175.0, 220.0, 287.0, 385.0, 490.0, 632.0, 819.0, 1043.0, 1259.0, 1472.0, 1742.0, 2143.0, 2418.0, 2588.0, 2820.0, 3115.0, 3281.0, 3263.0, 3540.0, 3601.0, 3443.0, 3315.0, 3235.0, 2980.0, 2666.0, 2340.0, 2132.0, 1957.0, 1613.0, 1319.0, 1181.0, 929.0, 715.0, 554.0, 427.0, 306.0, 259.0, 169.0, 125.0, 67.0, 57.0, 47.0, 23.0, 14.0, 11.0, 7.0, 3.0, 0.0, 0.0, 0.0, 1.0], "bins": [-0.4300350248813629, -0.4166938364505768, -0.40335261821746826, -0.39001142978668213, -0.3766702115535736, -0.3633290231227875, -0.34998780488967896, -0.3366466164588928, -0.3233054280281067, -0.30996423959732056, -0.29662302136421204, -0.2832818329334259, -0.2699406147003174, -0.25659942626953125, -0.24325822293758392, -0.2299170196056366, -0.21657580137252808, -0.20323459804058075, -0.18989339470863342, -0.1765522062778473, -0.16321098804473877, -0.14986979961395264, -0.1365285962820053, -0.12318739295005798, -0.10984618961811066, -0.09650498628616333, -0.083163782954216, -0.06982258707284927, -0.05648138374090195, -0.04314018040895462, -0.02979898452758789, -0.016457781195640564, -0.0031165778636932373, 0.01022462360560894, 0.023565825074911118, 0.036907024681568146, 0.05024822801351547, 0.0635894313454628, 0.07693062722682953, 0.09027183055877686, 0.10361303389072418, 0.11695423722267151, 0.13029544055461884, 0.14363664388656616, 0.1569778323173523, 0.17031905055046082, 0.18366023898124695, 0.19700144231319427, 0.2103426456451416, 0.22368384897708893, 0.23702505230903625, 0.2503662407398224, 0.2637074589729309, 0.27704864740371704, 0.2903898358345032, 0.3037310540676117, 0.3170722723007202, 0.33041346073150635, 0.34375467896461487, 0.357095867395401, 0.3704370856285095, 0.38377827405929565, 0.3971194624900818, 0.4104606807231903, 0.42380186915397644]}, "parameters/net.2.bias": {"_type": "histogram", "values": [1.0, 0.0, 0.0, 0.0, 2.0, 0.0, 0.0, 3.0, 2.0, 4.0, 3.0, 0.0, 5.0, 0.0, 4.0, 7.0, 4.0, 5.0, 9.0, 4.0, 4.0, 7.0, 7.0, 6.0, 5.0, 2.0, 6.0, 8.0, 8.0, 8.0, 3.0, 12.0, 2.0, 9.0, 11.0, 12.0, 9.0, 5.0, 10.0, 9.0, 5.0, 11.0, 9.0, 3.0, 3.0, 3.0, 6.0, 4.0, 2.0, 0.0, 1.0, 1.0, 0.0, 3.0, 2.0, 2.0, 2.0, 0.0, 0.0, 0.0, 1.0, 0.0, 1.0, 1.0], "bins": [-0.0643598809838295, -0.06250026077032089, -0.060640640556812286, -0.05878102034330368, -0.056921400129795074, -0.05506177991628647, -0.05320215970277786, -0.05134253948926926, -0.04948291927576065, -0.047623299062252045, -0.04576367884874344, -0.04390405863523483, -0.04204443842172623, -0.04018481820821762, -0.038325197994709015, -0.03646557778120041, -0.0346059575676918, -0.0327463373541832, -0.03088671714067459, -0.029027096927165985, -0.02716747671365738, -0.025307856500148773, -0.023448236286640167, -0.02158861607313156, -0.019728995859622955, -0.01786937564611435, -0.016009755432605743, -0.014150135219097137, -0.012290515005588531, -0.010430894792079926, -0.00857127457857132, -0.006711654365062714, -0.004852030426263809, -0.0029924102127552032, -0.0011327899992465973, 0.0007268302142620087, 0.0025864504277706146, 0.004446070641279221, 0.0063056908547878265, 0.008165311068296432, 0.010024931281805038, 0.011884551495313644, 0.01374417170882225, 0.015603791922330856, 0.017463412135839462, 0.019323032349348068, 0.021182652562856674, 0.02304227277636528, 0.024901892989873886, 0.026761513203382492, 0.028621133416891098, 0.030480753630399704, 0.03234037384390831, 0.034199994057416916, 0.03605961427092552, 0.03791923448443413, 0.039778854697942734, 0.04163847491145134, 0.043498095124959946, 0.04535771533846855, 0.04721733555197716, 0.049076955765485764, 0.05093657597899437, 0.052796196192502975, 0.05465581640601158]}, "parameters/net.4.weight": {"_type": "histogram", "values": [2.0, 0.0, 0.0, 0.0, 0.0, 1.0, 3.0, 1.0, 3.0, 2.0, 8.0, 8.0, 10.0, 10.0, 16.0, 21.0, 31.0, 28.0, 34.0, 47.0, 57.0, 56.0, 81.0, 85.0, 96.0, 101.0, 121.0, 109.0, 121.0, 141.0, 134.0, 126.0, 137.0, 138.0, 139.0, 134.0, 118.0, 114.0, 98.0, 83.0, 88.0, 102.0, 72.0, 76.0, 62.0, 46.0, 51.0, 33.0, 21.0, 28.0, 18.0, 17.0, 14.0, 1.0, 11.0, 8.0, 2.0, 3.0, 3.0, 0.0, 1.0, 0.0, 0.0, 1.0], "bins": [-0.3494288921356201, -0.33877989649772644, -0.3281308710575104, -0.3174818754196167, -0.30683284997940063, -0.29618385434150696, -0.2855348587036133, -0.2748858332633972, -0.26423680782318115, -0.2535878121852875, -0.2429387867450714, -0.23228979110717773, -0.22164076566696167, -0.210991770029068, -0.20034275949001312, -0.18969374895095825, -0.17904475331306458, -0.1683957427740097, -0.15774673223495483, -0.14709773659706116, -0.1364487111568451, -0.12579971551895142, -0.11515070497989655, -0.10450169444084167, -0.0938526839017868, -0.08320367336273193, -0.07255466282367706, -0.06190565973520279, -0.05125664919614792, -0.04060763865709305, -0.029958635568618774, -0.019309625029563904, -0.008660584688186646, 0.001988423988223076, 0.012637432664632797, 0.02328643947839737, 0.03393545001745224, 0.04458446055650711, 0.055233463644981384, 0.06588247418403625, 0.07653148472309113, 0.087180495262146, 0.09782950580120087, 0.10847850888967514, 0.11912751942873001, 0.12977653741836548, 0.14042553305625916, 0.15107454359531403, 0.1617235541343689, 0.17237256467342377, 0.18302157521247864, 0.19367057085037231, 0.20431959629058838, 0.21496859192848206, 0.22561760246753693, 0.2362666130065918, 0.24691562354564667, 0.25756463408470154, 0.2682136297225952, 0.2788626551628113, 0.28951165080070496, 0.300160676240921, 0.3108096718788147, 0.32145869731903076, 0.33210769295692444]}, "parameters/net.4.bias": {"_type": "histogram", "values": [1.0, 0.0, 0.0, 0.0, 1.0, 0.0, 0.0, 0.0, 0.0, 0.0, 0.0, 0.0, 0.0, 1.0, 1.0, 0.0, 0.0, 0.0, 1.0, 0.0, 0.0, 0.0, 0.0, 0.0, 0.0, 0.0, 0.0, 1.0, 0.0, 0.0, 1.0, 0.0, 0.0, 0.0, 0.0, 0.0, 0.0, 0.0, 0.0, 0.0, 0.0, 0.0, 1.0, 0.0, 0.0, 1.0, 0.0, 0.0, 0.0, 0.0, 0.0, 0.0, 0.0, 0.0, 0.0, 0.0, 0.0, 0.0, 0.0, 0.0, 0.0, 0.0, 2.0, 1.0], "bins": [-0.022377394139766693, -0.021668899804353714, -0.020960407331585884, -0.020251912996172905, -0.019543418660759926, -0.018834924325346947, -0.018126431852579117, -0.017417937517166138, -0.01670944318175316, -0.01600094884634018, -0.015292455442249775, -0.01458396203815937, -0.013875467702746391, -0.013166974298655987, -0.012458480894565582, -0.011749986559152603, -0.011041493155062199, -0.010332999750971794, -0.009624505415558815, -0.00891601201146841, -0.008207517676055431, -0.007499024271965027, -0.006790530402213335, -0.006082036532461643, -0.005373542662709951, -0.00466504879295826, -0.003956554923206568, -0.0032480612862855196, -0.0025395674165338278, -0.001831073546782136, -0.0011225799098610878, -0.000414086040109396, 0.00029440782964229584, 0.0010029016993939877, 0.0017113954527303576, 0.0024198892060667276, 0.0031283830758184195, 0.0038368769455701113, 0.0045453705824911594, 0.005253864452242851, 0.005962358321994543, 0.006670852191746235, 0.007379346061497927, 0.008087839931249619, 0.008796333335340023, 0.009504827670753002, 0.010213321074843407, 0.010921815410256386, 0.01163030881434679, 0.012338802218437195, 0.013047296553850174, 0.013755789957940578, 0.014464284293353558, 0.015172777697443962, 0.01588127203285694, 0.01658976450562477, 0.01729825884103775, 0.01800675317645073, 0.01871524564921856, 0.01942373998463154, 0.020132234320044518, 0.020840728655457497, 0.021549221128225327, 0.022257715463638306, 0.022966209799051285]}, "gradients/net.4.bias": {"_type": "histogram", "values": [2.0, 0.0, 1.0, 0.0, 0.0, 0.0, 0.0, 0.0, 1.0, 0.0, 0.0, 0.0, 0.0, 0.0, 1.0, 0.0, 0.0, 0.0, 0.0, 0.0, 0.0, 0.0, 0.0, 1.0, 2.0, 0.0, 0.0, 0.0, 0.0, 0.0, 1.0, 0.0, 0.0, 0.0, 0.0, 0.0, 0.0, 0.0, 0.0, 0.0, 0.0, 0.0, 0.0, 0.0, 0.0, 0.0, 0.0, 0.0, 0.0, 0.0, 1.0, 0.0, 0.0, 0.0, 1.0, 0.0, 0.0, 0.0, 0.0, 0.0, 0.0, 0.0, 0.0, 1.0], "bins": [-0.02779519557952881, -0.026403892785310745, -0.025012589991092682, -0.02362128719687462, -0.022229984402656555, -0.020838681608438492, -0.01944737881422043, -0.018056076020002365, -0.016664773225784302, -0.015273470431566238, -0.013882167637348175, -0.012490864843130112, -0.011099562048912048, -0.009708259254693985, -0.008316956460475922, -0.006925653666257858, -0.005534350872039795, -0.004143048077821732, -0.002751745283603668, -0.0013604424893856049, 3.0860304832458496e-05, 0.0014221630990505219, 0.002813465893268585, 0.0042047686874866486, 0.005596071481704712, 0.006987374275922775, 0.008378677070140839, 0.009769979864358902, 0.011161282658576965, 0.012552585452795029, 0.013943888247013092, 0.015335191041231155, 0.01672649011015892, 0.018117792904376984, 0.019509095698595047, 0.02090039849281311, 0.022291701287031174, 0.023683004081249237, 0.0250743068754673, 0.026465609669685364, 0.027856912463903427, 0.02924821525812149, 0.030639518052339554, 0.03203082084655762, 0.03342212364077568, 0.034813426434993744, 0.03620472922921181, 0.03759603202342987, 0.038987334817647934, 0.040378637611866, 0.04176994040608406, 0.043161243200302124, 0.04455254599452019, 0.04594384878873825, 0.047335151582956314, 0.04872645437717438, 0.05011775717139244, 0.051509059965610504, 0.05290036275982857, 0.05429166555404663, 0.055682968348264694, 0.05707427114248276, 0.05846557393670082, 0.059856876730918884, 0.06124817952513695]}, "gradients/net.4.weight": {"_type": "histogram", "values": [2.0, 0.0, 1.0, 2.0, 3.0, 3.0, 4.0, 3.0, 6.0, 8.0, 13.0, 17.0, 25.0, 19.0, 41.0, 28.0, 66.0, 86.0, 90.0, 113.0, 166.0, 303.0, 558.0, 525.0, 297.0, 148.0, 99.0, 87.0, 46.0, 34.0, 20.0, 20.0, 21.0, 23.0, 19.0, 21.0, 16.0, 12.0, 9.0, 18.0, 15.0, 10.0, 8.0, 8.0, 13.0, 6.0, 4.0, 8.0, 4.0, 7.0, 1.0, 2.0, 2.0, 2.0, 1.0, 3.0, 3.0, 0.0, 0.0, 0.0, 0.0, 1.0, 1.0, 1.0], "bins": [-0.022446731105446815, -0.021469373255968094, -0.020492015406489372, -0.01951465755701065, -0.01853729784488678, -0.017559941858053207, -0.016582582145929337, -0.015605224296450615, -0.014627866446971893, -0.013650508597493172, -0.01267315074801445, -0.011695791967213154, -0.010718434117734432, -0.00974107626825571, -0.008763717487454414, -0.007786359637975693, -0.006809001788496971, -0.0058316439390182495, -0.004854285623878241, -0.0038769275415688753, -0.00289956945925951, -0.0019222116097807884, -0.0009448532946407795, 3.250502049922943e-05, 0.001009862869977951, 0.0019872209522873163, 0.0029645790345966816, 0.0039419373497366905, 0.004919295199215412, 0.005896653048694134, 0.006874011363834143, 0.007851369678974152, 0.008828725665807724, 0.009806083515286446, 0.010783441364765167, 0.011760800145566463, 0.012738157995045185, 0.013715515844523907, 0.014692874625325203, 0.015670232474803925, 0.016647590324282646, 0.017624948173761368, 0.01860230602324009, 0.01957966387271881, 0.020557023584842682, 0.021534379571676254, 0.022511739283800125, 0.023489097133278847, 0.02446645498275757, 0.02544381283223629, 0.02642117068171501, 0.027398528531193733, 0.028375886380672455, 0.029353246092796326, 0.030330603942275047, 0.03130796179175377, 0.03228531777858734, 0.03326267749071121, 0.034240033477544785, 0.035217393189668655, 0.03619474917650223, 0.0371721088886261, 0.03814946487545967, 0.03912682458758354, 0.04010418429970741]}, "gradients/net.2.bias": {"_type": "histogram", "values": [1.0, 0.0, 0.0, 0.0, 0.0, 2.0, 0.0, 0.0, 0.0, 0.0, 0.0, 0.0, 2.0, 1.0, 2.0, 0.0, 0.0, 1.0, 2.0, 0.0, 0.0, 0.0, 2.0, 2.0, 4.0, 3.0, 5.0, 5.0, 4.0, 4.0, 7.0, 4.0, 7.0, 9.0, 9.0, 16.0, 21.0, 17.0, 22.0, 25.0, 12.0, 14.0, 18.0, 2.0, 6.0, 5.0, 3.0, 5.0, 3.0, 2.0, 2.0, 0.0, 1.0, 0.0, 1.0, 0.0, 2.0, 0.0, 0.0, 0.0, 0.0, 0.0, 2.0, 1.0], "bins": [-0.024312736466526985, -0.023659618571400642, -0.02300649881362915, -0.022353380918502808, -0.021700263023376465, -0.021047143265604973, -0.02039402537047863, -0.019740905612707138, -0.019087787717580795, -0.018434669822454453, -0.01778155006468296, -0.017128432169556618, -0.016475312411785126, -0.015822194516658783, -0.01516907662153244, -0.014515957795083523, -0.013862838968634605, -0.013209720142185688, -0.01255660131573677, -0.011903483420610428, -0.01125036459416151, -0.010597245767712593, -0.00994412787258625, -0.009291009046137333, -0.008637890219688416, -0.007984771393239498, -0.007331653032451868, -0.006678534671664238, -0.006025415845215321, -0.005372297018766403, -0.004719178657978773, -0.004066060297191143, -0.0034129396080970764, -0.0027598210144788027, -0.002106702420860529, -0.0014535838272422552, -0.0008004652336239815, -0.00014734664000570774, 0.000505771953612566, 0.001158890314400196, 0.0018120091408491135, 0.002465127734467387, 0.003118246328085661, 0.0037713649217039347, 0.004424483515322208, 0.005077602341771126, 0.005730720702558756, 0.006383839063346386, 0.007036957889795303, 0.007690076716244221, 0.008343195542693138, 0.008996313437819481, 0.009649432264268398, 0.010302551090717316, 0.010955668985843658, 0.011608787812292576, 0.012261906638741493, 0.01291502546519041, 0.013568144291639328, 0.01422126218676567, 0.014874381013214588, 0.015527499839663506, 0.01618061773478985, 0.01683373749256134, 0.017486855387687683]}, "gradients/net.2.weight": {"_type": "histogram", "values": [1.0, 0.0, 0.0, 1.0, 0.0, 0.0, 1.0, 0.0, 1.0, 1.0, 1.0, 3.0, 6.0, 4.0, 12.0, 18.0, 18.0, 23.0, 47.0, 50.0, 85.0, 115.0, 149.0, 255.0, 392.0, 584.0, 964.0, 1614.0, 3501.0, 9278.0, 28977.0, 10841.0, 3979.0, 1756.0, 1033.0, 618.0, 368.0, 252.0, 172.0, 117.0, 75.0, 67.0, 42.0, 24.0, 25.0, 17.0, 21.0, 4.0, 4.0, 4.0, 6.0, 1.0, 1.0, 2.0, 2.0, 1.0, 0.0, 0.0, 0.0, 0.0, 0.0, 0.0, 1.0, 2.0], "bins": [-0.011346506886184216, -0.010975360870361328, -0.010604215785861015, -0.010233069770038128, -0.00986192375421524, -0.009490777738392353, -0.009119631722569466, -0.008748486638069153, -0.008377340622246265, -0.008006194606423378, -0.007635049056261778, -0.007263903506100178, -0.00689275749027729, -0.006521611474454403, -0.006150465924292803, -0.005779320374131203, -0.005408174358308315, -0.005037028342485428, -0.004665882792323828, -0.004294737242162228, -0.00392359122633934, -0.0035524454433470964, -0.0031812996603548527, -0.002810153877362609, -0.002439008094370365, -0.0020678623113781214, -0.0016967165283858776, -0.0013255707453936338, -0.0009544249624013901, -0.0005832791794091463, -0.00021213339641690254, 0.00015901238657534122, 0.000530158169567585, 0.0009013039525598288, 0.0012724497355520725, 0.0016435955185443163, 0.00201474130153656, 0.002385887084528804, 0.0027570328675210476, 0.0031281786505132914, 0.003499324433505535, 0.003870470216497779, 0.004241615999490023, 0.004612761549651623, 0.00498390756547451, 0.005355053581297398, 0.005726199131458998, 0.006097344681620598, 0.006468490697443485, 0.006839636713266373, 0.007210782263427973, 0.007581927813589573, 0.00795307382941246, 0.008324219845235348, 0.008695365861058235, 0.009066510945558548, 0.009437656961381435, 0.009808802977204323, 0.010179948061704636, 0.010551094077527523, 0.01092224009335041, 0.011293386109173298, 0.011664532124996185, 0.012035677209496498, 0.012406823225319386]}, "gradients/net.0.bias": {"_type": "histogram", "values": [1.0, 0.0, 1.0, 1.0, 1.0, 3.0, 4.0, 1.0, 0.0, 2.0, 3.0, 0.0, 3.0, 1.0, 5.0, 6.0, 4.0, 5.0, 3.0, 8.0, 9.0, 3.0, 9.0, 7.0, 3.0, 11.0, 10.0, 9.0, 7.0, 6.0, 11.0, 6.0, 4.0, 9.0, 6.0, 8.0, 9.0, 10.0, 16.0, 8.0, 4.0, 5.0, 3.0, 5.0, 5.0, 5.0, 1.0, 2.0, 0.0, 1.0, 0.0, 3.0, 3.0, 1.0, 0.0, 0.0, 1.0, 0.0, 0.0, 1.0, 0.0, 2.0, 0.0, 1.0], "bins": [-0.02231200598180294, -0.021563533693552017, -0.020815061405301094, -0.02006658911705017, -0.0193181149661541, -0.018569642677903175, -0.017821170389652252, -0.01707269810140133, -0.016324225813150406, -0.015575753524899483, -0.014827280305325985, -0.014078808017075062, -0.013330334797501564, -0.012581862509250641, -0.011833390220999718, -0.011084917932748795, -0.010336443781852722, -0.009587971493601799, -0.008839498274028301, -0.008091025985777378, -0.007342553231865168, -0.006594080477952957, -0.005845608189702034, -0.0050971354357898235, -0.004348662681877613, -0.0036001899279654026, -0.002851717406883836, -0.002103244885802269, -0.0013547721318900585, -0.000606299377977848, 0.0001421729102730751, 0.0008906456641852856, 0.001639118418097496, 0.0023875911720097065, 0.0031360636930912733, 0.00388453621417284, 0.004633008968085051, 0.005381481721997261, 0.006129954010248184, 0.006878426764160395, 0.007626899518072605, 0.008375371806323528, 0.009123845025897026, 0.00987231731414795, 0.010620789602398872, 0.01136926282197237, 0.012117735110223293, 0.012866208329796791, 0.013614680618047714, 0.014363152906298637, 0.015111626125872135, 0.015860099345445633, 0.016608571633696556, 0.01735704392194748, 0.018105516210198402, 0.018853988498449326, 0.019602462649345398, 0.02035093493759632, 0.021099407225847244, 0.021847881376743317, 0.02259635366499424, 0.023344825953245163, 0.024093298241496086, 0.02484177052974701, 0.025590242817997932]}, "gradients/net.0.weight": {"_type": "histogram", "values": [1.0, 0.0, 1.0, 1.0, 0.0, 0.0, 4.0, 2.0, 1.0, 1.0, 2.0, 2.0, 2.0, 10.0, 8.0, 11.0, 11.0, 13.0, 16.0, 22.0, 22.0, 43.0, 33.0, 73.0, 76.0, 105.0, 170.0, 241.0, 319.0, 403.0, 393.0, 284.0, 203.0, 160.0, 104.0, 74.0, 52.0, 43.0, 36.0, 34.0, 16.0, 20.0, 12.0, 9.0, 7.0, 5.0, 9.0, 3.0, 5.0, 3.0, 3.0, 2.0, 0.0, 0.0, 0.0, 1.0, 0.0, 0.0, 0.0, 0.0, 0.0, 0.0, 0.0, 1.0], "bins": [-0.02619030326604843, -0.02531365305185318, -0.02443700097501278, -0.023560350760817528, -0.022683698683977127, -0.021807048469781876, -0.020930398255586624, -0.020053746178746223, -0.019177095964550972, -0.01830044575035572, -0.01742379367351532, -0.01654714345932007, -0.015670491382479668, -0.014793841168284416, -0.01391719002276659, -0.013040538877248764, -0.012163887731730938, -0.011287236586213112, -0.010410585440695286, -0.00953393429517746, -0.008657284080982208, -0.007780632935464382, -0.006903981789946556, -0.006027331110090017, -0.005150679964572191, -0.004274028819054365, -0.0033973781391978264, -0.0025207269936800003, -0.0016440760809928179, -0.0007674251683056355, 0.00010922597721219063, 0.0009858766570687294, 0.0018625278025865555, 0.002739178715273738, 0.0036158296279609203, 0.004492480773478746, 0.005369131453335285, 0.006245782598853111, 0.007122433744370937, 0.007999084889888763, 0.008875735104084015, 0.009752386249601841, 0.010629037395119667, 0.011505687609314919, 0.012382338754832745, 0.01325898990035057, 0.014135641045868397, 0.015012292191386223, 0.015888944268226624, 0.016765594482421875, 0.017642246559262276, 0.018518896773457527, 0.019395548850297928, 0.02027219906449318, 0.02114884927868843, 0.02202550135552883, 0.022902151569724083, 0.023778801783919334, 0.024655453860759735, 0.025532104074954987, 0.026408756151795387, 0.02728540636599064, 0.02816205844283104, 0.02903870865702629, 0.029915358871221542]}, "_wandb": {"runtime": 270}}