{"train_loss": 8.561280992580578e-06, "test_loss": 1.0902415851887781e-05, "_timestamp": 1717543670.2253482, "_runtime": 23.162967205047607, "_step": 499, "parameters/net.0.weight": {"_type": "histogram", "values": [1.0, 0.0, 0.0, 0.0, 0.0, 0.0, 2.0, 1.0, 1.0, 5.0, 3.0, 5.0, 6.0, 13.0, 19.0, 16.0, 17.0, 31.0, 35.0, 39.0, 54.0, 67.0, 77.0, 82.0, 98.0, 105.0, 109.0, 137.0, 116.0, 151.0, 138.0, 162.0, 140.0, 152.0, 132.0, 120.0, 121.0, 139.0, 123.0, 93.0, 103.0, 82.0, 68.0, 65.0, 56.0, 38.0, 26.0, 25.0, 26.0, 22.0, 9.0, 16.0, 6.0, 6.0, 4.0, 3.0, 3.0, 2.0, 1.0, 0.0, 0.0, 0.0, 0.0, 1.0], "bins": [-0.39410078525543213, -0.38200968503952026, -0.369918555021286, -0.35782745480537415, -0.3457363545894623, -0.3336452543735504, -0.32155412435531616, -0.3094630241394043, -0.29737192392349243, -0.28528082370758057, -0.2731896936893463, -0.26109859347343445, -0.24900749325752258, -0.23691637814044952, -0.22482526302337646, -0.2127341628074646, -0.20064304769039154, -0.18855193257331848, -0.17646083235740662, -0.16436971724033356, -0.1522786170244217, -0.14018750190734863, -0.12809640169143677, -0.11600528657436371, -0.10391417890787125, -0.09182307124137878, -0.07973196357488632, -0.06764085590839386, -0.0555497445166111, -0.04345863685011864, -0.031367525458335876, -0.019276417791843414, -0.007185310125350952, 0.004905798472464085, 0.01699690707027912, 0.029088016599416733, 0.041179124265909195, 0.05327023193240166, 0.06536134332418442, 0.07745245099067688, 0.08954355865716934, 0.1016346663236618, 0.11372577399015427, 0.12581688165664673, 0.1379079967737198, 0.14999909698963165, 0.1620902121067047, 0.17418131232261658, 0.18627242743968964, 0.1983635425567627, 0.21045464277267456, 0.22254575788974762, 0.23463685810565948, 0.24672797322273254, 0.2588190734386444, 0.27091020345687866, 0.2830013036727905, 0.2950924038887024, 0.30718353390693665, 0.3192746341228485, 0.3313657343387604, 0.34345683455467224, 0.3555479645729065, 0.36763906478881836, 0.3797301650047302]}, "parameters/net.0.bias": {"_type": "histogram", "values": [1.0, 0.0, 1.0, 0.0, 2.0, 0.0, 0.0, 1.0, 2.0, 3.0, 4.0, 3.0, 0.0, 7.0, 2.0, 4.0, 4.0, 4.0, 2.0, 4.0, 9.0, 8.0, 6.0, 8.0, 3.0, 7.0, 3.0, 10.0, 8.0, 11.0, 8.0, 5.0, 4.0, 4.0, 10.0, 3.0, 2.0, 9.0, 5.0, 6.0, 3.0, 7.0, 7.0, 3.0, 6.0, 11.0, 9.0, 8.0, 3.0, 3.0, 5.0, 4.0, 2.0, 4.0, 2.0, 0.0, 2.0, 1.0, 0.0, 0.0, 1.0, 0.0, 1.0, 1.0], "bins": [-0.013891639187932014, -0.013453597202897072, -0.01301555521786213, -0.012577513232827187, -0.012139471247792244, -0.011701429262757301, -0.011263386346399784, -0.010825344361364841, -0.010387302376329899, -0.009949260391294956, -0.009511218406260014, -0.009073176421225071, -0.008635133504867554, -0.008197091519832611, -0.0077590495347976685, -0.007321007549762726, -0.006882965564727783, -0.006444923579692841, -0.006006881594657898, -0.005568839143961668, -0.005130797158926725, -0.004692755173891783, -0.004254712723195553, -0.00381667073816061, -0.0033786287531256676, -0.002940586768090725, -0.0025025445502251387, -0.0020645023323595524, -0.0016264603473246098, -0.0011884183622896671, -0.0007503761444240808, -0.00031233392655849457, 0.00012570712715387344, 0.0005637492286041379, 0.0010017913300544024, 0.0014398334315046668, 0.0018778755329549313, 0.002315917517989874, 0.00275395973585546, 0.0031920019537210464, 0.003630043938755989, 0.004068085923790932, 0.004506127908825874, 0.004944170359522104, 0.005382212344557047, 0.0058202543295919895, 0.0062582967802882195, 0.006696338765323162, 0.007134380750358105, 0.007572422735393047, 0.00801046472042799, 0.008448506705462933, 0.00888654962182045, 0.009324591606855392, 0.009762633591890335, 0.010200675576925278, 0.01063871756196022, 0.011076759546995163, 0.011514801532030106, 0.011952843517065048, 0.01239088550209999, 0.012828927487134933, 0.01326697040349245, 0.013705012388527393, 0.014143054373562336]}, "parameters/net.2.weight": {"_type": "histogram", "values": [2.0, 0.0, 4.0, 2.0, 5.0, 18.0, 24.0, 39.0, 54.0, 85.0, 128.0, 171.0, 184.0, 321.0, 352.0, 521.0, 667.0, 819.0, 1072.0, 1253.0, 1539.0, 1835.0, 2137.0, 2364.0, 2658.0, 2880.0, 3075.0, 3304.0, 3379.0, 3536.0, 3460.0, 3429.0, 3349.0, 3141.0, 2912.0, 2642.0, 2505.0, 2150.0, 1922.0, 1567.0, 1355.0, 1079.0, 881.0, 667.0, 547.0, 410.0, 303.0, 233.0, 188.0, 119.0, 87.0, 53.0, 49.0, 29.0, 7.0, 9.0, 5.0, 4.0, 1.0, 3.0, 0.0, 0.0, 1.0, 1.0], "bins": [-0.402432382106781, -0.389067679643631, -0.37570294737815857, -0.36233824491500854, -0.34897351264953613, -0.3356088101863861, -0.3222441077232361, -0.30887937545776367, -0.29551467299461365, -0.2821499705314636, -0.2687852382659912, -0.2554205358028412, -0.24205581843852997, -0.22869110107421875, -0.21532638370990753, -0.2019616663455963, -0.1885969489812851, -0.17523223161697388, -0.16186751425266266, -0.14850279688835144, -0.13513809442520142, -0.1217733770608902, -0.10840865969657898, -0.09504394978284836, -0.08167923241853714, -0.06831451505422592, -0.0549498051404953, -0.04158508777618408, -0.028220374137163162, -0.014855660498142242, -0.0014909431338310242, 0.011873766779899597, 0.025238484144210815, 0.038603197783231735, 0.051967911422252655, 0.06533262878656387, 0.0786973387002945, 0.09206205606460571, 0.10542677342891693, 0.11879148334264755, 0.13215619325637817, 0.1455209106206894, 0.1588856279850006, 0.17225033044815063, 0.18561504781246185, 0.19897976517677307, 0.2123444825410843, 0.2257091999053955, 0.23907391726970673, 0.25243863463401794, 0.26580333709716797, 0.2791680693626404, 0.2925327718257904, 0.30589747428894043, 0.31926220655441284, 0.33262690901756287, 0.3459916412830353, 0.3593563437461853, 0.3727210760116577, 0.38608577847480774, 0.39945051074028015, 0.4128152132034302, 0.4261799454689026, 0.4395446479320526, 0.45290935039520264]}, "parameters/net.2.bias": {"_type": "histogram", "values": [1.0, 0.0, 0.0, 0.0, 0.0, 0.0, 0.0, 0.0, 0.0, 0.0, 0.0, 0.0, 0.0, 0.0, 2.0, 2.0, 0.0, 2.0, 1.0, 3.0, 3.0, 7.0, 4.0, 3.0, 8.0, 8.0, 9.0, 7.0, 6.0, 8.0, 11.0, 10.0, 2.0, 6.0, 8.0, 2.0, 11.0, 8.0, 2.0, 8.0, 6.0, 9.0, 17.0, 4.0, 6.0, 15.0, 10.0, 8.0, 7.0, 6.0, 5.0, 4.0, 3.0, 4.0, 3.0, 5.0, 0.0, 0.0, 1.0, 0.0, 0.0, 0.0, 0.0, 1.0], "bins": [-0.022523432970046997, -0.021896950900554657, -0.021270470693707466, -0.020643988624215126, -0.020017508417367935, -0.019391026347875595, -0.018764544278383255, -0.018138062208890915, -0.017511582002043724, -0.016885099932551384, -0.016258619725704193, -0.015632137656211853, -0.015005656518042088, -0.014379175379872322, -0.013752693310379982, -0.013126212172210217, -0.012499731034040451, -0.011873249895870686, -0.01124676875770092, -0.01062028668820858, -0.009993805550038815, -0.009367324411869049, -0.008740842342376709, -0.008114361204206944, -0.007487880066037178, -0.006861398927867413, -0.00623491732403636, -0.005608435720205307, -0.0049819545820355415, -0.004355473443865776, -0.0037289918400347233, -0.0031025102362036705, -0.002476029098033905, -0.001849547727033496, -0.0012230663560330868, -0.0005965849850326777, 2.9896385967731476e-05, 0.0006563777569681406, 0.0012828591279685497, 0.0019093407317996025, 0.002535821869969368, 0.003162303240969777, 0.0037887846119701862, 0.004415266215801239, 0.0050417473539710045, 0.00566822849214077, 0.006294710095971823, 0.0069211916998028755, 0.007547672837972641, 0.008174153976142406, 0.008800635114312172, 0.009427117183804512, 0.010053598321974277, 0.010680079460144043, 0.011306561529636383, 0.011933042667806149, 0.012559523805975914, 0.01318600494414568, 0.013812486082315445, 0.014438968151807785, 0.01506544928997755, 0.015691930428147316, 0.016318412497639656, 0.016944892704486847, 0.017571374773979187]}, "parameters/net.4.weight": {"_type": "histogram", "values": [1.0, 1.0, 3.0, 0.0, 1.0, 3.0, 2.0, 6.0, 5.0, 17.0, 7.0, 9.0, 13.0, 24.0, 18.0, 37.0, 40.0, 45.0, 54.0, 63.0, 67.0, 84.0, 99.0, 88.0, 108.0, 125.0, 141.0, 134.0, 143.0, 147.0, 126.0, 121.0, 139.0, 112.0, 114.0, 125.0, 108.0, 112.0, 79.0, 94.0, 85.0, 69.0, 50.0, 53.0, 44.0, 31.0, 29.0, 20.0, 12.0, 16.0, 15.0, 9.0, 6.0, 4.0, 2.0, 2.0, 2.0, 2.0, 3.0, 1.0, 0.0, 1.0, 0.0, 1.0], "bins": [-0.33783453702926636, -0.3267673850059509, -0.3157002329826355, -0.30463308095932007, -0.29356592893600464, -0.2824987769126892, -0.2714316248893738, -0.26036447286605835, -0.24929732084274292, -0.2382301688194275, -0.22716301679611206, -0.21609586477279663, -0.2050287127494812, -0.19396156072616577, -0.18289440870285034, -0.1718272566795349, -0.16076010465621948, -0.14969295263290405, -0.13862580060958862, -0.1275586485862732, -0.11649149656295776, -0.10542434453964233, -0.0943571925163269, -0.08329004049301147, -0.07222288846969604, -0.061155736446380615, -0.050088584423065186, -0.039021432399749756, -0.027954280376434326, -0.016887128353118896, -0.005819976329803467, 0.005247175693511963, 0.01631435751914978, 0.02738150954246521, 0.03844866156578064, 0.04951581358909607, 0.0605829656124115, 0.07165011763572693, 0.08271726965904236, 0.09378442168235779, 0.10485157370567322, 0.11591872572898865, 0.12698587775230408, 0.1380530297756195, 0.14912018179893494, 0.16018733382225037, 0.1712544858455658, 0.18232163786888123, 0.19338878989219666, 0.20445594191551208, 0.21552309393882751, 0.22659024596214294, 0.23765739798545837, 0.2487245500087738, 0.25979170203208923, 0.27085885405540466, 0.2819260060787201, 0.2929931581020355, 0.30406031012535095, 0.3151274621486664, 0.3261946141719818, 0.33726176619529724, 0.34832891821861267, 0.3593960702419281, 0.37046322226524353]}, "parameters/net.4.bias": {"_type": "histogram", "values": [2.0, 2.0, 1.0, 0.0, 0.0, 0.0, 0.0, 0.0, 0.0, 0.0, 0.0, 0.0, 1.0, 1.0, 0.0, 0.0, 0.0, 0.0, 0.0, 0.0, 0.0, 0.0, 0.0, 0.0, 0.0, 0.0, 0.0, 1.0, 0.0, 0.0, 0.0, 0.0, 0.0, 0.0, 0.0, 0.0, 0.0, 0.0, 0.0, 0.0, 1.0, 0.0, 0.0, 1.0, 0.0, 0.0, 0.0, 0.0, 0.0, 0.0, 0.0, 0.0, 0.0, 1.0, 0.0, 0.0, 0.0, 0.0, 0.0, 0.0, 0.0, 0.0, 0.0, 1.0], "bins": [-0.007298326585441828, -0.0070738354697823524, -0.006849344354122877, -0.006624853238463402, -0.0064003621228039265, -0.006175871007144451, -0.005951379891484976, -0.0057268887758255005, -0.005502397660166025, -0.00527790654450655, -0.0050534154288470745, -0.004828924313187599, -0.004604433197528124, -0.0043799420818686485, -0.004155450966209173, -0.003930959850549698, -0.0037064687348902225, -0.0034819776192307472, -0.003257486503571272, -0.0030329953879117966, -0.0028085042722523212, -0.002584013156592846, -0.0023595220409333706, -0.0021350309252738953, -0.00191053980961442, -0.0016860486939549446, -0.0014615575782954693, -0.001237066462635994, -0.0010125753469765186, -0.0007880842313170433, -0.000563593115657568, -0.00033910199999809265, -0.00011461041867733002, 0.00010988069698214531, 0.00033437181264162064, 0.000558862928301096, 0.0007833540439605713, 0.0010078451596200466, 0.001232336275279522, 0.0014568273909389973, 0.0016813185065984726, 0.001905809622257948, 0.0021303007379174232, 0.0023547918535768986, 0.002579282969236374, 0.0028037740848958492, 0.0030282652005553246, 0.0032527563162148, 0.003477247431874275, 0.0037017385475337505, 0.003926229663193226, 0.004150720778852701, 0.0043752118945121765, 0.004599703010171652, 0.004824194125831127, 0.0050486852414906025, 0.005273176357150078, 0.005497667472809553, 0.0057221585884690285, 0.005946649704128504, 0.006171140819787979, 0.0063956319354474545, 0.00662012305110693, 0.006844614166766405, 0.00706910528242588]}, "gradients/net.4.bias": {"_type": "histogram", "values": [1.0, 0.0, 0.0, 0.0, 0.0, 0.0, 0.0, 0.0, 0.0, 0.0, 0.0, 0.0, 0.0, 0.0, 0.0, 0.0, 0.0, 0.0, 0.0, 0.0, 0.0, 0.0, 1.0, 0.0, 0.0, 1.0, 1.0, 0.0, 1.0, 0.0, 0.0, 0.0, 0.0, 0.0, 0.0, 0.0, 1.0, 0.0, 1.0, 0.0, 0.0, 0.0, 0.0, 0.0, 0.0, 0.0, 0.0, 0.0, 1.0, 1.0, 0.0, 0.0, 0.0, 0.0, 1.0, 0.0, 0.0, 0.0, 0.0, 0.0, 0.0, 1.0, 0.0, 1.0], "bins": [-0.00010739856952568516, -0.00010424619540572166, -0.00010109382856171578, -9.794145444175228e-05, -9.478908032178879e-05, -9.16367134777829e-05, -8.848433935781941e-05, -8.533196523785591e-05, -8.217959839385003e-05, -7.902722427388653e-05, -7.587485742988065e-05, -7.272248330991715e-05, -6.957011646591127e-05, -6.641774234594777e-05, -6.326536822598428e-05, -6.0112997743999586e-05, -5.6960627262014896e-05, -5.3808256780030206e-05, -5.0655886298045516e-05, -4.750351217808202e-05, -4.435114169609733e-05, -4.119877121411264e-05, -3.804639709414914e-05, -3.489402661216445e-05, -3.174165613017976e-05, -2.8589285648195073e-05, -2.543691334722098e-05, -2.2284541046246886e-05, -1.9132170564262196e-05, -1.5979800082277507e-05, -1.2827427781303413e-05, -9.67505548032932e-06, -6.522692274302244e-06, -3.3703208828228526e-06, -2.1794949134346098e-07, 2.9344219001359306e-06, 6.086793291615322e-06, 9.239163773600012e-06, 1.2391536074574105e-05, 1.55439083755482e-05, 1.869627885753289e-05, 2.184864933951758e-05, 2.5001021640491672e-05, 2.8153393941465765e-05, 3.1305764423450455e-05, 3.4458134905435145e-05, 3.761050902539864e-05, 4.076287950738333e-05, 4.391524998936802e-05, 4.706762047135271e-05, 5.02199909533374e-05, 5.33723650733009e-05, 5.652473555528559e-05, 5.967710603727028e-05, 6.282948015723377e-05, 6.598184700123966e-05, 6.913422112120315e-05, 7.228659524116665e-05, 7.543896208517253e-05, 7.859133620513603e-05, 8.174371032509953e-05, 8.489607716910541e-05, 8.804845128906891e-05, 9.12008254090324e-05, 9.435319225303829e-05]}, "gradients/net.4.weight": {"_type": "histogram", "values": [1.0, 0.0, 1.0, 0.0, 0.0, 0.0, 1.0, 0.0, 0.0, 1.0, 1.0, 1.0, 3.0, 1.0, 0.0, 3.0, 3.0, 1.0, 4.0, 7.0, 5.0, 5.0, 0.0, 2.0, 7.0, 5.0, 12.0, 8.0, 11.0, 9.0, 22.0, 22.0, 29.0, 44.0, 59.0, 67.0, 74.0, 99.0, 128.0, 182.0, 284.0, 329.0, 291.0, 255.0, 218.0, 170.0, 143.0, 122.0, 81.0, 54.0, 71.0, 51.0, 33.0, 33.0, 37.0, 22.0, 26.0, 7.0, 8.0, 7.0, 5.0, 2.0, 0.0, 5.0], "bins": [-0.00010711159120546654, -0.00010454354924149811, -0.00010197550727752969, -9.940746531356126e-05, -9.683943062555045e-05, -9.427138866158202e-05, -9.17033466976136e-05, -8.913530473364517e-05, -8.656726276967674e-05, -8.399922080570832e-05, -8.143117884173989e-05, -7.886313687777147e-05, -7.629509491380304e-05, -7.372706022579223e-05, -7.11590182618238e-05, -6.859097629785538e-05, -6.602293433388695e-05, -6.345489236991853e-05, -6.08868504059501e-05, -5.831881207996048e-05, -5.5750770115992054e-05, -5.318272815202363e-05, -5.061468982603401e-05, -4.8046647862065583e-05, -4.547860589809716e-05, -4.291056393412873e-05, -4.0342521970160306e-05, -3.7774483644170687e-05, -3.520644168020226e-05, -3.2638399716233835e-05, -3.0070359571254812e-05, -2.750231942627579e-05, -2.4934284738264978e-05, -2.2366242774296552e-05, -1.979820262931753e-05, -1.7230162484338507e-05, -1.4662120520370081e-05, -1.2094079465896357e-05, -9.526038411422633e-06, -6.95799826644361e-06, -4.389956302475184e-06, -1.82191524800146e-06, 7.461258064722642e-07, 3.3141668609459884e-06, 5.882207915419713e-06, 8.450248969893437e-06, 1.1018290024367161e-05, 1.3586330169346184e-05, 1.615437213331461e-05, 1.8722414097283036e-05, 2.1290454242262058e-05, 2.385849438724108e-05, 2.6426536351209506e-05, 2.8994578315177932e-05, 3.156261664116755e-05, 3.413065860513598e-05, 3.66987005691044e-05, 3.926674253307283e-05, 4.1834784497041255e-05, 4.4402822823030874e-05, 4.69708647869993e-05, 4.9538906750967726e-05, 5.2106945076957345e-05, 5.467498704092577e-05, 5.72430290048942e-05]}, "gradients/net.2.bias": {"_type": "histogram", "values": [1.0, 0.0, 1.0, 0.0, 0.0, 0.0, 0.0, 0.0, 0.0, 0.0, 0.0, 0.0, 0.0, 1.0, 0.0, 2.0, 0.0, 3.0, 2.0, 2.0, 1.0, 3.0, 4.0, 7.0, 9.0, 9.0, 11.0, 7.0, 13.0, 16.0, 13.0, 11.0, 13.0, 11.0, 16.0, 16.0, 8.0, 8.0, 13.0, 8.0, 8.0, 9.0, 8.0, 3.0, 2.0, 1.0, 1.0, 5.0, 0.0, 2.0, 1.0, 0.0, 0.0, 0.0, 0.0, 2.0, 2.0, 0.0, 0.0, 0.0, 0.0, 2.0, 0.0, 1.0], "bins": [-5.66295966564212e-05, -5.4886320867808536e-05, -5.314304507919587e-05, -5.139976929058321e-05, -4.9656493501970544e-05, -4.791321771335788e-05, -4.6169945562724024e-05, -4.442666977411136e-05, -4.2683393985498697e-05, -4.094011819688603e-05, -3.919684240827337e-05, -3.7453566619660705e-05, -3.571029083104804e-05, -3.396701504243538e-05, -3.2223739253822714e-05, -3.0480465284199454e-05, -2.8737187676597387e-05, -2.6993911887984723e-05, -2.525063609937206e-05, -2.3507360310759395e-05, -2.176408452214673e-05, -2.0020808733534068e-05, -1.8277534763910808e-05, -1.6534258975298144e-05, -1.479098318668548e-05, -1.3047707398072816e-05, -1.1304431609460153e-05, -9.56115673034219e-06, -7.817880941729527e-06, -6.074605153116863e-06, -4.331330273998901e-06, -2.5880544853862375e-06, -8.447750587947667e-07, 8.985005024442216e-07, 2.64177606368321e-06, 4.385051397548523e-06, 6.1283271861611865e-06, 7.87160297477385e-06, 9.614877853891812e-06, 1.1358153642504476e-05, 1.310142943111714e-05, 1.4844705219729804e-05, 1.6587981008342467e-05, 1.8331254977965727e-05, 2.007453076657839e-05, 2.1817806555191055e-05, 2.356108234380372e-05, 2.5304358132416382e-05, 2.7047633921029046e-05, 2.879090970964171e-05, 3.0534185498254374e-05, 3.227746128686704e-05, 3.40207370754797e-05, 3.5764012864092365e-05, 3.750728501472622e-05, 3.9250560803338885e-05, 4.099383659195155e-05, 4.273711238056421e-05, 4.4480388169176877e-05, 4.622366395778954e-05, 4.7966939746402204e-05, 4.971021553501487e-05, 5.145349132362753e-05, 5.3196767112240195e-05, 5.494004290085286e-05]}, "gradients/net.2.weight": {"_type": "histogram", "values": [1.0, 0.0, 0.0, 1.0, 3.0, 4.0, 2.0, 3.0, 8.0, 8.0, 12.0, 14.0, 20.0, 18.0, 48.0, 40.0, 52.0, 86.0, 97.0, 140.0, 171.0, 286.0, 386.0, 538.0, 754.0, 1237.0, 1935.0, 3142.0, 5606.0, 10088.0, 15704.0, 10518.0, 5721.0, 3209.0, 1986.0, 1176.0, 768.0, 538.0, 349.0, 248.0, 152.0, 121.0, 85.0, 70.0, 41.0, 31.0, 25.0, 20.0, 18.0, 17.0, 10.0, 8.0, 8.0, 2.0, 2.0, 2.0, 2.0, 2.0, 1.0, 1.0, 0.0, 0.0, 0.0, 1.0], "bins": [-3.052191459573805e-05, -2.9521948818000965e-05, -2.8521983040263876e-05, -2.7522015443537384e-05, -2.6522049665800296e-05, -2.5522083888063207e-05, -2.4522116291336715e-05, -2.3522150513599627e-05, -2.2522184735862538e-05, -2.152221895812545e-05, -2.052225318038836e-05, -1.952228558366187e-05, -1.852231980592478e-05, -1.7522354028187692e-05, -1.65223864314612e-05, -1.552242065372411e-05, -1.4522454875987023e-05, -1.3522489098249935e-05, -1.2522522411018144e-05, -1.1522555723786354e-05, -1.0522589946049266e-05, -9.522624168312177e-06, -8.522657481080387e-06, -7.522691248595947e-06, -6.522725016111508e-06, -5.522758783627069e-06, -4.522792551142629e-06, -3.52282631865819e-06, -2.5228600861737505e-06, -1.522893853689311e-06, -5.229276212048717e-07, 4.770386112795677e-07, 1.477004843764007e-06, 2.4769710762484465e-06, 3.476937308732886e-06, 4.476903541217325e-06, 5.476869773701765e-06, 6.476836006186204e-06, 7.476802238670643e-06, 8.476768925902434e-06, 9.476734703639522e-06, 1.047670048137661e-05, 1.1476667168608401e-05, 1.2476633855840191e-05, 1.347659963357728e-05, 1.4476565411314368e-05, 1.547653300804086e-05, 1.647649878577795e-05, 1.7476464563515037e-05, 1.8476430341252126e-05, 1.9476396118989214e-05, 2.0476363715715706e-05, 2.1476329493452795e-05, 2.2476295271189883e-05, 2.3476262867916375e-05, 2.4476228645653464e-05, 2.5476194423390552e-05, 2.647616020112764e-05, 2.747612597886473e-05, 2.847609357559122e-05, 2.947605935332831e-05, 3.04760251310654e-05, 3.147599272779189e-05, 3.2475956686539575e-05, 3.347592428326607e-05]}, "gradients/net.0.bias": {"_type": "histogram", "values": [1.0, 0.0, 1.0, 0.0, 0.0, 2.0, 2.0, 0.0, 1.0, 3.0, 3.0, 0.0, 5.0, 2.0, 3.0, 9.0, 3.0, 4.0, 5.0, 8.0, 12.0, 7.0, 7.0, 7.0, 3.0, 9.0, 15.0, 5.0, 13.0, 9.0, 15.0, 11.0, 11.0, 11.0, 5.0, 4.0, 7.0, 6.0, 5.0, 6.0, 3.0, 2.0, 5.0, 5.0, 5.0, 2.0, 3.0, 1.0, 0.0, 3.0, 0.0, 0.0, 0.0, 1.0, 0.0, 3.0, 0.0, 0.0, 1.0, 0.0, 0.0, 1.0, 0.0, 1.0], "bins": [-6.65701663820073e-05, -6.429095810744911e-05, -6.201175710884854e-05, -5.973255247226916e-05, -5.745334783568978e-05, -5.5174143199110404e-05, -5.2894938562531024e-05, -5.0615733925951645e-05, -4.8336529289372265e-05, -4.6057324652792886e-05, -4.3778120016213506e-05, -4.149891537963413e-05, -3.921971074305475e-05, -3.694050610647537e-05, -3.466130146989599e-05, -3.238209683331661e-05, -3.010289219673723e-05, -2.782368756015785e-05, -2.554448292357847e-05, -2.326527828699909e-05, -2.0986073650419712e-05, -1.8706869013840333e-05, -1.6427664377260953e-05, -1.4148459740681574e-05, -1.1869255104102194e-05, -9.590050467522815e-06, -7.3108458309434354e-06, -5.031641194364056e-06, -2.7524365577846766e-06, -4.732319212052971e-07, 1.8059727153740823e-06, 4.085177351953462e-06, 6.364381988532841e-06, 8.64358662511222e-06, 1.09227912616916e-05, 1.320199589827098e-05, 1.548120053485036e-05, 1.776040517142974e-05, 2.0039609808009118e-05, 2.2318814444588497e-05, 2.4598019081167877e-05, 2.6877223717747256e-05, 2.9156428354326636e-05, 3.1435632990906015e-05, 3.3714837627485394e-05, 3.5994042264064774e-05, 3.827324690064415e-05, 4.055245153722353e-05, 4.283165617380291e-05, 4.511086081038229e-05, 4.739006544696167e-05, 4.966927008354105e-05, 5.194847472012043e-05, 5.422767935669981e-05, 5.650688399327919e-05, 5.878608862985857e-05, 6.106529326643795e-05, 6.334450154099613e-05, 6.56237025395967e-05, 6.790290353819728e-05, 7.018211181275547e-05, 7.246132008731365e-05, 7.474052108591422e-05, 7.70197220845148e-05, 7.929893035907298e-05]}, "gradients/net.0.weight": {"_type": "histogram", "values": [1.0, 1.0, 1.0, 3.0, 4.0, 6.0, 1.0, 1.0, 2.0, 6.0, 4.0, 8.0, 4.0, 4.0, 10.0, 11.0, 8.0, 21.0, 20.0, 18.0, 37.0, 41.0, 48.0, 64.0, 76.0, 99.0, 123.0, 178.0, 234.0, 295.0, 277.0, 312.0, 230.0, 207.0, 167.0, 102.0, 89.0, 73.0, 55.0, 39.0, 29.0, 15.0, 22.0, 23.0, 23.0, 16.0, 10.0, 11.0, 4.0, 11.0, 5.0, 2.0, 5.0, 3.0, 2.0, 2.0, 0.0, 1.0, 1.0, 1.0, 1.0, 3.0, 0.0, 2.0], "bins": [-7.29779276298359e-05, -7.060663483571261e-05, -6.823534204158932e-05, -6.586405652342364e-05, -6.349276372930035e-05, -6.112147093517706e-05, -5.8750178141053766e-05, -5.6378885346930474e-05, -5.400759619078599e-05, -5.16363033966627e-05, -4.926501424051821e-05, -4.689372144639492e-05, -4.452242865227163e-05, -4.2151139496127144e-05, -3.977984670200385e-05, -3.740855754585937e-05, -3.5037264751736075e-05, -3.266597195761278e-05, -3.0294682801468298e-05, -2.7923390007345006e-05, -2.5552099032211117e-05, -2.318080805707723e-05, -2.0809515262953937e-05, -1.843822428782005e-05, -1.606693331268616e-05, -1.3695642337552272e-05, -1.1324350452923682e-05, -8.953058568295091e-06, -6.581767593161203e-06, -4.2104766180273145e-06, -1.8391847333987243e-06, 5.321071512298658e-07, 2.9033981263637543e-06, 5.274689556244994e-06, 7.645980986126233e-06, 1.0017272870754823e-05, 1.2388563845888712e-05, 1.47598548210226e-05, 1.7131147615145892e-05, 1.950243859027978e-05, 2.187372956541367e-05, 2.4245020540547557e-05, 2.6616311515681446e-05, 2.8987604309804738e-05, 3.135889710392803e-05, 3.3730186260072514e-05, 3.6101479054195806e-05, 3.847276821034029e-05, 4.084406100446358e-05, 4.3215353798586875e-05, 4.558664295473136e-05, 4.795793574885465e-05, 5.032922490499914e-05, 5.270051769912243e-05, 5.507181049324572e-05, 5.744310328736901e-05, 5.98143924435135e-05, 6.218568159965798e-05, 6.455697439378127e-05, 6.692826718790457e-05, 6.929955998202786e-05, 7.167084550019354e-05, 7.404213829431683e-05, 7.641343108844012e-05, 7.878472388256341e-05]}, "_wandb": {"runtime": 22}}