{"train_loss": 7.494653982575983e-05, "train_grad": 1.671052632445935e-05, "test_loss": 7.53879503463395e-05, "test_grad": 1.628874997550156e-05, "_timestamp": 1717624580.739635, "_runtime": 502.136442899704, "_step": 49, "gradients/net.0.weight": {"_type": "histogram", "values": [1.0, 1.0, 0.0, 0.0, 1.0, 2.0, 1.0, 1.0, 3.0, 4.0, 4.0, 8.0, 5.0, 8.0, 9.0, 8.0, 16.0, 27.0, 20.0, 35.0, 46.0, 37.0, 48.0, 56.0, 68.0, 89.0, 114.0, 106.0, 122.0, 113.0, 122.0, 129.0, 138.0, 139.0, 147.0, 138.0, 144.0, 125.0, 137.0, 112.0, 112.0, 107.0, 87.0, 79.0, 76.0, 65.0, 46.0, 35.0, 28.0, 27.0, 20.0, 18.0, 16.0, 12.0, 12.0, 13.0, 4.0, 7.0, 7.0, 7.0, 3.0, 3.0, 1.0, 3.0], "bins": [-0.0001578286028234288, -0.00015323776460718364, -0.00014864691183902323, -0.00014405607362277806, -0.00013946523540653288, -0.00013487438263837248, -0.0001302835444221273, -0.0001256926916539669, -0.00012110185343772173, -0.00011651100794551894, -0.00011192016245331615, -0.00010732932423707098, -0.00010273847874486819, -9.81476332526654e-05, -9.355679503642023e-05, -8.896594954421744e-05, -8.437510405201465e-05, -7.978425855981186e-05, -7.519341306760907e-05, -7.06025748513639e-05, -6.601172935916111e-05, -6.142088386695832e-05, -5.683004201273434e-05, -5.223920015851036e-05, -4.764835466630757e-05, -4.305750917410478e-05, -3.84666673198808e-05, -3.387582546565682e-05, -2.928497997345403e-05, -2.4694136300240643e-05, -2.0103292627027258e-05, -1.5512450772803277e-05, -1.0921605280600488e-05, -6.330761607387103e-06, -1.739917934173718e-06, 2.850925739039667e-06, 7.441769412253052e-06, 1.2032613085466437e-05, 1.6623456758679822e-05, 2.1214298612903804e-05, 2.5805144105106592e-05, 3.0395987778319977e-05, 3.498683145153336e-05, 3.9577673305757344e-05, 4.416851879796013e-05, 4.875936429016292e-05, 5.33502061443869e-05, 5.7941047998610884e-05, 6.253189349081367e-05, 6.712273898301646e-05, 7.171358447521925e-05, 7.630442269146442e-05, 8.089526818366721e-05, 8.548611367587e-05, 9.007695189211518e-05, 9.466779738431796e-05, 9.925864287652075e-05, 0.00010384948836872354, 0.00010844033386092633, 0.0001130311720771715, 0.00011762201756937429, 0.00012221286306157708, 0.00012680370127782226, 0.00013139453949406743, 0.00013598539226222783]}, "gradients/net.2.weight": {"_type": "histogram", "values": [2.0, 0.0, 0.0, 0.0, 1.0, 0.0, 2.0, 6.0, 5.0, 5.0, 6.0, 8.0, 21.0, 25.0, 37.0, 40.0, 45.0, 80.0, 119.0, 168.0, 247.0, 318.0, 520.0, 719.0, 1179.0, 1713.0, 2616.0, 4055.0, 6336.0, 9994.0, 11946.0, 9009.0, 5635.0, 3683.0, 2362.0, 1476.0, 1003.0, 665.0, 434.0, 327.0, 205.0, 165.0, 108.0, 63.0, 46.0, 35.0, 27.0, 23.0, 13.0, 16.0, 9.0, 4.0, 2.0, 5.0, 1.0, 0.0, 2.0, 1.0, 0.0, 1.0, 1.0, 1.0, 0.0, 1.0], "bins": [-8.97216159501113e-05, -8.676732977619395e-05, -8.38130436022766e-05, -8.085875015240163e-05, -7.790446397848427e-05, -7.495017780456692e-05, -7.199589163064957e-05, -6.904160545673221e-05, -6.608731928281486e-05, -6.313303310889751e-05, -6.017874329700135e-05, -5.7224457123083994e-05, -5.427017094916664e-05, -5.131588113727048e-05, -4.836159496335313e-05, -4.5407308789435774e-05, -4.2453018977539614e-05, -3.949873280362226e-05, -3.65444429917261e-05, -3.359015681780875e-05, -3.0635870643891394e-05, -2.7681582650984637e-05, -2.472729465807788e-05, -2.1773008484160528e-05, -1.881872049125377e-05, -1.5864432498347014e-05, -1.2910146324429661e-05, -9.955858331522904e-06, -7.001571248110849e-06, -4.0472841646987945e-06, -1.0929961717920378e-06, 1.8612900021253154e-06, 4.815577995032072e-06, 7.769865078444127e-06, 1.0724152161856182e-05, 1.3678440154762939e-05, 1.6632726328680292e-05, 1.958701432158705e-05, 2.2541302314493805e-05, 2.549558848841116e-05, 2.8449876481317915e-05, 3.140416447422467e-05, 3.4358450648142025e-05, 3.7312740460038185e-05, 4.026702663395554e-05, 4.322131280787289e-05, 4.6175598981790245e-05, 4.91298851557076e-05, 5.208417496760376e-05, 5.503846114152111e-05, 5.799275095341727e-05, 6.0947037127334625e-05, 6.390132330125198e-05, 6.685560947516933e-05, 6.98099029250443e-05, 7.276418909896165e-05, 7.5718475272879e-05, 7.867276144679636e-05, 8.162704762071371e-05, 8.458133379463106e-05, 8.753562724450603e-05, 9.048991341842338e-05, 9.344419959234074e-05, 9.639848576625809e-05, 9.935277194017544e-05]}, "gradients/net.4.bias": {"_type": "histogram", "values": [1.0, 0.0, 0.0, 0.0, 0.0, 0.0, 0.0, 0.0, 0.0, 0.0, 0.0, 0.0, 0.0, 0.0, 0.0, 0.0, 0.0, 2.0, 0.0, 0.0, 0.0, 0.0, 0.0, 0.0, 0.0, 0.0, 0.0, 0.0, 0.0, 0.0, 1.0, 1.0, 0.0, 0.0, 1.0, 0.0, 0.0, 1.0, 0.0, 0.0, 1.0, 0.0, 1.0, 0.0, 0.0, 0.0, 0.0, 0.0, 0.0, 0.0, 0.0, 0.0, 0.0, 0.0, 0.0, 0.0, 0.0, 0.0, 1.0, 0.0, 0.0, 1.0, 0.0, 1.0], "bins": [-0.00031454989220947027, -0.0003041602030862123, -0.0002937704848591238, -0.00028338079573586583, -0.00027299110661260784, -0.00026260141748934984, -0.0002522116992622614, -0.0002418220101390034, -0.00023143230646383017, -0.00022104260278865695, -0.00021065291366539896, -0.00020026320999022573, -0.0001898735063150525, -0.00017948381719179451, -0.0001690941135166213, -0.00015870440984144807, -0.00014831472071819007, -0.00013792501704301685, -0.00012753532791975886, -0.00011714562424458563, -0.00010675592784537002, -9.636623144615442e-05, -8.597652777098119e-05, -7.558683137176558e-05, -6.519713497254997e-05, -5.4807438573334366e-05, -4.441773853613995e-05, -3.4028038498945534e-05, -2.3638342099729925e-05, -1.3248645700514317e-05, -2.8589420253410935e-06, 7.530754373874515e-06, 1.7920450773090124e-05, 2.8310148991295137e-05, 3.869984720950015e-05, 4.9089547246694565e-05, 5.9479243645910174e-05, 6.986894004512578e-05, 8.0258643720299e-05, 9.064834011951461e-05, 0.00010103803651873022, 0.00011142773291794583, 0.00012181742931716144, 0.00013220713299233466, 0.0001425968366675079, 0.00015298652579076588, 0.0001633762294659391, 0.00017376593314111233, 0.00018415562226437032, 0.00019454532593954355, 0.00020493501506280154, 0.00021532471873797476, 0.00022571440786123276, 0.00023610411153640598, 0.0002464938152115792, 0.0002568835043348372, 0.00026727322256192565, 0.00027766291168518364, 0.0002880526299122721, 0.0002984423190355301, 0.0003088320081587881, 0.0003192216972820461, 0.00032961141550913453, 0.0003400011046323925, 0.0003503907937556505]}, "gradients/net.4.weight": {"_type": "histogram", "values": [1.0, 0.0, 0.0, 0.0, 0.0, 0.0, 3.0, 0.0, 3.0, 1.0, 4.0, 4.0, 12.0, 7.0, 5.0, 8.0, 15.0, 15.0, 16.0, 28.0, 15.0, 26.0, 23.0, 39.0, 46.0, 61.0, 58.0, 93.0, 102.0, 124.0, 176.0, 236.0, 232.0, 203.0, 203.0, 199.0, 193.0, 150.0, 128.0, 121.0, 130.0, 83.0, 66.0, 47.0, 41.0, 33.0, 27.0, 27.0, 10.0, 8.0, 15.0, 8.0, 8.0, 4.0, 2.0, 1.0, 3.0, 5.0, 0.0, 1.0, 2.0, 0.0, 0.0, 1.0], "bins": [-0.00038680253783240914, -0.0003748247982002795, -0.0003628470585681498, -0.00035086931893602014, -0.00033889157930389047, -0.0003269138396717608, -0.00031493610003963113, -0.00030295836040750146, -0.0002909806207753718, -0.0002790028811432421, -0.00026702514151111245, -0.0002550474018789828, -0.0002430696622468531, -0.00023109192261472344, -0.00021911418298259377, -0.0002071364433504641, -0.00019515870371833444, -0.00018318096408620477, -0.0001712032244540751, -0.00015922548482194543, -0.00014724774518981576, -0.0001352700055576861, -0.00012329226592555642, -0.00011131452629342675, -9.933678666129708e-05, -8.735904702916741e-05, -7.538130739703774e-05, -6.340356776490808e-05, -5.1425828132778406e-05, -3.944808850064874e-05, -2.7470348868519068e-05, -1.54926092363894e-05, -3.5148405004292727e-06, 8.462899131700397e-06, 2.0440638763830066e-05, 3.2418378395959735e-05, 4.4396118028089404e-05, 5.637385766021907e-05, 6.835159729234874e-05, 8.032933692447841e-05, 9.230707655660808e-05, 0.00010428481618873775, 0.00011626255582086742, 0.0001282402954529971, 0.00014021803508512676, 0.00015219577471725643, 0.0001641735143493861, 0.00017615125398151577, 0.00018812899361364543, 0.0002001067332457751, 0.00021208447287790477, 0.00022406221251003444, 0.0002360399521421641, 0.0002480176917742938, 0.00025999543140642345, 0.0002719731710385531, 0.0002839509106706828, 0.00029592865030281246, 0.0003079063899349421, 0.0003198841295670718, 0.00033186186919920146, 0.00034383960883133113, 0.0003558173484634608, 0.00036779508809559047, 0.00037977282772772014]}, "gradients/net.0.bias": {"_type": "histogram", "values": [1.0, 3.0, 0.0, 1.0, 2.0, 1.0, 2.0, 1.0, 1.0, 2.0, 3.0, 7.0, 3.0, 7.0, 7.0, 5.0, 5.0, 7.0, 5.0, 5.0, 5.0, 7.0, 9.0, 7.0, 4.0, 8.0, 8.0, 7.0, 5.0, 5.0, 6.0, 13.0, 7.0, 5.0, 10.0, 8.0, 12.0, 4.0, 3.0, 3.0, 7.0, 8.0, 5.0, 9.0, 0.0, 2.0, 4.0, 1.0, 1.0, 2.0, 0.0, 4.0, 3.0, 0.0, 1.0, 1.0, 0.0, 0.0, 1.0, 0.0, 0.0, 1.0, 0.0, 2.0], "bins": [-0.00018842493591364473, -0.0001819978206185624, -0.00017557070532348007, -0.00016914359002839774, -0.0001627164747333154, -0.00015628935943823308, -0.00014986222959123552, -0.0001434351142961532, -0.00013700799900107086, -0.00013058088370598853, -0.0001241537684109062, -0.00011772665311582386, -0.00011129953782074153, -0.0001048724225256592, -9.844529995461926e-05, -9.201818465953693e-05, -8.559107664041221e-05, -7.916396134532988e-05, -7.273684605024755e-05, -6.630973075516522e-05, -5.988261182210408e-05, -5.345549652702175e-05, -4.702837759396061e-05, -4.060126229887828e-05, -3.417414700379595e-05, -2.774703170871362e-05, -2.1319914594641887e-05, -1.4892797480570152e-05, -8.465682185487822e-06, -2.038566890405491e-06, 4.388552042655647e-06, 1.0815667337737978e-05, 1.7242782632820308e-05, 2.366989792790264e-05, 3.0097015041974373e-05, 3.652413215604611e-05, 4.295124745112844e-05, 4.937836274621077e-05, 5.580548167927191e-05, 6.223259697435424e-05, 6.865971226943657e-05, 7.50868275645189e-05, 8.151394285960123e-05, 8.794106543064117e-05, 9.43681807257235e-05, 0.00010079529602080584, 0.00010722241131588817, 0.0001136495266109705, 0.00012007664190605283, 0.00012650375720113516, 0.0001329308724962175, 0.00013935798779129982, 0.00014578510308638215, 0.00015221221838146448, 0.0001586393336765468, 0.00016506644897162914, 0.00017149356426671147, 0.0001779206795617938, 0.00018434779485687613, 0.00019077491015195847, 0.0001972020254470408, 0.00020362914074212313, 0.00021005625603720546, 0.0002164833713322878, 0.00022291050117928535]}, "gradients/net.2.bias": {"_type": "histogram", "values": [1.0, 0.0, 0.0, 1.0, 0.0, 0.0, 0.0, 0.0, 0.0, 0.0, 1.0, 1.0, 1.0, 2.0, 1.0, 1.0, 3.0, 0.0, 4.0, 3.0, 4.0, 17.0, 10.0, 7.0, 13.0, 10.0, 10.0, 13.0, 13.0, 11.0, 17.0, 20.0, 10.0, 7.0, 13.0, 6.0, 7.0, 9.0, 7.0, 2.0, 10.0, 4.0, 2.0, 5.0, 1.0, 1.0, 1.0, 1.0, 0.0, 2.0, 2.0, 0.0, 0.0, 1.0, 0.0, 0.0, 0.0, 0.0, 0.0, 0.0, 0.0, 0.0, 0.0, 1.0], "bins": [-0.00018799440294969827, -0.00018166414520237595, -0.0001753338729031384, -0.00016900361515581608, -0.00016267334285657853, -0.0001563430851092562, -0.00015001281281001866, -0.00014368255506269634, -0.00013735229731537402, -0.0001310220395680517, -0.00012469176726881415, -0.00011836150952149183, -0.00011203124449821189, -0.00010570097947493196, -9.937071445165202e-05, -9.304044942837209e-05, -8.671018440509215e-05, -8.037991938181221e-05, -7.404965435853228e-05, -6.771938933525234e-05, -6.138913158793002e-05, -5.505886656465009e-05, -4.8728601541370153e-05, -4.2398340156069025e-05, -3.606807513278909e-05, -2.973781192849856e-05, -2.3407548724208027e-05, -1.7077283700928092e-05, -1.074702049663756e-05, -4.416757292347029e-06, 1.9135077309329063e-06, 8.243769116234034e-06, 1.457403413951397e-05, 2.09042973438045e-05, 2.7234560548095033e-05, 3.356482557137497e-05, 3.9895086956676096e-05, 4.622535197995603e-05, 5.2555617003235966e-05, 5.8885878388537094e-05, 6.521613977383822e-05, 7.154640479711816e-05, 7.787666982039809e-05, 8.420692756772041e-05, 9.053719259100035e-05, 9.686745761428028e-05, 0.00010319772263756022, 0.00010952798766084015, 0.00011585825268412009, 0.00012218851770740002, 0.00012851877545472234, 0.0001348490477539599, 0.00014117930550128222, 0.00014750956324860454, 0.00015383983554784209, 0.0001601700932951644, 0.00016650036559440196, 0.00017283062334172428, 0.00017916089564096183, 0.00018549115338828415, 0.0001918214256875217, 0.00019815168343484402, 0.00020448194118216634, 0.0002108122134814039, 0.0002171424712287262]}, "_wandb": {"runtime": 501}}