{"train_loss": 0.0010655774967744946, "train_grad": 0.00019002356566488743, "test_loss": 0.001899135299026966, "test_grad": 0.00031598989153280854, "_timestamp": 1717583072.2932923, "_runtime": 193.0240113735199, "_step": 499, "gradients/net.0.weight": {"_type": "histogram", "values": [1.0, 0.0, 0.0, 0.0, 0.0, 0.0, 1.0, 0.0, 2.0, 2.0, 3.0, 1.0, 5.0, 4.0, 10.0, 14.0, 17.0, 17.0, 26.0, 43.0, 43.0, 53.0, 55.0, 80.0, 98.0, 102.0, 116.0, 122.0, 151.0, 150.0, 146.0, 191.0, 155.0, 176.0, 164.0, 156.0, 136.0, 135.0, 122.0, 106.0, 82.0, 78.0, 61.0, 57.0, 40.0, 45.0, 28.0, 18.0, 11.0, 15.0, 8.0, 7.0, 4.0, 5.0, 3.0, 1.0, 1.0, 1.0, 1.0, 1.0, 0.0, 1.0, 0.0, 1.0], "bins": [-0.00023266623611561954, -0.00022551778238266706, -0.0002183693286497146, -0.00021122087491676211, -0.00020407242118380964, -0.00019692396745085716, -0.0001897755137179047, -0.0001826270599849522, -0.00017547860625199974, -0.00016833015251904726, -0.00016118169878609478, -0.0001540332450531423, -0.00014688479132018983, -0.00013973633758723736, -0.00013258788385428488, -0.0001254394301213324, -0.00011829097638837993, -0.00011114252265542746, -0.00010399406892247498, -9.68456151895225e-05, -8.969716145657003e-05, -8.254870772361755e-05, -7.540025399066508e-05, -6.82518002577126e-05, -6.110334652476013e-05, -5.395489279180765e-05, -4.6806439058855176e-05, -3.96579853259027e-05, -3.2509531592950225e-05, -2.536107785999775e-05, -1.8212624127045274e-05, -1.1064170394092798e-05, -3.915731213055551e-06, 3.2327225198969245e-06, 1.03811762528494e-05, 1.7529629985801876e-05, 2.467808371875435e-05, 3.182653745170683e-05, 3.89749911846593e-05, 4.612344491761178e-05, 5.327189865056425e-05, 6.042035238351673e-05, 6.75688061164692e-05, 7.471725984942168e-05, 8.186571358237416e-05, 8.901416731532663e-05, 9.61626210482791e-05, 0.00010331107478123158, 0.00011045952851418406, 0.00011760798224713653, 0.000124756435980089, 0.00013190488971304148, 0.00013905334344599396, 0.00014620179717894644, 0.0001533502509118989, 0.0001604987046448514, 0.00016764715837780386, 0.00017479561211075634, 0.0001819440658437088, 0.0001890925195766613, 0.00019624097330961376, 0.00020338942704256624, 0.00021053788077551872, 0.0002176863345084712, 0.00022483478824142367]}, "gradients/net.2.weight": {"_type": "histogram", "values": [1.0, 0.0, 0.0, 1.0, 1.0, 2.0, 1.0, 2.0, 9.0, 8.0, 13.0, 16.0, 24.0, 37.0, 57.0, 84.0, 117.0, 172.0, 233.0, 296.0, 426.0, 662.0, 900.0, 1372.0, 1818.0, 2603.0, 3595.0, 4985.0, 6690.0, 8583.0, 8417.0, 6797.0, 5033.0, 3609.0, 2603.0, 1964.0, 1349.0, 914.0, 608.0, 467.0, 327.0, 221.0, 151.0, 108.0, 76.0, 53.0, 40.0, 27.0, 20.0, 11.0, 9.0, 4.0, 6.0, 6.0, 3.0, 2.0, 0.0, 0.0, 0.0, 0.0, 0.0, 0.0, 2.0, 1.0], "bins": [-7.994700717972592e-05, -7.728347554802895e-05, -7.461995119228959e-05, -7.195641956059262e-05, -6.929288792889565e-05, -6.662935629719868e-05, -6.396583194145933e-05, -6.130230030976236e-05, -5.863876867806539e-05, -5.597524068434723e-05, -5.331170905265026e-05, -5.0648181058932096e-05, -4.7984649427235126e-05, -4.5321121433516964e-05, -4.26575934397988e-05, -3.999406180810183e-05, -3.733053381438367e-05, -3.466700582066551e-05, -3.200347418896854e-05, -2.9339946195250377e-05, -2.6676414563553408e-05, -2.4012886569835246e-05, -2.134935675712768e-05, -1.8685826944420114e-05, -1.602229713171255e-05, -1.3358767319004983e-05, -1.0695237506297417e-05, -8.031708603084553e-06, -5.368178790376987e-06, -2.7046489776694216e-06, -4.112007445655763e-08, 2.622409738251008e-06, 5.285939550958574e-06, 7.94946936366614e-06, 1.0612999176373705e-05, 1.327652807958657e-05, 1.5940058801788837e-05, 1.8603586795507e-05, 2.1267116608214565e-05, 2.393064642092213e-05, 2.6594176233629696e-05, 2.9257706046337262e-05, 3.1921234040055424e-05, 3.458476567175239e-05, 3.7248293665470555e-05, 3.9911825297167525e-05, 4.257535329088569e-05, 4.5238884922582656e-05, 4.790241291630082e-05, 5.056594091001898e-05, 5.322947254171595e-05, 5.589300053543411e-05, 5.855653216713108e-05, 6.122006016084924e-05, 6.388359179254621e-05, 6.654711614828557e-05, 6.921064777998254e-05, 7.18741794116795e-05, 7.453770376741886e-05, 7.720123539911583e-05, 7.98647670308128e-05, 8.252829866250977e-05, 8.519182301824912e-05, 8.78553546499461e-05, 9.051888628164306e-05]}, "gradients/net.4.bias": {"_type": "histogram", "values": [1.0, 0.0, 0.0, 0.0, 0.0, 0.0, 0.0, 0.0, 0.0, 0.0, 0.0, 0.0, 0.0, 0.0, 0.0, 0.0, 0.0, 0.0, 1.0, 0.0, 1.0, 0.0, 0.0, 1.0, 0.0, 0.0, 0.0, 0.0, 3.0, 0.0, 0.0, 0.0, 0.0, 1.0, 0.0, 0.0, 0.0, 0.0, 0.0, 0.0, 0.0, 1.0, 1.0, 0.0, 0.0, 0.0, 0.0, 0.0, 1.0, 0.0, 0.0, 0.0, 0.0, 0.0, 0.0, 0.0, 0.0, 0.0, 0.0, 0.0, 0.0, 0.0, 0.0, 1.0], "bins": [-0.0003944786440115422, -0.000381191581254825, -0.0003679045184981078, -0.0003546174557413906, -0.0003413303929846734, -0.00032804335933178663, -0.00031475629657506943, -0.0003014692338183522, -0.000288182171061635, -0.0002748951083049178, -0.0002616080455482006, -0.0002483209827914834, -0.00023503393458668143, -0.00022174687182996422, -0.00020845980907324702, -0.00019517276086844504, -0.0001818856835598126, -0.0001685986208030954, -0.0001553115580463782, -0.00014202450984157622, -0.00012873744708485901, -0.00011545038432814181, -0.0001021633215714246, -8.887626609066501e-05, -7.558920333394781e-05, -6.23021405772306e-05, -4.901508509647101e-05, -3.5728022339753807e-05, -2.244096322101541e-05, -9.15390410227701e-06, 4.133158654440194e-06, 1.7420214135199785e-05, 3.070727689191699e-05, 4.399433601065539e-05, 5.7281395129393786e-05, 7.056845788611099e-05, 8.385551336687058e-05, 9.714257612358779e-05, 0.00011042963888030499, 0.00012371668708510697, 0.00013700374984182417, 0.00015029081259854138, 0.00016357787535525858, 0.0001768649381119758, 0.00019015198631677777, 0.00020343904907349497, 0.00021672611183021218, 0.00023001316003501415, 0.00024330023734364659, 0.00025658728554844856, 0.00026987434830516577, 0.00028316141106188297, 0.0002964484738186002, 0.0003097355365753174, 0.0003230225993320346, 0.0003363096620887518, 0.000349596724845469, 0.0003628837876021862, 0.0003761708503589034, 0.0003894579131156206, 0.0004027449758723378, 0.000416032038629055, 0.00042931910138577223, 0.000442606135038659, 0.0004558931977953762]}, "gradients/net.4.weight": {"_type": "histogram", "values": [1.0, 0.0, 0.0, 1.0, 1.0, 0.0, 1.0, 1.0, 2.0, 5.0, 4.0, 5.0, 6.0, 4.0, 4.0, 8.0, 5.0, 7.0, 19.0, 20.0, 29.0, 34.0, 38.0, 48.0, 53.0, 86.0, 105.0, 149.0, 167.0, 208.0, 239.0, 269.0, 290.0, 264.0, 210.0, 164.0, 138.0, 94.0, 83.0, 77.0, 47.0, 40.0, 30.0, 22.0, 19.0, 18.0, 7.0, 10.0, 10.0, 6.0, 7.0, 3.0, 4.0, 3.0, 3.0, 2.0, 0.0, 1.0, 0.0, 0.0, 0.0, 0.0, 0.0, 1.0], "bins": [-0.00040100497426465154, -0.0003883176832459867, -0.00037563039222732186, -0.000362943101208657, -0.0003502558101899922, -0.00033756851917132735, -0.0003248812281526625, -0.0003121939080301672, -0.0002995066170115024, -0.00028681932599283755, -0.0002741320349741727, -0.0002614447439555079, -0.00024875745293684304, -0.00023607014736626297, -0.00022338285634759814, -0.00021069555077701807, -0.00019800827431026846, -0.00018532098329160362, -0.0001726336922729388, -0.00015994638670235872, -0.00014725909568369389, -0.00013457180466502905, -0.00012188451364636421, -0.00010919721535174176, -9.650992433307692e-05, -8.382263331441209e-05, -7.113533501978964e-05, -5.84480440011248e-05, -4.5760749344481155e-05, -3.307345468783751e-05, -2.0386163669172674e-05, -7.698865374550223e-06, 4.9884256441146135e-06, 1.7675720300758258e-05, 3.0363013138412498e-05, 4.305030597606674e-05, 5.573760063271038e-05, 6.842489528935403e-05, 8.111218630801886e-05, 9.379948460264131e-05, 0.00010648677562130615, 0.00011917406663997099, 0.00013186136493459344, 0.00014454865595325828, 0.0001572359469719231, 0.00016992323799058795, 0.0001826105290092528, 0.00019529783457983285, 0.0002079851255984977, 0.00022067241661716253, 0.00023335970763582736, 0.00024604701320640743, 0.00025873430422507226, 0.0002714215952437371, 0.00028410888626240194, 0.0002967961772810668, 0.0003094834682997316, 0.00032217075931839645, 0.0003348580503370613, 0.0003475453413557261, 0.00036023263237439096, 0.00037291995249688625, 0.0003856072435155511, 0.00039829453453421593, 0.00041098182555288076]}, "gradients/net.0.bias": {"_type": "histogram", "values": [3.0, 0.0, 2.0, 1.0, 0.0, 1.0, 0.0, 3.0, 3.0, 1.0, 4.0, 1.0, 2.0, 1.0, 9.0, 7.0, 9.0, 3.0, 6.0, 9.0, 10.0, 10.0, 11.0, 6.0, 9.0, 10.0, 8.0, 12.0, 7.0, 5.0, 8.0, 7.0, 12.0, 10.0, 7.0, 5.0, 2.0, 4.0, 7.0, 9.0, 0.0, 7.0, 2.0, 4.0, 4.0, 3.0, 3.0, 3.0, 1.0, 2.0, 0.0, 0.0, 1.0, 1.0, 0.0, 0.0, 0.0, 0.0, 0.0, 0.0, 0.0, 0.0, 0.0, 1.0], "bins": [-0.0002189052611356601, -0.00021087861387059093, -0.00020285196660552174, -0.00019482531934045255, -0.00018679865752346814, -0.00017877201025839895, -0.00017074536299332976, -0.00016271871572826058, -0.0001546920684631914, -0.0001466654211981222, -0.00013863877393305302, -0.0001306121121160686, -0.00012258546485099941, -0.00011455881758593023, -0.00010653217032086104, -9.850552305579185e-05, -9.047886123880744e-05, -8.245221397373825e-05, -7.442555943271145e-05, -6.639891216764227e-05, -5.837226126459427e-05, -5.034561036154628e-05, -4.231896309647709e-05, -3.42923121934291e-05, -2.6265661290381104e-05, -1.823901038733311e-05, -1.021236130327452e-05, -2.1857122192159295e-06, 5.840938683832064e-06, 1.3867589586880058e-05, 2.1894236851949245e-05, 2.992088775499724e-05, 3.7947524106130004e-05, 4.5974175009178e-05, 5.400082591222599e-05, 6.202747317729518e-05, 7.005412771832198e-05, 7.808077498339117e-05, 8.610742224846035e-05, 9.413406951352954e-05, 0.00010216072405455634, 0.00011018737131962553, 0.00011821402586065233, 0.00012624067312572151, 0.0001342673203907907, 0.00014229398220777512, 0.00015032061492092907, 0.0001583472767379135, 0.00016637392400298268, 0.00017440057126805186, 0.00018242721853312105, 0.00019045386579819024, 0.00019848052761517465, 0.00020650717488024384, 0.00021453382214531302, 0.0002225604694103822, 0.0002305871166754514, 0.00023861376394052058, 0.00024664041120558977, 0.0002546670730225742, 0.00026269370573572814, 0.00027072036755271256, 0.0002787470002658665, 0.00028677366208285093, 0.00029480032389983535]}, "gradients/net.2.bias": {"_type": "histogram", "values": [1.0, 0.0, 0.0, 0.0, 0.0, 0.0, 1.0, 0.0, 0.0, 0.0, 1.0, 0.0, 0.0, 0.0, 0.0, 0.0, 2.0, 3.0, 0.0, 1.0, 1.0, 2.0, 4.0, 8.0, 5.0, 6.0, 9.0, 7.0, 9.0, 13.0, 7.0, 10.0, 4.0, 13.0, 9.0, 11.0, 11.0, 13.0, 15.0, 5.0, 11.0, 10.0, 10.0, 7.0, 6.0, 6.0, 3.0, 5.0, 6.0, 1.0, 5.0, 2.0, 0.0, 5.0, 3.0, 1.0, 0.0, 1.0, 1.0, 0.0, 0.0, 1.0, 0.0, 1.0], "bins": [-0.00021722409292124212, -0.00021119551092851907, -0.00020516692893579602, -0.00019913833239115775, -0.0001931097503984347, -0.00018708116840571165, -0.00018105257186107337, -0.00017502398986835033, -0.00016899540787562728, -0.00016296682588290423, -0.00015693824389018118, -0.0001509096473455429, -0.00014488106535281986, -0.0001388524833600968, -0.00013282388681545854, -0.0001267953048227355, -0.00012076672283001244, -0.00011473814083728939, -0.00010870955156860873, -0.00010268096229992807, -9.665238030720502e-05, -9.062379831448197e-05, -8.459520904580131e-05, -7.856661977712065e-05, -7.25380377843976e-05, -6.650945579167455e-05, -6.048086652299389e-05, -5.445228089229204e-05, -4.842369526159018e-05, -4.239510963088833e-05, -3.636652400018647e-05, -3.033793836948462e-05, -2.4309338186867535e-05, -1.828075255616568e-05, -1.2252166925463825e-05, -6.223581294761971e-06, -1.9499566406011581e-07, 5.833589966641739e-06, 1.1862175597343594e-05, 1.789076122804545e-05, 2.3919346858747303e-05, 2.994793248944916e-05, 3.597651812015101e-05, 4.200510375085287e-05, 4.803368938155472e-05, 5.406227501225658e-05, 6.009086064295843e-05, 6.61194499116391e-05, 7.214803190436214e-05, 7.817661389708519e-05, 8.420520316576585e-05, 9.023379243444651e-05, 9.626237442716956e-05, 0.00010229095641989261, 0.00010831954568857327, 0.00011434813495725393, 0.00012037671694997698, 0.00012640529894270003, 0.0001324338954873383, 0.00013846247748006135, 0.0001444910594727844, 0.00015051964146550745, 0.0001565482234582305, 0.00016257682000286877, 0.00016860540199559182]}, "_wandb": {"runtime": 192}}