{"train_loss": 1.2426777402652078e-06, "test_loss": 1.4826971437287284e-06, "_timestamp": 1717622756.7453458, "_runtime": 354.54918479919434, "_step": 999, "parameters/net.0.weight": {"_type": "histogram", "values": [1.0, 0.0, 3.0, 1.0, 2.0, 1.0, 3.0, 2.0, 5.0, 7.0, 8.0, 9.0, 10.0, 8.0, 9.0, 24.0, 29.0, 33.0, 39.0, 43.0, 60.0, 50.0, 73.0, 83.0, 80.0, 116.0, 109.0, 117.0, 115.0, 122.0, 123.0, 112.0, 153.0, 129.0, 142.0, 128.0, 136.0, 108.0, 106.0, 115.0, 84.0, 86.0, 71.0, 75.0, 44.0, 50.0, 41.0, 47.0, 45.0, 27.0, 18.0, 12.0, 11.0, 14.0, 7.0, 7.0, 4.0, 6.0, 0.0, 1.0, 2.0, 3.0, 2.0, 1.0], "bins": [-0.3233518898487091, -0.31353622674942017, -0.3037205636501312, -0.2939048707485199, -0.28408920764923096, -0.274273544549942, -0.2644578814506531, -0.25464221835136414, -0.244826540350914, -0.23501087725162506, -0.22519519925117493, -0.215379536151886, -0.20556387305259705, -0.1957481950521469, -0.18593253195285797, -0.17611685395240784, -0.1663011908531189, -0.15648552775382996, -0.14666984975337982, -0.13685418665409088, -0.12703850865364075, -0.1172228455543518, -0.10740718245506287, -0.09759151190519333, -0.08777584135532379, -0.07796017080545425, -0.06814450025558472, -0.058328837156295776, -0.04851316660642624, -0.0386974960565567, -0.028881829231977463, -0.019066162407398224, -0.009250491857528687, 0.0005651768296957016, 0.01038084551692009, 0.020196514204144478, 0.030012182891368866, 0.0398278534412384, 0.04964352026581764, 0.05945918709039688, 0.06927485764026642, 0.07909052819013596, 0.0889061987400055, 0.09872186183929443, 0.10853753238916397, 0.11835320293903351, 0.12816886603832245, 0.13798454403877258, 0.14780020713806152, 0.15761587023735046, 0.1674315482378006, 0.17724721133708954, 0.18706288933753967, 0.1968785524368286, 0.20669421553611755, 0.2165098786354065, 0.22632555663585663, 0.23614121973514557, 0.2459568977355957, 0.25577256083488464, 0.2655882239341736, 0.2754039168357849, 0.28521957993507385, 0.2950352430343628, 0.30485090613365173]}, "parameters/net.0.bias": {"_type": "histogram", "values": [2.0, 0.0, 0.0, 2.0, 0.0, 3.0, 2.0, 1.0, 1.0, 1.0, 3.0, 6.0, 7.0, 4.0, 5.0, 5.0, 4.0, 6.0, 10.0, 8.0, 13.0, 10.0, 10.0, 7.0, 5.0, 10.0, 10.0, 6.0, 10.0, 5.0, 11.0, 11.0, 13.0, 7.0, 6.0, 6.0, 3.0, 5.0, 11.0, 6.0, 4.0, 2.0, 3.0, 3.0, 0.0, 2.0, 0.0, 1.0, 2.0, 2.0, 0.0, 1.0, 0.0, 0.0, 0.0, 0.0, 0.0, 0.0, 0.0, 0.0, 0.0, 0.0, 0.0, 1.0], "bins": [-0.024662984535098076, -0.0236977506428957, -0.02273251675069332, -0.021767280995845795, -0.020802047103643417, -0.01983681321144104, -0.018871579319238663, -0.017906345427036285, -0.016941111534833908, -0.01597587764263153, -0.015010642819106579, -0.014045408926904202, -0.01308017410337925, -0.012114940211176872, -0.011149706318974495, -0.010184472426772118, -0.009219236671924591, -0.008254002779722214, -0.007288767956197262, -0.0063235340639948845, -0.00535829970613122, -0.004393065348267555, -0.003427831456065178, -0.0024625970982015133, -0.0014973627403378487, -0.0005321284988895059, 0.00043310574255883694, 0.001398339867591858, 0.0023635742254555225, 0.003328808583319187, 0.0042940424755215645, 0.005259276833385229, 0.0062245093286037445, 0.007189743686467409, 0.008154978044331074, 0.009120211936533451, 0.010085446760058403, 0.01105068065226078, 0.012015914544463158, 0.012981148436665535, 0.013946383260190487, 0.014911617152392864, 0.015876851975917816, 0.016842085868120193, 0.01780731976032257, 0.018772553652524948, 0.019737787544727325, 0.020703023299574852, 0.02166825719177723, 0.022633491083979607, 0.023598724976181984, 0.02456396073102951, 0.025529194623231888, 0.026494428515434265, 0.027459662407636642, 0.02842489629983902, 0.029390130192041397, 0.030355364084243774, 0.03132059797644615, 0.03228583186864853, 0.033251065760850906, 0.034216299653053284, 0.03518153727054596, 0.03614677116274834, 0.037112005054950714]}, "parameters/net.2.weight": {"_type": "histogram", "values": [2.0, 0.0, 1.0, 0.0, 0.0, 6.0, 3.0, 7.0, 16.0, 23.0, 34.0, 52.0, 70.0, 102.0, 159.0, 217.0, 250.0, 342.0, 463.0, 660.0, 841.0, 1003.0, 1238.0, 1481.0, 1709.0, 2051.0, 2349.0, 2663.0, 2885.0, 3151.0, 3338.0, 3405.0, 3631.0, 3534.0, 3320.0, 3256.0, 3199.0, 2978.0, 2730.0, 2459.0, 2133.0, 1920.0, 1648.0, 1391.0, 1072.0, 932.0, 731.0, 532.0, 426.0, 339.0, 220.0, 173.0, 126.0, 77.0, 62.0, 44.0, 28.0, 19.0, 12.0, 8.0, 9.0, 2.0, 3.0, 1.0], "bins": [-0.4142932891845703, -0.4018261730670929, -0.3893590569496155, -0.37689194083213806, -0.36442482471466064, -0.3519577085971832, -0.3394905924797058, -0.3270234763622284, -0.314556360244751, -0.30208924412727356, -0.28962212800979614, -0.2771550118923187, -0.2646878957748413, -0.2522207796573639, -0.23975366353988647, -0.22728654742240906, -0.21481943130493164, -0.20235231518745422, -0.1898851990699768, -0.1774180829524994, -0.16495096683502197, -0.15248385071754456, -0.14001673460006714, -0.12754961848258972, -0.1150825023651123, -0.10261538624763489, -0.09014827013015747, -0.07768115401268005, -0.06521403789520264, -0.05274692177772522, -0.0402798056602478, -0.027812689542770386, -0.015345573425292969, -0.0028784573078155518, 0.009588658809661865, 0.022055774927139282, 0.0345228910446167, 0.046990007162094116, 0.05945712327957153, 0.07192423939704895, 0.08439135551452637, 0.09685847163200378, 0.1093255877494812, 0.12179270386695862, 0.13425981998443604, 0.14672693610191345, 0.15919405221939087, 0.1716611683368683, 0.1841282844543457, 0.19659540057182312, 0.20906251668930054, 0.22152963280677795, 0.23399674892425537, 0.2464638650417328, 0.2589309811592102, 0.2713980972766876, 0.28386521339416504, 0.29633232951164246, 0.3087994456291199, 0.3212665617465973, 0.3337336778640747, 0.3462007939815521, 0.35866791009902954, 0.37113502621650696, 0.3836021423339844]}, "parameters/net.2.bias": {"_type": "histogram", "values": [1.0, 0.0, 0.0, 0.0, 0.0, 0.0, 1.0, 1.0, 1.0, 0.0, 2.0, 0.0, 2.0, 0.0, 0.0, 3.0, 4.0, 4.0, 3.0, 6.0, 6.0, 2.0, 7.0, 8.0, 8.0, 4.0, 9.0, 8.0, 9.0, 13.0, 11.0, 9.0, 6.0, 9.0, 6.0, 11.0, 10.0, 3.0, 6.0, 13.0, 8.0, 4.0, 9.0, 9.0, 5.0, 3.0, 1.0, 6.0, 6.0, 2.0, 3.0, 4.0, 2.0, 1.0, 1.0, 3.0, 2.0, 0.0, 0.0, 0.0, 0.0, 0.0, 0.0, 1.0], "bins": [-0.034059666097164154, -0.032898008823394775, -0.0317363515496254, -0.030574696138501167, -0.029413040727376938, -0.02825138345360756, -0.02708972617983818, -0.02592807076871395, -0.02476641535758972, -0.023604758083820343, -0.022443102672696114, -0.021281445398926735, -0.020119789987802505, -0.018958132714033127, -0.017796475440263748, -0.01663482002913952, -0.01547316275537014, -0.014311506412923336, -0.013149850070476532, -0.011988192796707153, -0.010826537385582924, -0.009664880111813545, -0.008503223769366741, -0.007341567426919937, -0.006179911084473133, -0.005018254742026329, -0.0038565981667488813, -0.0026949415914714336, -0.0015332852490246296, -0.00037162890657782555, 0.0007900279015302658, 0.0019516842439770699, 0.003113340586423874, 0.004274996928870678, 0.005436653271317482, 0.006598310079425573, 0.007759966421872377, 0.008921623229980469, 0.010083279572427273, 0.011244935914874077, 0.012406592257320881, 0.013568248599767685, 0.014729904942214489, 0.015891561284661293, 0.01705321855843067, 0.0182148739695549, 0.01937653124332428, 0.02053818851709366, 0.021699843928217888, 0.022861501201987267, 0.024023156613111496, 0.025184813886880875, 0.026346469298005104, 0.027508126571774483, 0.028669781982898712, 0.02983143925666809, 0.03099309653043747, 0.03215475380420685, 0.03331641107797623, 0.03447806462645531, 0.035639721900224686, 0.036801379173994064, 0.03796303644776344, 0.03912468999624252, 0.0402863472700119]}, "parameters/net.4.weight": {"_type": "histogram", "values": [1.0, 1.0, 0.0, 1.0, 3.0, 3.0, 2.0, 4.0, 3.0, 6.0, 8.0, 7.0, 24.0, 17.0, 17.0, 23.0, 28.0, 38.0, 33.0, 60.0, 55.0, 67.0, 66.0, 70.0, 101.0, 94.0, 115.0, 99.0, 129.0, 128.0, 132.0, 125.0, 141.0, 137.0, 118.0, 118.0, 99.0, 101.0, 110.0, 113.0, 102.0, 82.0, 86.0, 59.0, 66.0, 39.0, 44.0, 50.0, 30.0, 26.0, 25.0, 14.0, 12.0, 13.0, 5.0, 4.0, 7.0, 5.0, 1.0, 2.0, 1.0, 0.0, 0.0, 2.0], "bins": [-0.3081640303134918, -0.2986956834793091, -0.28922733664512634, -0.2797589898109436, -0.27029064297676086, -0.2608222961425781, -0.2513539493083954, -0.24188561737537384, -0.2324172705411911, -0.22294892370700836, -0.21348057687282562, -0.20401223003864288, -0.19454389810562134, -0.1850755512714386, -0.17560720443725586, -0.16613885760307312, -0.15667051076889038, -0.14720216393470764, -0.1377338171005249, -0.12826547026634216, -0.11879713088274002, -0.10932878404855728, -0.09986044466495514, -0.0903920978307724, -0.08092375099658966, -0.07145540416240692, -0.06198706105351448, -0.05251871794462204, -0.0430503711104393, -0.03358202427625656, -0.02411368116736412, -0.01464533805847168, -0.005177021026611328, 0.004291323944926262, 0.013759668916463852, 0.023228013888001442, 0.03269635885953903, 0.04216470569372177, 0.05163304880261421, 0.06110139191150665, 0.07056973874568939, 0.08003808557987213, 0.08950643241405487, 0.09897477179765701, 0.10844311863183975, 0.11791146546602249, 0.12737980484962463, 0.13684815168380737, 0.1463164985179901, 0.15578484535217285, 0.1652531921863556, 0.17472153902053833, 0.18418988585472107, 0.1936582326889038, 0.20312656462192535, 0.2125949114561081, 0.22206325829029083, 0.23153160512447357, 0.2409999519586563, 0.25046828389167786, 0.2599366307258606, 0.26940497756004333, 0.2788733243942261, 0.2883416712284088, 0.29781001806259155]}, "parameters/net.4.bias": {"_type": "histogram", "values": [1.0, 0.0, 0.0, 1.0, 0.0, 0.0, 1.0, 1.0, 0.0, 0.0, 0.0, 0.0, 0.0, 0.0, 0.0, 1.0, 0.0, 0.0, 0.0, 1.0, 0.0, 1.0, 0.0, 1.0, 0.0, 1.0, 0.0, 0.0, 0.0, 0.0, 0.0, 0.0, 0.0, 0.0, 0.0, 0.0, 0.0, 0.0, 0.0, 0.0, 0.0, 0.0, 0.0, 0.0, 0.0, 1.0, 0.0, 1.0, 0.0, 0.0, 0.0, 0.0, 0.0, 0.0, 0.0, 0.0, 0.0, 0.0, 0.0, 0.0, 0.0, 0.0, 0.0, 1.0], "bins": [-0.01003782358020544, -0.009716256521642208, -0.00939469039440155, -0.009073123335838318, -0.008751556277275085, -0.008429989218711853, -0.008108423091471195, -0.007786856032907963, -0.00746528897434473, -0.007143722381442785, -0.006822155322879553, -0.006500588729977608, -0.006179021671414375, -0.00585745507851243, -0.005535888485610485, -0.005214321427047253, -0.0048927548341453075, -0.004571188241243362, -0.00424962118268013, -0.003928054589778185, -0.0036064875312149525, -0.0032849209383130074, -0.0029633541125804186, -0.00264178728684783, -0.002320220461115241, -0.0019986536353826523, -0.0016770868096500635, -0.0013555201003327966, -0.0010339532746002078, -0.000712386448867619, -0.0003908197395503521, -6.925291381776333e-05, 0.00025231391191482544, 0.0005738807376474142, 0.0008954475051723421, 0.00121701427269727, 0.0015385810984298587, 0.0018601479241624475, 0.0021817146334797144, 0.002503281459212303, 0.002824848284944892, 0.0031464151106774807, 0.0034679819364100695, 0.0037895487621426582, 0.004111115355044603, 0.004432682413607836, 0.004754249006509781, 0.005075816065073013, 0.005397382657974958, 0.0057189492508769035, 0.006040516309440136, 0.006362082902342081, 0.0066836499609053135, 0.007005216553807259, 0.007326783612370491, 0.007648350205272436, 0.007969916798174381, 0.008291483856737614, 0.008613049983978271, 0.008934617042541504, 0.009256184101104736, 0.009577751159667969, 0.009899317286908627, 0.010220884345471859, 0.010542451404035091]}, "gradients/net.4.bias": {"_type": "histogram", "values": [1.0, 1.0, 0.0, 0.0, 0.0, 0.0, 0.0, 0.0, 0.0, 0.0, 0.0, 0.0, 1.0, 0.0, 0.0, 0.0, 0.0, 0.0, 0.0, 0.0, 0.0, 1.0, 1.0, 0.0, 0.0, 0.0, 1.0, 0.0, 0.0, 0.0, 0.0, 0.0, 0.0, 0.0, 1.0, 0.0, 0.0, 0.0, 0.0, 0.0, 1.0, 0.0, 0.0, 0.0, 0.0, 0.0, 0.0, 1.0, 0.0, 0.0, 0.0, 0.0, 0.0, 0.0, 1.0, 0.0, 0.0, 0.0, 0.0, 0.0, 1.0, 0.0, 0.0, 1.0], "bins": [-5.3062569350004196e-05, -5.090326885692775e-05, -4.87439647258725e-05, -4.658466423279606e-05, -4.442536010174081e-05, -4.2266059608664364e-05, -4.010675911558792e-05, -3.7947458622511476e-05, -3.5788154491456226e-05, -3.362885399837978e-05, -3.146954986732453e-05, -2.9310249374248087e-05, -2.715094706218224e-05, -2.4991644750116393e-05, -2.283234425703995e-05, -2.0673041944974102e-05, -1.8513739632908255e-05, -1.6354437320842408e-05, -1.4195135918271262e-05, -1.2035834515700117e-05, -9.87653220363427e-06, -7.717229891568422e-06, -5.557928488997277e-06, -3.3986270864261314e-06, -1.2393247743602842e-06, 9.199770829582121e-07, 3.0792789402767085e-06, 5.238580797595205e-06, 7.397882654913701e-06, 9.557184966979548e-06, 1.1716486369550694e-05, 1.387578777212184e-05, 1.6035090084187686e-05, 1.8194392396253534e-05, 2.035369470831938e-05, 2.2512995201395825e-05, 2.4672297513461672e-05, 2.683159982552752e-05, 2.8990900318603963e-05, 3.1150200811680406e-05, 3.330950494273566e-05, 3.54688054358121e-05, 3.762810956686735e-05, 3.9787410059943795e-05, 4.194671055302024e-05, 4.410601468407549e-05, 4.626531517715193e-05, 4.8424619308207184e-05, 5.058391980128363e-05, 5.274322029436007e-05, 5.490252442541532e-05, 5.7061824918491766e-05, 5.922112904954702e-05, 6.138042954262346e-05, 6.35397300356999e-05, 6.569903052877635e-05, 6.785833102185279e-05, 7.001763151492923e-05, 7.217693200800568e-05, 7.433623977703974e-05, 7.649554027011618e-05, 7.865484076319262e-05, 8.081414125626907e-05, 8.297344174934551e-05, 8.513274951837957e-05]}, "gradients/net.4.weight": {"_type": "histogram", "values": [2.0, 0.0, 1.0, 0.0, 1.0, 0.0, 2.0, 1.0, 0.0, 4.0, 8.0, 8.0, 12.0, 9.0, 20.0, 10.0, 34.0, 47.0, 57.0, 74.0, 105.0, 144.0, 191.0, 267.0, 332.0, 291.0, 231.0, 205.0, 162.0, 132.0, 130.0, 117.0, 90.0, 88.0, 58.0, 55.0, 51.0, 31.0, 20.0, 18.0, 9.0, 12.0, 6.0, 8.0, 4.0, 3.0, 5.0, 5.0, 2.0, 2.0, 1.0, 2.0, 2.0, 1.0, 1.0, 0.0, 0.0, 0.0, 0.0, 0.0, 0.0, 0.0, 0.0, 1.0], "bins": [-3.590339110814966e-05, -3.4470420359866694e-05, -3.303745324956253e-05, -3.160448250127956e-05, -3.0171511752996594e-05, -2.8738541004713625e-05, -2.730557207542006e-05, -2.5872603146126494e-05, -2.4439632397843525e-05, -2.3006661649560556e-05, -2.157369272026699e-05, -2.0140723790973425e-05, -1.8707753042690456e-05, -1.7274782294407487e-05, -1.584181336511392e-05, -1.4408843526325654e-05, -1.2975873687537387e-05, -1.154290384874912e-05, -1.0109934009960853e-05, -8.676964171172585e-06, -7.243994332384318e-06, -5.811024493596051e-06, -4.378054654807784e-06, -2.9450848160195164e-06, -1.5121149772312492e-06, -7.914513844298199e-08, 1.3538247003452852e-06, 2.7867945391335525e-06, 4.21976437792182e-06, 5.652734216710087e-06, 7.085704055498354e-06, 8.518673894286621e-06, 9.951647371053696e-06, 1.1384617209841963e-05, 1.281758704863023e-05, 1.4250556887418497e-05, 1.5683526726206765e-05, 1.7116497474489734e-05, 1.85494664037833e-05, 1.9982435333076864e-05, 2.1415406081359833e-05, 2.2848376829642802e-05, 2.4281345758936368e-05, 2.5714314688229933e-05, 2.7147285436512902e-05, 2.858025618479587e-05, 3.0013225114089437e-05, 3.1446194043383e-05, 3.287916479166597e-05, 3.431213553994894e-05, 3.574510628823191e-05, 3.717807339853607e-05, 3.861104414681904e-05, 4.004401489510201e-05, 4.147698200540617e-05, 4.290995275368914e-05, 4.434292350197211e-05, 4.577589425025508e-05, 4.720886499853805e-05, 4.864183210884221e-05, 5.007480285712518e-05, 5.150777360540815e-05, 5.294074071571231e-05, 5.437371146399528e-05, 5.580668221227825e-05]}, "gradients/net.2.bias": {"_type": "histogram", "values": [1.0, 0.0, 0.0, 1.0, 1.0, 0.0, 0.0, 0.0, 0.0, 0.0, 0.0, 0.0, 0.0, 0.0, 0.0, 0.0, 0.0, 0.0, 0.0, 0.0, 0.0, 0.0, 0.0, 2.0, 1.0, 2.0, 5.0, 4.0, 3.0, 4.0, 3.0, 9.0, 6.0, 7.0, 9.0, 5.0, 11.0, 11.0, 19.0, 9.0, 20.0, 18.0, 21.0, 13.0, 9.0, 10.0, 4.0, 5.0, 14.0, 5.0, 3.0, 4.0, 4.0, 5.0, 3.0, 0.0, 0.0, 0.0, 2.0, 0.0, 0.0, 1.0, 0.0, 2.0], "bins": [-4.9406498874304816e-05, -4.817995068151504e-05, -4.695339885074645e-05, -4.5726850657956675e-05, -4.450029882718809e-05, -4.327375063439831e-05, -4.2047198803629726e-05, -4.082065061083995e-05, -3.959410241805017e-05, -3.836755422526039e-05, -3.714100239449181e-05, -3.591445420170203e-05, -3.468790237093344e-05, -3.3461354178143665e-05, -3.223480234737508e-05, -3.10082541545853e-05, -2.9781702323816717e-05, -2.8555152312037535e-05, -2.7328602300258353e-05, -2.610205228847917e-05, -2.487550227669999e-05, -2.3648954083910212e-05, -2.242240407213103e-05, -2.119585406035185e-05, -1.9969304048572667e-05, -1.8742754036793485e-05, -1.7516204025014304e-05, -1.6289654013235122e-05, -1.5063104910950642e-05, -1.383655489917146e-05, -1.261000579688698e-05, -1.1383455785107799e-05, -1.0156905773328617e-05, -8.930355761549436e-06, -7.703805749770254e-06, -6.477256647485774e-06, -5.250706635706592e-06, -4.024156623927411e-06, -2.79760706689558e-06, -1.5710575098637491e-06, -3.445074980845675e-07, 8.820422863209387e-07, 2.108592070726445e-06, 3.335141855131951e-06, 4.561691639537457e-06, 5.788241651316639e-06, 7.01479120834847e-06, 8.2413407653803e-06, 9.467890777159482e-06, 1.0694440788938664e-05, 1.1920990800717846e-05, 1.3147539903002325e-05, 1.4374089914781507e-05, 1.5600639017065987e-05, 1.682718902884517e-05, 1.805373904062435e-05, 1.9280289052403532e-05, 2.0506839064182714e-05, 2.1733389075961895e-05, 2.2959939087741077e-05, 2.4186487280530855e-05, 2.541303911129944e-05, 2.663958730408922e-05, 2.78661373158684e-05, 2.9092687327647582e-05]}, "gradients/net.2.weight": {"_type": "histogram", "values": [1.0, 1.0, 1.0, 3.0, 3.0, 1.0, 3.0, 7.0, 2.0, 6.0, 11.0, 9.0, 16.0, 22.0, 31.0, 28.0, 53.0, 44.0, 76.0, 127.0, 169.0, 227.0, 348.0, 522.0, 815.0, 1327.0, 2329.0, 3969.0, 7330.0, 13069.0, 14642.0, 8558.0, 4631.0, 2662.0, 1572.0, 955.0, 628.0, 364.0, 297.0, 204.0, 124.0, 85.0, 63.0, 58.0, 41.0, 29.0, 23.0, 14.0, 11.0, 11.0, 4.0, 4.0, 3.0, 1.0, 0.0, 0.0, 0.0, 0.0, 0.0, 0.0, 0.0, 0.0, 0.0, 2.0], "bins": [-1.3289934940985404e-05, -1.2849008271587081e-05, -1.2408080692694057e-05, -1.1967154023295734e-05, -1.152622644440271e-05, -1.1085299775004387e-05, -1.0644373105606064e-05, -1.0203446436207741e-05, -9.762518857314717e-06, -9.321592187916394e-06, -8.88066460902337e-06, -8.439737939625047e-06, -7.998811270226724e-06, -7.5578836913337e-06, -7.116957021935377e-06, -6.676029897789704e-06, -6.23510277364403e-06, -5.7941756494983565e-06, -5.353248525352683e-06, -4.91232185595436e-06, -4.471394731808687e-06, -4.030467607663013e-06, -3.589540710891015e-06, -3.1486138141190168e-06, -2.707686689973343e-06, -2.2667595658276696e-06, -1.8258326690556714e-06, -1.3849056585968356e-06, -9.439786481379997e-07, -5.030515239923261e-07, -6.212462722032797e-08, 3.788022695516702e-07, 8.19728484202642e-07, 1.2606554946614779e-06, 1.7015825051203137e-06, 2.142509401892312e-06, 2.5834365260379855e-06, 3.024363650183659e-06, 3.465290546955657e-06, 3.906217443727655e-06, 4.347144567873329e-06, 4.7880716920190025e-06, 5.228998816164676e-06, 5.669925485562999e-06, 6.110852609708672e-06, 6.551779733854346e-06, 6.992706403252669e-06, 7.433633527398342e-06, 7.874560651544016e-06, 8.315487320942339e-06, 8.756414899835363e-06, 9.197341569233686e-06, 9.638268238632008e-06, 1.0079195817525033e-05, 1.0520122486923356e-05, 1.096105006581638e-05, 1.1401976735214703e-05, 1.1842903404613025e-05, 1.228383098350605e-05, 1.2724757652904373e-05, 1.3165685231797397e-05, 1.360661190119572e-05, 1.4047538570594043e-05, 1.4488465239992365e-05, 1.492939281888539e-05]}, "gradients/net.0.bias": {"_type": "histogram", "values": [1.0, 0.0, 0.0, 0.0, 0.0, 2.0, 0.0, 2.0, 0.0, 2.0, 1.0, 0.0, 2.0, 5.0, 3.0, 6.0, 3.0, 6.0, 4.0, 5.0, 8.0, 8.0, 8.0, 8.0, 5.0, 6.0, 6.0, 4.0, 6.0, 9.0, 9.0, 2.0, 10.0, 12.0, 10.0, 7.0, 16.0, 8.0, 6.0, 8.0, 3.0, 7.0, 9.0, 4.0, 4.0, 5.0, 4.0, 3.0, 4.0, 2.0, 4.0, 1.0, 0.0, 2.0, 1.0, 0.0, 0.0, 2.0, 0.0, 1.0, 0.0, 1.0, 0.0, 1.0], "bins": [-4.371898830868304e-05, -4.235803135088645e-05, -4.099707439308986e-05, -3.9636113797314465e-05, -3.8275156839517877e-05, -3.691419988172129e-05, -3.555323928594589e-05, -3.4192282328149304e-05, -3.2831325370352715e-05, -3.147036841255613e-05, -3.0109409635770135e-05, -2.8748450858984143e-05, -2.7387493901187554e-05, -2.6026536943390965e-05, -2.4665578166604973e-05, -2.330461938981898e-05, -2.1943662432022393e-05, -2.0582705474225804e-05, -1.9221746697439812e-05, -1.786078792065382e-05, -1.649983096285723e-05, -1.5138873095565941e-05, -1.3777915228274651e-05, -1.241695736098336e-05, -1.105599949369207e-05, -9.69504162640078e-06, -8.33408375910949e-06, -6.973125891818199e-06, -5.612168024526909e-06, -4.251210157235619e-06, -2.8902522899443284e-06, -1.529294422653038e-06, -1.6833655536174774e-07, 1.1926213119295426e-06, 2.553579179220833e-06, 3.914537046512123e-06, 5.2754949138034135e-06, 6.636452781094704e-06, 7.997410648385994e-06, 9.358368515677284e-06, 1.0719326382968575e-05, 1.2080284250259865e-05, 1.3441242117551155e-05, 1.4802199984842446e-05, 1.6163157852133736e-05, 1.7524114809930325e-05, 1.8885073586716317e-05, 2.024603236350231e-05, 2.1606989321298897e-05, 2.2967946279095486e-05, 2.4328905055881478e-05, 2.568986383266747e-05, 2.705082079046406e-05, 2.8411777748260647e-05, 2.977273652504664e-05, 3.113369530183263e-05, 3.249465225962922e-05, 3.385560921742581e-05, 3.52165661752224e-05, 3.657752677099779e-05, 3.793848372879438e-05, 3.929944068659097e-05, 4.0660401282366365e-05, 4.2021358240162954e-05, 4.338231519795954e-05]}, "gradients/net.0.weight": {"_type": "histogram", "values": [1.0, 0.0, 0.0, 0.0, 0.0, 0.0, 1.0, 0.0, 1.0, 2.0, 6.0, 2.0, 5.0, 8.0, 8.0, 11.0, 8.0, 13.0, 15.0, 20.0, 40.0, 40.0, 47.0, 51.0, 70.0, 78.0, 82.0, 101.0, 112.0, 143.0, 150.0, 169.0, 147.0, 190.0, 171.0, 179.0, 147.0, 154.0, 169.0, 124.0, 120.0, 97.0, 71.0, 57.0, 51.0, 40.0, 35.0, 31.0, 30.0, 12.0, 11.0, 14.0, 10.0, 6.0, 4.0, 7.0, 4.0, 1.0, 3.0, 1.0, 1.0, 0.0, 0.0, 1.0], "bins": [-3.299576201243326e-05, -3.202509833499789e-05, -3.1054434657562524e-05, -3.0083770980127156e-05, -2.9113107302691787e-05, -2.814244362525642e-05, -2.7171778128831647e-05, -2.620111445139628e-05, -2.523045077396091e-05, -2.4259787096525542e-05, -2.3289123419090174e-05, -2.2318459741654806e-05, -2.1347794245230034e-05, -2.0377130567794666e-05, -1.9406466890359297e-05, -1.843580321292393e-05, -1.746513953548856e-05, -1.6494475858053192e-05, -1.5523812180617824e-05, -1.4553147593687754e-05, -1.3582483916252386e-05, -1.2611820238817018e-05, -1.1641155651886947e-05, -1.067049197445158e-05, -9.699828297016211e-06, -8.729164619580843e-06, -7.758500942145474e-06, -6.787836355215404e-06, -5.817172677780036e-06, -4.846509000344668e-06, -3.875844868161948e-06, -2.9051807359792292e-06, -1.934520696522668e-06, -9.638567917136243e-07, 6.807113095419481e-09, 9.774710179044632e-07, 1.948134922713507e-06, 2.9187986001488753e-06, 3.8894627323315945e-06, 4.860126864514314e-06, 5.830790541949682e-06, 6.80145421938505e-06, 7.772117896820419e-06, 8.742782483750489e-06, 9.713446161185857e-06, 1.0684109838621225e-05, 1.1654774425551295e-05, 1.2625438102986664e-05, 1.3596101780422032e-05, 1.45667654578574e-05, 1.553742913529277e-05, 1.6508092812728137e-05, 1.7478756490163505e-05, 1.8449420167598873e-05, 1.9420085664023645e-05, 2.0390749341459014e-05, 2.1361413018894382e-05, 2.233207669632975e-05, 2.330274037376512e-05, 2.4273404051200487e-05, 2.524406954762526e-05, 2.6214733225060627e-05, 2.7185396902495995e-05, 2.8156060579931363e-05, 2.9126724257366732e-05]}, "_wandb": {"runtime": 354}}