{"train_loss": 6.235659384401515e-07, "test_loss": 6.258880489440344e-07, "_timestamp": 1717623369.9328854, "_runtime": 529.2971343994141, "_step": 999, "parameters/net.0.weight": {"_type": "histogram", "values": [1.0, 0.0, 0.0, 0.0, 0.0, 0.0, 0.0, 1.0, 1.0, 2.0, 2.0, 5.0, 7.0, 10.0, 6.0, 8.0, 15.0, 17.0, 24.0, 31.0, 38.0, 47.0, 59.0, 63.0, 65.0, 89.0, 107.0, 85.0, 137.0, 125.0, 142.0, 138.0, 156.0, 155.0, 138.0, 139.0, 142.0, 155.0, 117.0, 107.0, 110.0, 97.0, 83.0, 58.0, 73.0, 63.0, 53.0, 50.0, 38.0, 26.0, 21.0, 14.0, 12.0, 10.0, 8.0, 9.0, 3.0, 3.0, 1.0, 1.0, 1.0, 1.0, 1.0, 2.0], "bins": [-0.35117703676223755, -0.3408932685852051, -0.3306095004081726, -0.32032573223114014, -0.31004196405410767, -0.2997582256793976, -0.2894744575023651, -0.27919068932533264, -0.26890692114830017, -0.2586231529712677, -0.24833938479423523, -0.23805563151836395, -0.22777186334133148, -0.217488095164299, -0.20720434188842773, -0.19692057371139526, -0.1866368055343628, -0.17635303735733032, -0.16606926918029785, -0.15578551590442657, -0.1455017477273941, -0.13521797955036163, -0.12493421882390976, -0.11465045809745789, -0.10436668992042542, -0.09408292174339294, -0.08379916101694107, -0.0735154002904892, -0.06323163211345673, -0.052947867661714554, -0.04266410320997238, -0.03238034248352051, -0.022096574306488037, -0.011812809854745865, -0.0015290454030036926, 0.00875471904873848, 0.019038483500480652, 0.029322247952222824, 0.039606012403964996, 0.04988977313041687, 0.06017354130744934, 0.07045730948448181, 0.08074107021093369, 0.09102483093738556, 0.10130859911441803, 0.1115923672914505, 0.12187612801790237, 0.13215988874435425, 0.14244365692138672, 0.1527274250984192, 0.16301119327545166, 0.17329494655132294, 0.1835787147283554, 0.19386248290538788, 0.20414623618125916, 0.21443000435829163, 0.2247137725353241, 0.23499754071235657, 0.24528130888938904, 0.2555650770664215, 0.2658488154411316, 0.27613258361816406, 0.28641635179519653, 0.296700119972229, 0.3069838881492615]}, "parameters/net.0.bias": {"_type": "histogram", "values": [1.0, 0.0, 0.0, 0.0, 1.0, 0.0, 0.0, 0.0, 0.0, 0.0, 0.0, 0.0, 0.0, 0.0, 0.0, 1.0, 3.0, 5.0, 5.0, 3.0, 3.0, 6.0, 3.0, 5.0, 5.0, 3.0, 8.0, 9.0, 8.0, 11.0, 8.0, 4.0, 4.0, 4.0, 10.0, 9.0, 9.0, 6.0, 12.0, 10.0, 3.0, 3.0, 15.0, 11.0, 12.0, 10.0, 6.0, 6.0, 5.0, 5.0, 8.0, 0.0, 3.0, 2.0, 2.0, 0.0, 3.0, 1.0, 3.0, 0.0, 1.0, 0.0, 0.0, 1.0], "bins": [-0.03566441312432289, -0.034699101001024246, -0.0337337888777256, -0.032768476754426956, -0.03180316463112831, -0.030837852507829666, -0.029872538521885872, -0.028907226398587227, -0.027941914275288582, -0.026976602151989937, -0.026011290028691292, -0.025045977905392647, -0.024080663919448853, -0.023115351796150208, -0.022150039672851562, -0.021184727549552917, -0.020219415426254272, -0.019254103302955627, -0.018288791179656982, -0.017323479056358337, -0.016358166933059692, -0.015392853878438473, -0.014427540823817253, -0.013462228700518608, -0.012496916577219963, -0.011531604453921318, -0.010566292330622673, -0.009600979276001453, -0.008635667152702808, -0.007670355029404163, -0.006705042440444231, -0.005739729851484299, -0.004774419590830803, -0.0038091072347015142, -0.0028437948785722256, -0.001878482522442937, -0.0009131701663136482, 5.2141956984996796e-05, 0.0010174545459449291, 0.0019827671349048615, 0.0029480792582035065, 0.0039133913815021515, 0.004878703970462084, 0.005844016559422016, 0.006809328682720661, 0.007774640806019306, 0.008739953860640526, 0.00970526598393917, 0.010670578107237816, 0.011635890230536461, 0.012601202353835106, 0.013566515408456326, 0.01453182753175497, 0.015497139655053616, 0.016462452709674835, 0.01742776483297348, 0.018393076956272125, 0.01935838907957077, 0.020323701202869415, 0.02128901332616806, 0.022254325449466705, 0.02321963757276535, 0.024184951558709145, 0.02515026368200779, 0.026115575805306435]}, "parameters/net.2.weight": {"_type": "histogram", "values": [2.0, 0.0, 3.0, 2.0, 5.0, 9.0, 14.0, 16.0, 28.0, 36.0, 54.0, 87.0, 101.0, 155.0, 220.0, 305.0, 377.0, 495.0, 649.0, 806.0, 964.0, 1186.0, 1436.0, 1742.0, 1934.0, 2259.0, 2560.0, 2743.0, 2902.0, 3207.0, 3281.0, 3355.0, 3337.0, 3428.0, 3398.0, 3167.0, 3087.0, 2794.0, 2440.0, 2173.0, 2061.0, 1787.0, 1468.0, 1187.0, 1024.0, 819.0, 626.0, 472.0, 351.0, 267.0, 208.0, 155.0, 103.0, 74.0, 53.0, 45.0, 27.0, 21.0, 9.0, 7.0, 4.0, 4.0, 5.0, 2.0], "bins": [-0.3816419541835785, -0.36990535259246826, -0.3581687808036804, -0.3464321792125702, -0.33469557762145996, -0.32295897603034973, -0.3112223744392395, -0.29948580265045166, -0.28774920105934143, -0.2760125994682312, -0.26427602767944336, -0.25253942608833313, -0.2408028244972229, -0.22906622290611267, -0.21732963621616364, -0.2055930495262146, -0.19385644793510437, -0.18211984634399414, -0.1703832596540451, -0.15864667296409607, -0.14691007137298584, -0.1351734697818756, -0.12343688309192657, -0.11170028895139694, -0.09996369481086731, -0.08822710067033768, -0.07649050652980804, -0.06475391238927841, -0.05301731824874878, -0.04128072410821915, -0.029544129967689514, -0.01780753582715988, -0.006070971488952637, 0.005665622651576996, 0.01740221679210663, 0.02913881093263626, 0.040875405073165894, 0.052611999213695526, 0.06434859335422516, 0.07608518749475479, 0.08782178163528442, 0.09955837577581406, 0.11129496991634369, 0.12303156405687332, 0.13476815819740295, 0.14650475978851318, 0.15824134647846222, 0.16997793316841125, 0.18171453475952148, 0.1934511363506317, 0.20518772304058075, 0.21692430973052979, 0.22866091132164001, 0.24039751291275024, 0.2521340847015381, 0.2638706862926483, 0.27560728788375854, 0.2873438894748688, 0.299080491065979, 0.31081706285476685, 0.3225536644458771, 0.3342902660369873, 0.34602683782577515, 0.3577634394168854, 0.3695000410079956]}, "parameters/net.2.bias": {"_type": "histogram", "values": [1.0, 1.0, 2.0, 1.0, 1.0, 1.0, 0.0, 0.0, 0.0, 4.0, 2.0, 1.0, 0.0, 4.0, 3.0, 3.0, 6.0, 4.0, 6.0, 4.0, 9.0, 6.0, 6.0, 5.0, 9.0, 6.0, 4.0, 8.0, 7.0, 11.0, 7.0, 11.0, 6.0, 12.0, 12.0, 11.0, 3.0, 9.0, 3.0, 8.0, 10.0, 4.0, 5.0, 3.0, 6.0, 8.0, 5.0, 4.0, 2.0, 1.0, 3.0, 0.0, 0.0, 1.0, 0.0, 0.0, 1.0, 0.0, 3.0, 1.0, 0.0, 0.0, 0.0, 2.0], "bins": [-0.028939388692378998, -0.02790500782430172, -0.02687062695622444, -0.025836246088147163, -0.024801865220069885, -0.023767486214637756, -0.022733105346560478, -0.0216987244784832, -0.020664343610405922, -0.019629962742328644, -0.018595581874251366, -0.017561201006174088, -0.01652682200074196, -0.015492440201342106, -0.014458060264587402, -0.013423679396510124, -0.012389298528432846, -0.011354917660355568, -0.01032053679227829, -0.009286156855523586, -0.008251775987446308, -0.00721739511936903, -0.006183014716953039, -0.005148634314537048, -0.00411425344645977, -0.0030798728112131357, -0.0020454921759665012, -0.0010111115407198668, 2.326909452676773e-05, 0.0010576499626040459, 0.0020920303650200367, 0.0031264107674360275, 0.004160787910223007, 0.005195168778300285, 0.006229549180716276, 0.007263929583132267, 0.008298310451209545, 0.009332691319286823, 0.010367071256041527, 0.011401452124118805, 0.012435832992196083, 0.013470213860273361, 0.01450459472835064, 0.015538974665105343, 0.016573354601860046, 0.017607737332582474, 0.018642116338014603, 0.01967649720609188, 0.02071087807416916, 0.021745258942246437, 0.022779639810323715, 0.023814020678400993, 0.02484840154647827, 0.0258827805519104, 0.02691716141998768, 0.027951542288064957, 0.028985923156142235, 0.030020304024219513, 0.03105468489229679, 0.03208906576037407, 0.0331234447658062, 0.034157827496528625, 0.035192206501960754, 0.03622658550739288, 0.03726096823811531]}, "parameters/net.4.weight": {"_type": "histogram", "values": [1.0, 1.0, 4.0, 5.0, 9.0, 8.0, 7.0, 14.0, 14.0, 20.0, 31.0, 30.0, 40.0, 37.0, 54.0, 61.0, 69.0, 66.0, 85.0, 109.0, 118.0, 115.0, 115.0, 139.0, 131.0, 136.0, 145.0, 152.0, 133.0, 143.0, 135.0, 116.0, 121.0, 116.0, 97.0, 84.0, 67.0, 53.0, 47.0, 50.0, 48.0, 34.0, 29.0, 20.0, 19.0, 8.0, 13.0, 5.0, 4.0, 2.0, 1.0, 5.0, 0.0, 0.0, 2.0, 1.0, 0.0, 1.0, 1.0, 0.0, 0.0, 0.0, 0.0, 1.0], "bins": [-0.25745105743408203, -0.24784418940544128, -0.23823730647563934, -0.2286304235458374, -0.21902355551719666, -0.2094166874885559, -0.19980980455875397, -0.19020292162895203, -0.18059605360031128, -0.17098918557167053, -0.1613823026418686, -0.15177541971206665, -0.1421685516834259, -0.13256168365478516, -0.12295480072498322, -0.11334792524576187, -0.10374104976654053, -0.09413417428731918, -0.08452729880809784, -0.0749204233288765, -0.06531354784965515, -0.05570667237043381, -0.04609979689121246, -0.03649292141199112, -0.026886045932769775, -0.01727917045354843, -0.007672294974327087, 0.0019345805048942566, 0.0115414559841156, 0.021148331463336945, 0.03075520694255829, 0.04036208242177963, 0.04996892809867859, 0.05957580357789993, 0.06918267905712128, 0.07878955453634262, 0.08839643001556396, 0.09800330549478531, 0.10761018097400665, 0.117217056453228, 0.12682393193244934, 0.1364307999610901, 0.14603768289089203, 0.15564456582069397, 0.16525143384933472, 0.17485830187797546, 0.1844651848077774, 0.19407206773757935, 0.2036789357662201, 0.21328580379486084, 0.22289268672466278, 0.23249956965446472, 0.24210643768310547, 0.2517133057117462, 0.26132017374038696, 0.2709270715713501, 0.28053393959999084, 0.2901408076286316, 0.2997477054595947, 0.3093545734882355, 0.3189614415168762, 0.32856830954551697, 0.3381751775741577, 0.34778207540512085, 0.3573889434337616]}, "parameters/net.4.bias": {"_type": "histogram", "values": [1.0, 1.0, 0.0, 0.0, 0.0, 0.0, 0.0, 0.0, 0.0, 0.0, 0.0, 0.0, 0.0, 0.0, 1.0, 0.0, 0.0, 0.0, 1.0, 0.0, 0.0, 1.0, 0.0, 0.0, 0.0, 0.0, 0.0, 0.0, 0.0, 0.0, 0.0, 0.0, 0.0, 0.0, 0.0, 0.0, 0.0, 0.0, 0.0, 0.0, 0.0, 0.0, 0.0, 0.0, 0.0, 0.0, 1.0, 0.0, 0.0, 0.0, 0.0, 0.0, 0.0, 0.0, 0.0, 0.0, 0.0, 2.0, 1.0, 0.0, 0.0, 0.0, 1.0, 2.0], "bins": [-0.0070112477988004684, -0.006792478263378143, -0.006573708727955818, -0.006354939192533493, -0.006136169657111168, -0.005917400121688843, -0.005698630586266518, -0.00547986151650548, -0.005261091981083155, -0.0050423224456608295, -0.004823552910238504, -0.004604783374816179, -0.004386013839393854, -0.004167244769632816, -0.003948475234210491, -0.003729705698788166, -0.0035109359305351973, -0.003292166395112872, -0.003073396859690547, -0.0028546275570988655, -0.0026358580216765404, -0.0024170884862542152, -0.00219831895083189, -0.001979549415409565, -0.0017607799964025617, -0.0015420104609802365, -0.0013232410419732332, -0.001104471506550908, -0.0008857020293362439, -0.0006669325521215796, -0.0004481630166992545, -0.0002293935976922512, -1.0624062269926071e-05, 0.00020814542949665338, 0.00042691492126323283, 0.0006456844275817275, 0.0008644539047963917, 0.001083223382011056, 0.001301992917433381, 0.0015207623364403844, 0.0017395318718627095, 0.001958301290869713, 0.002177070826292038, 0.002395840361714363, 0.0026146098971366882, 0.0028333794325590134, 0.0030521489679813385, 0.00327091827057302, 0.003489687805995345, 0.0037084573414176702, 0.003927226644009352, 0.004145996179431677, 0.004364765714854002, 0.004583535250276327, 0.004802304785698652, 0.005021074321120977, 0.0052398438565433025, 0.005458613391965628, 0.005677382927387953, 0.005896152462810278, 0.006114921998232603, 0.006333691067993641, 0.006552460603415966, 0.006771230138838291, 0.006989999674260616]}, "gradients/net.4.bias": {"_type": "histogram", "values": [2.0, 0.0, 0.0, 0.0, 0.0, 0.0, 0.0, 1.0, 0.0, 0.0, 1.0, 1.0, 0.0, 0.0, 1.0, 0.0, 1.0, 0.0, 0.0, 0.0, 1.0, 1.0, 0.0, 0.0, 0.0, 0.0, 0.0, 0.0, 0.0, 0.0, 0.0, 0.0, 0.0, 1.0, 0.0, 0.0, 0.0, 0.0, 0.0, 0.0, 0.0, 0.0, 0.0, 0.0, 0.0, 0.0, 0.0, 1.0, 0.0, 0.0, 0.0, 0.0, 0.0, 0.0, 0.0, 0.0, 0.0, 0.0, 0.0, 0.0, 0.0, 0.0, 0.0, 1.0], "bins": [-1.4388717318070121e-05, -1.3283590305945836e-05, -1.2178463293821551e-05, -1.1073336281697266e-05, -9.96820926957298e-06, -8.863082257448696e-06, -7.75795524532441e-06, -6.652828233200125e-06, -5.54770122107584e-06, -4.442574208951555e-06, -3.33744719682727e-06, -2.232320184702985e-06, -1.1271931725786999e-06, -2.2066160454414785e-08, 1.0830608516698703e-06, 2.1881878637941554e-06, 3.2933148759184405e-06, 4.398441888042726e-06, 5.503568900167011e-06, 6.608695912291296e-06, 7.713822924415581e-06, 8.818949936539866e-06, 9.924076948664151e-06, 1.1029203960788436e-05, 1.2134330972912721e-05, 1.3239457985037006e-05, 1.4344584997161292e-05, 1.5449712009285577e-05, 1.6554839021409862e-05, 1.7659966033534147e-05, 1.8765093045658432e-05, 1.9870220057782717e-05, 2.09753452509176e-05, 2.2080472263041884e-05, 2.318559927516617e-05, 2.4290726287290454e-05, 2.539585329941474e-05, 2.6500980311539024e-05, 2.760610732366331e-05, 2.8711234335787594e-05, 2.981636134791188e-05, 3.0921488360036165e-05, 3.202661537216045e-05, 3.3131742384284735e-05, 3.423686939640902e-05, 3.5341996408533305e-05, 3.644712342065759e-05, 3.7552250432781875e-05, 3.865737744490616e-05, 3.9762504457030445e-05, 4.086763146915473e-05, 4.1972758481279016e-05, 4.30778854934033e-05, 4.4183012505527586e-05, 4.528813951765187e-05, 4.6393266529776156e-05, 4.749839354190044e-05, 4.8603520554024726e-05, 4.970864756614901e-05, 5.0813774578273296e-05, 5.191890159039758e-05, 5.3024028602521867e-05, 5.412915561464615e-05, 5.523428262677044e-05, 5.633940963889472e-05]}, "gradients/net.4.weight": {"_type": "histogram", "values": [2.0, 1.0, 2.0, 1.0, 3.0, 3.0, 3.0, 7.0, 7.0, 9.0, 12.0, 9.0, 27.0, 25.0, 44.0, 46.0, 66.0, 88.0, 120.0, 168.0, 219.0, 303.0, 414.0, 360.0, 295.0, 214.0, 133.0, 94.0, 57.0, 60.0, 46.0, 32.0, 18.0, 32.0, 30.0, 17.0, 18.0, 16.0, 8.0, 6.0, 10.0, 6.0, 4.0, 5.0, 5.0, 3.0, 3.0, 2.0, 4.0, 2.0, 2.0, 4.0, 1.0, 3.0, 0.0, 0.0, 0.0, 0.0, 0.0, 0.0, 1.0, 0.0, 0.0, 2.0], "bins": [-1.9258108295616694e-05, -1.8389979231869802e-05, -1.7521848349133506e-05, -1.665371746639721e-05, -1.578558840265032e-05, -1.4917458429408725e-05, -1.4049328456167132e-05, -1.3181198482925538e-05, -1.2313068509683944e-05, -1.144493853644235e-05, -1.0576808563200757e-05, -9.708678589959163e-06, -8.84054861671757e-06, -7.972418643475976e-06, -7.104288670234382e-06, -6.2361586969927885e-06, -5.368028723751195e-06, -4.499898750509601e-06, -3.6317687772680074e-06, -2.7636388040264137e-06, -1.89550883078482e-06, -1.0273788575432263e-06, -1.5924888430163264e-07, 7.08881088939961e-07, 1.5770110621815547e-06, 2.4451410354231484e-06, 3.313271008664742e-06, 4.181400981906336e-06, 5.0495309551479295e-06, 5.917660928389523e-06, 6.785790901631117e-06, 7.65392087487271e-06, 8.5220490291249e-06, 9.390179002366494e-06, 1.0258308975608088e-05, 1.1126438948849682e-05, 1.1994568922091275e-05, 1.2862698895332869e-05, 1.3730828868574463e-05, 1.4598958841816057e-05, 1.546708881505765e-05, 1.6335219697793946e-05, 1.7203348761540838e-05, 1.807147782528773e-05, 1.8939608708024025e-05, 1.980773959076032e-05, 2.0675868654507212e-05, 2.1543997718254104e-05, 2.24121286009904e-05, 2.3280259483726695e-05, 2.4148388547473587e-05, 2.501651761122048e-05, 2.5884648493956774e-05, 2.675277937669307e-05, 2.7620908440439962e-05, 2.8489037504186854e-05, 2.935716838692315e-05, 3.0225299269659445e-05, 3.109342651441693e-05, 3.196155739715323e-05, 3.2829688279889524e-05, 3.369781916262582e-05, 3.4565950045362115e-05, 3.54340772901196e-05, 3.63022081728559e-05]}, "gradients/net.2.bias": {"_type": "histogram", "values": [1.0, 1.0, 1.0, 1.0, 0.0, 0.0, 0.0, 0.0, 4.0, 1.0, 2.0, 2.0, 1.0, 5.0, 3.0, 4.0, 3.0, 3.0, 4.0, 6.0, 2.0, 11.0, 11.0, 16.0, 8.0, 13.0, 5.0, 8.0, 15.0, 15.0, 12.0, 14.0, 7.0, 6.0, 9.0, 9.0, 4.0, 5.0, 9.0, 3.0, 7.0, 2.0, 4.0, 1.0, 3.0, 4.0, 3.0, 2.0, 1.0, 0.0, 2.0, 0.0, 0.0, 1.0, 0.0, 0.0, 1.0, 0.0, 0.0, 0.0, 0.0, 0.0, 0.0, 1.0], "bins": [-1.4136978279566392e-05, -1.3675102309207432e-05, -1.3213227248343173e-05, -1.2751351277984213e-05, -1.2289475307625253e-05, -1.1827600246760994e-05, -1.1365724276402034e-05, -1.0903848306043074e-05, -1.0441972335684113e-05, -9.980096365325153e-06, -9.518221304460894e-06, -9.056345334101934e-06, -8.594469363742974e-06, -8.132594302878715e-06, -7.670718332519755e-06, -7.2088423621607944e-06, -6.746966846549185e-06, -6.2850913309375755e-06, -5.823215360578615e-06, -5.361339844967006e-06, -4.8994638746080454e-06, -4.437588358996436e-06, -3.975712388637476e-06, -3.5138368730258662e-06, -3.0519611300405813e-06, -2.5900853870552965e-06, -2.1282096440700116e-06, -1.6663340147715644e-06, -1.2044582717862795e-06, -7.425826424878323e-07, -2.8070689950254746e-07, 1.8116884348273743e-07, 6.430445864680223e-07, 1.1049203294533072e-06, 1.566796072438592e-06, 2.0286715880502015e-06, 2.490547558409162e-06, 2.9524230740207713e-06, 3.414298817006056e-06, 3.876174559991341e-06, 4.338050530350301e-06, 4.799926045961911e-06, 5.261802016320871e-06, 5.723677531932481e-06, 6.185553502291441e-06, 6.64742901790305e-06, 7.10930453351466e-06, 7.57118050387362e-06, 8.033055564737879e-06, 8.494931535096839e-06, 8.956806595961098e-06, 9.418682566320058e-06, 9.880558536679018e-06, 1.0342433597543277e-05, 1.0804309567902237e-05, 1.1266185538261198e-05, 1.1728061508620158e-05, 1.2189937478979118e-05, 1.2651812539843377e-05, 1.3113688510202337e-05, 1.3575564480561297e-05, 1.4037439541425556e-05, 1.4499315511784516e-05, 1.4961191482143477e-05, 1.5423067452502437e-05]}, "gradients/net.2.weight": {"_type": "histogram", "values": [3.0, 0.0, 0.0, 1.0, 1.0, 1.0, 2.0, 3.0, 6.0, 7.0, 9.0, 13.0, 20.0, 28.0, 33.0, 44.0, 65.0, 87.0, 107.0, 125.0, 197.0, 259.0, 351.0, 488.0, 735.0, 1073.0, 1469.0, 2203.0, 3379.0, 5417.0, 9183.0, 14122.0, 9229.0, 5639.0, 3571.0, 2301.0, 1565.0, 1085.0, 732.0, 545.0, 383.0, 269.0, 211.0, 147.0, 100.0, 97.0, 56.0, 53.0, 33.0, 25.0, 18.0, 9.0, 10.0, 4.0, 7.0, 5.0, 5.0, 2.0, 0.0, 1.0, 1.0, 0.0, 0.0, 2.0], "bins": [-7.0639293880958576e-06, -6.839743036834989e-06, -6.61555668557412e-06, -6.391370334313251e-06, -6.167183983052382e-06, -5.942997631791513e-06, -5.7188117352779955e-06, -5.494624929269776e-06, -5.270439032756258e-06, -5.046252681495389e-06, -4.82206633023452e-06, -4.597879978973651e-06, -4.3736936277127825e-06, -4.149507276451914e-06, -3.925320925191045e-06, -3.7011348013038514e-06, -3.476948222669307e-06, -3.2527618714084383e-06, -3.0285755201475695e-06, -2.8043891688867006e-06, -2.580202817625832e-06, -2.356016466364963e-06, -2.1318303424777696e-06, -1.9076439912169008e-06, -1.683457639956032e-06, -1.459271288695163e-06, -1.2350849374342943e-06, -1.0108986998602632e-06, -7.867123485993943e-07, -5.625259973385255e-07, -3.383397597644944e-07, -1.1415340850362554e-07, 1.1003339750459418e-07, 3.342197203437536e-07, 5.58406043182913e-07, 7.82592337600363e-07, 1.0067786888612318e-06, 1.2309650401221006e-06, 1.4551512776961317e-06, 1.6793376289570006e-06, 1.9035239802178694e-06, 2.1277103314787382e-06, 2.351896682739607e-06, 2.5760828066268004e-06, 2.8002691578876693e-06, 3.024455509148538e-06, 3.248641860409407e-06, 3.4728282116702758e-06, 3.6970145629311446e-06, 3.9212009141920134e-06, 4.145387265452882e-06, 4.369573616713751e-06, 4.59375996797462e-06, 4.817946319235489e-06, 5.042132215749007e-06, 5.2663190217572264e-06, 5.490504918270744e-06, 5.714691269531613e-06, 5.938877620792482e-06, 6.163063972053351e-06, 6.38725032331422e-06, 6.6114366745750885e-06, 6.835623025835957e-06, 7.059808922349475e-06, 7.283995728357695e-06]}, "gradients/net.0.bias": {"_type": "histogram", "values": [1.0, 0.0, 0.0, 0.0, 0.0, 0.0, 0.0, 1.0, 0.0, 0.0, 0.0, 1.0, 2.0, 3.0, 0.0, 2.0, 2.0, 4.0, 0.0, 6.0, 4.0, 5.0, 8.0, 9.0, 3.0, 1.0, 2.0, 9.0, 9.0, 11.0, 6.0, 9.0, 11.0, 11.0, 6.0, 14.0, 7.0, 6.0, 10.0, 13.0, 7.0, 12.0, 4.0, 7.0, 8.0, 5.0, 4.0, 3.0, 2.0, 3.0, 4.0, 5.0, 2.0, 1.0, 3.0, 2.0, 0.0, 0.0, 2.0, 0.0, 2.0, 1.0, 2.0, 1.0], "bins": [-2.1095511328894645e-05, -2.050879629678093e-05, -1.9922081264667213e-05, -1.9335366232553497e-05, -1.874865120043978e-05, -1.8161936168326065e-05, -1.757522113621235e-05, -1.6988506104098633e-05, -1.6401791071984917e-05, -1.58150760398712e-05, -1.5228361007757485e-05, -1.4641645975643769e-05, -1.4054930943530053e-05, -1.3468215911416337e-05, -1.2881500879302621e-05, -1.2294785847188905e-05, -1.1708070815075189e-05, -1.1121355782961473e-05, -1.0534640750847757e-05, -9.947925718734041e-06, -9.361210686620325e-06, -8.774495654506609e-06, -8.187780622392893e-06, -7.601065590279177e-06, -7.014350558165461e-06, -6.427635526051745e-06, -5.840920493938029e-06, -5.254205461824313e-06, -4.667490429710597e-06, -4.080775397596881e-06, -3.4940603654831648e-06, -2.9073453333694488e-06, -2.3206303012557328e-06, -1.7339152691420168e-06, -1.1472002370283008e-06, -5.604852049145848e-07, 2.622982719913125e-08, 6.129448593128473e-07, 1.1996598914265633e-06, 1.7863749235402793e-06, 2.3730899556539953e-06, 2.9598049877677113e-06, 3.5465200198814273e-06, 4.133235051995143e-06, 4.719950084108859e-06, 5.306665116222575e-06, 5.893380148336291e-06, 6.480095180450007e-06, 7.066810212563723e-06, 7.65352524467744e-06, 8.240240276791155e-06, 8.826955308904871e-06, 9.413670341018587e-06, 1.0000385373132303e-05, 1.058710040524602e-05, 1.1173815437359735e-05, 1.1760530469473451e-05, 1.2347245501587167e-05, 1.2933960533700883e-05, 1.35206755658146e-05, 1.4107390597928315e-05, 1.4694105630042031e-05, 1.5280820662155747e-05, 1.5867535694269463e-05, 1.645425072638318e-05]}, "gradients/net.0.weight": {"_type": "histogram", "values": [1.0, 0.0, 0.0, 0.0, 1.0, 1.0, 4.0, 2.0, 3.0, 5.0, 7.0, 9.0, 12.0, 12.0, 9.0, 29.0, 28.0, 30.0, 47.0, 57.0, 63.0, 77.0, 98.0, 95.0, 102.0, 147.0, 141.0, 167.0, 144.0, 187.0, 185.0, 168.0, 178.0, 166.0, 148.0, 128.0, 112.0, 106.0, 84.0, 57.0, 52.0, 40.0, 39.0, 27.0, 26.0, 15.0, 16.0, 11.0, 11.0, 8.0, 6.0, 4.0, 1.0, 1.0, 1.0, 1.0, 0.0, 1.0, 0.0, 0.0, 0.0, 0.0, 0.0, 2.0], "bins": [-1.9035513105336577e-05, -1.8405304217594676e-05, -1.7775095329852775e-05, -1.714488462312147e-05, -1.651467573537957e-05, -1.5884466847637668e-05, -1.5254257050401065e-05, -1.4624047253164463e-05, -1.3993838365422562e-05, -1.336362947768066e-05, -1.2733419680444058e-05, -1.2103209883207455e-05, -1.1473000995465554e-05, -1.0842792107723653e-05, -1.021258231048705e-05, -9.582372513250448e-06, -8.952163625508547e-06, -8.321954737766646e-06, -7.691744940530043e-06, -7.061535598040791e-06, -6.431326255551539e-06, -5.8011169130622875e-06, -5.170907570573036e-06, -4.540698228083784e-06, -3.910488885594532e-06, -3.28027954310528e-06, -2.650070200616028e-06, -2.0198608581267763e-06, -1.3896515156375244e-06, -7.594421731482726e-07, -1.292328306590207e-07, 5.009765118302312e-07, 1.131185854319483e-06, 1.761395196808735e-06, 2.3916045392979868e-06, 3.0218138817872386e-06, 3.6520232242764905e-06, 4.282232566765742e-06, 4.912441909254994e-06, 5.542651251744246e-06, 6.172860594233498e-06, 6.80306993672275e-06, 7.433279279212002e-06, 8.063489076448604e-06, 8.693697964190505e-06, 9.323906851932406e-06, 9.95411664916901e-06, 1.0584326446405612e-05, 1.1214535334147513e-05, 1.1844744221889414e-05, 1.2474954019126017e-05, 1.310516381636262e-05, 1.373537270410452e-05, 1.4365581591846421e-05, 1.4995791389083024e-05, 1.5626001186319627e-05, 1.6256210074061528e-05, 1.688641896180343e-05, 1.751662784954533e-05, 1.8146838556276634e-05, 1.8777047444018535e-05, 1.9407256331760436e-05, 2.003746703849174e-05, 2.0667675926233642e-05, 2.1297884813975543e-05]}, "_wandb": {"runtime": 528}}