{"train_loss": 2.0897016525268555, "test_loss": 2.077101230621338, "_timestamp": 1717437958.1675673, "_runtime": 73.72785234451294, "_step": 499, "gradients/net.4.bias": {"_type": "histogram", "values": [1.0, 0.0, 0.0, 0.0, 0.0, 0.0, 0.0, 0.0, 0.0, 0.0, 0.0, 0.0, 0.0, 0.0, 0.0, 0.0, 0.0, 0.0, 0.0, 0.0, 0.0, 0.0, 0.0, 0.0, 0.0, 0.0, 0.0, 0.0, 0.0, 0.0, 0.0, 0.0, 0.0, 0.0, 0.0, 0.0, 0.0, 0.0, 0.0, 0.0, 0.0, 0.0, 0.0, 0.0, 0.0, 0.0, 0.0, 0.0, 0.0, 0.0, 0.0, 0.0, 0.0, 0.0, 0.0, 0.0, 0.0, 0.0, 0.0, 0.0, 0.0, 0.0, 0.0, 1.0], "bins": [-0.42350926995277405, -0.4224703907966614, -0.4214314818382263, -0.42039260268211365, -0.4193536937236786, -0.4183148145675659, -0.41727593541145325, -0.4162370264530182, -0.4151981472969055, -0.41415926814079285, -0.4131203591823578, -0.4120814800262451, -0.41104257106781006, -0.4100036919116974, -0.4089648127555847, -0.40792590379714966, -0.4068869948387146, -0.40584811568260193, -0.40480920672416687, -0.4037703275680542, -0.40273141860961914, -0.40169253945350647, -0.4006536602973938, -0.39961475133895874, -0.39857587218284607, -0.3975369930267334, -0.39649808406829834, -0.39545920491218567, -0.3944202959537506, -0.39338141679763794, -0.39234253764152527, -0.3913036286830902, -0.39026474952697754, -0.38922587037086487, -0.3881869614124298, -0.38714808225631714, -0.3861091732978821, -0.3850702941417694, -0.38403141498565674, -0.3829925060272217, -0.381953626871109, -0.38091474771499634, -0.3798758387565613, -0.3788369596004486, -0.37779805064201355, -0.3767591714859009, -0.3757202923297882, -0.37468138337135315, -0.3736425042152405, -0.3726036250591278, -0.37156471610069275, -0.3705258369445801, -0.369486927986145, -0.36844804883003235, -0.3674091696739197, -0.3663702607154846, -0.36533135175704956, -0.3642924726009369, -0.36325356364250183, -0.36221468448638916, -0.3611757755279541, -0.36013689637184143, -0.35909801721572876, -0.3580591082572937, -0.35702022910118103]}, "gradients/net.4.weight": {"_type": "histogram", "values": [1.0, 0.0, 0.0, 0.0, 0.0, 1.0, 0.0, 0.0, 0.0, 1.0, 0.0, 0.0, 1.0, 0.0, 0.0, 1.0, 0.0, 0.0, 1.0, 0.0, 0.0, 1.0, 1.0, 0.0, 1.0, 1.0, 2.0, 4.0, 6.0, 4.0, 6.0, 2.0, 9.0, 14.0, 16.0, 72.0, 45.0, 131.0, 90.0, 45.0, 15.0, 8.0, 4.0, 5.0, 2.0, 4.0, 1.0, 4.0, 4.0, 1.0, 1.0, 2.0, 0.0, 2.0, 0.0, 1.0, 0.0, 1.0, 0.0, 0.0, 0.0, 0.0, 0.0, 1.0], "bins": [-0.8960096836090088, -0.8792982697486877, -0.8625869154930115, -0.8458755016326904, -0.8291641473770142, -0.8124527335166931, -0.7957413196563721, -0.7790299654006958, -0.7623185515403748, -0.7456071376800537, -0.7288957834243774, -0.7121843695640564, -0.6954729557037354, -0.6787616014480591, -0.662050187587738, -0.6453388333320618, -0.6286274194717407, -0.6119160056114197, -0.5952046513557434, -0.5784932374954224, -0.5617818832397461, -0.545070469379425, -0.528359055519104, -0.5116477012634277, -0.4949362874031067, -0.47822490334510803, -0.4615135192871094, -0.44480210542678833, -0.4280907213687897, -0.411379337310791, -0.39466792345046997, -0.3779565393924713, -0.36124521493911743, -0.3445338308811188, -0.3278224468231201, -0.3111110329627991, -0.2943996489048004, -0.27768826484680176, -0.2609768509864807, -0.24426546692848206, -0.2275540679693222, -0.21084266901016235, -0.1941312849521637, -0.17741990089416504, -0.1607085019350052, -0.14399710297584534, -0.12728571891784668, -0.11057432740926743, -0.09386293590068817, -0.07715154439210892, -0.06044015288352966, -0.04372876137495041, -0.027017369866371155, -0.0103059783577919, 0.0064054131507873535, 0.023116804659366608, 0.03982819616794586, 0.056539587676525116, 0.07325097918510437, 0.08996237069368362, 0.10667376220226288, 0.12338515371084213, 0.1400965452194214, 0.15680792927742004, 0.1735193282365799]}, "gradients/net.2.bias": {"_type": "histogram", "values": [1.0, 0.0, 0.0, 0.0, 0.0, 0.0, 0.0, 1.0, 0.0, 0.0, 0.0, 1.0, 1.0, 0.0, 1.0, 0.0, 1.0, 1.0, 2.0, 3.0, 0.0, 4.0, 1.0, 3.0, 6.0, 5.0, 7.0, 9.0, 5.0, 8.0, 9.0, 9.0, 6.0, 8.0, 13.0, 11.0, 5.0, 5.0, 2.0, 2.0, 1.0, 5.0, 7.0, 11.0, 14.0, 16.0, 7.0, 6.0, 9.0, 4.0, 6.0, 5.0, 5.0, 8.0, 3.0, 6.0, 2.0, 4.0, 4.0, 1.0, 0.0, 1.0, 0.0, 1.0], "bins": [-0.11690020561218262, -0.11391040682792664, -0.11092060804367065, -0.10793080925941467, -0.10494101047515869, -0.10195121169090271, -0.09896141290664673, -0.09597161412239075, -0.09298181533813477, -0.08999201655387878, -0.0870022177696228, -0.08401241898536682, -0.08102262020111084, -0.07803282141685486, -0.07504302263259888, -0.0720532238483429, -0.06906343251466751, -0.06607363373041153, -0.06308383494615555, -0.06009403616189957, -0.057104237377643585, -0.054114438593387604, -0.05112464353442192, -0.04813484475016594, -0.04514504596590996, -0.042155247181653976, -0.039165448397397995, -0.03617565333843231, -0.03318585455417633, -0.0301960539072752, -0.027206256985664368, -0.024216458201408386, -0.021226666867733, -0.01823686808347702, -0.015247070230543613, -0.012257272377610207, -0.009267473593354225, -0.006277674809098244, -0.0032878778874874115, -0.00029807910323143005, 0.0026917196810245514, 0.0056815179996192455, 0.00867131631821394, 0.011661114171147346, 0.014650912955403328, 0.01764071173965931, 0.02063050866127014, 0.023620307445526123, 0.026610106229782104, 0.029599905014038086, 0.03258970379829407, 0.03557950258255005, 0.03856930136680603, 0.04155910015106201, 0.044548895210027695, 0.047538693994283676, 0.05052849277853966, 0.05351829156279564, 0.05650809034705162, 0.0594978854060173, 0.062487684190273285, 0.06547748297452927, 0.06846728175878525, 0.07145708054304123, 0.07444687932729721]}, "gradients/net.2.weight": {"_type": "histogram", "values": [1.0, 0.0, 1.0, 0.0, 0.0, 0.0, 3.0, 1.0, 2.0, 9.0, 9.0, 13.0, 18.0, 14.0, 22.0, 33.0, 50.0, 60.0, 88.0, 116.0, 196.0, 240.0, 358.0, 406.0, 561.0, 832.0, 1074.0, 1549.0, 2209.0, 3692.0, 13432.0, 3904.0, 2437.0, 2407.0, 2456.0, 3213.0, 13460.0, 4260.0, 2406.0, 1637.0, 1164.0, 866.0, 640.0, 462.0, 313.0, 236.0, 174.0, 161.0, 91.0, 63.0, 63.0, 36.0, 27.0, 22.0, 14.0, 10.0, 4.0, 10.0, 3.0, 3.0, 0.0, 3.0, 1.0, 1.0], "bins": [-0.10898206382989883, -0.10573887825012207, -0.1024957001209259, -0.09925251454114914, -0.09600932896137238, -0.09276614338159561, -0.08952295780181885, -0.08627977967262268, -0.08303659409284592, -0.07979340851306915, -0.07655023038387299, -0.07330704480409622, -0.07006385922431946, -0.0668206736445427, -0.06357748806476593, -0.06033430993556976, -0.057091124355793, -0.053847938776016235, -0.05060475692152977, -0.047361575067043304, -0.04411838948726654, -0.04087520390748978, -0.03763202205300331, -0.034388840198516846, -0.031145654618740082, -0.027902470901608467, -0.024659287184476852, -0.021416103467345238, -0.018172919750213623, -0.014929736033082008, -0.011686552315950394, -0.008443368598818779, -0.005200192332267761, -0.0019570086151361465, 0.0012861751019954681, 0.004529358819127083, 0.0077725425362586975, 0.011015726253390312, 0.014258909970521927, 0.01750209368765354, 0.020745277404785156, 0.02398846112191677, 0.027231644839048386, 0.03047482855618, 0.033718012273311615, 0.03696119785308838, 0.040204379707574844, 0.04344756156206131, 0.046690747141838074, 0.04993393272161484, 0.0531771145761013, 0.05642029643058777, 0.05966348201036453, 0.0629066675901413, 0.06614984571933746, 0.06939303129911423, 0.07263621687889099, 0.07587940245866776, 0.07912258803844452, 0.08236576616764069, 0.08560895174741745, 0.08885213732719421, 0.09209531545639038, 0.09533850103616714, 0.09858168661594391]}, "gradients/net.0.bias": {"_type": "histogram", "values": [1.0, 0.0, 1.0, 0.0, 0.0, 1.0, 0.0, 0.0, 0.0, 1.0, 3.0, 2.0, 2.0, 3.0, 2.0, 2.0, 1.0, 3.0, 2.0, 6.0, 7.0, 3.0, 6.0, 4.0, 3.0, 5.0, 6.0, 16.0, 39.0, 2.0, 3.0, 1.0, 2.0, 4.0, 7.0, 52.0, 8.0, 7.0, 7.0, 9.0, 5.0, 3.0, 2.0, 1.0, 4.0, 1.0, 4.0, 2.0, 2.0, 2.0, 2.0, 1.0, 1.0, 1.0, 0.0, 1.0, 0.0, 1.0, 0.0, 0.0, 0.0, 0.0, 0.0, 2.0], "bins": [-0.0913064181804657, -0.08841976523399353, -0.08553311228752136, -0.0826464593410492, -0.07975979894399643, -0.07687314599752426, -0.0739864930510521, -0.07109984010457993, -0.06821317970752716, -0.06532652676105499, -0.062439870089292526, -0.05955321714282036, -0.05666656047105789, -0.053779907524585724, -0.050893254578113556, -0.04800660163164139, -0.04511994868516922, -0.04223329573869705, -0.039346639066934586, -0.03645998612046242, -0.03357332944869995, -0.030686676502227783, -0.027800023555755615, -0.024913368746638298, -0.02202671393752098, -0.019140059128403664, -0.016253404319286346, -0.013366751372814178, -0.010480096563696861, -0.007593441754579544, -0.004706788808107376, -0.001820133998990059, 0.0010665282607078552, 0.003953182604163885, 0.006839836947619915, 0.009726490825414658, 0.012613145634531975, 0.015499800443649292, 0.01838645339012146, 0.021273108199238777, 0.024159763008356094, 0.02704641781747341, 0.02993307262659073, 0.0328197255730629, 0.035706378519535065, 0.03859303519129753, 0.0414796881377697, 0.044366344809532166, 0.047252997756004333, 0.0501396507024765, 0.05302630737423897, 0.055912960320711136, 0.0587996169924736, 0.06168626993894577, 0.06457292288541794, 0.0674595758318901, 0.07034623622894287, 0.07323288917541504, 0.07611954212188721, 0.07900619506835938, 0.08189285546541214, 0.08477950841188431, 0.08766616135835648, 0.09055281430482864, 0.09343946725130081]}, "gradients/net.0.weight": {"_type": "histogram", "values": [1.0, 0.0, 0.0, 0.0, 0.0, 0.0, 0.0, 0.0, 0.0, 2.0, 0.0, 0.0, 2.0, 2.0, 3.0, 3.0, 4.0, 2.0, 4.0, 3.0, 4.0, 14.0, 8.0, 9.0, 21.0, 26.0, 113.0, 53.0, 129.0, 18.0, 22.0, 16.0, 9.0, 6.0, 7.0, 8.0, 5.0, 0.0, 5.0, 3.0, 2.0, 0.0, 0.0, 1.0, 1.0, 0.0, 2.0, 1.0, 0.0, 0.0, 0.0, 0.0, 1.0, 0.0, 1.0, 0.0, 0.0, 0.0, 0.0, 0.0, 0.0, 0.0, 0.0, 1.0], "bins": [-0.37969866394996643, -0.365951269865036, -0.3522038757801056, -0.33845651149749756, -0.32470911741256714, -0.3109617233276367, -0.2972143292427063, -0.2834669351577759, -0.26971954107284546, -0.25597214698791504, -0.2422247678041458, -0.2284773737192154, -0.21472999453544617, -0.20098260045051575, -0.18723520636558533, -0.1734878122806549, -0.15974044799804688, -0.14599305391311646, -0.13224567472934723, -0.11849828064441681, -0.10475089401006699, -0.09100350737571716, -0.07725611329078674, -0.06350872665643692, -0.0497613400220871, -0.036013953387737274, -0.022266563028097153, -0.008519172668457031, 0.005228213965892792, 0.018975600600242615, 0.032722994685173035, 0.04647038131952286, 0.06021773815155029, 0.07396512478590012, 0.08771251142024994, 0.10145990550518036, 0.11520729213953018, 0.12895467877388, 0.14270207285881042, 0.15644946694374084, 0.17019684612751007, 0.1839442402124405, 0.19769161939620972, 0.21143901348114014, 0.22518640756607056, 0.23893378674983978, 0.2526811957359314, 0.26642856001853943, 0.28017595410346985, 0.29392334818840027, 0.3076707422733307, 0.3214181065559387, 0.33516550064086914, 0.34891289472579956, 0.36266028881073, 0.3764076828956604, 0.3901550769805908, 0.40390247106552124, 0.41764986515045166, 0.4313972592353821, 0.4451446235179901, 0.45889201760292053, 0.47263941168785095, 0.48638680577278137, 0.5001341700553894]}, "_wandb": {"runtime": 73}}