{"train_loss_d2": 4.025611400604248, "train_H_d2": 17.61302375793457, "test_loss_d2": 2.7146413326263428, "test_H_d2": 9.188671112060547, "_timestamp": 1723231403.4242089, "_runtime": 4847.920279979706, "_step": 232, "parameters/net.0.in_w.weight": {"_type": "histogram", "values": [5.0, 1.0, 1.0, 0.0, 3.0, 9.0, 4.0, 6.0, 5.0, 4.0, 3.0, 8.0, 5.0, 2.0, 4.0, 4.0, 4.0, 6.0, 2.0, 9.0, 2.0, 0.0, 7.0, 3.0, 6.0, 2.0, 7.0, 4.0, 6.0, 4.0, 11.0, 6.0, 7.0, 7.0, 8.0, 3.0, 4.0, 6.0, 2.0, 4.0, 2.0, 5.0, 4.0, 4.0, 8.0, 2.0, 6.0, 0.0, 0.0, 2.0, 2.0, 5.0, 3.0, 2.0, 4.0, 6.0, 0.0, 4.0, 4.0, 2.0, 2.0, 2.0, 1.0, 2.0], "bins": [-0.7267633080482483, -0.7036960124969482, -0.6806287169456482, -0.6575614213943481, -0.6344941258430481, -0.611426830291748, -0.5883594751358032, -0.5652921795845032, -0.5422248840332031, -0.5191575884819031, -0.496090292930603, -0.473022997379303, -0.44995570182800293, -0.4268884062767029, -0.40382108092308044, -0.3807537853717804, -0.35768648982048035, -0.3346191942691803, -0.31155189871788025, -0.2884845733642578, -0.26541727781295776, -0.24234998226165771, -0.21928268671035767, -0.19621537625789642, -0.17314808070659637, -0.15008078515529633, -0.12701347470283508, -0.10394617915153503, -0.08087887614965439, -0.05781157314777374, -0.034744273871183395, -0.011676972731947899, 0.011390328407287598, 0.03445763140916824, 0.05752493068575859, 0.08059222996234894, 0.10365953296422958, 0.12672683596611023, 0.14979413151741028, 0.17286144196987152, 0.19592873752117157, 0.21899603307247162, 0.24206334352493286, 0.2651306390762329, 0.28819793462753296, 0.311265230178833, 0.33433255553245544, 0.3573998510837555, 0.38046714663505554, 0.4035344421863556, 0.42660173773765564, 0.4496690630912781, 0.4727363586425781, 0.4958036541938782, 0.5188709497451782, 0.5419382452964783, 0.5650055408477783, 0.5880728363990784, 0.6111401319503784, 0.6342074871063232, 0.6572747826576233, 0.6803420782089233, 0.7034093737602234, 0.7264766693115234, 0.7495439648628235]}, "parameters/net.0.in_w.bias": {"_type": "histogram", "values": [2.0, 1.0, 1.0, 2.0, 1.0, 1.0, 2.0, 2.0, 3.0, 1.0, 1.0, 5.0, 2.0, 2.0, 0.0, 2.0, 3.0, 2.0, 1.0, 3.0, 3.0, 3.0, 3.0, 2.0, 5.0, 0.0, 1.0, 2.0, 3.0, 1.0, 1.0, 3.0, 1.0, 2.0, 1.0, 4.0, 2.0, 1.0, 1.0, 3.0, 3.0, 2.0, 2.0, 3.0, 1.0, 3.0, 3.0, 3.0, 3.0, 2.0, 4.0, 1.0, 2.0, 1.0, 0.0, 0.0, 4.0, 1.0, 3.0, 2.0, 2.0, 1.0, 0.0, 3.0], "bins": [-0.7873310446739197, -0.7631329894065857, -0.7389348745346069, -0.714736819267273, -0.6905387043952942, -0.6663406491279602, -0.6421425938606262, -0.6179444789886475, -0.5937464237213135, -0.5695483088493347, -0.5453502535820007, -0.5211521983146667, -0.496954083442688, -0.4727559983730316, -0.44855794310569763, -0.42435985803604126, -0.4001617729663849, -0.3759636878967285, -0.35176560282707214, -0.32756754755973816, -0.3033694624900818, -0.2791713774204254, -0.25497329235076904, -0.23077522218227386, -0.2065771371126175, -0.18237905204296112, -0.15818098187446594, -0.13398289680480957, -0.1097848191857338, -0.08558674156665802, -0.061388660222291946, -0.03719057887792587, -0.012992501258850098, 0.011205578222870827, 0.03540365770459175, 0.059601739048957825, 0.0837998166680336, 0.10799789428710938, 0.13219597935676575, 0.15639404952526093, 0.1805921345949173, 0.20479021966457367, 0.22898828983306885, 0.2531863749027252, 0.2773844599723816, 0.30158254504203796, 0.32578060030937195, 0.3499786853790283, 0.3741767704486847, 0.39837485551834106, 0.42257294058799744, 0.4467709958553314, 0.4709690809249878, 0.49516716599464417, 0.5193652510643005, 0.5435633063316345, 0.5677614212036133, 0.5919594764709473, 0.616157591342926, 0.64035564661026, 0.664553701877594, 0.6887518167495728, 0.7129498720169067, 0.7371479868888855, 0.7613460421562195]}, "parameters/net.0.out_w.weight": {"_type": "histogram", "values": [7.0, 5.0, 5.0, 3.0, 1.0, 4.0, 1.0, 4.0, 8.0, 4.0, 4.0, 6.0, 3.0, 2.0, 4.0, 2.0, 4.0, 3.0, 7.0, 5.0, 4.0, 7.0, 4.0, 4.0, 5.0, 3.0, 7.0, 4.0, 7.0, 5.0, 4.0, 4.0, 2.0, 6.0, 5.0, 3.0, 3.0, 7.0, 1.0, 6.0, 2.0, 2.0, 6.0, 3.0, 4.0, 2.0, 2.0, 2.0, 2.0, 7.0, 6.0, 4.0, 3.0, 6.0, 8.0, 1.0, 2.0, 6.0, 5.0, 5.0, 0.0, 4.0, 0.0, 1.0], "bins": [-0.6980804800987244, -0.6750407218933105, -0.652000904083252, -0.6289611458778381, -0.6059213280677795, -0.5828815698623657, -0.5598417520523071, -0.5368019938468933, -0.5137622356414795, -0.4907224178314209, -0.4676826298236847, -0.4446428418159485, -0.42160308361053467, -0.39856329560279846, -0.37552350759506226, -0.35248371958732605, -0.32944393157958984, -0.30640414357185364, -0.28336435556411743, -0.2603245675563812, -0.2372847944498062, -0.21424500644207, -0.191205233335495, -0.1681654453277588, -0.14512565732002258, -0.12208586931228638, -0.09904608875513077, -0.07600630819797516, -0.05296652019023895, -0.029926735907793045, -0.0068869516253471375, 0.01615283265709877, 0.03919267654418945, 0.06223246082663536, 0.08527224510908127, 0.10831202566623688, 0.13135181367397308, 0.1543916016817093, 0.1774313747882843, 0.2004711627960205, 0.2235109508037567, 0.24655073881149292, 0.2695905268192291, 0.29263031482696533, 0.31567007303237915, 0.33870986104011536, 0.36174964904785156, 0.38478943705558777, 0.407829225063324, 0.4308690130710602, 0.4539088010787964, 0.4769485890865326, 0.4999883770942688, 0.5230281352996826, 0.5460679531097412, 0.569107711315155, 0.5921474695205688, 0.6151872873306274, 0.6382270455360413, 0.6612668633460999, 0.6843066215515137, 0.7073464393615723, 0.7303861975669861, 0.7534260153770447, 0.7764657735824585]}, "parameters/net.0.out_w.bias": {"_type": "histogram", "values": [3.0, 3.0, 3.0, 0.0, 5.0, 1.0, 0.0, 1.0, 3.0, 3.0, 2.0, 4.0, 4.0, 1.0, 3.0, 1.0, 5.0, 1.0, 0.0, 2.0, 0.0, 1.0, 2.0, 2.0, 3.0, 2.0, 0.0, 2.0, 5.0, 2.0, 0.0, 0.0, 2.0, 4.0, 4.0, 2.0, 2.0, 1.0, 2.0, 3.0, 4.0, 3.0, 2.0, 0.0, 3.0, 1.0, 1.0, 2.0, 3.0, 3.0, 0.0, 2.0, 1.0, 3.0, 2.0, 2.0, 3.0, 0.0, 0.0, 3.0, 3.0, 0.0, 1.0, 2.0], "bins": [-0.7537478804588318, -0.7298590540885925, -0.7059701681137085, -0.6820813417434692, -0.6581924557685852, -0.634303629398346, -0.6104148030281067, -0.5865259170532227, -0.5626370906829834, -0.5387482047080994, -0.5148593783378601, -0.49097052216529846, -0.4670816659927368, -0.44319280982017517, -0.4193039834499359, -0.39541512727737427, -0.3715262711048126, -0.347637414932251, -0.32374855875968933, -0.2998597323894501, -0.2759708762168884, -0.2520820200443268, -0.22819316387176514, -0.20430432260036469, -0.18041546642780304, -0.1565266102552414, -0.13263776898384094, -0.1087489128112793, -0.08486006408929825, -0.0609712153673172, -0.03708236292004585, -0.013193512335419655, 0.010695338249206543, 0.03458418697118759, 0.05847303941845894, 0.08236189186573029, 0.10625074058771133, 0.13013958930969238, 0.15402844548225403, 0.17791728675365448, 0.20180614292621613, 0.22569499909877777, 0.24958384037017822, 0.27347269654273987, 0.2973615527153015, 0.32125040888786316, 0.3451392352581024, 0.36902809143066406, 0.3929169476032257, 0.41680580377578735, 0.440694659948349, 0.46458348631858826, 0.4884723424911499, 0.5123612284660339, 0.5362500548362732, 0.5601388812065125, 0.5840277671813965, 0.6079165935516357, 0.6318054795265198, 0.655694305896759, 0.6795831322669983, 0.7034720182418823, 0.7273608446121216, 0.7512497305870056, 0.7751385569572449]}, "parameters/net.2.in_w.weight": {"_type": "histogram", "values": [1.0, 2.0, 2.0, 1.0, 1.0, 3.0, 3.0, 2.0, 7.0, 7.0, 5.0, 8.0, 8.0, 10.0, 13.0, 9.0, 14.0, 16.0, 19.0, 12.0, 16.0, 23.0, 10.0, 16.0, 16.0, 17.0, 12.0, 21.0, 16.0, 22.0, 15.0, 14.0, 17.0, 15.0, 25.0, 20.0, 19.0, 17.0, 23.0, 21.0, 12.0, 13.0, 27.0, 17.0, 17.0, 13.0, 23.0, 20.0, 15.0, 10.0, 20.0, 8.0, 17.0, 9.0, 10.0, 9.0, 3.0, 5.0, 8.0, 1.0, 2.0, 3.0, 4.0, 4.0], "bins": [-0.15040291845798492, -0.14598017930984497, -0.1415574550628662, -0.13713471591472626, -0.1327119916677475, -0.12828925251960754, -0.12386652082204819, -0.11944378912448883, -0.11502104997634888, -0.11059831827878952, -0.10617558658123016, -0.1017528548836708, -0.09733012318611145, -0.0929073914885521, -0.08848465234041214, -0.08406192064285278, -0.07963918894529343, -0.07521645724773407, -0.07079372555017471, -0.06637098640203476, -0.0619482547044754, -0.057525523006916046, -0.05310279130935669, -0.048680055886507034, -0.04425732418894768, -0.03983459249138832, -0.035411857068538666, -0.03098912537097931, -0.026566391810774803, -0.022143658250570297, -0.01772092655301094, -0.013298192992806435, -0.008875459432601929, -0.00445272633805871, -2.9993243515491486e-05, 0.004392739851027727, 0.008815472945570946, 0.013238206505775452, 0.01766093820333481, 0.022083671763539314, 0.02650640532374382, 0.030929138883948326, 0.03535187244415283, 0.03977460414171219, 0.044197335839271545, 0.0486200712621212, 0.05304280295968056, 0.05746553838253021, 0.06188827008008957, 0.06631100177764893, 0.07073373347520828, 0.07515647262334824, 0.07957920432090759, 0.08400193601846695, 0.0884246677160263, 0.09284739941358566, 0.09727013111114502, 0.10169287025928497, 0.10611560195684433, 0.11053833365440369, 0.11496106535196304, 0.1193837970495224, 0.12380653619766235, 0.1282292604446411, 0.13265199959278107]}, "parameters/net.2.in_w.bias": {"_type": "histogram", "values": [1.0, 0.0, 0.0, 0.0, 0.0, 0.0, 0.0, 1.0, 0.0, 0.0, 0.0, 0.0, 0.0, 0.0, 0.0, 0.0, 0.0, 0.0, 0.0, 0.0, 0.0, 0.0, 0.0, 0.0, 0.0, 0.0, 0.0, 0.0, 0.0, 0.0, 0.0, 0.0, 0.0, 0.0, 0.0, 0.0, 0.0, 1.0, 0.0, 0.0, 0.0, 0.0, 0.0, 1.0, 0.0, 0.0, 0.0, 0.0, 0.0, 0.0, 0.0, 0.0, 0.0, 0.0, 0.0, 0.0, 0.0, 1.0, 0.0, 0.0, 0.0, 0.0, 0.0, 1.0], "bins": [-0.017601773142814636, -0.01616569608449936, -0.014729619026184082, -0.013293541967868805, -0.011857464909553528, -0.010421386919915676, -0.008985309861600399, -0.007549232803285122, -0.006113155744969845, -0.004677078686654568, -0.003241001395508647, -0.001804924220778048, -0.0003688470460474491, 0.0010672301286831498, 0.0025033073034137487, 0.0039393845945596695, 0.005375461652874947, 0.006811538711190224, 0.0082476157695055, 0.009683692827820778, 0.011119769886136055, 0.012555847875773907, 0.013991924934089184, 0.015428001992404461, 0.016864079982042313, 0.01830015704035759, 0.019736234098672867, 0.021172311156988144, 0.02260838821530342, 0.024044465273618698, 0.025480542331933975, 0.026916619390249252, 0.02835269644856453, 0.029788773506879807, 0.031224850565195084, 0.03266092762351036, 0.03409700468182564, 0.035533081740140915, 0.03696915879845619, 0.03840523585677147, 0.039841312915086746, 0.04127738997340202, 0.0427134670317173, 0.04414954409003258, 0.045585621148347855, 0.04702169820666313, 0.04845777526497841, 0.049893852323293686, 0.05132993310689926, 0.05276601016521454, 0.054202087223529816, 0.05563816428184509, 0.05707424134016037, 0.05851031839847565, 0.059946395456790924, 0.0613824725151062, 0.06281854957342148, 0.06425462663173676, 0.06569070369005203, 0.06712678074836731, 0.06856285780668259, 0.06999893486499786, 0.07143501192331314, 0.07287108898162842, 0.0743071660399437]}, "parameters/net.2.out_w.weight": {"_type": "histogram", "values": [2.0, 0.0, 2.0, 4.0, 0.0, 1.0, 2.0, 5.0, 4.0, 5.0, 8.0, 5.0, 11.0, 14.0, 9.0, 16.0, 9.0, 10.0, 10.0, 12.0, 16.0, 10.0, 25.0, 20.0, 19.0, 24.0, 18.0, 19.0, 19.0, 13.0, 20.0, 20.0, 20.0, 16.0, 15.0, 29.0, 10.0, 24.0, 27.0, 25.0, 16.0, 22.0, 9.0, 31.0, 17.0, 22.0, 25.0, 13.0, 13.0, 10.0, 12.0, 7.0, 8.0, 7.0, 9.0, 8.0, 7.0, 3.0, 3.0, 2.0, 1.0, 2.0, 2.0, 1.0], "bins": [-0.15170086920261383, -0.14709310233592987, -0.14248532056808472, -0.13787755370140076, -0.1332697868347168, -0.12866201996803284, -0.12405424565076828, -0.11944647133350372, -0.11483870446681976, -0.1102309301495552, -0.10562315583229065, -0.10101538896560669, -0.09640761464834213, -0.09179984778165817, -0.08719207346439362, -0.08258430659770966, -0.0779765322804451, -0.07336875796318054, -0.06876099109649658, -0.06415321677923203, -0.059545449912548065, -0.05493767559528351, -0.05032990500330925, -0.04572213441133499, -0.04111436381936073, -0.036506593227386475, -0.031898822635412216, -0.02729105018079281, -0.02268327958881855, -0.01807550899684429, -0.013467737473547459, -0.008859965950250626, -0.004252195358276367, 0.00035557569935917854, 0.004963346756994724, 0.009571118280291557, 0.014178888872265816, 0.018786659464240074, 0.023394431918859482, 0.02800220251083374, 0.032609973102808, 0.03721774369478226, 0.041825514286756516, 0.046433284878730774, 0.05104105919599533, 0.05564882978796959, 0.06025660037994385, 0.06486436724662781, 0.06947214156389236, 0.07407991588115692, 0.07868768274784088, 0.08329545706510544, 0.0879032239317894, 0.09251099824905396, 0.09711876511573792, 0.10172653943300247, 0.10633431375026703, 0.11094208061695099, 0.11554985493421555, 0.1201576218008995, 0.12476539611816406, 0.12937316298484802, 0.13398092985153198, 0.13858871161937714, 0.1431964784860611]}, "parameters/net.2.out_w.bias": {"_type": "histogram", "values": [1.0, 0.0, 0.0, 0.0, 0.0, 0.0, 0.0, 0.0, 0.0, 0.0, 0.0, 0.0, 0.0, 1.0, 0.0, 0.0, 0.0, 0.0, 0.0, 0.0, 0.0, 0.0, 0.0, 0.0, 0.0, 0.0, 0.0, 0.0, 0.0, 2.0, 0.0, 0.0, 0.0, 1.0, 0.0, 0.0, 0.0, 0.0, 0.0, 0.0, 0.0, 0.0, 0.0, 0.0, 0.0, 0.0, 0.0, 0.0, 0.0, 0.0, 0.0, 0.0, 0.0, 0.0, 0.0, 0.0, 0.0, 0.0, 0.0, 0.0, 0.0, 0.0, 0.0, 1.0], "bins": [-0.015986792743206024, -0.014000799506902695, -0.012014806270599365, -0.01002881396561861, -0.008042820729315281, -0.0060568274930119514, -0.004070834722369909, -0.0020848417188972235, -9.884871542453766e-05, 0.0018871442880481482, 0.003873137291520834, 0.005859130062162876, 0.007845123298466206, 0.009831116534769535, 0.01181710883975029, 0.01380310207605362, 0.01578909531235695, 0.01777508854866028, 0.019761081784963608, 0.021747075021266937, 0.023733068257570267, 0.025719059631228447, 0.027705052867531776, 0.029691046103835106, 0.031677037477493286, 0.033663030713796616, 0.035649023950099945, 0.037635017186403275, 0.039621010422706604, 0.041607003659009933, 0.04359299689531326, 0.04557899013161659, 0.04756498336791992, 0.04955097660422325, 0.05153696984052658, 0.05352296307682991, 0.05550895631313324, 0.05749494954943657, 0.0594809427857399, 0.06146693602204323, 0.06345292925834656, 0.06543891876935959, 0.06742491573095322, 0.06941090524196625, 0.07139690220355988, 0.0733828917145729, 0.07536888867616653, 0.07735487818717957, 0.0793408751487732, 0.08132686465978622, 0.08331285417079926, 0.08529885113239288, 0.08728484064340591, 0.08927083760499954, 0.09125682711601257, 0.0932428240776062, 0.09522881358861923, 0.09721481055021286, 0.09920080006122589, 0.10118679702281952, 0.10317278653383255, 0.10515878349542618, 0.10714477300643921, 0.10913076996803284, 0.11111675947904587]}, "gradients/net.2.out_w.bias": {"_type": "histogram", "values": [4.0, 0.0, 0.0, 0.0, 0.0, 0.0, 0.0, 0.0, 0.0, 0.0, 0.0, 0.0, 0.0, 0.0, 0.0, 0.0, 0.0, 0.0, 0.0, 0.0, 0.0, 0.0, 0.0, 0.0, 0.0, 0.0, 0.0, 0.0, 0.0, 0.0, 0.0, 0.0, 0.0, 0.0, 0.0, 0.0, 0.0, 0.0, 0.0, 0.0, 0.0, 0.0, 0.0, 0.0, 0.0, 0.0, 0.0, 0.0, 0.0, 0.0, 0.0, 0.0, 0.0, 0.0, 0.0, 0.0, 0.0, 0.0, 0.0, 0.0, 0.0, 0.0, 0.0, 2.0], "bins": [-0.30000001192092896, -0.30000001192092896, -0.30000001192092896, -0.30000001192092896, -0.30000001192092896, -0.30000001192092896, -0.30000001192092896, -0.30000001192092896, -0.30000001192092896, -0.30000001192092896, -0.30000001192092896, -0.30000001192092896, -0.30000001192092896, -0.30000001192092896, -0.30000001192092896, -0.30000001192092896, -0.30000001192092896, -0.30000001192092896, -0.30000001192092896, -0.30000001192092896, -0.30000001192092896, -0.30000001192092896, -0.30000001192092896, -0.30000001192092896, -0.30000001192092896, -0.30000001192092896, -0.30000001192092896, -0.30000001192092896, -0.30000001192092896, -0.30000001192092896, -0.30000001192092896, -0.30000001192092896, -0.30000001192092896, -0.29999998211860657, -0.29999998211860657, -0.29999998211860657, -0.29999998211860657, -0.29999998211860657, -0.29999998211860657, -0.29999998211860657, -0.29999998211860657, -0.29999998211860657, -0.29999998211860657, -0.29999998211860657, -0.29999998211860657, -0.29999998211860657, -0.29999998211860657, -0.29999998211860657, -0.29999998211860657, -0.29999998211860657, -0.29999998211860657, -0.29999998211860657, -0.29999998211860657, -0.29999998211860657, -0.29999998211860657, -0.29999998211860657, -0.29999998211860657, -0.29999998211860657, -0.29999998211860657, -0.29999998211860657, -0.29999998211860657, -0.29999998211860657, -0.29999998211860657, -0.29999998211860657, -0.29999998211860657]}, "gradients/net.2.out_w.weight": {"_type": "histogram", "values": [12.0, 6.0, 6.0, 0.0, 6.0, 0.0, 6.0, 0.0, 6.0, 12.0, 36.0, 18.0, 12.0, 6.0, 48.0, 30.0, 18.0, 24.0, 6.0, 24.0, 6.0, 24.0, 24.0, 36.0, 12.0, 36.0, 0.0, 6.0, 18.0, 12.0, 12.0, 24.0, 12.0, 0.0, 18.0, 12.0, 6.0, 24.0, 24.0, 36.0, 18.0, 36.0, 12.0, 18.0, 12.0, 0.0, 0.0, 12.0, 0.0, 0.0, 6.0, 6.0, 12.0, 0.0, 0.0, 6.0, 0.0, 0.0, 0.0, 0.0, 0.0, 6.0, 0.0, 6.0], "bins": [-0.18013030290603638, -0.17338675260543823, -0.1666432023048401, -0.15989966690540314, -0.153156116604805, -0.14641256630420685, -0.1396690160036087, -0.13292548060417175, -0.1261819303035736, -0.11943838000297546, -0.11269482970237732, -0.10595128685235977, -0.09920773655176163, -0.09246419370174408, -0.08572064340114594, -0.07897710055112839, -0.07223355025053024, -0.0654899999499321, -0.05874645709991455, -0.052002910524606705, -0.04525936394929886, -0.038515813648700714, -0.03177226707339287, -0.025028720498085022, -0.018285173922777176, -0.01154162734746933, -0.004798079840838909, 0.0019454672001302242, 0.008689014241099358, 0.015432560816407204, 0.0221761092543602, 0.028919655829668045, 0.03566320240497589, 0.04240674898028374, 0.04915029555559158, 0.05589384213089943, 0.06263738870620728, 0.06938093900680542, 0.07612448185682297, 0.08286803215742111, 0.08961157500743866, 0.0963551253080368, 0.10309867560863495, 0.1098422184586525, 0.11658576875925064, 0.12332931160926819, 0.13007286190986633, 0.13681641221046448, 0.14355996251106262, 0.15030349791049957, 0.15704704821109772, 0.16379059851169586, 0.170534148812294, 0.17727768421173096, 0.1840212345123291, 0.19076478481292725, 0.1975083351135254, 0.20425188541412354, 0.21099542081356049, 0.21773897111415863, 0.22448252141475677, 0.23122607171535492, 0.23796960711479187, 0.24471315741539001, 0.25145670771598816]}, "gradients/net.2.in_w.bias": {"_type": "histogram", "values": [4.0, 0.0, 0.0, 0.0, 0.0, 0.0, 0.0, 0.0, 0.0, 0.0, 0.0, 0.0, 0.0, 0.0, 0.0, 0.0, 0.0, 0.0, 0.0, 0.0, 0.0, 0.0, 0.0, 0.0, 0.0, 0.0, 0.0, 0.0, 0.0, 0.0, 0.0, 0.0, 0.0, 0.0, 0.0, 0.0, 0.0, 0.0, 0.0, 0.0, 0.0, 0.0, 0.0, 0.0, 0.0, 0.0, 0.0, 0.0, 0.0, 0.0, 0.0, 0.0, 0.0, 0.0, 0.0, 0.0, 0.0, 0.0, 0.0, 0.0, 0.0, 0.0, 0.0, 2.0], "bins": [-0.30000001192092896, -0.30000001192092896, -0.30000001192092896, -0.30000001192092896, -0.30000001192092896, -0.30000001192092896, -0.30000001192092896, -0.30000001192092896, -0.30000001192092896, -0.30000001192092896, -0.30000001192092896, -0.30000001192092896, -0.30000001192092896, -0.30000001192092896, -0.30000001192092896, -0.30000001192092896, -0.30000001192092896, -0.30000001192092896, -0.30000001192092896, -0.30000001192092896, -0.30000001192092896, -0.30000001192092896, -0.30000001192092896, -0.30000001192092896, -0.30000001192092896, -0.30000001192092896, -0.30000001192092896, -0.30000001192092896, -0.30000001192092896, -0.30000001192092896, -0.30000001192092896, -0.30000001192092896, -0.30000001192092896, -0.29999998211860657, -0.29999998211860657, -0.29999998211860657, -0.29999998211860657, -0.29999998211860657, -0.29999998211860657, -0.29999998211860657, -0.29999998211860657, -0.29999998211860657, -0.29999998211860657, -0.29999998211860657, -0.29999998211860657, -0.29999998211860657, -0.29999998211860657, -0.29999998211860657, -0.29999998211860657, -0.29999998211860657, -0.29999998211860657, -0.29999998211860657, -0.29999998211860657, -0.29999998211860657, -0.29999998211860657, -0.29999998211860657, -0.29999998211860657, -0.29999998211860657, -0.29999998211860657, -0.29999998211860657, -0.29999998211860657, -0.29999998211860657, -0.29999998211860657, -0.29999998211860657, -0.29999998211860657]}, "gradients/net.2.in_w.weight": {"_type": "histogram", "values": [12.0, 6.0, 6.0, 0.0, 6.0, 0.0, 6.0, 0.0, 6.0, 12.0, 36.0, 18.0, 12.0, 6.0, 48.0, 30.0, 18.0, 24.0, 6.0, 24.0, 6.0, 24.0, 24.0, 36.0, 12.0, 36.0, 0.0, 6.0, 18.0, 12.0, 12.0, 24.0, 12.0, 0.0, 18.0, 12.0, 6.0, 24.0, 24.0, 36.0, 18.0, 36.0, 12.0, 18.0, 12.0, 0.0, 0.0, 12.0, 0.0, 0.0, 6.0, 6.0, 12.0, 0.0, 0.0, 6.0, 0.0, 0.0, 0.0, 0.0, 0.0, 6.0, 0.0, 6.0], "bins": [-0.18013028800487518, -0.17338673770427704, -0.1666432023048401, -0.15989965200424194, -0.1531561017036438, -0.14641255140304565, -0.1396690011024475, -0.13292546570301056, -0.12618191540241241, -0.11943836510181427, -0.11269482225179672, -0.10595127940177917, -0.09920772910118103, -0.09246417880058289, -0.08572063595056534, -0.07897709310054779, -0.07223354279994965, -0.0654899924993515, -0.058746449649333954, -0.05200290307402611, -0.04525935649871826, -0.038515809923410416, -0.03177226334810257, -0.025028716772794724, -0.018285170197486877, -0.011541623622179031, -0.004798077046871185, 0.0019454695284366608, 0.008689016103744507, 0.015432562679052353, 0.0221761092543602, 0.028919655829668045, 0.035663217306137085, 0.04240676388144493, 0.04915031045675278, 0.05589385703206062, 0.06263740360736847, 0.06938095390796661, 0.07612449675798416, 0.08286803960800171, 0.08961158990859985, 0.096355140209198, 0.10309868305921555, 0.1098422259092331, 0.11658577620983124, 0.12332932651042938, 0.13007286190986633, 0.13681641221046448, 0.14355996251106262, 0.15030351281166077, 0.1570470631122589, 0.16379059851169586, 0.170534148812294, 0.17727769911289215, 0.1840212345123291, 0.19076478481292725, 0.1975083351135254, 0.20425188541412354, 0.21099543571472168, 0.21773897111415863, 0.22448252141475677, 0.23122607171535492, 0.23796960711479187, 0.24471315741539001, 0.25145670771598816]}, "gradients/net.0.out_w.bias": {"_type": "histogram", "values": [1.0, 0.0, 0.0, 0.0, 1.0, 0.0, 0.0, 0.0, 0.0, 0.0, 0.0, 0.0, 0.0, 1.0, 0.0, 0.0, 0.0, 0.0, 1.0, 1.0, 2.0, 1.0, 0.0, 0.0, 2.0, 3.0, 6.0, 4.0, 3.0, 7.0, 11.0, 13.0, 12.0, 11.0, 9.0, 4.0, 3.0, 7.0, 7.0, 0.0, 2.0, 3.0, 1.0, 1.0, 0.0, 3.0, 1.0, 0.0, 0.0, 1.0, 1.0, 3.0, 0.0, 0.0, 0.0, 0.0, 1.0, 0.0, 0.0, 0.0, 0.0, 0.0, 0.0, 1.0], "bins": [-0.197719007730484, -0.19170521199703217, -0.18569143116474152, -0.17967763543128967, -0.17366385459899902, -0.16765005886554718, -0.16163626313209534, -0.1556224822998047, -0.14960868656635284, -0.1435949057340622, -0.13758111000061035, -0.1315673142671585, -0.12555353343486786, -0.11953974515199661, -0.11352594941854477, -0.10751216113567352, -0.10149837285280228, -0.09548458456993103, -0.08947079628705978, -0.08345700055360794, -0.0774432122707367, -0.07142942398786545, -0.0654156357049942, -0.05940184369683266, -0.05338805541396141, -0.047374267131090164, -0.04136047512292862, -0.03534668684005737, -0.029332896694540977, -0.023319106549024582, -0.017305318266153336, -0.01129152812063694, -0.005277737975120544, 0.0007360517047345638, 0.006749841384589672, 0.012763630598783493, 0.01877742074429989, 0.024791210889816284, 0.03080499917268753, 0.036818791180849075, 0.04283257946372032, 0.04884636774659157, 0.05486015975475311, 0.06087394803762436, 0.0668877363204956, 0.07290152460336685, 0.0789153203368187, 0.08492910861968994, 0.09094289690256119, 0.09695668518543243, 0.10297047346830368, 0.10898426920175552, 0.11499805748462677, 0.12101184576749802, 0.12702563405036926, 0.1330394297838211, 0.13905321061611176, 0.1450670063495636, 0.15108078718185425, 0.1570945829153061, 0.16310837864875793, 0.16912215948104858, 0.17513595521450043, 0.18114973604679108, 0.18716353178024292]}, "gradients/net.0.out_w.weight": {"_type": "histogram", "values": [1.0, 0.0, 0.0, 0.0, 0.0, 0.0, 0.0, 0.0, 1.0, 0.0, 0.0, 0.0, 0.0, 0.0, 0.0, 0.0, 1.0, 0.0, 1.0, 0.0, 0.0, 1.0, 0.0, 0.0, 2.0, 2.0, 3.0, 3.0, 2.0, 5.0, 1.0, 10.0, 11.0, 26.0, 88.0, 39.0, 23.0, 10.0, 7.0, 3.0, 4.0, 1.0, 3.0, 1.0, 1.0, 0.0, 2.0, 0.0, 2.0, 1.0, 0.0, 0.0, 0.0, 0.0, 0.0, 0.0, 0.0, 0.0, 0.0, 0.0, 0.0, 0.0, 0.0, 1.0], "bins": [-0.391995370388031, -0.3807242512702942, -0.369453102350235, -0.35818198323249817, -0.34691086411476135, -0.33563974499702454, -0.32436859607696533, -0.3130974769592285, -0.3018263578414917, -0.2905552089214325, -0.2792840898036957, -0.26801297068595886, -0.25674185156822205, -0.24547071754932404, -0.23419958353042603, -0.2229284644126892, -0.2116573303937912, -0.2003861963748932, -0.18911507725715637, -0.17784394323825836, -0.16657282412052155, -0.15530169010162354, -0.14403057098388672, -0.1327594369649887, -0.1214883103966713, -0.11021718382835388, -0.09894605726003647, -0.08767493069171906, -0.07640379667282104, -0.06513267010450363, -0.05386154353618622, -0.042590416967868805, -0.03131929039955139, -0.02004816383123398, -0.008777035400271416, 0.0024940920993685722, 0.01376521959900856, 0.025036346167325974, 0.036307476460933685, 0.0475786030292511, 0.05884972959756851, 0.07012085616588593, 0.08139198273420334, 0.09266310930252075, 0.10393424332141876, 0.11520536988973618, 0.1264764964580536, 0.1377476155757904, 0.14901874959468842, 0.16028988361358643, 0.17156100273132324, 0.18283213675022125, 0.19410325586795807, 0.20537438988685608, 0.2166455090045929, 0.2279166430234909, 0.23918777704238892, 0.25045889616012573, 0.26173001527786255, 0.27300116419792175, 0.28427228331565857, 0.2955434024333954, 0.3068145215511322, 0.3180856704711914, 0.3293567895889282]}, "gradients/net.0.in_w.bias": {"_type": "histogram", "values": [1.0, 0.0, 0.0, 0.0, 1.0, 0.0, 0.0, 0.0, 0.0, 0.0, 0.0, 0.0, 0.0, 1.0, 0.0, 0.0, 0.0, 0.0, 1.0, 1.0, 2.0, 1.0, 0.0, 0.0, 2.0, 3.0, 6.0, 4.0, 3.0, 7.0, 11.0, 13.0, 12.0, 11.0, 9.0, 4.0, 3.0, 7.0, 7.0, 0.0, 2.0, 3.0, 1.0, 1.0, 0.0, 3.0, 1.0, 0.0, 0.0, 1.0, 1.0, 3.0, 0.0, 0.0, 0.0, 0.0, 1.0, 0.0, 0.0, 0.0, 0.0, 0.0, 0.0, 1.0], "bins": [-0.197719007730484, -0.19170521199703217, -0.18569143116474152, -0.17967763543128967, -0.17366385459899902, -0.16765005886554718, -0.16163626313209534, -0.1556224822998047, -0.14960868656635284, -0.1435949057340622, -0.13758111000061035, -0.1315673142671585, -0.12555353343486786, -0.11953974515199661, -0.11352594941854477, -0.10751216113567352, -0.10149837285280228, -0.09548458456993103, -0.08947079628705978, -0.08345700055360794, -0.0774432122707367, -0.07142942398786545, -0.0654156357049942, -0.05940184369683266, -0.05338805541396141, -0.047374267131090164, -0.04136047512292862, -0.03534668684005737, -0.029332896694540977, -0.023319106549024582, -0.017305318266153336, -0.01129152812063694, -0.005277737975120544, 0.0007360517047345638, 0.006749841384589672, 0.012763630598783493, 0.01877742074429989, 0.024791210889816284, 0.03080499917268753, 0.036818791180849075, 0.04283257946372032, 0.04884636774659157, 0.05486015975475311, 0.06087394803762436, 0.0668877363204956, 0.07290152460336685, 0.0789153203368187, 0.08492910861968994, 0.09094289690256119, 0.09695668518543243, 0.10297047346830368, 0.10898426920175552, 0.11499805748462677, 0.12101184576749802, 0.12702563405036926, 0.1330394297838211, 0.13905321061611176, 0.1450670063495636, 0.15108078718185425, 0.1570945829153061, 0.16310837864875793, 0.16912215948104858, 0.17513595521450043, 0.18114973604679108, 0.18716353178024292]}, "gradients/net.0.in_w.weight": {"_type": "histogram", "values": [1.0, 1.0, 0.0, 0.0, 0.0, 1.0, 0.0, 1.0, 0.0, 1.0, 1.0, 2.0, 3.0, 2.0, 5.0, 4.0, 6.0, 16.0, 49.0, 113.0, 24.0, 6.0, 5.0, 3.0, 1.0, 4.0, 1.0, 2.0, 0.0, 0.0, 0.0, 1.0, 0.0, 0.0, 1.0, 0.0, 0.0, 0.0, 0.0, 0.0, 0.0, 0.0, 0.0, 0.0, 0.0, 1.0, 0.0, 0.0, 0.0, 0.0, 0.0, 0.0, 0.0, 0.0, 0.0, 0.0, 0.0, 0.0, 0.0, 0.0, 0.0, 0.0, 0.0, 1.0], "bins": [-0.33954760432243347, -0.3218749761581421, -0.3042023479938507, -0.2865297198295593, -0.26885709166526794, -0.25118446350097656, -0.23351185023784637, -0.215839222073555, -0.1981665939092636, -0.18049396574497223, -0.16282133758068085, -0.14514870941638947, -0.12747609615325928, -0.1098034605383873, -0.09213083982467651, -0.07445821166038513, -0.05678558349609375, -0.03911295533180237, -0.021440330892801285, -0.003767704591155052, 0.01390492171049118, 0.03157754987478256, 0.049250174313783646, 0.06692279875278473, 0.08459542691707611, 0.10226805508136749, 0.11994068324565887, 0.13761331140995026, 0.15528592467308044, 0.17295855283737183, 0.1906311810016632, 0.2083038091659546, 0.22597646713256836, 0.24364909529685974, 0.2613217234611511, 0.2789943516254425, 0.2966669797897339, 0.31433960795402527, 0.33201223611831665, 0.34968486428260803, 0.3673574924468994, 0.3850300908088684, 0.4027027189731598, 0.42037534713745117, 0.43804797530174255, 0.45572060346603394, 0.4733932316303253, 0.4910658597946167, 0.5087385177612305, 0.5264111161231995, 0.5440837144851685, 0.5617563724517822, 0.5794289708137512, 0.597101628780365, 0.614774227142334, 0.6324468851089478, 0.6501194834709167, 0.6677921414375305, 0.6854647397994995, 0.7031373977661133, 0.7208099961280823, 0.738482654094696, 0.756155252456665, 0.7738279104232788, 0.7915005087852478]}, "train_loss_d3": 5.9890923500061035, "train_H_d3": 23.078359603881836, "test_loss_d3": 5.8418965339660645, "test_H_d3": 22.87921714782715, "parameters/graph_1net.0.in_w.weight": {"_type": "histogram", "values": [1.0, 2.0, 3.0, 0.0, 3.0, 6.0, 6.0, 9.0, 4.0, 3.0, 3.0, 8.0, 6.0, 2.0, 1.0, 3.0, 8.0, 3.0, 9.0, 2.0, 5.0, 2.0, 4.0, 2.0, 6.0, 5.0, 3.0, 6.0, 4.0, 7.0, 9.0, 11.0, 11.0, 5.0, 7.0, 2.0, 4.0, 3.0, 6.0, 1.0, 5.0, 4.0, 3.0, 4.0, 8.0, 3.0, 1.0, 2.0, 3.0, 2.0, 1.0, 3.0, 4.0, 3.0, 4.0, 4.0, 4.0, 3.0, 1.0, 5.0, 1.0, 1.0, 1.0, 1.0], "bins": [-0.7389404773712158, -0.7153885364532471, -0.6918365955352783, -0.6682846546173096, -0.644732654094696, -0.6211807131767273, -0.5976287722587585, -0.5740768313407898, -0.550524890422821, -0.5269729495048523, -0.5034209489822388, -0.4798690378665924, -0.45631706714630127, -0.4327651262283325, -0.40921318531036377, -0.38566121459007263, -0.3621092736721039, -0.33855733275413513, -0.315005362033844, -0.29145342111587524, -0.2679014801979065, -0.24434952437877655, -0.2207975685596466, -0.19724562764167786, -0.1736936718225479, -0.15014171600341797, -0.12658977508544922, -0.10303781926631927, -0.07948587089776993, -0.05593392252922058, -0.032381970435380936, -0.00883002020418644, 0.014721930027008057, 0.038273878395557404, 0.06182583048939705, 0.0853777825832367, 0.10892973095178604, 0.1324816793203354, 0.15603363513946533, 0.17958557605743408, 0.20313753187656403, 0.22668948769569397, 0.2502414286136627, 0.27379336953163147, 0.2973453402519226, 0.32089728116989136, 0.3444492220878601, 0.36800119280815125, 0.39155313372612, 0.41510507464408875, 0.4386570453643799, 0.46220898628234863, 0.4857609272003174, 0.5093128681182861, 0.5328648090362549, 0.5564168095588684, 0.5799687504768372, 0.6035206913948059, 0.6270726323127747, 0.6506245732307434, 0.6741765141487122, 0.6977285146713257, 0.7212804555892944, 0.7448323965072632, 0.7683843374252319]}, "parameters/graph_1net.0.in_w.bias": {"_type": "histogram", "values": [2.0, 2.0, 0.0, 0.0, 2.0, 3.0, 2.0, 2.0, 0.0, 4.0, 1.0, 2.0, 3.0, 2.0, 1.0, 2.0, 4.0, 1.0, 2.0, 3.0, 3.0, 3.0, 0.0, 3.0, 4.0, 3.0, 1.0, 3.0, 0.0, 2.0, 1.0, 2.0, 2.0, 1.0, 4.0, 2.0, 2.0, 2.0, 4.0, 0.0, 1.0, 1.0, 4.0, 4.0, 3.0, 1.0, 3.0, 2.0, 1.0, 2.0, 5.0, 3.0, 1.0, 1.0, 0.0, 2.0, 4.0, 0.0, 2.0, 1.0, 1.0, 3.0, 0.0, 3.0], "bins": [-0.7934625148773193, -0.7692466378211975, -0.7450307607650757, -0.7208148241043091, -0.6965989470481873, -0.6723830699920654, -0.6481671929359436, -0.6239513158798218, -0.5997353792190552, -0.5755195021629333, -0.5513036251068115, -0.5270877480506897, -0.5028718709945679, -0.47865596413612366, -0.45444008708000183, -0.4302241802215576, -0.4060083031654358, -0.38179242610931396, -0.35757651925086975, -0.3333606421947479, -0.3091447353363037, -0.2849288582801819, -0.26071298122406006, -0.23649708926677704, -0.21228119730949402, -0.188065305352211, -0.16384941339492798, -0.13963353633880615, -0.11541764438152313, -0.09120175242424011, -0.06698586791753769, -0.04276997968554497, -0.018554091453552246, 0.0056617967784404755, 0.029877685010433197, 0.05409357324242592, 0.07830946147441864, 0.10252535343170166, 0.1267412304878235, 0.1509571224451065, 0.17517301440238953, 0.19938890635967255, 0.22360479831695557, 0.2478206753730774, 0.2720365524291992, 0.29625245928764343, 0.32046833634376526, 0.3446842432022095, 0.3689001202583313, 0.3931159973144531, 0.41733190417289734, 0.44154778122901917, 0.4657636880874634, 0.4899795651435852, 0.514195442199707, 0.5384113192558289, 0.5626271963119507, 0.5868431329727173, 0.6110590100288391, 0.6352748870849609, 0.6594907641410828, 0.6837066411972046, 0.7079225778579712, 0.732138454914093, 0.7563543319702148]}, "parameters/graph_1net.0.out_w.weight": {"_type": "histogram", "values": [4.0, 3.0, 4.0, 2.0, 3.0, 3.0, 2.0, 5.0, 5.0, 4.0, 7.0, 3.0, 5.0, 5.0, 2.0, 4.0, 4.0, 0.0, 5.0, 5.0, 5.0, 7.0, 6.0, 5.0, 4.0, 2.0, 6.0, 6.0, 5.0, 4.0, 8.0, 8.0, 5.0, 0.0, 3.0, 7.0, 3.0, 5.0, 5.0, 2.0, 3.0, 6.0, 6.0, 2.0, 2.0, 3.0, 0.0, 1.0, 4.0, 7.0, 8.0, 4.0, 4.0, 3.0, 6.0, 3.0, 5.0, 2.0, 8.0, 4.0, 2.0, 1.0, 0.0, 1.0], "bins": [-0.7381330132484436, -0.7142218947410583, -0.6903108358383179, -0.6663997173309326, -0.6424885988235474, -0.6185775399208069, -0.5946664214134216, -0.5707553029060364, -0.5468442440032959, -0.5229331254959106, -0.4990220069885254, -0.4751109182834625, -0.45119982957839966, -0.4272887110710144, -0.40337762236595154, -0.3794665038585663, -0.3555554151535034, -0.33164432644844055, -0.3077332079410553, -0.28382211923599243, -0.2599110007286072, -0.2359999120235443, -0.21208882331848145, -0.18817771971225739, -0.16426661610603333, -0.14035551249980927, -0.1164444163441658, -0.09253332018852234, -0.06862221658229828, -0.04471111670136452, -0.020800016820430756, 0.003111083060503006, 0.027022242546081543, 0.050933342427015305, 0.07484444230794907, 0.09875553846359253, 0.12266664206981659, 0.14657774567604065, 0.17048883438110352, 0.19439993798732758, 0.21831104159355164, 0.2422221451997757, 0.26613324880599976, 0.2900443375110626, 0.3139554262161255, 0.33786654472351074, 0.3617776334285736, 0.38568875193595886, 0.40959984064102173, 0.4335109293460846, 0.45742204785346985, 0.4813331365585327, 0.505244255065918, 0.5291553139686584, 0.5530664324760437, 0.576977550983429, 0.6008886098861694, 0.6247997283935547, 0.6487108469009399, 0.6726219654083252, 0.6965330243110657, 0.7204441428184509, 0.7443552613258362, 0.7682663202285767, 0.7921774387359619]}, "parameters/graph_1net.0.out_w.bias": {"_type": "histogram", "values": [2.0, 1.0, 3.0, 3.0, 3.0, 2.0, 2.0, 4.0, 1.0, 1.0, 1.0, 5.0, 4.0, 0.0, 3.0, 2.0, 5.0, 1.0, 0.0, 2.0, 2.0, 0.0, 3.0, 1.0, 2.0, 3.0, 1.0, 1.0, 4.0, 2.0, 0.0, 2.0, 2.0, 4.0, 4.0, 2.0, 1.0, 0.0, 4.0, 5.0, 3.0, 1.0, 0.0, 3.0, 3.0, 0.0, 2.0, 1.0, 1.0, 5.0, 2.0, 2.0, 2.0, 2.0, 1.0, 2.0, 3.0, 1.0, 2.0, 1.0, 0.0, 1.0, 0.0, 2.0], "bins": [-0.764819860458374, -0.7403765320777893, -0.7159332036972046, -0.6914898157119751, -0.6670464873313904, -0.6426031589508057, -0.618159830570221, -0.5937165021896362, -0.5692731142044067, -0.544829785823822, -0.5203864574432373, -0.4959431290626526, -0.47149980068206787, -0.44705644249916077, -0.42261311411857605, -0.39816975593566895, -0.37372642755508423, -0.3492830991744995, -0.3248397409915924, -0.3003964126110077, -0.2759530544281006, -0.25150972604751587, -0.22706639766693115, -0.20262305438518524, -0.17817971110343933, -0.15373636782169342, -0.1292930245399475, -0.10484969615936279, -0.08040635287761688, -0.05596301332116127, -0.03151967376470566, -0.007076334208250046, 0.01736694574356079, 0.0418102853000164, 0.06625362485647202, 0.09069696068763733, 0.11514030396938324, 0.13958364725112915, 0.16402697563171387, 0.18847031891345978, 0.2129136621952057, 0.2373570054769516, 0.2618003487586975, 0.2862436771392822, 0.31068700551986694, 0.33513036370277405, 0.35957369208335876, 0.38401705026626587, 0.4084603786468506, 0.4329037070274353, 0.4573470652103424, 0.4817903935909271, 0.5062337517738342, 0.530677080154419, 0.5551204085350037, 0.5795637369155884, 0.6040071249008179, 0.6284504532814026, 0.6528937816619873, 0.677337110042572, 0.7017804384231567, 0.7262237668037415, 0.750667154788971, 0.7751104831695557, 0.7995538115501404]}, "parameters/graph_1net.2.in_w.weight": {"_type": "histogram", "values": [1.0, 0.0, 1.0, 1.0, 2.0, 1.0, 1.0, 0.0, 4.0, 0.0, 2.0, 2.0, 3.0, 7.0, 8.0, 13.0, 13.0, 13.0, 17.0, 25.0, 14.0, 15.0, 16.0, 16.0, 25.0, 32.0, 18.0, 19.0, 20.0, 17.0, 31.0, 18.0, 23.0, 26.0, 16.0, 24.0, 19.0, 15.0, 22.0, 22.0, 19.0, 17.0, 20.0, 24.0, 15.0, 35.0, 22.0, 18.0, 22.0, 9.0, 11.0, 7.0, 6.0, 4.0, 0.0, 3.0, 2.0, 1.0, 3.0, 3.0, 2.0, 1.0, 0.0, 2.0], "bins": [-0.16947178542613983, -0.16443206369876862, -0.1593923419713974, -0.15435262024402618, -0.14931289851665497, -0.14427317678928375, -0.13923345506191254, -0.13419373333454132, -0.1291539967060089, -0.12411428242921829, -0.11907456070184708, -0.11403483897447586, -0.10899510979652405, -0.10395538806915283, -0.09891566634178162, -0.0938759446144104, -0.08883622288703918, -0.08379650115966797, -0.07875677943229675, -0.07371705770492554, -0.06867733597755432, -0.06363760679960251, -0.05859788507223129, -0.05355816334486008, -0.04851844161748886, -0.043478719890117645, -0.03843899816274643, -0.033399272710084915, -0.0283595509827137, -0.023319829255342484, -0.01828010566532612, -0.013240383006632328, -0.008200675249099731, -0.003160952590405941, 0.0018787700682878494, 0.00691849272698164, 0.01195821538567543, 0.016997937113046646, 0.02203766070306301, 0.027077384293079376, 0.03211710602045059, 0.03715682774782181, 0.042196549475193024, 0.04723627492785454, 0.052275996655225754, 0.05731571838259697, 0.062355443835258484, 0.0673951655626297, 0.07243488729000092, 0.07747460901737213, 0.08251433074474335, 0.08755405247211456, 0.09259377419948578, 0.09763350337743759, 0.10267322510480881, 0.10771294683218002, 0.11275266855955124, 0.11779239028692245, 0.12283211201429367, 0.12787184119224548, 0.1329115629196167, 0.13795128464698792, 0.14299100637435913, 0.14803072810173035, 0.15307044982910156]}, "parameters/graph_1net.2.in_w.bias": {"_type": "histogram", "values": [1.0, 0.0, 0.0, 0.0, 0.0, 0.0, 0.0, 1.0, 0.0, 0.0, 0.0, 0.0, 0.0, 0.0, 0.0, 0.0, 0.0, 0.0, 0.0, 0.0, 0.0, 0.0, 0.0, 0.0, 0.0, 0.0, 0.0, 0.0, 0.0, 0.0, 0.0, 0.0, 0.0, 0.0, 0.0, 0.0, 0.0, 1.0, 0.0, 0.0, 0.0, 0.0, 0.0, 1.0, 0.0, 0.0, 0.0, 0.0, 0.0, 0.0, 0.0, 0.0, 0.0, 0.0, 0.0, 0.0, 0.0, 1.0, 0.0, 0.0, 0.0, 0.0, 0.0, 1.0], "bins": [0.005684946663677692, 0.007119564339518547, 0.008554182946681976, 0.009988800622522831, 0.011423418298363686, 0.01285803597420454, 0.014292653650045395, 0.015727272257208824, 0.017161890864372253, 0.018596507608890533, 0.020031126216053963, 0.021465742960572243, 0.022900361567735672, 0.0243349801748991, 0.02576959691941738, 0.02720421552658081, 0.02863883227109909, 0.03007345087826252, 0.03150806948542595, 0.03294268622994423, 0.03437730669975281, 0.03581192344427109, 0.03724654018878937, 0.03868115693330765, 0.040115777403116226, 0.041550394147634506, 0.042985010892152786, 0.044419631361961365, 0.045854248106479645, 0.047288864850997925, 0.0487234853208065, 0.05015810206532478, 0.05159272253513336, 0.05302733927965164, 0.05446195974946022, 0.0558965764939785, 0.05733119323849678, 0.05876581370830536, 0.06020043045282364, 0.06163504719734192, 0.0630696639418602, 0.06450428068637848, 0.06593890488147736, 0.06737352162599564, 0.06880813837051392, 0.0702427551150322, 0.07167737185955048, 0.07311198860406876, 0.07454660534858704, 0.07598122954368591, 0.0774158462882042, 0.07885046303272247, 0.08028507977724075, 0.08171969652175903, 0.08315431326627731, 0.08458893746137619, 0.08602355420589447, 0.08745817095041275, 0.08889278769493103, 0.09032740443944931, 0.09176202118396759, 0.09319664537906647, 0.09463126212358475, 0.09606587886810303, 0.09750049561262131]}, "parameters/graph_1net.2.out_w.weight": {"_type": "histogram", "values": [2.0, 0.0, 2.0, 2.0, 1.0, 1.0, 0.0, 3.0, 0.0, 3.0, 1.0, 1.0, 3.0, 5.0, 6.0, 9.0, 17.0, 14.0, 14.0, 20.0, 21.0, 18.0, 21.0, 17.0, 28.0, 15.0, 18.0, 16.0, 20.0, 23.0, 26.0, 17.0, 16.0, 23.0, 25.0, 27.0, 21.0, 22.0, 23.0, 19.0, 20.0, 24.0, 25.0, 38.0, 19.0, 16.0, 26.0, 17.0, 11.0, 17.0, 11.0, 5.0, 1.0, 4.0, 1.0, 2.0, 2.0, 4.0, 2.0, 1.0, 1.0, 0.0, 0.0, 1.0], "bins": [-0.17076809704303741, -0.16561312973499298, -0.16045816242694855, -0.1553032100200653, -0.15014824271202087, -0.14499327540397644, -0.139838308095932, -0.13468334078788757, -0.12952837347984314, -0.1243734136223793, -0.11921845376491547, -0.11406348645687103, -0.1089085191488266, -0.10375355929136276, -0.09859859198331833, -0.09344363212585449, -0.08828866481781006, -0.08313369750976562, -0.07797873765230179, -0.07282377034425735, -0.06766881048679352, -0.06251384317874908, -0.05735887587070465, -0.052203912287950516, -0.04704894870519638, -0.041893985122442245, -0.03673902153968811, -0.03158405423164368, -0.02642909064888954, -0.021274127066135406, -0.016119161620736122, -0.010964197106659412, -0.005809217691421509, -0.000654253177344799, 0.004500711336731911, 0.00965567585080862, 0.01481064036488533, 0.019965603947639465, 0.02512056939303875, 0.030275534838438034, 0.03543049842119217, 0.040585462003946304, 0.04574042558670044, 0.05089539289474487, 0.05605035647749901, 0.06120532006025314, 0.06636028736829758, 0.07151524722576141, 0.07667021453380585, 0.08182518184185028, 0.08698014169931412, 0.09213510900735855, 0.09729006886482239, 0.10244503617286682, 0.10760000348091125, 0.11275496333837509, 0.11790993064641953, 0.12306489795446396, 0.1282198578119278, 0.13337482511997223, 0.13852979242801666, 0.1436847597360611, 0.14883971214294434, 0.15399467945098877, 0.1591496467590332]}, "parameters/graph_1net.2.out_w.bias": {"_type": "histogram", "values": [1.0, 0.0, 0.0, 0.0, 0.0, 0.0, 0.0, 0.0, 0.0, 0.0, 0.0, 0.0, 0.0, 1.0, 0.0, 0.0, 0.0, 0.0, 0.0, 0.0, 0.0, 0.0, 0.0, 0.0, 0.0, 0.0, 0.0, 0.0, 0.0, 2.0, 0.0, 0.0, 0.0, 1.0, 0.0, 0.0, 0.0, 0.0, 0.0, 0.0, 0.0, 0.0, 0.0, 0.0, 0.0, 0.0, 0.0, 0.0, 0.0, 0.0, 0.0, 0.0, 0.0, 0.0, 0.0, 0.0, 0.0, 0.0, 0.0, 0.0, 0.0, 0.0, 0.0, 1.0], "bins": [0.007298262324184179, 0.009282216429710388, 0.01126617006957531, 0.013250124640762806, 0.015234079211950302, 0.017218032851815224, 0.019201986491680145, 0.021185941994190216, 0.023169895634055138, 0.02515384927392006, 0.02713780291378498, 0.029121756553649902, 0.031105712056159973, 0.033089667558670044, 0.035073619335889816, 0.03705757483839989, 0.03904152661561966, 0.04102548211812973, 0.0430094376206398, 0.04499338939785957, 0.046977344900369644, 0.048961296677589417, 0.05094525218009949, 0.05292920768260956, 0.05491315945982933, 0.0568971149623394, 0.05888107046484947, 0.060865022242069244, 0.06284897774457932, 0.06483293324708939, 0.06681688874959946, 0.06880083680152893, 0.070784792304039, 0.07276874780654907, 0.07475270330905914, 0.07673665136098862, 0.07872060686349869, 0.08070456236600876, 0.08268851786851883, 0.0846724733710289, 0.08665642142295837, 0.08864037692546844, 0.09062433242797852, 0.09260828793048859, 0.09459224343299866, 0.09657619893550873, 0.0985601469874382, 0.10054410248994827, 0.10252805799245834, 0.10451201349496841, 0.10649596899747849, 0.10847991704940796, 0.11046387255191803, 0.1124478280544281, 0.11443178355693817, 0.11641573905944824, 0.11839969456195831, 0.12038364261388779, 0.12236759811639786, 0.12435155361890793, 0.1263355016708374, 0.12831945717334747, 0.13030341267585754, 0.13228736817836761, 0.13427132368087769]}, "gradients/graph_1net.2.out_w.bias": {"_type": "histogram", "values": [6.0], "bins": [-0.5081465244293213, -0.5081465244293213]}, "gradients/graph_1net.2.out_w.weight": {"_type": "histogram", "values": [6.0, 0.0, 0.0, 0.0, 0.0, 0.0, 0.0, 0.0, 0.0, 0.0, 0.0, 0.0, 0.0, 6.0, 0.0, 0.0, 0.0, 0.0, 0.0, 0.0, 6.0, 6.0, 6.0, 6.0, 0.0, 0.0, 30.0, 48.0, 84.0, 48.0, 84.0, 54.0, 78.0, 72.0, 96.0, 48.0, 24.0, 18.0, 0.0, 0.0, 0.0, 0.0, 0.0, 0.0, 0.0, 0.0, 0.0, 6.0, 0.0, 6.0, 0.0, 0.0, 6.0, 0.0, 0.0, 0.0, 0.0, 0.0, 0.0, 18.0, 0.0, 0.0, 0.0, 12.0], "bins": [-0.4776657223701477, -0.4623240828514099, -0.4469824433326721, -0.4316408038139343, -0.41629916429519653, -0.40095752477645874, -0.38561588525772095, -0.37027424573898315, -0.35493260622024536, -0.3395909368991852, -0.3242492973804474, -0.3089076578617096, -0.2935660183429718, -0.278224378824234, -0.2628827393054962, -0.24754109978675842, -0.23219946026802063, -0.21685782074928284, -0.20151618123054504, -0.18617454171180725, -0.17083290219306946, -0.15549124777317047, -0.14014960825443268, -0.12480796873569489, -0.10946632921695709, -0.0941246896982193, -0.0787830501794815, -0.06344140321016312, -0.048099763691425323, -0.03275812417268753, -0.01741648092865944, -0.002074839547276497, 0.013266801834106445, 0.028608443215489388, 0.04395008459687233, 0.05929172784090042, 0.07463336735963821, 0.08997500687837601, 0.1053166538476944, 0.12065829336643219, 0.13599993288516998, 0.15134157240390778, 0.16668321192264557, 0.18202485144138336, 0.19736650586128235, 0.21270814538002014, 0.22804978489875793, 0.24339142441749573, 0.2587330639362335, 0.2740747034549713, 0.2894163429737091, 0.3047579824924469, 0.3200996220111847, 0.3354412615299225, 0.3507829010486603, 0.36612454056739807, 0.38146620988845825, 0.39680784940719604, 0.41214948892593384, 0.42749112844467163, 0.4428327679634094, 0.4581744074821472, 0.473516047000885, 0.4888576865196228, 0.5041993260383606]}, "gradients/graph_1net.2.in_w.bias": {"_type": "histogram", "values": [6.0], "bins": [-0.5081465244293213, -0.5081465244293213]}, "gradients/graph_1net.2.in_w.weight": {"_type": "histogram", "values": [6.0, 0.0, 0.0, 0.0, 0.0, 0.0, 0.0, 0.0, 0.0, 0.0, 0.0, 0.0, 0.0, 6.0, 0.0, 0.0, 0.0, 0.0, 0.0, 0.0, 6.0, 6.0, 6.0, 6.0, 0.0, 0.0, 30.0, 48.0, 84.0, 48.0, 84.0, 54.0, 78.0, 72.0, 96.0, 48.0, 24.0, 18.0, 0.0, 0.0, 0.0, 0.0, 0.0, 0.0, 0.0, 0.0, 0.0, 6.0, 0.0, 6.0, 0.0, 0.0, 6.0, 0.0, 0.0, 0.0, 0.0, 0.0, 0.0, 18.0, 0.0, 0.0, 0.0, 12.0], "bins": [-0.4776657223701477, -0.4623240828514099, -0.4469824433326721, -0.4316408038139343, -0.41629916429519653, -0.40095752477645874, -0.38561585545539856, -0.37027421593666077, -0.354932576417923, -0.3395909368991852, -0.3242492973804474, -0.3089076578617096, -0.2935660183429718, -0.278224378824234, -0.2628827393054962, -0.24754108488559723, -0.23219944536685944, -0.21685780584812164, -0.20151616632938385, -0.18617451190948486, -0.17083287239074707, -0.15549123287200928, -0.14014959335327148, -0.1248079463839531, -0.1094663068652153, -0.09412466734647751, -0.07878302037715912, -0.06344138085842133, -0.048099737614393234, -0.03275809437036514, -0.0174164529889822, -0.002074810676276684, 0.013266831636428833, 0.028608474880456924, 0.043950118124485016, 0.05929175764322281, 0.0746334046125412, 0.08997504413127899, 0.10531668365001678, 0.12065833061933517, 0.13599997758865356, 0.15134161710739136, 0.16668325662612915, 0.18202489614486694, 0.19736653566360474, 0.21270817518234253, 0.22804982960224152, 0.2433914691209793, 0.2587330937385559, 0.2740747630596161, 0.2894164025783539, 0.3047580420970917, 0.32009968161582947, 0.33544132113456726, 0.35078296065330505, 0.36612460017204285, 0.38146623969078064, 0.39680787920951843, 0.4121495187282562, 0.4274911880493164, 0.4428328275680542, 0.458174467086792, 0.4735161066055298, 0.4888577461242676, 0.5041993856430054]}, "gradients/graph_1net.0.out_w.bias": {"_type": "histogram", "values": [1.0, 0.0, 0.0, 0.0, 0.0, 0.0, 0.0, 0.0, 0.0, 0.0, 0.0, 0.0, 0.0, 0.0, 0.0, 0.0, 0.0, 1.0, 1.0, 0.0, 0.0, 0.0, 2.0, 0.0, 3.0, 2.0, 9.0, 74.0, 19.0, 4.0, 2.0, 1.0, 1.0, 1.0, 0.0, 1.0, 0.0, 0.0, 1.0, 1.0, 1.0, 2.0, 0.0, 0.0, 0.0, 0.0, 0.0, 0.0, 0.0, 0.0, 0.0, 0.0, 0.0, 0.0, 0.0, 0.0, 0.0, 0.0, 0.0, 0.0, 0.0, 0.0, 0.0, 1.0], "bins": [-0.42572715878486633, -0.4102974832057953, -0.39486777782440186, -0.3794381022453308, -0.36400842666625977, -0.34857872128486633, -0.3331490457057953, -0.31771934032440186, -0.3022896647453308, -0.28685998916625977, -0.27143028378486633, -0.2560006082057953, -0.24057091772556305, -0.2251412272453308, -0.20971155166625977, -0.19428186118602753, -0.1788521707057953, -0.16342248022556305, -0.1479927897453308, -0.13256311416625977, -0.11713342368602753, -0.10170373320579529, -0.08627405017614365, -0.070844367146492, -0.055414676666259766, -0.039984989911317825, -0.024555303156375885, -0.009125616401433945, 0.006304070353507996, 0.021733757108449936, 0.037163443863391876, 0.052593130618333817, 0.06802284717559814, 0.08345253765583038, 0.09888222068548203, 0.11431190371513367, 0.1297415941953659, 0.14517128467559814, 0.1606009602546692, 0.17603065073490143, 0.19146034121513367, 0.2068900316953659, 0.22231972217559814, 0.2377493977546692, 0.25317907333374023, 0.26860877871513367, 0.2840384542942047, 0.29946815967559814, 0.3148978352546692, 0.33032751083374023, 0.34575721621513367, 0.3611868917942047, 0.37661659717559814, 0.3920462727546692, 0.40747594833374023, 0.42290565371513367, 0.4383353292942047, 0.45376500487327576, 0.4691947102546692, 0.48462438583374023, 0.5000540614128113, 0.5154837369918823, 0.5309134721755981, 0.5463431477546692, 0.5617728233337402]}, "gradients/graph_1net.0.out_w.weight": {"_type": "histogram", "values": [1.0, 0.0, 0.0, 0.0, 0.0, 0.0, 0.0, 0.0, 0.0, 0.0, 0.0, 0.0, 0.0, 0.0, 0.0, 0.0, 0.0, 0.0, 0.0, 0.0, 0.0, 0.0, 0.0, 0.0, 0.0, 0.0, 0.0, 0.0, 0.0, 0.0, 0.0, 0.0, 0.0, 0.0, 0.0, 0.0, 0.0, 0.0, 0.0, 0.0, 0.0, 0.0, 1.0, 0.0, 0.0, 0.0, 0.0, 1.0, 1.0, 5.0, 7.0, 203.0, 23.0, 3.0, 2.0, 2.0, 2.0, 1.0, 0.0, 0.0, 1.0, 0.0, 2.0, 1.0], "bins": [-2.9952621459960938, -2.9373319149017334, -2.879401683807373, -2.8214714527130127, -2.7635414600372314, -2.705611228942871, -2.6476809978485107, -2.5897507667541504, -2.53182053565979, -2.4738903045654297, -2.4159600734710693, -2.358030080795288, -2.3000998497009277, -2.2421696186065674, -2.184239387512207, -2.1263091564178467, -2.0683789253234863, -2.010448694229126, -1.9525185823440552, -1.8945883512496948, -1.836658239364624, -1.7787280082702637, -1.7207977771759033, -1.662867546081543, -1.6049374341964722, -1.5470072031021118, -1.4890769720077515, -1.4311468601226807, -1.3732166290283203, -1.31528639793396, -1.2573561668395996, -1.1994260549545288, -1.141495943069458, -1.0835657119750977, -1.0256354808807373, -0.9677053093910217, -0.9097750782966614, -0.8518449068069458, -0.7939146757125854, -0.7359845042228699, -0.6780543327331543, -0.620124101638794, -0.5621939301490784, -0.504263699054718, -0.44633352756500244, -0.3884033262729645, -0.3304731249809265, -0.27254292368888855, -0.21461272239685059, -0.15668252110481262, -0.09875232726335526, -0.04082212969660759, 0.017108067870140076, 0.07503826916217804, 0.1329684555530548, 0.19089865684509277, 0.24882885813713074, 0.3067590594291687, 0.36468926072120667, 0.42261946201324463, 0.4805496335029602, 0.5384798645973206, 0.5964100360870361, 0.6543402671813965, 0.7122704386711121]}, "gradients/graph_1net.0.in_w.bias": {"_type": "histogram", "values": [1.0, 0.0, 0.0, 0.0, 0.0, 0.0, 0.0, 0.0, 0.0, 0.0, 0.0, 0.0, 0.0, 0.0, 0.0, 0.0, 0.0, 1.0, 1.0, 0.0, 0.0, 0.0, 2.0, 0.0, 3.0, 2.0, 9.0, 74.0, 19.0, 4.0, 2.0, 1.0, 1.0, 1.0, 0.0, 1.0, 0.0, 0.0, 1.0, 1.0, 1.0, 2.0, 0.0, 0.0, 0.0, 0.0, 0.0, 0.0, 0.0, 0.0, 0.0, 0.0, 0.0, 0.0, 0.0, 0.0, 0.0, 0.0, 0.0, 0.0, 0.0, 0.0, 0.0, 1.0], "bins": [-0.42572715878486633, -0.4102974832057953, -0.39486777782440186, -0.3794381022453308, -0.36400842666625977, -0.34857872128486633, -0.3331490457057953, -0.31771934032440186, -0.3022896647453308, -0.28685998916625977, -0.27143028378486633, -0.2560006082057953, -0.24057091772556305, -0.2251412272453308, -0.20971155166625977, -0.19428186118602753, -0.1788521707057953, -0.16342248022556305, -0.1479927897453308, -0.13256311416625977, -0.11713342368602753, -0.10170373320579529, -0.08627405017614365, -0.070844367146492, -0.055414676666259766, -0.039984989911317825, -0.024555303156375885, -0.009125616401433945, 0.006304070353507996, 0.021733757108449936, 0.037163443863391876, 0.052593130618333817, 0.06802284717559814, 0.08345253765583038, 0.09888222068548203, 0.11431190371513367, 0.1297415941953659, 0.14517128467559814, 0.1606009602546692, 0.17603065073490143, 0.19146034121513367, 0.2068900316953659, 0.22231972217559814, 0.2377493977546692, 0.25317907333374023, 0.26860877871513367, 0.2840384542942047, 0.29946815967559814, 0.3148978352546692, 0.33032751083374023, 0.34575721621513367, 0.3611868917942047, 0.37661659717559814, 0.3920462727546692, 0.40747594833374023, 0.42290565371513367, 0.4383353292942047, 0.45376500487327576, 0.4691947102546692, 0.48462438583374023, 0.5000540614128113, 0.5154837369918823, 0.5309134721755981, 0.5463431477546692, 0.5617728233337402]}, "gradients/graph_1net.0.in_w.weight": {"_type": "histogram", "values": [1.0, 0.0, 0.0, 1.0, 0.0, 0.0, 0.0, 0.0, 0.0, 0.0, 0.0, 0.0, 0.0, 0.0, 0.0, 0.0, 0.0, 0.0, 1.0, 7.0, 28.0, 195.0, 7.0, 4.0, 2.0, 1.0, 0.0, 4.0, 0.0, 1.0, 1.0, 1.0, 0.0, 0.0, 0.0, 0.0, 0.0, 0.0, 0.0, 0.0, 0.0, 0.0, 0.0, 0.0, 1.0, 0.0, 0.0, 0.0, 0.0, 0.0, 0.0, 0.0, 0.0, 0.0, 0.0, 0.0, 0.0, 0.0, 0.0, 0.0, 0.0, 0.0, 0.0, 1.0], "bins": [-1.1274752616882324, -1.0746139287948608, -1.0217524766921997, -0.9688910841941833, -0.916029691696167, -0.8631682991981506, -0.8103069067001343, -0.7574455142021179, -0.7045841217041016, -0.65172278881073, -0.5988613963127136, -0.5460000038146973, -0.4931386113166809, -0.44027721881866455, -0.3874158263206482, -0.33455443382263184, -0.2816930413246155, -0.22883164882659912, -0.17597025632858276, -0.1231088787317276, -0.07024748623371124, -0.017386097460985184, 0.035475291311740875, 0.08833667635917664, 0.141198068857193, 0.19405946135520935, 0.2469208538532257, 0.29978224635124207, 0.35264360904693604, 0.4055050015449524, 0.45836639404296875, 0.5112277865409851, 0.5640891790390015, 0.6169505715370178, 0.6698119640350342, 0.7226733565330505, 0.7755347490310669, 0.8283961415290833, 0.8812575340270996, 0.934118926525116, 0.9869803190231323, 1.039841651916504, 1.092703104019165, 1.1455644369125366, 1.1984258890151978, 1.2512872219085693, 1.3041486740112305, 1.357010006904602, 1.4098713397979736, 1.4627327919006348, 1.5155941247940063, 1.5684555768966675, 1.621316909790039, 1.6741783618927002, 1.7270396947860718, 1.779901146888733, 1.8327624797821045, 1.8856239318847656, 1.9384852647781372, 1.9913467168807983, 2.04420804977417, 2.097069501876831, 2.149930953979492, 2.202792167663574, 2.2556536197662354]}, "train_loss_d4": 7.147804260253906, "train_H_d4": 26.305078506469727, "test_loss_d4": 5.881815433502197, "test_H_d4": 16.894054412841797, "parameters/graph_2net.0.in_w.weight": {"_type": "histogram", "values": [1.0, 1.0, 1.0, 3.0, 0.0, 5.0, 5.0, 7.0, 9.0, 3.0, 2.0, 6.0, 6.0, 5.0, 3.0, 3.0, 2.0, 6.0, 7.0, 6.0, 4.0, 3.0, 3.0, 2.0, 4.0, 7.0, 3.0, 4.0, 6.0, 4.0, 9.0, 13.0, 8.0, 10.0, 6.0, 4.0, 3.0, 4.0, 6.0, 1.0, 4.0, 3.0, 5.0, 3.0, 6.0, 5.0, 3.0, 1.0, 3.0, 2.0, 2.0, 1.0, 5.0, 3.0, 5.0, 2.0, 4.0, 3.0, 3.0, 4.0, 1.0, 0.0, 2.0, 1.0], "bins": [-0.7585304379463196, -0.7346261143684387, -0.7107217311859131, -0.6868174076080322, -0.6629130840301514, -0.6390087604522705, -0.6151044368743896, -0.591200053691864, -0.5672957301139832, -0.5433914065361023, -0.5194870233535767, -0.4955826997756958, -0.47167837619781494, -0.4477740526199341, -0.42386969923973083, -0.3999653458595276, -0.37606102228164673, -0.35215669870376587, -0.3282523453235626, -0.3043479919433594, -0.2804436683654785, -0.25653934478759766, -0.2326349914073944, -0.20873065292835236, -0.1848263144493103, -0.16092197597026825, -0.1370176374912262, -0.11311329901218414, -0.08920896053314209, -0.06530462205410004, -0.04140028357505798, -0.01749594509601593, 0.0064084529876708984, 0.03031279146671295, 0.054217129945755005, 0.07812146842479706, 0.10202580690383911, 0.12593014538288116, 0.14983448386192322, 0.17373882234096527, 0.19764316082000732, 0.22154749929904938, 0.24545183777809143, 0.2693561911582947, 0.29326051473617554, 0.3171648383140564, 0.34106919169425964, 0.3649735450744629, 0.38887786865234375, 0.4127821922302246, 0.43668654561042786, 0.4605908989906311, 0.48449522256851196, 0.5083995461463928, 0.5323039293289185, 0.5562082529067993, 0.5801125764846802, 0.604016900062561, 0.6279212236404419, 0.6518256068229675, 0.6757299304008484, 0.6996342539787292, 0.7235386371612549, 0.7474429607391357, 0.7713472843170166]}, "parameters/graph_2net.0.in_w.bias": {"_type": "histogram", "values": [2.0, 2.0, 0.0, 0.0, 3.0, 3.0, 2.0, 0.0, 1.0, 4.0, 1.0, 1.0, 5.0, 1.0, 0.0, 6.0, 1.0, 1.0, 2.0, 3.0, 4.0, 1.0, 2.0, 3.0, 2.0, 3.0, 3.0, 1.0, 2.0, 1.0, 2.0, 1.0, 2.0, 2.0, 2.0, 3.0, 1.0, 3.0, 4.0, 1.0, 0.0, 1.0, 4.0, 3.0, 3.0, 2.0, 4.0, 0.0, 2.0, 1.0, 5.0, 1.0, 4.0, 0.0, 2.0, 1.0, 4.0, 1.0, 0.0, 2.0, 1.0, 3.0, 0.0, 3.0], "bins": [-0.7898023724555969, -0.765779435634613, -0.7417564392089844, -0.7177335023880005, -0.6937105655670166, -0.6696876287460327, -0.6456646919250488, -0.6216416954994202, -0.5976187586784363, -0.5735958218574524, -0.5495728254318237, -0.5255498886108398, -0.501526951789856, -0.47750401496887207, -0.4534810483455658, -0.4294580817222595, -0.40543514490127563, -0.38141220808029175, -0.3573892414569855, -0.3333662748336792, -0.3093433380126953, -0.2853204011917114, -0.26129743456840515, -0.23727448284626007, -0.213251531124115, -0.1892285794019699, -0.16520562767982483, -0.14118267595767975, -0.11715972423553467, -0.09313677251338959, -0.0691138207912445, -0.045090869069099426, -0.02106797695159912, 0.0029549747705459595, 0.02697792649269104, 0.05100087821483612, 0.0750238299369812, 0.09904678165912628, 0.12306973338127136, 0.14709268510341644, 0.17111563682556152, 0.1951385885477066, 0.21916154026985168, 0.24318449199199677, 0.26720744371414185, 0.29123038053512573, 0.315253347158432, 0.3392763137817383, 0.36329925060272217, 0.38732218742370605, 0.41134515404701233, 0.4353681206703186, 0.4593910574913025, 0.4834139943122864, 0.507436990737915, 0.5314599275588989, 0.5554828643798828, 0.5795058012008667, 0.6035287380218506, 0.6275517344474792, 0.6515746712684631, 0.675597608089447, 0.6996206045150757, 0.7236435413360596, 0.7476664781570435]}, "parameters/graph_2net.0.out_w.weight": {"_type": "histogram", "values": [4.0, 1.0, 3.0, 5.0, 3.0, 1.0, 4.0, 5.0, 4.0, 4.0, 6.0, 5.0, 3.0, 6.0, 3.0, 2.0, 3.0, 3.0, 3.0, 6.0, 4.0, 4.0, 12.0, 4.0, 2.0, 3.0, 5.0, 5.0, 6.0, 5.0, 6.0, 8.0, 6.0, 2.0, 1.0, 4.0, 6.0, 4.0, 8.0, 1.0, 3.0, 4.0, 5.0, 5.0, 1.0, 3.0, 2.0, 0.0, 4.0, 6.0, 6.0, 7.0, 4.0, 1.0, 5.0, 6.0, 3.0, 3.0, 7.0, 5.0, 2.0, 2.0, 1.0, 1.0], "bins": [-0.74444580078125, -0.7206411957740784, -0.6968365907669067, -0.6730319857597351, -0.6492273807525635, -0.6254227161407471, -0.6016181111335754, -0.5778135061264038, -0.5540089011192322, -0.5302042961120605, -0.5063996911048889, -0.4825950562953949, -0.45879045128822327, -0.43498584628105164, -0.4111812114715576, -0.387376606464386, -0.36357200145721436, -0.3397673964500427, -0.3159627914428711, -0.2921581566333771, -0.26835355162620544, -0.2445489466190338, -0.220744326710701, -0.19693970680236816, -0.17313510179519653, -0.1493304967880249, -0.12552587687969208, -0.10172126442193985, -0.07791665196418762, -0.054112039506435394, -0.030307427048683167, -0.006502814590930939, 0.017301857471466064, 0.04110646992921829, 0.06491108238697052, 0.08871569484472275, 0.11252030730247498, 0.1363249123096466, 0.16012953221797943, 0.18393415212631226, 0.2077387571334839, 0.23154336214065552, 0.25534796714782715, 0.27915260195732117, 0.3029572069644928, 0.32676181197166443, 0.35056644678115845, 0.3743710517883301, 0.3981756567955017, 0.42198026180267334, 0.44578486680984497, 0.469589501619339, 0.4933941066265106, 0.5171987414360046, 0.5410033464431763, 0.5648079514503479, 0.5886125564575195, 0.6124171614646912, 0.6362217664718628, 0.6600263714790344, 0.683830976486206, 0.7076356410980225, 0.7314402461051941, 0.7552448511123657, 0.7790494561195374]}, "parameters/graph_2net.0.out_w.bias": {"_type": "histogram", "values": [2.0, 1.0, 2.0, 4.0, 4.0, 1.0, 2.0, 4.0, 1.0, 1.0, 3.0, 2.0, 3.0, 3.0, 1.0, 4.0, 4.0, 1.0, 0.0, 3.0, 1.0, 0.0, 3.0, 1.0, 2.0, 4.0, 0.0, 2.0, 3.0, 2.0, 0.0, 2.0, 3.0, 6.0, 1.0, 2.0, 1.0, 1.0, 5.0, 5.0, 2.0, 0.0, 0.0, 6.0, 0.0, 2.0, 0.0, 1.0, 2.0, 3.0, 4.0, 1.0, 4.0, 1.0, 2.0, 0.0, 3.0, 2.0, 2.0, 0.0, 0.0, 1.0, 1.0, 1.0], "bins": [-0.7655212879180908, -0.7409347891807556, -0.7163482308387756, -0.6917617321014404, -0.6671751737594604, -0.6425886750221252, -0.6180021166801453, -0.5934156179428101, -0.5688290596008301, -0.5442425608634949, -0.5196560621261597, -0.4950695037841797, -0.4704830050468445, -0.4458964765071869, -0.4213099479675293, -0.3967234194278717, -0.3721368908882141, -0.3475503623485565, -0.3229638338088989, -0.29837730526924133, -0.27379077672958374, -0.24920426309108734, -0.22461774945259094, -0.20003122091293335, -0.17544469237327576, -0.15085816383361816, -0.12627163529396057, -0.10168512165546417, -0.07709859311580658, -0.052512068301439285, -0.02792554348707199, -0.0033390186727046967, 0.021247446537017822, 0.04583397135138512, 0.07042049616575241, 0.0950070172548294, 0.119593545794487, 0.1441800743341446, 0.168766587972641, 0.19335311651229858, 0.21793964505195618, 0.24252617359161377, 0.26711270213127136, 0.29169923067092896, 0.31628572940826416, 0.34087225794792175, 0.36545878648757935, 0.39004531502723694, 0.41463184356689453, 0.4392183721065521, 0.4638049006462097, 0.4883914291858673, 0.5129779577255249, 0.5375644564628601, 0.5621510148048401, 0.5867375135421753, 0.6113240718841553, 0.6359105706214905, 0.6604970693588257, 0.6850836277008057, 0.7096701264381409, 0.7342566847801208, 0.758843183517456, 0.783429741859436, 0.8080162405967712]}, "parameters/graph_2net.2.in_w.weight": {"_type": "histogram", "values": [1.0, 0.0, 0.0, 1.0, 2.0, 2.0, 1.0, 0.0, 0.0, 5.0, 1.0, 2.0, 4.0, 3.0, 8.0, 14.0, 14.0, 10.0, 17.0, 19.0, 21.0, 17.0, 21.0, 23.0, 14.0, 21.0, 27.0, 25.0, 16.0, 22.0, 22.0, 18.0, 23.0, 30.0, 18.0, 17.0, 27.0, 15.0, 21.0, 17.0, 17.0, 24.0, 24.0, 18.0, 24.0, 16.0, 22.0, 26.0, 17.0, 13.0, 13.0, 11.0, 2.0, 5.0, 3.0, 1.0, 3.0, 2.0, 2.0, 2.0, 1.0, 1.0, 0.0, 2.0], "bins": [-0.1651764214038849, -0.1602664738893509, -0.1553565263748169, -0.1504465937614441, -0.1455366462469101, -0.1406266987323761, -0.1357167661190033, -0.1308068186044693, -0.1258968710899353, -0.1209869235754013, -0.1160769835114479, -0.1111670434474945, -0.10625709593296051, -0.10134714841842651, -0.09643720835447311, -0.09152726829051971, -0.08661732077598572, -0.08170737326145172, -0.07679743319749832, -0.07188749313354492, -0.06697754561901093, -0.06206760182976723, -0.05715765804052353, -0.05224771425127983, -0.04733777046203613, -0.042427826672792435, -0.03751788288354874, -0.03260793909430504, -0.02769799530506134, -0.022788051515817642, -0.017878107726573944, -0.012968163937330246, -0.008058205246925354, -0.003148261457681656, 0.0017616823315620422, 0.00667162612080574, 0.011581569910049438, 0.016491513699293137, 0.021401457488536835, 0.026311401277780533, 0.03122134506702423, 0.03613128885626793, 0.04104123264551163, 0.045951176434755325, 0.05086112022399902, 0.05577106401324272, 0.06068100780248642, 0.06559094786643982, 0.07050089538097382, 0.07541084289550781, 0.08032078295946121, 0.08523072302341461, 0.09014067053794861, 0.0950506180524826, 0.099960558116436, 0.1048704981803894, 0.1097804456949234, 0.1146903932094574, 0.1196003332734108, 0.1245102733373642, 0.1294202208518982, 0.1343301683664322, 0.1392401158809662, 0.144150048494339, 0.14905999600887299]}, "parameters/graph_2net.2.in_w.bias": {"_type": "histogram", "values": [1.0, 0.0, 0.0, 0.0, 0.0, 0.0, 0.0, 1.0, 0.0, 0.0, 0.0, 0.0, 0.0, 0.0, 0.0, 0.0, 0.0, 0.0, 0.0, 0.0, 0.0, 0.0, 0.0, 0.0, 0.0, 0.0, 0.0, 0.0, 0.0, 0.0, 0.0, 0.0, 0.0, 0.0, 0.0, 0.0, 0.0, 1.0, 0.0, 0.0, 0.0, 0.0, 0.0, 1.0, 0.0, 0.0, 0.0, 0.0, 0.0, 0.0, 0.0, 0.0, 0.0, 0.0, 0.0, 0.0, 0.0, 1.0, 0.0, 0.0, 0.0, 0.0, 0.0, 1.0], "bins": [0.0020353745203465223, 0.003469523973762989, 0.004903673194348812, 0.006337822414934635, 0.007771971635520458, 0.009206120856106281, 0.010640271008014679, 0.012074420228600502, 0.013508569449186325, 0.014942718669772148, 0.01637686789035797, 0.017811017110943794, 0.019245166331529617, 0.02067931555211544, 0.022113464772701263, 0.023547613993287086, 0.02498176321387291, 0.026415912434458733, 0.027850061655044556, 0.029284212738275528, 0.03071836195886135, 0.032152511179447174, 0.03358665853738785, 0.03502080962061882, 0.036454956978559494, 0.037889108061790466, 0.03932325541973114, 0.04075740650296211, 0.042191557586193085, 0.04362570494413376, 0.04505985602736473, 0.046494003385305405, 0.04792815074324608, 0.04936230182647705, 0.050796449184417725, 0.0522306002676487, 0.05366474762558937, 0.05509889870882034, 0.05653304606676102, 0.05796719714999199, 0.05940134450793266, 0.060835495591163635, 0.06226964294910431, 0.06370379030704498, 0.06513794511556625, 0.06657209247350693, 0.0680062398314476, 0.06944038718938828, 0.07087454199790955, 0.07230868935585022, 0.0737428367137909, 0.07517699152231216, 0.07661113888025284, 0.07804528623819351, 0.07947943359613419, 0.08091358840465546, 0.08234773576259613, 0.0837818831205368, 0.08521603047847748, 0.08665018528699875, 0.08808433264493942, 0.0895184800028801, 0.09095262736082077, 0.09238678216934204, 0.09382092952728271]}, "parameters/graph_2net.2.out_w.weight": {"_type": "histogram", "values": [2.0, 0.0, 2.0, 2.0, 1.0, 1.0, 0.0, 1.0, 2.0, 2.0, 0.0, 2.0, 0.0, 6.0, 7.0, 10.0, 18.0, 16.0, 17.0, 19.0, 20.0, 17.0, 18.0, 27.0, 17.0, 22.0, 21.0, 16.0, 14.0, 23.0, 20.0, 24.0, 19.0, 14.0, 29.0, 32.0, 23.0, 20.0, 15.0, 20.0, 18.0, 23.0, 20.0, 25.0, 19.0, 26.0, 18.0, 34.0, 16.0, 12.0, 11.0, 9.0, 3.0, 2.0, 2.0, 3.0, 2.0, 2.0, 1.0, 2.0, 0.0, 0.0, 0.0, 1.0], "bins": [-0.16647249460220337, -0.16144737601280212, -0.15642224252223969, -0.15139712393283844, -0.146371990442276, -0.14134687185287476, -0.13632173836231232, -0.13129661977291107, -0.12627148628234863, -0.12124636769294739, -0.11622124165296555, -0.1111961156129837, -0.10617098957300186, -0.10114586353302002, -0.09612073749303818, -0.09109561145305634, -0.0860704854130745, -0.08104535937309265, -0.07602023333311081, -0.07099510729312897, -0.06596998125314713, -0.06094485893845558, -0.05591973289847374, -0.0508946068584919, -0.045869480818510056, -0.040844354778528214, -0.03581922873854637, -0.03079410456120968, -0.025768978521227837, -0.020743852481245995, -0.015718728303909302, -0.01069360226392746, -0.005668476223945618, -0.0006433506496250629, 0.004381774924695492, 0.00940690003335476, 0.014432026073336601, 0.019457152113318443, 0.024482276290655136, 0.029507402330636978, 0.03453252837061882, 0.03955765441060066, 0.044582780450582504, 0.049607906490564346, 0.05463302880525589, 0.05965815484523773, 0.06468328088521957, 0.06970840692520142, 0.07473353296518326, 0.0797586590051651, 0.08478378504514694, 0.08980891108512878, 0.09483403712511063, 0.09985916316509247, 0.10488428920507431, 0.10990941524505615, 0.1149345338344574, 0.11995965987443924, 0.12498478591442108, 0.13000991940498352, 0.13503503799438477, 0.1400601714849472, 0.14508529007434845, 0.1501104235649109, 0.15513554215431213]}, "parameters/graph_2net.2.out_w.bias": {"_type": "histogram", "values": [1.0, 0.0, 0.0, 0.0, 0.0, 0.0, 0.0, 0.0, 0.0, 0.0, 0.0, 0.0, 0.0, 1.0, 0.0, 0.0, 0.0, 0.0, 0.0, 0.0, 0.0, 0.0, 0.0, 0.0, 0.0, 0.0, 0.0, 0.0, 0.0, 2.0, 0.0, 0.0, 0.0, 1.0, 0.0, 0.0, 0.0, 0.0, 0.0, 0.0, 0.0, 0.0, 0.0, 0.0, 0.0, 0.0, 0.0, 0.0, 0.0, 0.0, 0.0, 0.0, 0.0, 0.0, 0.0, 0.0, 0.0, 0.0, 0.0, 0.0, 0.0, 0.0, 0.0, 1.0], "bins": [0.003648170968517661, 0.005631478503346443, 0.007614785805344582, 0.00959809310734272, 0.011581401340663433, 0.013564708642661572, 0.01554801594465971, 0.017531324177980423, 0.01951463147997856, 0.0214979387819767, 0.023481246083974838, 0.025464553385972977, 0.027447860687971115, 0.029431167989969254, 0.03141447529196739, 0.03339778259396553, 0.03538108989596367, 0.037364400923252106, 0.039347708225250244, 0.04133101552724838, 0.04331432282924652, 0.04529763013124466, 0.0472809374332428, 0.049264244735240936, 0.051247552037239075, 0.05323085933923721, 0.05521416664123535, 0.05719747394323349, 0.05918078124523163, 0.06116408854722977, 0.0631473958492279, 0.06513070315122604, 0.06711401790380478, 0.06909732520580292, 0.07108063250780106, 0.0730639398097992, 0.07504724711179733, 0.07703055441379547, 0.07901386171579361, 0.08099716901779175, 0.08298047631978989, 0.08496378362178802, 0.08694709092378616, 0.0889303982257843, 0.09091370552778244, 0.09289701282978058, 0.09488032013177872, 0.09686362743377686, 0.09884694218635559, 0.10083024948835373, 0.10281355679035187, 0.10479686409235, 0.10678017139434814, 0.10876347869634628, 0.11074678599834442, 0.11273009330034256, 0.1147134006023407, 0.11669670790433884, 0.11868001520633698, 0.12066332250833511, 0.12264662981033325, 0.12462993711233139, 0.12661324441432953, 0.12859654426574707, 0.1305798590183258]}, "_wandb": {"runtime": 4870}}