{"train_loss": 0.40552300214767456, "test_loss": 0.40530282258987427, "_timestamp": 1717437678.8765996, "_runtime": 28.443620443344116, "_step": 499, "gradients/net.2.bias": {"_type": "histogram", "values": [1.0, 0.0, 0.0, 0.0, 0.0, 0.0, 0.0, 0.0, 0.0, 0.0, 0.0, 0.0, 0.0, 0.0, 0.0, 0.0, 0.0, 0.0, 0.0, 0.0, 0.0, 0.0, 0.0, 0.0, 0.0, 0.0, 0.0, 0.0, 0.0, 0.0, 0.0, 0.0, 0.0, 0.0, 0.0, 0.0, 0.0, 0.0, 0.0, 0.0, 0.0, 0.0, 0.0, 0.0, 0.0, 0.0, 0.0, 0.0, 0.0, 0.0, 0.0, 0.0, 0.0, 0.0, 0.0, 0.0, 0.0, 0.0, 0.0, 0.0, 0.0, 0.0, 0.0, 1.0], "bins": [-0.053371116518974304, -0.05296839028596878, -0.05256566405296326, -0.052162934094667435, -0.05176020786166191, -0.05135748162865639, -0.050954755395650864, -0.05055202916264534, -0.05014929920434952, -0.049746572971343994, -0.04934384673833847, -0.04894111678004265, -0.048538390547037125, -0.0481356643140316, -0.04773293808102608, -0.047330211848020554, -0.04692748561501503, -0.046524759382009506, -0.04612203314900398, -0.04571930319070816, -0.04531657695770264, -0.04491385072469711, -0.04451112449169159, -0.044108398258686066, -0.04370567202568054, -0.04330294579267502, -0.042900219559669495, -0.04249748960137367, -0.04209476336836815, -0.041692037135362625, -0.0412893109023571, -0.04088658466935158, -0.040483854711055756, -0.04008112847805023, -0.03967840224504471, -0.039275672286748886, -0.03887294605374336, -0.03847021982073784, -0.038067493587732315, -0.03766476735472679, -0.03726203739643097, -0.036859311163425446, -0.03645658493041992, -0.0360538549721241, -0.035651128739118576, -0.03524840250611305, -0.03484567627310753, -0.034442950040102005, -0.03404022380709648, -0.03363749757409096, -0.033234771341085434, -0.03283204138278961, -0.03242931514978409, -0.032026588916778564, -0.03162386268377304, -0.031221134588122368, -0.030818408355116844, -0.03041568212211132, -0.030012954026460648, -0.029610227793455124, -0.0292075015604496, -0.028804773464798927, -0.028402047231793404, -0.02799931913614273, -0.027596592903137207]}, "gradients/net.2.weight": {"_type": "histogram", "values": [1.0, 1.0, 1.0, 3.0, 1.0, 1.0, 0.0, 2.0, 0.0, 3.0, 2.0, 5.0, 0.0, 2.0, 3.0, 2.0, 4.0, 5.0, 8.0, 5.0, 5.0, 5.0, 9.0, 7.0, 8.0, 11.0, 8.0, 7.0, 12.0, 6.0, 6.0, 4.0, 8.0, 7.0, 4.0, 7.0, 4.0, 16.0, 11.0, 10.0, 7.0, 5.0, 1.0, 5.0, 4.0, 2.0, 3.0, 3.0, 2.0, 3.0, 3.0, 6.0, 1.0, 1.0, 1.0, 1.0, 0.0, 1.0, 0.0, 0.0, 1.0, 0.0, 1.0, 1.0], "bins": [-0.05623225122690201, -0.05444503203034401, -0.05265781283378601, -0.05087059363722801, -0.04908337444067001, -0.047296155244112015, -0.045508936047554016, -0.04372171685099602, -0.04193449765443802, -0.04014727845788002, -0.03836005926132202, -0.03657284006476402, -0.034785620868206024, -0.032998401671648026, -0.031211182475090027, -0.029423963278532028, -0.02763674408197403, -0.02584952488541603, -0.024062305688858032, -0.022275086492300034, -0.020487867295742035, -0.018700648099184036, -0.016913428902626038, -0.015126209706068039, -0.01333899050951004, -0.011551771312952042, -0.009764552116394043, -0.007977332919836044, -0.006190113723278046, -0.004402894526720047, -0.0026156753301620483, -0.0008284561336040497, 0.0009587667882442474, 0.002745985984802246, 0.004533205181360245, 0.006320424377918243, 0.008107643574476242, 0.00989486277103424, 0.01168208196759224, 0.013469301164150238, 0.015256520360708237, 0.017043739557266235, 0.018830958753824234, 0.020618177950382233, 0.02240539714694023, 0.02419261634349823, 0.02597983554005623, 0.027767054736614227, 0.029554273933172226, 0.031341493129730225, 0.03312871232628822, 0.03491593152284622, 0.03670315071940422, 0.03849036991596222, 0.04027758911252022, 0.04206480830907822, 0.043852027505636215, 0.045639246702194214, 0.04742646589875221, 0.04921368509531021, 0.05100090429186821, 0.05278812348842621, 0.05457534268498421, 0.056362561881542206, 0.058149781078100204]}, "gradients/net.0.bias": {"_type": "histogram", "values": [1.0, 0.0, 0.0, 0.0, 0.0, 0.0, 2.0, 0.0, 2.0, 2.0, 0.0, 1.0, 0.0, 2.0, 4.0, 2.0, 3.0, 4.0, 3.0, 5.0, 3.0, 2.0, 3.0, 5.0, 2.0, 3.0, 2.0, 2.0, 0.0, 3.0, 0.0, 1.0, 1.0, 1.0, 1.0, 0.0, 2.0, 0.0, 2.0, 2.0, 3.0, 5.0, 3.0, 4.0, 4.0, 4.0, 8.0, 4.0, 5.0, 3.0, 3.0, 4.0, 2.0, 1.0, 2.0, 1.0, 2.0, 0.0, 1.0, 1.0, 1.0, 0.0, 0.0, 1.0], "bins": [-0.021310778334736824, -0.02065754123032093, -0.020004304125905037, -0.019351067021489143, -0.01869782991707325, -0.018044592812657356, -0.017391353845596313, -0.01673811674118042, -0.016084879636764526, -0.015431642532348633, -0.01477840542793274, -0.014125168323516846, -0.013471931219100952, -0.012818694114685059, -0.01216545607894659, -0.011512218974530697, -0.010858982801437378, -0.010205745697021484, -0.00955250859260559, -0.008899271488189697, -0.008246034383773804, -0.007592796813696623, -0.006939559243619442, -0.006286322139203548, -0.005633085034787655, -0.004979847930371761, -0.004326610825955868, -0.003673373255878687, -0.0030201361514627934, -0.0023668990470469, -0.001713661476969719, -0.0010604243725538254, -0.0004071854054927826, 0.0002460518153384328, 0.0008992890361696482, 0.0015525263734161854, 0.002205763477832079, 0.0028590005822479725, 0.0035122381523251534, 0.004165475256741047, 0.0048187123611569405, 0.005471949465572834, 0.006125186569988728, 0.006778424140065908, 0.007431661244481802, 0.008084898814558983, 0.008738135918974876, 0.00939137302339077, 0.010044610127806664, 0.010697847232222557, 0.01135108433663845, 0.012004321441054344, 0.012657558545470238, 0.013310795649886131, 0.0139640336856246, 0.014617270790040493, 0.015270507894456387, 0.015923745930194855, 0.01657698303461075, 0.017230220139026642, 0.017883457243442535, 0.01853669434785843, 0.019189931452274323, 0.019843168556690216, 0.02049640566110611]}, "gradients/net.0.weight": {"_type": "histogram", "values": [2.0, 2.0, 1.0, 1.0, 0.0, 0.0, 1.0, 0.0, 1.0, 0.0, 2.0, 3.0, 0.0, 3.0, 3.0, 4.0, 2.0, 5.0, 6.0, 1.0, 8.0, 6.0, 4.0, 8.0, 5.0, 4.0, 12.0, 17.0, 5.0, 5.0, 9.0, 6.0, 4.0, 6.0, 7.0, 5.0, 6.0, 5.0, 9.0, 6.0, 3.0, 8.0, 8.0, 7.0, 9.0, 6.0, 6.0, 5.0, 2.0, 4.0, 5.0, 3.0, 1.0, 3.0, 2.0, 2.0, 2.0, 0.0, 1.0, 3.0, 0.0, 1.0, 0.0, 1.0], "bins": [-0.06118584796786308, -0.05932231247425079, -0.057458776980638504, -0.055595241487026215, -0.053731705993413925, -0.051868170499801636, -0.050004638731479645, -0.048141103237867355, -0.046277567744255066, -0.044414032250642776, -0.04255049675703049, -0.0406869612634182, -0.03882342576980591, -0.03695989400148392, -0.03509635478258133, -0.03323282301425934, -0.03136928379535675, -0.02950574830174446, -0.02764221280813217, -0.025778677314519882, -0.023915143683552742, -0.022051608189940453, -0.020188072696328163, -0.018324539065361023, -0.016461003571748734, -0.014597468078136444, -0.01273393351584673, -0.01087039802223444, -0.009006863459944725, -0.007143327966332436, -0.005279792472720146, -0.0034162579104304314, -0.0015527233481407166, 0.0003108117962256074, 0.0021743469405919313, 0.004037882201373577, 0.005901417229324579, 0.007764952257275581, 0.00962848775088787, 0.011492022313177586, 0.013355557806789875, 0.015219093300402164, 0.01708262786269188, 0.01894616335630417, 0.020809698849916458, 0.022673234343528748, 0.024536769837141037, 0.026400303468108177, 0.028263838961720467, 0.030127374455332756, 0.031990908086299896, 0.033854443579912186, 0.035717979073524475, 0.037581514567136765, 0.039445050060749054, 0.04130858555436134, 0.04317212104797363, 0.04503565654158592, 0.04689919203519821, 0.0487627275288105, 0.05062626302242279, 0.05248979479074478, 0.05435333400964737, 0.05621686577796936, 0.05808040127158165]}, "_wandb": {"runtime": 28}}