{"train_loss": 1.5254280697263312e-05, "train_grad": 2.849177462849184e-06, "test_loss": 1.3500844943337142e-05, "test_grad": 2.760557890724158e-06, "_timestamp": 1717626083.4632554, "_runtime": 1001.7747514247894, "_step": 99, "gradients/net.0.weight": {"_type": "histogram", "values": [2.0, 1.0, 2.0, 5.0, 1.0, 1.0, 4.0, 2.0, 3.0, 6.0, 7.0, 10.0, 14.0, 10.0, 16.0, 16.0, 19.0, 32.0, 45.0, 47.0, 44.0, 68.0, 64.0, 94.0, 92.0, 105.0, 136.0, 120.0, 152.0, 143.0, 163.0, 176.0, 155.0, 144.0, 132.0, 130.0, 137.0, 110.0, 98.0, 84.0, 77.0, 67.0, 58.0, 68.0, 26.0, 26.0, 28.0, 24.0, 22.0, 15.0, 9.0, 12.0, 13.0, 7.0, 8.0, 2.0, 4.0, 8.0, 3.0, 1.0, 0.0, 2.0, 1.0, 1.0], "bins": [-7.983724935911596e-05, -7.732632366241887e-05, -7.481539796572179e-05, -7.230447954498231e-05, -6.979355384828523e-05, -6.728262815158814e-05, -6.477170245489106e-05, -6.226077675819397e-05, -5.974985469947569e-05, -5.7238929002778605e-05, -5.4728006944060326e-05, -5.221708124736324e-05, -4.9706155550666153e-05, -4.7195233491947874e-05, -4.468430779525079e-05, -4.217338573653251e-05, -3.966246003983542e-05, -3.715153434313834e-05, -3.464061228442006e-05, -3.212968658772297e-05, -2.961876271001529e-05, -2.7107838832307607e-05, -2.459691313561052e-05, -2.2085989257902838e-05, -1.9575065380195156e-05, -1.7064141502487473e-05, -1.4553216715285089e-05, -1.2042291928082705e-05, -9.531368050375022e-06, -7.0204441726673394e-06, -4.509519385464955e-06, -1.998594598262571e-06, 5.123292794451118e-07, 3.023253611900145e-06, 5.534177944355179e-06, 8.045102731557563e-06, 1.0556026609265245e-05, 1.3066950486972928e-05, 1.5577876183670014e-05, 1.8088800061377697e-05, 2.059972393908538e-05, 2.3110647816793062e-05, 2.5621571694500744e-05, 2.813249739119783e-05, 3.0643423087894917e-05, 3.3154345146613196e-05, 3.566527084331028e-05, 3.817619290202856e-05, 4.068711859872565e-05, 4.319804429542273e-05, 4.570896635414101e-05, 4.82198920508381e-05, 5.073081410955638e-05, 5.324173980625346e-05, 5.575266550295055e-05, 5.8263591199647635e-05, 6.0774513258365914e-05, 6.32854353170842e-05, 6.579636101378128e-05, 6.830728671047837e-05, 7.081821240717545e-05, 7.332913810387254e-05, 7.584005652461201e-05, 7.83509822213091e-05, 8.086190791800618e-05]}, "gradients/net.2.weight": {"_type": "histogram", "values": [1.0, 0.0, 0.0, 0.0, 0.0, 0.0, 0.0, 1.0, 0.0, 0.0, 2.0, 2.0, 1.0, 0.0, 3.0, 7.0, 5.0, 13.0, 16.0, 23.0, 48.0, 49.0, 87.0, 120.0, 173.0, 224.0, 320.0, 427.0, 611.0, 936.0, 1304.0, 2093.0, 3080.0, 4567.0, 6672.0, 9758.0, 10430.0, 8016.0, 5299.0, 3599.0, 2523.0, 1575.0, 1011.0, 784.0, 518.0, 372.0, 249.0, 183.0, 133.0, 91.0, 68.0, 49.0, 18.0, 27.0, 12.0, 14.0, 4.0, 4.0, 5.0, 5.0, 2.0, 1.0, 0.0, 1.0], "bins": [-5.714416693081148e-05, -5.556625910685398e-05, -5.398834764491767e-05, -5.2410439820960164e-05, -5.083253199700266e-05, -4.925462417304516e-05, -4.767671271110885e-05, -4.6098804887151346e-05, -4.4520893425215036e-05, -4.294298560125753e-05, -4.136507413932122e-05, -3.978716631536372e-05, -3.820925849140622e-05, -3.663134702946991e-05, -3.5053439205512404e-05, -3.34755313815549e-05, -3.18976235575974e-05, -3.0319713914650492e-05, -2.874180609069299e-05, -2.7163896447746083e-05, -2.558598862378858e-05, -2.4008078980841674e-05, -2.2430169337894768e-05, -2.0852261513937265e-05, -1.9274351870990358e-05, -1.7696442228043452e-05, -1.611853440408595e-05, -1.4540624761139043e-05, -1.2962716027686838e-05, -1.1384807294234633e-05, -9.806897651287727e-06, -8.228988917835522e-06, -6.651080184383318e-06, -5.073171450931113e-06, -3.4952622627315577e-06, -1.917353074532002e-06, -3.394443410797976e-07, 1.238464392372407e-06, 2.8163740353193134e-06, 4.394282768771518e-06, 5.972191502223723e-06, 7.550100235675927e-06, 9.128008969128132e-06, 1.0705918612075038e-05, 1.2283827345527243e-05, 1.3861736078979447e-05, 1.5439645721926354e-05, 1.701755536487326e-05, 1.8595463188830763e-05, 2.017337283177767e-05, 2.1751280655735172e-05, 2.332919029868208e-05, 2.490709812263958e-05, 2.6485007765586488e-05, 2.8062917408533394e-05, 2.9640825232490897e-05, 3.12187330564484e-05, 3.27966408804059e-05, 3.437455234234221e-05, 3.5952460166299716e-05, 3.753036799025722e-05, 3.910827945219353e-05, 4.068618727615103e-05, 4.2264095100108534e-05, 4.3842006562044844e-05]}, "gradients/net.4.bias": {"_type": "histogram", "values": [1.0, 0.0, 0.0, 1.0, 0.0, 0.0, 0.0, 0.0, 0.0, 0.0, 0.0, 0.0, 0.0, 1.0, 0.0, 0.0, 0.0, 0.0, 0.0, 0.0, 0.0, 1.0, 1.0, 0.0, 0.0, 1.0, 0.0, 1.0, 0.0, 0.0, 0.0, 0.0, 0.0, 0.0, 0.0, 1.0, 0.0, 0.0, 0.0, 0.0, 0.0, 0.0, 1.0, 0.0, 0.0, 0.0, 0.0, 0.0, 0.0, 1.0, 1.0, 0.0, 0.0, 0.0, 0.0, 0.0, 0.0, 0.0, 0.0, 0.0, 0.0, 0.0, 0.0, 1.0], "bins": [-0.00017722335178405046, -0.00017221618327312171, -0.00016720901476219296, -0.00016220186080317944, -0.0001571946922922507, -0.00015218752378132194, -0.00014718036982230842, -0.00014217320131137967, -0.00013716603280045092, -0.00013215886428952217, -0.00012715169577859342, -0.0001221445418195799, -0.00011713737330865115, -0.0001121302047977224, -0.00010712304356275126, -0.00010211588232778013, -9.710871381685138e-05, -9.210154530592263e-05, -8.709438407095149e-05, -8.208722283598036e-05, -7.70800543250516e-05, -7.207288581412286e-05, -6.706572457915172e-05, -6.205856334418058e-05, -5.7051394833251834e-05, -5.204422996030189e-05, -4.703706508735195e-05, -4.2029900214402005e-05, -3.702273534145206e-05, -3.201557046850212e-05, -2.7008405595552176e-05, -2.2001240722602233e-05, -1.6994061297737062e-05, -1.1986896424787119e-05, -6.979731551837176e-06, -1.972566678887233e-06, 3.03459819406271e-06, 8.041763067012653e-06, 1.3048927939962596e-05, 1.805609281291254e-05, 2.306325768586248e-05, 2.8070422558812425e-05, 3.307758743176237e-05, 3.808475230471231e-05, 4.309191717766225e-05, 4.8099082050612196e-05, 5.310624692356214e-05, 5.811341179651208e-05, 6.312057666946203e-05, 6.812774518039078e-05, 7.313490641536191e-05, 7.814206765033305e-05, 8.31492361612618e-05, 8.815640467219055e-05, 9.316356590716168e-05, 9.817072714213282e-05, 0.00010317789565306157, 0.00010818506416399032, 0.00011319222539896145, 0.00011819938663393259, 0.00012320655514486134, 0.0001282137236557901, 0.00013322089216671884, 0.00013822804612573236, 0.0001432352146366611]}, "gradients/net.4.weight": {"_type": "histogram", "values": [2.0, 0.0, 1.0, 2.0, 5.0, 1.0, 6.0, 4.0, 7.0, 9.0, 8.0, 14.0, 18.0, 21.0, 27.0, 31.0, 35.0, 38.0, 54.0, 52.0, 55.0, 79.0, 101.0, 91.0, 128.0, 135.0, 149.0, 137.0, 174.0, 203.0, 212.0, 220.0, 176.0, 147.0, 149.0, 96.0, 93.0, 69.0, 61.0, 43.0, 45.0, 23.0, 25.0, 27.0, 22.0, 18.0, 14.0, 10.0, 7.0, 5.0, 7.0, 6.0, 4.0, 1.0, 1.0, 1.0, 1.0, 0.0, 0.0, 1.0, 0.0, 0.0, 0.0, 1.0], "bins": [-0.0002066892193397507, -0.00019992957822978497, -0.00019316993711981922, -0.00018641029600985348, -0.00017965066945180297, -0.000172891013789922, -0.00016613138723187149, -0.00015937174612190574, -0.00015261210501194, -0.00014585246390197426, -0.00013909282279200852, -0.00013233318168204278, -0.00012557354057207704, -0.00011881390673806891, -0.00011205427290406078, -0.00010529463179409504, -9.85349906841293e-05, -9.177534957416356e-05, -8.501570846419781e-05, -7.825607463018969e-05, -7.149643352022395e-05, -6.47367924102582e-05, -5.797715493827127e-05, -5.1217517466284335e-05, -4.445787635631859e-05, -3.769823524635285e-05, -3.093859777436592e-05, -2.417895848338958e-05, -1.741931919241324e-05, -1.0659678082447499e-05, -3.9000406104605645e-06, 2.85959686152637e-06, 9.61925252340734e-06, 1.6378891814383678e-05, 2.3138531105360016e-05, 2.9898170396336354e-05, 3.665780968731269e-05, 4.3417450797278434e-05, 5.017708826926537e-05, 5.69367257412523e-05, 6.369636685121804e-05, 7.045600796118379e-05, 7.721564907114953e-05, 8.397528290515766e-05, 9.07349240151234e-05, 9.749456512508914e-05, 0.00010425419895909727, 0.00011101384006906301, 0.00011777348117902875, 0.0001245331222889945, 0.00013129276339896023, 0.00013805240450892597, 0.00014481204561889172, 0.00015157167217694223, 0.00015833131328690797, 0.0001650909543968737, 0.00017185059550683945, 0.0001786102366168052, 0.00018536987772677094, 0.00019212951883673668, 0.0001988891453947872, 0.00020564880105666816, 0.00021240842761471868, 0.00021916806872468442, 0.00022592770983465016]}, "gradients/net.0.bias": {"_type": "histogram", "values": [1.0, 0.0, 0.0, 0.0, 0.0, 0.0, 0.0, 0.0, 0.0, 1.0, 0.0, 2.0, 0.0, 2.0, 1.0, 3.0, 5.0, 5.0, 1.0, 6.0, 5.0, 5.0, 10.0, 5.0, 10.0, 9.0, 7.0, 11.0, 8.0, 8.0, 11.0, 11.0, 8.0, 11.0, 8.0, 11.0, 16.0, 13.0, 6.0, 8.0, 9.0, 1.0, 6.0, 4.0, 4.0, 3.0, 4.0, 5.0, 2.0, 4.0, 1.0, 0.0, 1.0, 3.0, 0.0, 0.0, 0.0, 0.0, 0.0, 0.0, 0.0, 0.0, 0.0, 1.0], "bins": [-0.0001259482669411227, -0.0001220061385538429, -0.0001180640101665631, -0.00011412188177928329, -0.00011017974611604586, -0.00010623761772876605, -0.00010229548934148625, -9.835336095420644e-05, -9.441122529096901e-05, -9.04690969036892e-05, -8.65269685164094e-05, -8.258484012912959e-05, -7.864270446589217e-05, -7.470057607861236e-05, -7.075844769133255e-05, -6.681631930405274e-05, -6.287419091677293e-05, -5.893206252949312e-05, -5.498993050423451e-05, -5.10478021169547e-05, -4.7105670091696084e-05, -4.3163541704416275e-05, -3.9221413317136467e-05, -3.527928492985666e-05, -3.133715290459804e-05, -2.739502269832883e-05, -2.3452892492059618e-05, -1.951076410477981e-05, -1.5568633898510598e-05, -1.1626503692241386e-05, -7.684375304961577e-06, -3.742245098692365e-06, 1.9988510757684708e-07, 4.142014859098708e-06, 8.08414461062057e-06, 1.202627390739508e-05, 1.5968404113664292e-05, 1.9910534319933504e-05, 2.3852662707213312e-05, 2.7794792913482524e-05, 3.1736923119751737e-05, 3.5679051507031545e-05, 3.962118353229016e-05, 4.356331191956997e-05, 4.750544030684978e-05, 5.144757233210839e-05, 5.53897007193882e-05, 5.933183274464682e-05, 6.327396113192663e-05, 6.721608951920643e-05, 7.115821790648624e-05, 7.510035356972367e-05, 7.904248195700347e-05, 8.298461034428328e-05, 8.692673873156309e-05, 9.08688671188429e-05, 9.481099550612271e-05, 9.875312389340252e-05, 0.00010269525228068233, 0.00010663738066796213, 0.00011057951633119956, 0.00011452164471847937, 0.00011846377310575917, 0.0001224059087689966, 0.0001263480371562764]}, "gradients/net.2.bias": {"_type": "histogram", "values": [3.0, 2.0, 1.0, 1.0, 0.0, 2.0, 1.0, 3.0, 0.0, 3.0, 1.0, 0.0, 2.0, 3.0, 3.0, 5.0, 0.0, 9.0, 5.0, 5.0, 8.0, 12.0, 2.0, 12.0, 6.0, 8.0, 6.0, 5.0, 10.0, 7.0, 6.0, 10.0, 11.0, 18.0, 4.0, 9.0, 8.0, 7.0, 4.0, 8.0, 5.0, 6.0, 5.0, 1.0, 3.0, 7.0, 2.0, 4.0, 0.0, 4.0, 0.0, 1.0, 0.0, 2.0, 1.0, 2.0, 0.0, 0.0, 0.0, 0.0, 1.0, 0.0, 1.0, 1.0], "bins": [-6.433542148442939e-05, -6.221208604983985e-05, -6.0088754253229126e-05, -5.79654224566184e-05, -5.5842087022028863e-05, -5.3718755225418136e-05, -5.159542342880741e-05, -4.947208799421787e-05, -4.7348756197607145e-05, -4.522542440099642e-05, -4.310208896640688e-05, -4.0978757169796154e-05, -3.8855425373185426e-05, -3.673208993859589e-05, -3.460875814198516e-05, -3.2485426345374435e-05, -3.03620909107849e-05, -2.823875729518477e-05, -2.6115423679584637e-05, -2.399209188297391e-05, -2.1868758267373778e-05, -1.9745424651773646e-05, -1.762209285516292e-05, -1.5498759239562787e-05, -1.3375425623962656e-05, -1.1252092008362524e-05, -9.128759302257095e-06, -7.005426141404314e-06, -4.882092980551533e-06, -2.758759364951402e-06, -6.354266588459723e-07, 1.4879060472594574e-06, 3.6112323869019747e-06, 5.734565547754755e-06, 7.857898708607536e-06, 9.981231414712965e-06, 1.2104565030313097e-05, 1.4227898645913228e-05, 1.6351230442523956e-05, 1.8474564058124088e-05, 2.059789767372422e-05, 2.272123128932435e-05, 2.4844564904924482e-05, 2.696789670153521e-05, 2.909123031713534e-05, 3.121456393273547e-05, 3.33378957293462e-05, 3.546122752595693e-05, 3.7584562960546464e-05, 3.970789475715719e-05, 4.183123019174673e-05, 4.3954561988357455e-05, 4.607789742294699e-05, 4.820122921955772e-05, 5.0324561016168445e-05, 5.244789645075798e-05, 5.457122824736871e-05, 5.6694560043979436e-05, 5.881789547856897e-05, 6.09412272751797e-05, 6.306455907179043e-05, 6.518789450637996e-05, 6.73112299409695e-05, 6.943455809960142e-05, 7.155789353419095e-05]}, "_wandb": {"runtime": 1001}}