{"train_loss_d1": 0.027206117287278175, "train_H_d1": 0.008350769989192486, "test_loss_d1": 0.04638242721557617, "test_H_d1": 0.00871356576681137, "_timestamp": 1723213381.966285, "_runtime": 5103.161712884903, "_step": 256, "parameters/net.0.in_w.weight": {"_type": "histogram", "values": [1.0, 1.0, 2.0, 4.0, 2.0, 2.0, 4.0, 3.0, 4.0, 2.0, 5.0, 3.0, 2.0, 3.0, 2.0, 4.0, 4.0, 2.0, 6.0, 5.0, 5.0, 7.0, 8.0, 8.0, 3.0, 4.0, 2.0, 0.0, 5.0, 6.0, 5.0, 6.0, 5.0, 5.0, 4.0, 3.0, 2.0, 4.0, 6.0, 5.0, 4.0, 6.0, 4.0, 5.0, 4.0, 6.0, 4.0, 2.0, 7.0, 7.0, 6.0, 5.0, 5.0, 6.0, 7.0, 3.0, 5.0, 5.0, 1.0, 4.0, 1.0, 2.0, 2.0, 1.0], "bins": [-0.7346340417861938, -0.7114111185073853, -0.6881882548332214, -0.6649653911590576, -0.641742467880249, -0.6185195446014404, -0.5952966809272766, -0.5720738172531128, -0.5488508939743042, -0.5256279706954956, -0.5024051070213318, -0.4791822135448456, -0.4559593200683594, -0.43273642659187317, -0.40951353311538696, -0.38629063963890076, -0.36306774616241455, -0.33984485268592834, -0.31662195920944214, -0.29339906573295593, -0.2701761722564697, -0.24695327877998352, -0.22373038530349731, -0.2005074918270111, -0.1772845983505249, -0.1540617048740387, -0.1308388113975525, -0.10761591792106628, -0.08439302444458008, -0.06117013096809387, -0.037947237491607666, -0.01472434401512146, 0.008498549461364746, 0.03172144293785095, 0.05494433641433716, 0.07816722989082336, 0.10139012336730957, 0.12461301684379578, 0.14783591032028198, 0.1710588037967682, 0.1942816972732544, 0.2175045907497406, 0.2407274842262268, 0.263950377702713, 0.2871732711791992, 0.3103961646556854, 0.33361905813217163, 0.35684195160865784, 0.38006484508514404, 0.40328773856163025, 0.42651063203811646, 0.44973352551460266, 0.47295641899108887, 0.4961793124675751, 0.5194022059440613, 0.5426250696182251, 0.5658479928970337, 0.5890709161758423, 0.6122937798500061, 0.6355166435241699, 0.6587395668029785, 0.6819624900817871, 0.7051853537559509, 0.7284082174301147, 0.7516311407089233]}, "parameters/net.0.in_w.bias": {"_type": "histogram", "values": [1.0, 0.0, 2.0, 0.0, 2.0, 1.0, 2.0, 1.0, 5.0, 2.0, 0.0, 1.0, 3.0, 4.0, 0.0, 1.0, 2.0, 2.0, 1.0, 4.0, 3.0, 3.0, 3.0, 2.0, 2.0, 0.0, 2.0, 4.0, 1.0, 4.0, 2.0, 0.0, 0.0, 0.0, 8.0, 1.0, 1.0, 3.0, 3.0, 2.0, 1.0, 1.0, 1.0, 3.0, 2.0, 0.0, 2.0, 5.0, 2.0, 1.0, 0.0, 2.0, 1.0, 2.0, 3.0, 4.0, 0.0, 9.0, 0.0, 2.0, 3.0, 3.0, 1.0, 2.0], "bins": [-1.0583511590957642, -1.0261591672897339, -0.9939670562744141, -0.961775004863739, -0.929582953453064, -0.8973909616470337, -0.8651989102363586, -0.8330068588256836, -0.8008148074150085, -0.7686227560043335, -0.7364307045936584, -0.7042386531829834, -0.6720466613769531, -0.6398546099662781, -0.607662558555603, -0.575470507144928, -0.5432784557342529, -0.5110864043235779, -0.47889435291290283, -0.44670233130455017, -0.4145102798938751, -0.3823182284832001, -0.3501262068748474, -0.31793415546417236, -0.2857421040534973, -0.25355005264282227, -0.2213580161333084, -0.18916597962379456, -0.1569739282131195, -0.12478188425302505, -0.0925898402929306, -0.06039779633283615, -0.0282057523727417, 0.003986291587352753, 0.036178335547447205, 0.06837037950754166, 0.10056242346763611, 0.13275447487831116, 0.164946511387825, 0.19713854789733887, 0.22933059930801392, 0.26152265071868896, 0.293714702129364, 0.3259067237377167, 0.3580987751483917, 0.3902908265590668, 0.42248284816741943, 0.4546748995780945, 0.48686695098876953, 0.5190590023994446, 0.5512510538101196, 0.5834431052207947, 0.6156351566314697, 0.6478271484375, 0.680019199848175, 0.7122112512588501, 0.7444033026695251, 0.7765953540802002, 0.8087874054908752, 0.8409794569015503, 0.8731714487075806, 0.9053635001182556, 0.9375555515289307, 0.9697476029396057, 1.0019396543502808]}, "parameters/net.0.out_w.weight": {"_type": "histogram", "values": [1.0, 1.0, 1.0, 1.0, 1.0, 3.0, 5.0, 4.0, 4.0, 3.0, 7.0, 6.0, 3.0, 5.0, 7.0, 9.0, 7.0, 3.0, 6.0, 3.0, 4.0, 6.0, 6.0, 11.0, 7.0, 5.0, 10.0, 2.0, 4.0, 3.0, 8.0, 3.0, 2.0, 2.0, 5.0, 2.0, 5.0, 2.0, 6.0, 8.0, 7.0, 8.0, 2.0, 6.0, 8.0, 1.0, 6.0, 5.0, 3.0, 2.0, 4.0, 4.0, 2.0, 3.0, 5.0, 1.0, 2.0, 1.0, 2.0, 0.0, 0.0, 2.0, 0.0, 1.0], "bins": [-0.7285247445106506, -0.7042933106422424, -0.6800618171691895, -0.6558303833007812, -0.631598949432373, -0.6073675155639648, -0.5831360220909119, -0.5589045882225037, -0.5346731543540955, -0.5104416608810425, -0.4862102270126343, -0.4619787931442261, -0.4377473294734955, -0.4135158956050873, -0.3892844319343567, -0.3650529980659485, -0.3408215343952179, -0.3165900707244873, -0.2923586368560791, -0.2681271731853485, -0.2438957393169403, -0.21966427564620972, -0.19543282687664032, -0.17120137810707092, -0.14696992933750153, -0.12273848056793213, -0.09850703179836273, -0.07427557557821274, -0.05004412680864334, -0.025812676176428795, -0.0015812255442142487, 0.022650225088000298, 0.046881675720214844, 0.07111312448978424, 0.09534457325935364, 0.11957602947950363, 0.14380747079849243, 0.16803893446922302, 0.19227038323879242, 0.21650183200836182, 0.2407332807779312, 0.2649647295475006, 0.2891961932182312, 0.3134276270866394, 0.33765909075737, 0.3618905246257782, 0.3861219882965088, 0.410353422164917, 0.4345848858356476, 0.4588163495063782, 0.4830477833747864, 0.5072792172431946, 0.5315107107162476, 0.5557421445846558, 0.579973578453064, 0.6042050123214722, 0.6284365057945251, 0.6526679396629333, 0.6768993735313416, 0.7011308670043945, 0.7253623008728027, 0.7495937347412109, 0.7738251686096191, 0.7980566620826721, 0.8222880959510803]}, "parameters/net.0.out_w.bias": {"_type": "histogram", "values": [1.0, 0.0, 0.0, 1.0, 0.0, 1.0, 6.0, 1.0, 0.0, 3.0, 0.0, 2.0, 5.0, 2.0, 2.0, 1.0, 3.0, 3.0, 4.0, 3.0, 1.0, 3.0, 2.0, 2.0, 4.0, 4.0, 2.0, 4.0, 5.0, 2.0, 1.0, 2.0, 2.0, 3.0, 0.0, 1.0, 3.0, 3.0, 2.0, 3.0, 4.0, 3.0, 2.0, 1.0, 2.0, 3.0, 4.0, 3.0, 2.0, 2.0, 2.0, 1.0, 1.0, 0.0, 3.0, 3.0, 2.0, 0.0, 2.0, 0.0, 0.0, 0.0, 0.0, 1.0], "bins": [-1.1098289489746094, -1.07433021068573, -1.0388314723968506, -1.0033327341079712, -0.9678339958190918, -0.9323353171348572, -0.8968365788459778, -0.8613378405570984, -0.825839102268219, -0.7903403639793396, -0.7548416256904602, -0.7193428874015808, -0.6838442087173462, -0.6483454704284668, -0.6128467321395874, -0.577347993850708, -0.5418492555618286, -0.5063505172729492, -0.4708517789840698, -0.4353530704975128, -0.3998543322086334, -0.36435559391975403, -0.328856885433197, -0.2933581471443176, -0.25785940885543823, -0.22236067056655884, -0.18686194717884064, -0.15136322379112244, -0.11586448550224304, -0.08036575466394424, -0.04486702382564545, -0.00936829298734665, 0.02613043785095215, 0.061629168689250946, 0.09712789952754974, 0.13262662291526794, 0.16812536120414734, 0.20362409949302673, 0.23912282288074493, 0.27462154626846313, 0.31012028455734253, 0.3456190228462219, 0.3811177611351013, 0.4166164696216583, 0.4521152079105377, 0.4876139461994171, 0.5231126546859741, 0.5586113929748535, 0.5941101312637329, 0.6296088695526123, 0.6651076078414917, 0.7006063461303711, 0.7361050844192505, 0.7716037631034851, 0.8071025013923645, 0.8426012396812439, 0.8780999779701233, 0.9135987162590027, 0.9490974545478821, 0.9845961928367615, 1.020094871520996, 1.0555936098098755, 1.0910923480987549, 1.1265910863876343, 1.1620898246765137]}, "parameters/net.2.in_w.weight": {"_type": "histogram", "values": [3.0, 3.0, 2.0, 2.0, 9.0, 8.0, 9.0, 6.0, 9.0, 7.0, 7.0, 12.0, 8.0, 14.0, 10.0, 8.0, 15.0, 16.0, 21.0, 16.0, 11.0, 15.0, 8.0, 23.0, 17.0, 19.0, 20.0, 21.0, 20.0, 19.0, 16.0, 19.0, 22.0, 16.0, 23.0, 20.0, 23.0, 23.0, 17.0, 19.0, 18.0, 19.0, 10.0, 12.0, 17.0, 17.0, 9.0, 8.0, 14.0, 16.0, 6.0, 12.0, 10.0, 6.0, 10.0, 4.0, 4.0, 8.0, 2.0, 3.0, 3.0, 2.0, 0.0, 2.0], "bins": [-0.2674501836299896, -0.2592015266418457, -0.2509528696537018, -0.24270421266555786, -0.23445555567741394, -0.22620689868927002, -0.2179582417011261, -0.20970958471298218, -0.20146092772483826, -0.19321227073669434, -0.18496361374855042, -0.1767149567604065, -0.16846629977226257, -0.16021764278411865, -0.15196898579597473, -0.1437203288078308, -0.1354716718196869, -0.12722301483154297, -0.11897435784339905, -0.11072570085525513, -0.1024770438671112, -0.09422838687896729, -0.08597972989082336, -0.07773107290267944, -0.06948241591453552, -0.0612337589263916, -0.05298510193824768, -0.04473644495010376, -0.03648778796195984, -0.028239130973815918, -0.019990473985671997, -0.011741816997528076, -0.0034931600093841553, 0.004755496978759766, 0.013004153966903687, 0.021252810955047607, 0.02950146794319153, 0.03775012493133545, 0.04599878191947937, 0.05424743890762329, 0.06249609589576721, 0.07074475288391113, 0.07899340987205505, 0.08724206686019897, 0.0954907238483429, 0.10373938083648682, 0.11198803782463074, 0.12023669481277466, 0.12848535180091858, 0.1367340087890625, 0.14498266577720642, 0.15323132276535034, 0.16147997975349426, 0.16972863674163818, 0.1779772937297821, 0.18622595071792603, 0.19447460770606995, 0.20272326469421387, 0.2109719216823578, 0.2192205786705017, 0.22746923565864563, 0.23571789264678955, 0.24396654963493347, 0.2522152066230774, 0.2604638636112213]}, "parameters/net.2.in_w.bias": {"_type": "histogram", "values": [1.0, 0.0, 0.0, 0.0, 0.0, 0.0, 0.0, 0.0, 0.0, 0.0, 0.0, 1.0, 0.0, 0.0, 0.0, 1.0, 0.0, 0.0, 0.0, 0.0, 0.0, 0.0, 0.0, 0.0, 0.0, 0.0, 0.0, 0.0, 0.0, 0.0, 1.0, 0.0, 0.0, 0.0, 0.0, 0.0, 0.0, 0.0, 0.0, 0.0, 0.0, 0.0, 0.0, 1.0, 0.0, 0.0, 0.0, 0.0, 0.0, 0.0, 0.0, 0.0, 0.0, 0.0, 0.0, 0.0, 0.0, 0.0, 0.0, 0.0, 0.0, 0.0, 0.0, 1.0], "bins": [0.04980858415365219, 0.052114058285951614, 0.05441953241825104, 0.05672500655055046, 0.059030480682849884, 0.061335958540439606, 0.06364142894744873, 0.06594690680503845, 0.06825238466262817, 0.0705578550696373, 0.07286333292722702, 0.07516880333423615, 0.07747428119182587, 0.07977975159883499, 0.08208522945642471, 0.08439069986343384, 0.08669617772102356, 0.08900165557861328, 0.0913071259856224, 0.09361260384321213, 0.09591807425022125, 0.09822355210781097, 0.1005290225148201, 0.10283450037240982, 0.10513997077941895, 0.10744544863700867, 0.10975092649459839, 0.11205639690160751, 0.11436187475919724, 0.11666734516620636, 0.11897282302379608, 0.1212782934308052, 0.12358376383781433, 0.12588924169540405, 0.12819471955299377, 0.1305001825094223, 0.13280566036701202, 0.13511113822460175, 0.13741661608219147, 0.13972207903862, 0.14202755689620972, 0.14433303475379944, 0.14663851261138916, 0.14894399046897888, 0.1512494534254074, 0.15355493128299713, 0.15586040914058685, 0.15816588699817657, 0.1604713499546051, 0.16277682781219482, 0.16508230566978455, 0.16738778352737427, 0.169693261384964, 0.17199872434139252, 0.17430420219898224, 0.17660968005657196, 0.17891515791416168, 0.1812206357717514, 0.18352609872817993, 0.18583157658576965, 0.18813705444335938, 0.1904425323009491, 0.19274799525737762, 0.19505347311496735, 0.19735895097255707]}, "parameters/net.2.out_w.weight": {"_type": "histogram", "values": [1.0, 2.0, 1.0, 4.0, 0.0, 4.0, 6.0, 8.0, 8.0, 9.0, 13.0, 12.0, 6.0, 11.0, 6.0, 14.0, 14.0, 11.0, 13.0, 17.0, 14.0, 20.0, 12.0, 17.0, 22.0, 16.0, 23.0, 27.0, 15.0, 17.0, 21.0, 14.0, 15.0, 20.0, 24.0, 20.0, 26.0, 11.0, 22.0, 11.0, 20.0, 27.0, 14.0, 14.0, 23.0, 9.0, 21.0, 8.0, 13.0, 8.0, 7.0, 9.0, 11.0, 9.0, 7.0, 8.0, 9.0, 7.0, 3.0, 4.0, 2.0, 2.0, 3.0, 3.0], "bins": [-0.2882143259048462, -0.27970775961875916, -0.2712011933326721, -0.2626946270465851, -0.25418806076049805, -0.24568147957324982, -0.23717491328716278, -0.22866834700107574, -0.2201617807149887, -0.21165521442890167, -0.20314864814281464, -0.1946420818567276, -0.18613550066947937, -0.17762893438339233, -0.1691223680973053, -0.16061580181121826, -0.15210923552513123, -0.1436026692390442, -0.13509610295295715, -0.12658953666687012, -0.11808296293020248, -0.10957639664411545, -0.10106982290744781, -0.09256325662136078, -0.08405669033527374, -0.0755501240491867, -0.06704355776309967, -0.05853698402643204, -0.050030417740345, -0.041523851454257965, -0.03301728144288063, -0.024510713294148445, -0.01600414514541626, -0.007497576996684074, 0.001008991152048111, 0.009515559300780296, 0.01802212744951248, 0.026528695598244667, 0.03503526374697685, 0.04354183375835419, 0.05204840004444122, 0.06055496633052826, 0.0690615326166153, 0.07756810635328293, 0.08607467263936996, 0.094581238925457, 0.10308781266212463, 0.11159437894821167, 0.1201009452342987, 0.12860751152038574, 0.13711407780647278, 0.14562064409255981, 0.15412721037864685, 0.16263379156589508, 0.17114035785198212, 0.17964692413806915, 0.1881534904241562, 0.19666005671024323, 0.20516662299633026, 0.2136731892824173, 0.22217977046966553, 0.23068633675575256, 0.2391929030418396, 0.24769946932792664, 0.25620603561401367]}, "parameters/net.2.out_w.bias": {"_type": "histogram", "values": [1.0, 0.0, 0.0, 0.0, 0.0, 0.0, 0.0, 0.0, 0.0, 0.0, 0.0, 0.0, 0.0, 0.0, 0.0, 0.0, 0.0, 0.0, 0.0, 0.0, 0.0, 0.0, 0.0, 0.0, 0.0, 0.0, 0.0, 0.0, 0.0, 1.0, 0.0, 0.0, 0.0, 0.0, 0.0, 0.0, 0.0, 0.0, 1.0, 0.0, 0.0, 0.0, 1.0, 0.0, 0.0, 0.0, 0.0, 0.0, 0.0, 0.0, 0.0, 0.0, 0.0, 0.0, 0.0, 0.0, 0.0, 0.0, 0.0, 0.0, 1.0, 0.0, 0.0, 1.0], "bins": [0.04072652757167816, 0.043282605707645416, 0.04583868756890297, 0.048394765704870224, 0.05095084756612778, 0.05350692570209503, 0.056063007563352585, 0.05861908569931984, 0.06117516756057739, 0.06373124569654465, 0.0662873238325119, 0.06884340196847916, 0.07139948755502701, 0.07395556569099426, 0.07651164382696152, 0.07906772196292877, 0.08162380754947662, 0.08417988568544388, 0.08673596382141113, 0.08929204195737839, 0.09184812009334564, 0.0944042056798935, 0.09696028381586075, 0.099516361951828, 0.10207244008779526, 0.10462851822376251, 0.10718460381031036, 0.10974068194627762, 0.11229676008224487, 0.11485283821821213, 0.11740892380475998, 0.11996500194072723, 0.12252108007669449, 0.12507715821266174, 0.1276332437992096, 0.13018931448459625, 0.1327454000711441, 0.13530148565769196, 0.1378575563430786, 0.14041364192962646, 0.14296971261501312, 0.14552579820156097, 0.14808188378810883, 0.15063795447349548, 0.15319404006004333, 0.15575011074543, 0.15830619633197784, 0.1608622819185257, 0.16341835260391235, 0.1659744381904602, 0.16853050887584686, 0.17108659446239471, 0.17364268004894257, 0.17619875073432922, 0.17875483632087708, 0.18131092190742493, 0.18386699259281158, 0.18642307817935944, 0.1889791488647461, 0.19153523445129395, 0.1940913200378418, 0.19664739072322845, 0.1992034763097763, 0.20175954699516296, 0.20431563258171082]}, "gradients/net.2.out_w.bias": {"_type": "histogram", "values": [4.0, 0.0, 0.0, 0.0, 0.0, 0.0, 0.0, 0.0, 0.0, 0.0, 0.0, 0.0, 0.0, 0.0, 0.0, 0.0, 0.0, 0.0, 0.0, 0.0, 0.0, 0.0, 0.0, 0.0, 0.0, 0.0, 0.0, 0.0, 0.0, 0.0, 0.0, 0.0, 0.0, 0.0, 0.0, 0.0, 0.0, 0.0, 0.0, 0.0, 0.0, 0.0, 0.0, 0.0, 0.0, 0.0, 0.0, 0.0, 0.0, 0.0, 0.0, 0.0, 0.0, 0.0, 0.0, 0.0, 0.0, 0.0, 0.0, 0.0, 0.0, 0.0, 0.0, 2.0], "bins": [-0.0008631398086436093, -0.0008631398086436093, -0.0008631398086436093, -0.0008631398086436093, -0.0008631398086436093, -0.0008631398086436093, -0.0008631398086436093, -0.0008631398086436093, -0.0008631398086436093, -0.0008631398086436093, -0.0008631398086436093, -0.0008631398086436093, -0.0008631398086436093, -0.0008631398086436093, -0.0008631398086436093, -0.0008631398086436093, -0.0008631398086436093, -0.0008631398086436093, -0.0008631398086436093, -0.0008631398086436093, -0.0008631398086436093, -0.0008631398086436093, -0.0008631398086436093, -0.0008631398086436093, -0.0008631398086436093, -0.0008631398086436093, -0.0008631398086436093, -0.0008631398086436093, -0.0008631398086436093, -0.0008631398086436093, -0.0008631398086436093, -0.0008631398086436093, -0.0008631397504359484, -0.0008631397504359484, -0.0008631397504359484, -0.0008631397504359484, -0.0008631397504359484, -0.0008631397504359484, -0.0008631397504359484, -0.0008631397504359484, -0.0008631397504359484, -0.0008631397504359484, -0.0008631397504359484, -0.0008631397504359484, -0.0008631397504359484, -0.0008631397504359484, -0.0008631397504359484, -0.0008631397504359484, -0.0008631397504359484, -0.0008631397504359484, -0.0008631397504359484, -0.0008631397504359484, -0.0008631397504359484, -0.0008631397504359484, -0.0008631397504359484, -0.0008631397504359484, -0.0008631397504359484, -0.0008631397504359484, -0.0008631397504359484, -0.0008631397504359484, -0.0008631397504359484, -0.0008631397504359484, -0.0008631397504359484, -0.0008631397504359484, -0.0008631397504359484]}, "gradients/net.2.out_w.weight": {"_type": "histogram", "values": [18.0, 18.0, 6.0, 12.0, 18.0, 12.0, 12.0, 12.0, 6.0, 6.0, 6.0, 30.0, 30.0, 6.0, 6.0, 18.0, 12.0, 6.0, 12.0, 24.0, 12.0, 24.0, 12.0, 36.0, 6.0, 24.0, 18.0, 24.0, 18.0, 18.0, 24.0, 6.0, 60.0, 6.0, 6.0, 6.0, 24.0, 12.0, 0.0, 12.0, 6.0, 12.0, 12.0, 12.0, 12.0, 6.0, 6.0, 0.0, 12.0, 12.0, 18.0, 12.0, 6.0, 0.0, 0.0, 6.0, 0.0, 6.0, 0.0, 0.0, 6.0, 0.0, 0.0, 6.0], "bins": [-0.003437282517552376, -0.0033126294147223234, -0.003187976311892271, -0.0030633234418928623, -0.00293867033906281, -0.0028140172362327576, -0.002689364366233349, -0.0025647112634032965, -0.002440058160573244, -0.0023154050577431917, -0.0021907519549131393, -0.0020660990849137306, -0.0019414459820836782, -0.0018167928792536259, -0.0016921398928388953, -0.0015674869064241648, -0.0014428338035941124, -0.00131818070076406, -0.0011935277143493295, -0.001068874727934599, -0.0009442216251045465, -0.0008195685804821551, -0.0006949155358597636, -0.0005702624912373722, -0.0004456094466149807, -0.00032095640199258924, -0.00019630335737019777, -7.165031274780631e-05, 5.300273187458515e-05, 0.00017765577649697661, 0.0003023088211193681, 0.00042696186574175954, 0.000551614910364151, 0.0006762679549865425, 0.0008009209996089339, 0.0009255740442313254, 0.0010502270888537169, 0.0011748801916837692, 0.0012995331780984998, 0.0014241861645132303, 0.0015488392673432827, 0.001673492370173335, 0.0017981453565880656, 0.0019227983430027962, 0.0020474514458328485, 0.002172104548662901, 0.0022967574186623096, 0.002421410521492362, 0.0025460636243224144, 0.0026707167271524668, 0.002795369829982519, 0.002920022699981928, 0.0030446758028119802, 0.0031693289056420326, 0.0032939817756414413, 0.0034186348784714937, 0.003543287981301546, 0.0036679410841315985, 0.003792594186961651, 0.00391724705696106, 0.004041899926960468, 0.004166553262621164, 0.004291206132620573, 0.004415859468281269, 0.004540512338280678]}, "gradients/net.2.in_w.bias": {"_type": "histogram", "values": [4.0, 0.0, 0.0, 0.0, 0.0, 0.0, 0.0, 0.0, 0.0, 0.0, 0.0, 0.0, 0.0, 0.0, 0.0, 0.0, 0.0, 0.0, 0.0, 0.0, 0.0, 0.0, 0.0, 0.0, 0.0, 0.0, 0.0, 0.0, 0.0, 0.0, 0.0, 0.0, 0.0, 0.0, 0.0, 0.0, 0.0, 0.0, 0.0, 0.0, 0.0, 0.0, 0.0, 0.0, 0.0, 0.0, 0.0, 0.0, 0.0, 0.0, 0.0, 0.0, 0.0, 0.0, 0.0, 0.0, 0.0, 0.0, 0.0, 0.0, 0.0, 0.0, 0.0, 2.0], "bins": [-0.0008631398086436093, -0.0008631398086436093, -0.0008631398086436093, -0.0008631398086436093, -0.0008631398086436093, -0.0008631398086436093, -0.0008631398086436093, -0.0008631398086436093, -0.0008631398086436093, -0.0008631398086436093, -0.0008631398086436093, -0.0008631398086436093, -0.0008631398086436093, -0.0008631398086436093, -0.0008631398086436093, -0.0008631398086436093, -0.0008631398086436093, -0.0008631398086436093, -0.0008631398086436093, -0.0008631398086436093, -0.0008631398086436093, -0.0008631398086436093, -0.0008631398086436093, -0.0008631398086436093, -0.0008631398086436093, -0.0008631398086436093, -0.0008631398086436093, -0.0008631398086436093, -0.0008631398086436093, -0.0008631398086436093, -0.0008631398086436093, -0.0008631398086436093, -0.0008631397504359484, -0.0008631397504359484, -0.0008631397504359484, -0.0008631397504359484, -0.0008631397504359484, -0.0008631397504359484, -0.0008631397504359484, -0.0008631397504359484, -0.0008631397504359484, -0.0008631397504359484, -0.0008631397504359484, -0.0008631397504359484, -0.0008631397504359484, -0.0008631397504359484, -0.0008631397504359484, -0.0008631397504359484, -0.0008631397504359484, -0.0008631397504359484, -0.0008631397504359484, -0.0008631397504359484, -0.0008631397504359484, -0.0008631397504359484, -0.0008631397504359484, -0.0008631397504359484, -0.0008631397504359484, -0.0008631397504359484, -0.0008631397504359484, -0.0008631397504359484, -0.0008631397504359484, -0.0008631397504359484, -0.0008631397504359484, -0.0008631397504359484, -0.0008631397504359484]}, "gradients/net.2.in_w.weight": {"_type": "histogram", "values": [18.0, 18.0, 6.0, 12.0, 18.0, 12.0, 12.0, 12.0, 6.0, 6.0, 6.0, 30.0, 30.0, 6.0, 6.0, 18.0, 12.0, 6.0, 12.0, 24.0, 12.0, 24.0, 12.0, 36.0, 6.0, 24.0, 18.0, 24.0, 18.0, 18.0, 24.0, 6.0, 60.0, 6.0, 6.0, 6.0, 24.0, 12.0, 0.0, 12.0, 6.0, 12.0, 12.0, 12.0, 12.0, 6.0, 6.0, 0.0, 12.0, 12.0, 18.0, 12.0, 6.0, 0.0, 0.0, 6.0, 0.0, 6.0, 0.0, 0.0, 6.0, 0.0, 0.0, 6.0], "bins": [-0.003437282517552376, -0.0033126294147223234, -0.003187976311892271, -0.0030633234418928623, -0.00293867033906281, -0.0028140172362327576, -0.002689364366233349, -0.0025647112634032965, -0.002440058160573244, -0.0023154050577431917, -0.0021907519549131393, -0.0020660990849137306, -0.0019414459820836782, -0.0018167928792536259, -0.0016921398928388953, -0.0015674869064241648, -0.0014428338035941124, -0.00131818070076406, -0.0011935277143493295, -0.001068874727934599, -0.0009442216251045465, -0.0008195685804821551, -0.0006949155358597636, -0.0005702624912373722, -0.0004456094466149807, -0.00032095640199258924, -0.00019630335737019777, -7.165031274780631e-05, 5.300273187458515e-05, 0.00017765577649697661, 0.0003023088211193681, 0.00042696186574175954, 0.000551614910364151, 0.0006762679549865425, 0.0008009209996089339, 0.0009255740442313254, 0.0010502270888537169, 0.0011748801916837692, 0.0012995331780984998, 0.0014241861645132303, 0.0015488392673432827, 0.001673492370173335, 0.0017981453565880656, 0.0019227983430027962, 0.0020474514458328485, 0.002172104548662901, 0.0022967574186623096, 0.002421410521492362, 0.0025460636243224144, 0.0026707167271524668, 0.002795369829982519, 0.002920022699981928, 0.0030446758028119802, 0.0031693289056420326, 0.0032939817756414413, 0.0034186348784714937, 0.003543287981301546, 0.0036679410841315985, 0.003792594186961651, 0.00391724705696106, 0.004041899926960468, 0.004166553262621164, 0.004291206132620573, 0.004415859468281269, 0.004540512338280678]}, "gradients/net.0.out_w.bias": {"_type": "histogram", "values": [1.0, 0.0, 0.0, 0.0, 0.0, 0.0, 1.0, 1.0, 0.0, 0.0, 0.0, 4.0, 3.0, 1.0, 1.0, 5.0, 0.0, 1.0, 2.0, 3.0, 2.0, 1.0, 1.0, 1.0, 1.0, 1.0, 1.0, 2.0, 5.0, 9.0, 3.0, 4.0, 10.0, 11.0, 4.0, 3.0, 4.0, 1.0, 4.0, 2.0, 3.0, 1.0, 1.0, 2.0, 1.0, 1.0, 4.0, 3.0, 0.0, 1.0, 1.0, 2.0, 1.0, 1.0, 4.0, 1.0, 3.0, 0.0, 1.0, 0.0, 1.0, 2.0, 0.0, 1.0], "bins": [-0.0027165592182427645, -0.0026347923558205366, -0.0025530257262289524, -0.0024712588638067245, -0.0023894920013844967, -0.002307725138962269, -0.0022259585093706846, -0.0021441916469484568, -0.002062424784526229, -0.0019806581549346447, -0.0018988912925124168, -0.001817124430090189, -0.001735357684083283, -0.001653590821661055, -0.001571824075654149, -0.0014900572132319212, -0.0014082904672250152, -0.0013265237212181091, -0.0012447568587958813, -0.0011629901127889752, -0.0010812232503667474, -0.0009994565043598413, -0.0009176897001452744, -0.0008359228959307075, -0.0007541560917161405, -0.0006723892875015736, -0.0005906224832870066, -0.0005088556790724397, -0.0004270889039617032, -0.00034532209974713624, -0.00026355532463639975, -0.0001817885204218328, -0.00010002171620726585, -1.8254919268656522e-05, 6.351187766995281e-05, 0.00014527866733260453, 0.00022704547154717147, 0.0003088122757617384, 0.0003905790508724749, 0.00047234585508704185, 0.0005541126593016088, 0.0006358794635161757, 0.0007176462677307427, 0.0007994130719453096, 0.0008811798179522157, 0.0009629466221667826, 0.0010447134263813496, 0.0011264802888035774, 0.0012082470348104835, 0.0012900137808173895, 0.0013717806432396173, 0.0014535473892465234, 0.0015353142516687512, 0.0016170809976756573, 0.0016988478600978851, 0.0017806146061047912, 0.0018623813521116972, 0.001944148214533925, 0.002025915076956153, 0.002107681706547737, 0.002189448568969965, 0.002271215431392193, 0.0023529822938144207, 0.002434748923406005, 0.0025165157858282328]}, "gradients/net.0.out_w.weight": {"_type": "histogram", "values": [1.0, 0.0, 0.0, 0.0, 2.0, 0.0, 0.0, 1.0, 1.0, 0.0, 1.0, 1.0, 1.0, 1.0, 3.0, 3.0, 3.0, 1.0, 4.0, 3.0, 2.0, 1.0, 4.0, 5.0, 3.0, 3.0, 4.0, 3.0, 8.0, 12.0, 21.0, 21.0, 38.0, 21.0, 13.0, 13.0, 5.0, 3.0, 5.0, 5.0, 5.0, 2.0, 0.0, 1.0, 5.0, 4.0, 3.0, 3.0, 3.0, 0.0, 2.0, 0.0, 1.0, 1.0, 0.0, 2.0, 1.0, 0.0, 3.0, 0.0, 0.0, 0.0, 1.0, 3.0], "bins": [-0.018231093883514404, -0.01766464300453663, -0.017098192125558853, -0.016531741246581078, -0.015965290367603302, -0.015398840419948101, -0.014832389540970325, -0.01426593866199255, -0.013699488714337349, -0.013133037835359573, -0.012566586956381798, -0.012000136077404022, -0.011433685198426247, -0.010867234319448471, -0.01030078437179327, -0.009734333492815495, -0.009167882613837719, -0.008601431734859943, -0.008034980855882168, -0.0074685304425656796, -0.006902080029249191, -0.006335629150271416, -0.00576917827129364, -0.005202727857977152, -0.004636276978999376, -0.004069826100021601, -0.0035033756867051125, -0.002936924807727337, -0.002370474161580205, -0.001804023515433073, -0.0012375727528706193, -0.0006711220485158265, -0.00010467134416103363, 0.0004617793601937592, 0.001028230064548552, 0.0015946808271110058, 0.0021611314732581377, 0.0027275821194052696, 0.003294032998383045, 0.003860483644530177, 0.004426934290677309, 0.004993385169655085, 0.005559835582971573, 0.0061262864619493484, 0.006692737340927124, 0.007259187754243612, 0.0078256381675601, 0.008392089046537876, 0.008958539925515652, 0.009524990804493427, 0.010091441683471203, 0.010657891631126404, 0.01122434251010418, 0.011790793389081955, 0.01235724426805973, 0.012923695147037506, 0.013490146026015282, 0.014056595973670483, 0.014623046852648258, 0.015189497731626034, 0.015755947679281235, 0.01632239855825901, 0.016888849437236786, 0.01745530031621456, 0.018021751195192337]}, "gradients/net.0.in_w.bias": {"_type": "histogram", "values": [1.0, 0.0, 0.0, 0.0, 0.0, 0.0, 1.0, 1.0, 0.0, 0.0, 0.0, 4.0, 3.0, 1.0, 1.0, 5.0, 0.0, 1.0, 2.0, 3.0, 2.0, 1.0, 1.0, 1.0, 1.0, 1.0, 1.0, 2.0, 5.0, 9.0, 3.0, 4.0, 10.0, 11.0, 4.0, 3.0, 4.0, 1.0, 4.0, 2.0, 3.0, 1.0, 1.0, 2.0, 1.0, 1.0, 4.0, 3.0, 0.0, 1.0, 1.0, 2.0, 1.0, 1.0, 4.0, 1.0, 3.0, 0.0, 1.0, 0.0, 1.0, 2.0, 0.0, 1.0], "bins": [-0.0027165592182427645, -0.0026347923558205366, -0.0025530257262289524, -0.0024712588638067245, -0.0023894920013844967, -0.002307725138962269, -0.0022259585093706846, -0.0021441916469484568, -0.002062424784526229, -0.0019806581549346447, -0.0018988912925124168, -0.001817124430090189, -0.001735357684083283, -0.001653590821661055, -0.001571824075654149, -0.0014900572132319212, -0.0014082904672250152, -0.0013265237212181091, -0.0012447568587958813, -0.0011629901127889752, -0.0010812232503667474, -0.0009994565043598413, -0.0009176897001452744, -0.0008359228959307075, -0.0007541560917161405, -0.0006723892875015736, -0.0005906224832870066, -0.0005088556790724397, -0.0004270889039617032, -0.00034532209974713624, -0.00026355532463639975, -0.0001817885204218328, -0.00010002171620726585, -1.8254919268656522e-05, 6.351187766995281e-05, 0.00014527866733260453, 0.00022704547154717147, 0.0003088122757617384, 0.0003905790508724749, 0.00047234585508704185, 0.0005541126593016088, 0.0006358794635161757, 0.0007176462677307427, 0.0007994130719453096, 0.0008811798179522157, 0.0009629466221667826, 0.0010447134263813496, 0.0011264802888035774, 0.0012082470348104835, 0.0012900137808173895, 0.0013717806432396173, 0.0014535473892465234, 0.0015353142516687512, 0.0016170809976756573, 0.0016988478600978851, 0.0017806146061047912, 0.0018623813521116972, 0.001944148214533925, 0.002025915076956153, 0.002107681706547737, 0.002189448568969965, 0.002271215431392193, 0.0023529822938144207, 0.002434748923406005, 0.0025165157858282328]}, "gradients/net.0.in_w.weight": {"_type": "histogram", "values": [1.0, 0.0, 0.0, 0.0, 2.0, 0.0, 0.0, 1.0, 1.0, 0.0, 1.0, 1.0, 1.0, 1.0, 3.0, 3.0, 3.0, 1.0, 4.0, 3.0, 2.0, 1.0, 4.0, 5.0, 3.0, 3.0, 4.0, 3.0, 8.0, 12.0, 21.0, 21.0, 38.0, 21.0, 13.0, 13.0, 5.0, 3.0, 5.0, 5.0, 5.0, 2.0, 0.0, 1.0, 5.0, 4.0, 3.0, 3.0, 3.0, 0.0, 2.0, 0.0, 1.0, 1.0, 0.0, 2.0, 1.0, 0.0, 3.0, 0.0, 0.0, 0.0, 1.0, 3.0], "bins": [-0.018231093883514404, -0.01766464300453663, -0.017098192125558853, -0.016531741246581078, -0.015965290367603302, -0.015398840419948101, -0.014832389540970325, -0.01426593866199255, -0.013699488714337349, -0.013133037835359573, -0.012566586956381798, -0.012000136077404022, -0.011433685198426247, -0.010867234319448471, -0.01030078437179327, -0.009734333492815495, -0.009167882613837719, -0.008601431734859943, -0.008034980855882168, -0.0074685304425656796, -0.006902080029249191, -0.006335629150271416, -0.00576917827129364, -0.005202727857977152, -0.004636276978999376, -0.004069826100021601, -0.0035033756867051125, -0.002936924807727337, -0.002370474161580205, -0.001804023515433073, -0.0012375727528706193, -0.0006711220485158265, -0.00010467134416103363, 0.0004617793601937592, 0.001028230064548552, 0.0015946808271110058, 0.0021611314732581377, 0.0027275821194052696, 0.003294032998383045, 0.003860483644530177, 0.004426934290677309, 0.004993385169655085, 0.005559835582971573, 0.0061262864619493484, 0.006692737340927124, 0.007259187754243612, 0.0078256381675601, 0.008392089046537876, 0.008958539925515652, 0.009524990804493427, 0.010091441683471203, 0.010657891631126404, 0.01122434251010418, 0.011790793389081955, 0.01235724426805973, 0.012923695147037506, 0.013490146026015282, 0.014056595973670483, 0.014623046852648258, 0.015189497731626034, 0.015755947679281235, 0.01632239855825901, 0.016888849437236786, 0.01745530031621456, 0.018021751195192337]}, "train_loss_d2": 2.7333903312683105, "train_H_d2": 12.634868621826172, "test_loss_d2": 2.604705333709717, "test_H_d2": 11.414514541625977, "parameters/graph_1net.0.in_w.weight": {"_type": "histogram", "values": [1.0, 0.0, 0.0, 0.0, 0.0, 0.0, 0.0, 1.0, 1.0, 0.0, 2.0, 2.0, 2.0, 4.0, 2.0, 2.0, 4.0, 2.0, 6.0, 1.0, 7.0, 7.0, 4.0, 4.0, 2.0, 4.0, 6.0, 7.0, 4.0, 12.0, 6.0, 6.0, 3.0, 4.0, 16.0, 5.0, 6.0, 3.0, 8.0, 6.0, 6.0, 6.0, 10.0, 5.0, 5.0, 6.0, 3.0, 11.0, 9.0, 2.0, 7.0, 2.0, 5.0, 2.0, 6.0, 4.0, 3.0, 4.0, 4.0, 1.0, 0.0, 3.0, 1.0, 1.0], "bins": [-1.018821358680725, -0.9896723628044128, -0.9605233073234558, -0.9313743114471436, -0.9022253155708313, -0.873076319694519, -0.843927264213562, -0.8147782683372498, -0.7856292724609375, -0.7564802169799805, -0.7273312211036682, -0.698182225227356, -0.6690332293510437, -0.6398841738700867, -0.6107351779937744, -0.5815861821174622, -0.5524371862411499, -0.5232881307601929, -0.4941391348838806, -0.46499010920524597, -0.4358411133289337, -0.4066920876502991, -0.3775430917739868, -0.3483940660953522, -0.31924504041671753, -0.2900960445404053, -0.26094701886177063, -0.23179802298545837, -0.20264899730682373, -0.17349998652935028, -0.14435097575187683, -0.11520196497440338, -0.08605295419692993, -0.05690394341945648, -0.027754928916692734, 0.0013940837234258652, 0.030543096363544464, 0.059692107141017914, 0.08884112536907196, 0.11799013614654541, 0.14713914692401886, 0.1762881577014923, 0.20543716847896576, 0.2345861792564392, 0.26373520493507385, 0.2928842008113861, 0.32203322649002075, 0.351182222366333, 0.38033124804496765, 0.4094802737236023, 0.43862926959991455, 0.4677782952785492, 0.49692729115486145, 0.5260763168334961, 0.5552253127098083, 0.5843743085861206, 0.6135233640670776, 0.6426723599433899, 0.6718213558197021, 0.7009704113006592, 0.7301194071769714, 0.7592684030532837, 0.788417398929596, 0.817566454410553, 0.8467154502868652]}, "parameters/graph_1net.0.in_w.bias": {"_type": "histogram", "values": [2.0, 2.0, 3.0, 1.0, 0.0, 1.0, 4.0, 1.0, 2.0, 0.0, 3.0, 2.0, 0.0, 2.0, 3.0, 1.0, 1.0, 1.0, 3.0, 2.0, 5.0, 4.0, 2.0, 2.0, 1.0, 0.0, 2.0, 3.0, 1.0, 5.0, 1.0, 1.0, 2.0, 2.0, 0.0, 2.0, 2.0, 6.0, 1.0, 2.0, 0.0, 0.0, 2.0, 4.0, 1.0, 2.0, 0.0, 3.0, 2.0, 1.0, 1.0, 3.0, 2.0, 1.0, 0.0, 1.0, 4.0, 4.0, 3.0, 3.0, 5.0, 4.0, 1.0, 3.0], "bins": [-1.0021923780441284, -0.9714797139167786, -0.9407670497894287, -0.9100544452667236, -0.8793417811393738, -0.8486291170120239, -0.8179164528846741, -0.7872037887573242, -0.7564911842346191, -0.7257785201072693, -0.6950658559799194, -0.6643531918525696, -0.6336405277252197, -0.6029278635978699, -0.5722152590751648, -0.5415025949478149, -0.5107899308204651, -0.48007726669311523, -0.44936463236808777, -0.4186519682407379, -0.38793933391571045, -0.3572266697883606, -0.32651400566101074, -0.2958013713359833, -0.2650887072086334, -0.23437605798244476, -0.2036634087562561, -0.17295074462890625, -0.1422380954027176, -0.11152544617652893, -0.08081278949975967, -0.050100136548280716, -0.019387483596801758, 0.0113251693546772, 0.04203782230615616, 0.07275047898292542, 0.10346312820911407, 0.13417577743530273, 0.1648884415626526, 0.19560109078884125, 0.2263137400150299, 0.25702640414237976, 0.2877390384674072, 0.3184517025947571, 0.34916436672210693, 0.3798770010471344, 0.41058966517448425, 0.4413022994995117, 0.4720149636268616, 0.5027276277542114, 0.5334402918815613, 0.5641528964042664, 0.5948655605316162, 0.6255782246589661, 0.6562908887863159, 0.6870035529136658, 0.7177162170410156, 0.7484288215637207, 0.7791414856910706, 0.8098541498184204, 0.8405668139457703, 0.8712794780731201, 0.9019920825958252, 0.932704746723175, 0.9634174108505249]}, "parameters/graph_1net.0.out_w.weight": {"_type": "histogram", "values": [1.0, 0.0, 0.0, 1.0, 0.0, 4.0, 0.0, 2.0, 1.0, 3.0, 1.0, 5.0, 4.0, 2.0, 7.0, 5.0, 5.0, 3.0, 5.0, 8.0, 4.0, 7.0, 5.0, 8.0, 10.0, 4.0, 12.0, 7.0, 13.0, 15.0, 8.0, 5.0, 9.0, 6.0, 5.0, 5.0, 5.0, 6.0, 7.0, 3.0, 10.0, 7.0, 5.0, 5.0, 2.0, 2.0, 3.0, 4.0, 7.0, 2.0, 4.0, 1.0, 0.0, 0.0, 1.0, 1.0, 0.0, 0.0, 0.0, 0.0, 0.0, 0.0, 0.0, 1.0], "bins": [-0.9279332756996155, -0.8969118595123291, -0.865890383720398, -0.8348689079284668, -0.8038474917411804, -0.772826075553894, -0.7418045997619629, -0.7107831239700317, -0.6797617077827454, -0.648740291595459, -0.6177188158035278, -0.5866973400115967, -0.5556759238243103, -0.5246545076370239, -0.4936330318450928, -0.462611585855484, -0.43159013986587524, -0.4005686938762665, -0.3695472478866577, -0.33852580189704895, -0.3075043559074402, -0.2764829099178314, -0.24546146392822266, -0.2144400179386139, -0.18341857194900513, -0.15239712595939636, -0.1213756799697876, -0.09035423398017883, -0.05933278799057007, -0.028311342000961304, 0.002710103988647461, 0.033731549978256226, 0.06475293636322021, 0.09577438235282898, 0.12679582834243774, 0.1578172743320465, 0.18883872032165527, 0.21986016631126404, 0.2508816123008728, 0.28190305829048157, 0.31292450428009033, 0.3439459502696991, 0.37496739625930786, 0.4059888422489166, 0.4370102882385254, 0.46803173422813416, 0.4990531802177429, 0.5300745964050293, 0.5610960721969604, 0.5921175479888916, 0.623138964176178, 0.6541603803634644, 0.6851818561553955, 0.7162033319473267, 0.747224748134613, 0.7782461643218994, 0.8092676401138306, 0.8402891159057617, 0.8713105320930481, 0.9023319482803345, 0.9333534240722656, 0.9643748998641968, 0.9953963160514832, 1.0264177322387695, 1.0574392080307007]}, "parameters/graph_1net.0.out_w.bias": {"_type": "histogram", "values": [2.0, 0.0, 2.0, 1.0, 1.0, 2.0, 1.0, 2.0, 1.0, 2.0, 2.0, 4.0, 2.0, 2.0, 2.0, 1.0, 3.0, 2.0, 2.0, 4.0, 3.0, 1.0, 0.0, 3.0, 0.0, 3.0, 4.0, 5.0, 3.0, 3.0, 4.0, 1.0, 1.0, 1.0, 3.0, 1.0, 2.0, 1.0, 1.0, 3.0, 2.0, 3.0, 3.0, 0.0, 3.0, 3.0, 2.0, 1.0, 3.0, 5.0, 0.0, 1.0, 4.0, 1.0, 2.0, 2.0, 1.0, 0.0, 0.0, 4.0, 1.0, 0.0, 1.0, 5.0], "bins": [-1.0172618627548218, -0.986209511756897, -0.9551572203636169, -0.9241048693656921, -0.8930525183677673, -0.8620002269744873, -0.8309478759765625, -0.7998955249786377, -0.7688432335853577, -0.7377908825874329, -0.7067385315895081, -0.675686240196228, -0.6446338891983032, -0.6135815382003784, -0.5825292468070984, -0.5514768958091736, -0.5204246044158936, -0.48937225341796875, -0.45831990242004395, -0.42726758122444153, -0.3962152600288391, -0.3651629090309143, -0.3341105878353119, -0.3030582666397095, -0.27200591564178467, -0.24095359444618225, -0.20990127325057983, -0.17884893715381622, -0.1477966010570526, -0.1167442798614502, -0.08569194376468658, -0.05463961511850357, -0.023587286472320557, 0.0074650440365076065, 0.03851737454533577, 0.06956970691680908, 0.1006220355629921, 0.1316743642091751, 0.16272670030593872, 0.19377902150154114, 0.22483135759830475, 0.25588369369506836, 0.2869360148906708, 0.3179883360862732, 0.349040687084198, 0.3800930082798004, 0.41114532947540283, 0.44219768047332764, 0.47325000166893005, 0.5043023228645325, 0.5353546738624573, 0.5664069652557373, 0.5974593162536621, 0.6285116672515869, 0.6595639586448669, 0.6906163096427917, 0.7216686606407166, 0.7527209520339966, 0.7837733030319214, 0.8148256540298462, 0.8458779454231262, 0.876930296421051, 0.9079826474189758, 0.9390349388122559, 0.9700872898101807]}, "parameters/graph_1net.2.in_w.weight": {"_type": "histogram", "values": [4.0, 5.0, 8.0, 8.0, 3.0, 12.0, 5.0, 8.0, 7.0, 10.0, 9.0, 11.0, 17.0, 22.0, 18.0, 18.0, 12.0, 19.0, 29.0, 17.0, 13.0, 28.0, 25.0, 22.0, 20.0, 30.0, 28.0, 25.0, 21.0, 28.0, 18.0, 24.0, 24.0, 21.0, 14.0, 27.0, 19.0, 16.0, 14.0, 16.0, 6.0, 7.0, 8.0, 10.0, 12.0, 4.0, 8.0, 2.0, 4.0, 4.0, 3.0, 3.0, 8.0, 7.0, 0.0, 2.0, 2.0, 1.0, 0.0, 0.0, 0.0, 1.0, 0.0, 1.0], "bins": [-0.25553664565086365, -0.24619127810001373, -0.23684591054916382, -0.2275005429983139, -0.218155175447464, -0.20880982279777527, -0.19946445524692535, -0.19011908769607544, -0.18077372014522552, -0.1714283525943756, -0.1620829850435257, -0.15273761749267578, -0.14339226484298706, -0.13404689729213715, -0.12470152974128723, -0.11535616219043732, -0.1060107946395874, -0.09666542708873749, -0.08732005953788757, -0.07797469943761826, -0.06862933188676834, -0.059283964335918427, -0.04993860051035881, -0.040593236684799194, -0.03124786913394928, -0.021902503445744514, -0.01255713775753975, -0.003211772069334984, 0.0061335936188697815, 0.015478959307074547, 0.024824324995279312, 0.03416968882083893, 0.043515026569366455, 0.05286039412021637, 0.062205757945775986, 0.0715511217713356, 0.08089648932218552, 0.09024185687303543, 0.09958721697330475, 0.10893258452415466, 0.11827795207500458, 0.1276233196258545, 0.1369686871767044, 0.14631405472755432, 0.15565940737724304, 0.16500477492809296, 0.17435014247894287, 0.18369551002979279, 0.1930408775806427, 0.20238624513149261, 0.21173161268234253, 0.22107698023319244, 0.23042234778404236, 0.23976770043373108, 0.249113067984581, 0.2584584355354309, 0.26780378818511963, 0.27714917063713074, 0.28649452328681946, 0.29583990573883057, 0.3051852583885193, 0.3145306408405304, 0.3238759934902191, 0.3332213759422302, 0.34256672859191895]}, "parameters/graph_1net.2.in_w.bias": {"_type": "histogram", "values": [1.0, 0.0, 0.0, 0.0, 0.0, 0.0, 0.0, 0.0, 0.0, 0.0, 0.0, 1.0, 0.0, 0.0, 0.0, 1.0, 0.0, 0.0, 0.0, 0.0, 0.0, 0.0, 0.0, 0.0, 0.0, 0.0, 0.0, 0.0, 0.0, 0.0, 1.0, 0.0, 0.0, 0.0, 0.0, 0.0, 0.0, 0.0, 0.0, 0.0, 0.0, 0.0, 0.0, 1.0, 0.0, 0.0, 0.0, 0.0, 0.0, 0.0, 0.0, 0.0, 0.0, 0.0, 0.0, 0.0, 0.0, 0.0, 0.0, 0.0, 0.0, 0.0, 0.0, 1.0], "bins": [0.14047427475452423, 0.14275676012039185, 0.14503926038742065, 0.14732174575328827, 0.14960423111915588, 0.1518867313861847, 0.1541692167520523, 0.15645171701908112, 0.15873420238494873, 0.16101668775081635, 0.16329918801784515, 0.16558167338371277, 0.16786415874958038, 0.1701466590166092, 0.1724291443824768, 0.17471162974834442, 0.17699413001537323, 0.17927661538124084, 0.18155910074710846, 0.18384160101413727, 0.18612408638000488, 0.1884065866470337, 0.1906890720129013, 0.19297155737876892, 0.19525405764579773, 0.19753654301166534, 0.19981902837753296, 0.20210152864456177, 0.20438401401042938, 0.206666499376297, 0.2089489996433258, 0.21123148500919342, 0.21351397037506104, 0.21579647064208984, 0.21807895600795746, 0.22036145627498627, 0.22264394164085388, 0.2249264270067215, 0.2272089272737503, 0.22949141263961792, 0.23177389800548553, 0.23405639827251434, 0.23633888363838196, 0.23862136900424957, 0.24090386927127838, 0.243186354637146, 0.2454688549041748, 0.24775134027004242, 0.25003382563591003, 0.25231632590293884, 0.25459879636764526, 0.2568812966346741, 0.2591637969017029, 0.2614462971687317, 0.2637287676334381, 0.2660112679004669, 0.2682937681674957, 0.27057623863220215, 0.27285873889923096, 0.27514123916625977, 0.2774237096309662, 0.279706209897995, 0.2819887101650238, 0.2842711806297302, 0.28655368089675903]}, "parameters/graph_1net.2.out_w.weight": {"_type": "histogram", "values": [3.0, 0.0, 1.0, 1.0, 3.0, 4.0, 4.0, 4.0, 5.0, 5.0, 7.0, 16.0, 9.0, 11.0, 12.0, 10.0, 16.0, 18.0, 13.0, 14.0, 19.0, 17.0, 22.0, 28.0, 25.0, 18.0, 30.0, 23.0, 18.0, 33.0, 30.0, 23.0, 22.0, 20.0, 24.0, 21.0, 14.0, 22.0, 26.0, 17.0, 10.0, 18.0, 16.0, 13.0, 16.0, 17.0, 10.0, 8.0, 2.0, 10.0, 2.0, 3.0, 0.0, 3.0, 4.0, 10.0, 0.0, 3.0, 1.0, 2.0, 4.0, 4.0, 2.0, 2.0], "bins": [-0.30282506346702576, -0.29326239228248596, -0.28369972109794617, -0.274137020111084, -0.2645743489265442, -0.2550116777420044, -0.2454489916563034, -0.2358863204717636, -0.22632363438606262, -0.21676096320152283, -0.20719829201698303, -0.19763560593128204, -0.18807293474674225, -0.17851024866104126, -0.16894757747650146, -0.15938489139080048, -0.14982222020626068, -0.1402595490217209, -0.1306968629360199, -0.1211341843008995, -0.11157150566577911, -0.10200883448123932, -0.09244615584611893, -0.08288347721099854, -0.07332079857587814, -0.06375811994075775, -0.05419544130563736, -0.044632766395807266, -0.035070087760686874, -0.025507409125566483, -0.01594473235309124, -0.006382054649293423, 0.0031806230545043945, 0.012743300758302212, 0.02230597846210003, 0.03186865523457527, 0.04143133386969566, 0.050994012504816055, 0.06055668741464615, 0.07011936604976654, 0.07968204468488693, 0.08924472332000732, 0.09880740195512772, 0.10837008059024811, 0.1179327517747879, 0.1274954378604889, 0.1370581090450287, 0.14662079513072968, 0.15618346631526947, 0.16574613749980927, 0.17530882358551025, 0.18487149477005005, 0.19443418085575104, 0.20399685204029083, 0.21355953812599182, 0.22312220931053162, 0.2326848804950714, 0.2422475665807724, 0.2518102526664734, 0.2613729238510132, 0.270935595035553, 0.2804982662200928, 0.29006096720695496, 0.29962363839149475, 0.30918630957603455]}, "parameters/graph_1net.2.out_w.bias": {"_type": "histogram", "values": [1.0, 0.0, 0.0, 0.0, 0.0, 0.0, 0.0, 0.0, 0.0, 0.0, 0.0, 0.0, 0.0, 0.0, 0.0, 0.0, 0.0, 0.0, 0.0, 0.0, 0.0, 0.0, 0.0, 0.0, 0.0, 0.0, 0.0, 0.0, 0.0, 1.0, 0.0, 0.0, 0.0, 0.0, 0.0, 0.0, 0.0, 0.0, 1.0, 0.0, 0.0, 0.0, 1.0, 0.0, 0.0, 0.0, 0.0, 0.0, 0.0, 0.0, 0.0, 0.0, 0.0, 0.0, 0.0, 0.0, 0.0, 0.0, 0.0, 0.0, 1.0, 0.0, 0.0, 1.0], "bins": [0.13148261606693268, 0.13401322066783905, 0.13654382526874542, 0.1390744298696518, 0.14160503447055817, 0.14413563907146454, 0.1466662436723709, 0.14919686317443848, 0.15172746777534485, 0.15425807237625122, 0.1567886769771576, 0.15931928157806396, 0.16184988617897034, 0.1643804907798767, 0.16691109538078308, 0.16944169998168945, 0.17197230458259583, 0.1745029091835022, 0.17703351378440857, 0.17956411838531494, 0.1820947378873825, 0.18462534248828888, 0.18715594708919525, 0.18968655169010162, 0.192217156291008, 0.19474776089191437, 0.19727836549282074, 0.1998089700937271, 0.20233957469463348, 0.20487017929553986, 0.20740078389644623, 0.2099313884973526, 0.21246200799942017, 0.21499261260032654, 0.2175232172012329, 0.22005382180213928, 0.22258442640304565, 0.22511503100395203, 0.2276456356048584, 0.23017624020576477, 0.23270684480667114, 0.23523744940757751, 0.2377680540084839, 0.24029865860939026, 0.24282926321029663, 0.2453598827123642, 0.24789048731327057, 0.25042107701301575, 0.2529516816139221, 0.2554822862148285, 0.25801289081573486, 0.26054349541664124, 0.26307412981987, 0.26560473442077637, 0.26813533902168274, 0.2706659436225891, 0.2731965482234955, 0.27572715282440186, 0.2782577574253082, 0.2807883620262146, 0.28331896662712097, 0.28584957122802734, 0.2883801758289337, 0.2909107804298401, 0.29344138503074646]}, "gradients/graph_1net.2.out_w.bias": {"_type": "histogram", "values": [4.0, 0.0, 0.0, 0.0, 0.0, 0.0, 0.0, 0.0, 0.0, 0.0, 0.0, 0.0, 0.0, 0.0, 0.0, 0.0, 0.0, 0.0, 0.0, 0.0, 0.0, 0.0, 0.0, 0.0, 0.0, 0.0, 0.0, 0.0, 0.0, 0.0, 0.0, 0.0, 0.0, 0.0, 0.0, 0.0, 0.0, 0.0, 0.0, 0.0, 0.0, 0.0, 0.0, 0.0, 0.0, 0.0, 0.0, 0.0, 0.0, 0.0, 0.0, 0.0, 0.0, 0.0, 0.0, 0.0, 0.0, 0.0, 0.0, 0.0, 0.0, 0.0, 0.0, 2.0], "bins": [0.000677124597132206, 0.000677124597132206, 0.000677124597132206, 0.000677124597132206, 0.000677124597132206, 0.0006771246553398669, 0.0006771246553398669, 0.0006771246553398669, 0.0006771246553398669, 0.0006771246553398669, 0.0006771246553398669, 0.0006771246553398669, 0.0006771247135475278, 0.0006771247135475278, 0.0006771247135475278, 0.0006771247135475278, 0.0006771247135475278, 0.0006771247135475278, 0.0006771247135475278, 0.0006771247135475278, 0.0006771247135475278, 0.0006771247717551887, 0.0006771247717551887, 0.0006771247717551887, 0.0006771247717551887, 0.0006771247717551887, 0.0006771247717551887, 0.0006771247717551887, 0.0006771248299628496, 0.0006771248299628496, 0.0006771248299628496, 0.0006771248299628496, 0.0006771248299628496, 0.0006771248299628496, 0.0006771248299628496, 0.0006771248299628496, 0.0006771248299628496, 0.0006771248881705105, 0.0006771248881705105, 0.0006771248881705105, 0.0006771248881705105, 0.0006771248881705105, 0.0006771248881705105, 0.0006771248881705105, 0.0006771249463781714, 0.0006771249463781714, 0.0006771249463781714, 0.0006771249463781714, 0.0006771249463781714, 0.0006771249463781714, 0.0006771249463781714, 0.0006771249463781714, 0.0006771249463781714, 0.0006771250045858324, 0.0006771250045858324, 0.0006771250045858324, 0.0006771250045858324, 0.0006771250045858324, 0.0006771250045858324, 0.0006771250045858324, 0.0006771250627934933, 0.0006771250627934933, 0.0006771250627934933, 0.0006771250627934933, 0.0006771250627934933]}, "gradients/graph_1net.2.out_w.weight": {"_type": "histogram", "values": [6.0, 0.0, 0.0, 0.0, 0.0, 0.0, 0.0, 0.0, 6.0, 0.0, 6.0, 6.0, 6.0, 12.0, 18.0, 6.0, 0.0, 0.0, 12.0, 6.0, 12.0, 36.0, 18.0, 24.0, 6.0, 24.0, 24.0, 6.0, 18.0, 6.0, 42.0, 6.0, 54.0, 30.0, 18.0, 42.0, 18.0, 12.0, 30.0, 18.0, 24.0, 6.0, 42.0, 12.0, 18.0, 18.0, 12.0, 12.0, 30.0, 0.0, 12.0, 6.0, 0.0, 0.0, 6.0, 6.0, 0.0, 6.0, 12.0, 12.0, 0.0, 0.0, 0.0, 6.0], "bins": [-0.05399199575185776, -0.05238332971930504, -0.05077465996146202, -0.0491659939289093, -0.04755732789635658, -0.045948658138513565, -0.044339992105960846, -0.04273132607340813, -0.04112266004085541, -0.03951399028301239, -0.03790532425045967, -0.03629665821790695, -0.034687988460063934, -0.033079322427511215, -0.031470656394958496, -0.029861988499760628, -0.02825332060456276, -0.02664465270936489, -0.025035986676812172, -0.023427318781614304, -0.021818652749061584, -0.020209984853863716, -0.018601316958665848, -0.01699265092611313, -0.01538398303091526, -0.013775316067039967, -0.012166649103164673, -0.010557981207966805, -0.00894931424409151, -0.007340647280216217, -0.005731979850679636, -0.004123312421143055, -0.0025146454572677612, -0.0009059782605618238, 0.0007026889361441135, 0.002311356132850051, 0.003920023329555988, 0.005528690293431282, 0.007137357722967863, 0.008746025152504444, 0.010354692116379738, 0.011963359080255032, 0.013572026044130325, 0.015180693939328194, 0.016789361834526062, 0.01839802786707878, 0.02000669576227665, 0.02161536179482937, 0.023224029690027237, 0.024832697585225105, 0.026441363617777824, 0.028050031512975693, 0.029658697545528412, 0.03126736730337143, 0.03287603333592415, 0.03448469936847687, 0.036093369126319885, 0.037702035158872604, 0.039310701191425323, 0.04091936722397804, 0.04252803698182106, 0.04413670301437378, 0.0457453690469265, 0.047354038804769516, 0.048962704837322235]}, "gradients/graph_1net.2.in_w.bias": {"_type": "histogram", "values": [4.0, 0.0, 0.0, 0.0, 0.0, 0.0, 0.0, 0.0, 0.0, 0.0, 0.0, 0.0, 0.0, 0.0, 0.0, 0.0, 0.0, 0.0, 0.0, 0.0, 0.0, 0.0, 0.0, 0.0, 0.0, 0.0, 0.0, 0.0, 0.0, 0.0, 0.0, 0.0, 0.0, 0.0, 0.0, 0.0, 0.0, 0.0, 0.0, 0.0, 0.0, 0.0, 0.0, 0.0, 0.0, 0.0, 0.0, 0.0, 0.0, 0.0, 0.0, 0.0, 0.0, 0.0, 0.0, 0.0, 0.0, 0.0, 0.0, 0.0, 0.0, 0.0, 0.0, 2.0], "bins": [0.000677124597132206, 0.000677124597132206, 0.000677124597132206, 0.000677124597132206, 0.000677124597132206, 0.0006771246553398669, 0.0006771246553398669, 0.0006771246553398669, 0.0006771246553398669, 0.0006771246553398669, 0.0006771246553398669, 0.0006771246553398669, 0.0006771247135475278, 0.0006771247135475278, 0.0006771247135475278, 0.0006771247135475278, 0.0006771247135475278, 0.0006771247135475278, 0.0006771247135475278, 0.0006771247135475278, 0.0006771247135475278, 0.0006771247717551887, 0.0006771247717551887, 0.0006771247717551887, 0.0006771247717551887, 0.0006771247717551887, 0.0006771247717551887, 0.0006771247717551887, 0.0006771248299628496, 0.0006771248299628496, 0.0006771248299628496, 0.0006771248299628496, 0.0006771248299628496, 0.0006771248299628496, 0.0006771248299628496, 0.0006771248299628496, 0.0006771248299628496, 0.0006771248881705105, 0.0006771248881705105, 0.0006771248881705105, 0.0006771248881705105, 0.0006771248881705105, 0.0006771248881705105, 0.0006771248881705105, 0.0006771249463781714, 0.0006771249463781714, 0.0006771249463781714, 0.0006771249463781714, 0.0006771249463781714, 0.0006771249463781714, 0.0006771249463781714, 0.0006771249463781714, 0.0006771249463781714, 0.0006771250045858324, 0.0006771250045858324, 0.0006771250045858324, 0.0006771250045858324, 0.0006771250045858324, 0.0006771250045858324, 0.0006771250045858324, 0.0006771250627934933, 0.0006771250627934933, 0.0006771250627934933, 0.0006771250627934933, 0.0006771250627934933]}, "gradients/graph_1net.2.in_w.weight": {"_type": "histogram", "values": [6.0, 0.0, 0.0, 0.0, 0.0, 0.0, 0.0, 0.0, 6.0, 0.0, 6.0, 6.0, 6.0, 12.0, 18.0, 6.0, 0.0, 0.0, 12.0, 6.0, 12.0, 36.0, 18.0, 24.0, 6.0, 24.0, 24.0, 6.0, 18.0, 6.0, 42.0, 6.0, 54.0, 30.0, 18.0, 42.0, 18.0, 12.0, 30.0, 18.0, 24.0, 6.0, 42.0, 12.0, 18.0, 18.0, 12.0, 12.0, 30.0, 0.0, 12.0, 6.0, 0.0, 0.0, 6.0, 6.0, 0.0, 6.0, 12.0, 12.0, 0.0, 0.0, 0.0, 6.0], "bins": [-0.05399198830127716, -0.05238332226872444, -0.05077465623617172, -0.049165986478328705, -0.047557320445775986, -0.04594865441322327, -0.04433998465538025, -0.04273131862282753, -0.04112265259027481, -0.03951398655772209, -0.03790532052516937, -0.036296650767326355, -0.034687984734773636, -0.03307931870222092, -0.0314706489443779, -0.02986198291182518, -0.02825331687927246, -0.026644650846719742, -0.025035982951521873, -0.023427315056324005, -0.021818649023771286, -0.020209982991218567, -0.0186013150960207, -0.01699264720082283, -0.015383981168270111, -0.013775314204394817, -0.012166647240519524, -0.01055798027664423, -0.008949313312768936, -0.007340646348893642, -0.005731979385018349, -0.004123312421143055, -0.0025146454572677612, -0.0009059784933924675, 0.0007026884704828262, 0.00231135543435812, 0.003920022398233414, 0.005528689362108707, 0.007137356325984001, 0.008746023289859295, 0.010354690253734589, 0.011963357217609882, 0.013572024181485176, 0.01518069114536047, 0.016789358109235764, 0.018398024141788483, 0.02000669203698635, 0.02161535993218422, 0.02322402596473694, 0.024832691997289658, 0.026441359892487526, 0.028050027787685394, 0.029658693820238113, 0.03126735985279083, 0.03287602961063385, 0.03448469564318657, 0.03609336167573929, 0.03770202770829201, 0.03931069374084473, 0.040919363498687744, 0.04252802953124046, 0.04413669556379318, 0.0457453653216362, 0.04735403135418892, 0.04896269738674164]}, "gradients/graph_1net.0.out_w.bias": {"_type": "histogram", "values": [1.0, 0.0, 0.0, 0.0, 0.0, 0.0, 1.0, 0.0, 0.0, 1.0, 1.0, 1.0, 0.0, 1.0, 0.0, 0.0, 1.0, 1.0, 4.0, 1.0, 0.0, 4.0, 2.0, 5.0, 3.0, 2.0, 4.0, 6.0, 4.0, 6.0, 16.0, 11.0, 9.0, 1.0, 10.0, 7.0, 6.0, 2.0, 2.0, 1.0, 0.0, 0.0, 1.0, 2.0, 1.0, 0.0, 1.0, 1.0, 1.0, 2.0, 0.0, 0.0, 0.0, 0.0, 0.0, 2.0, 0.0, 0.0, 0.0, 0.0, 0.0, 0.0, 0.0, 3.0], "bins": [-0.03932654485106468, -0.038047026842832565, -0.03676751255989075, -0.03548799455165863, -0.03420848026871681, -0.032928962260484695, -0.03164944797754288, -0.03036992996931076, -0.029090413823723793, -0.027810897678136826, -0.026531381532549858, -0.02525186538696289, -0.023972347378730774, -0.022692831233143806, -0.02141331508755684, -0.02013379894196987, -0.018854282796382904, -0.017574766650795937, -0.01629525050520897, -0.015015733428299427, -0.01373621728271246, -0.012456701137125492, -0.01117718406021595, -0.009897667914628983, -0.008618151769042015, -0.007338635623455048, -0.006059119012206793, -0.004779602400958538, -0.0035000862553715706, -0.0022205698769539595, -0.0009410534985363483, 0.0003384628798812628, 0.0016179829835891724, 0.0028974993620067835, 0.004177015740424395, 0.005456532351672649, 0.006736048497259617, 0.008015564642846584, 0.009295081719756126, 0.010574597865343094, 0.011854114010930061, 0.013133630156517029, 0.014413146302103996, 0.015692662447690964, 0.01697218045592308, 0.018251696601510048, 0.019531212747097015, 0.020810728892683983, 0.02209024503827095, 0.023369761183857918, 0.024649277329444885, 0.025928793475031853, 0.02720830962061882, 0.028487827628850937, 0.029767343774437904, 0.031046859920024872, 0.03232637792825699, 0.03360589221119881, 0.03488541021943092, 0.03616492450237274, 0.03744444251060486, 0.03872395679354668, 0.04000347480177879, 0.04128298908472061, 0.04256250709295273]}, "gradients/graph_1net.0.out_w.weight": {"_type": "histogram", "values": [1.0, 0.0, 1.0, 0.0, 1.0, 0.0, 0.0, 0.0, 1.0, 1.0, 0.0, 2.0, 1.0, 1.0, 1.0, 0.0, 0.0, 2.0, 4.0, 4.0, 1.0, 3.0, 7.0, 6.0, 12.0, 9.0, 10.0, 12.0, 14.0, 26.0, 46.0, 25.0, 14.0, 8.0, 5.0, 11.0, 6.0, 2.0, 4.0, 3.0, 2.0, 1.0, 1.0, 1.0, 0.0, 1.0, 3.0, 0.0, 0.0, 0.0, 1.0, 0.0, 0.0, 0.0, 0.0, 0.0, 0.0, 0.0, 0.0, 0.0, 0.0, 0.0, 1.0, 1.0], "bins": [-0.17864841222763062, -0.17273859679698944, -0.16682876646518707, -0.1609189510345459, -0.15500912070274353, -0.14909930527210236, -0.1431894749403, -0.1372796595096588, -0.13136982917785645, -0.12546001374721527, -0.1195501908659935, -0.11364036798477173, -0.10773055255413055, -0.10182072967290878, -0.09591090679168701, -0.09000108391046524, -0.08409126102924347, -0.0781814381480217, -0.07227161526679993, -0.06636179238557816, -0.06045197322964668, -0.05454215034842491, -0.04863233119249344, -0.04272250831127167, -0.036812685430049896, -0.030902862548828125, -0.024993041530251503, -0.01908322051167488, -0.01317339763045311, -0.007263575680553913, -0.0013537537306547165, 0.00455606821924448, 0.01046590507030487, 0.016375727951526642, 0.022285548970103264, 0.028195369988679886, 0.03410519286990166, 0.04001501575112343, 0.0459248349070549, 0.05183465778827667, 0.057744480669498444, 0.06365430355072021, 0.06956412643194199, 0.07547394931316376, 0.08138376474380493, 0.0872935876250267, 0.09320341050624847, 0.09911323338747025, 0.10502305626869202, 0.11093287914991379, 0.11684270203113556, 0.12275252491235733, 0.1286623477935791, 0.13457216322422028, 0.14048199355602264, 0.14639180898666382, 0.1523016393184662, 0.15821145474910736, 0.16412127017974854, 0.1700311005115509, 0.17594091594219208, 0.18185074627399445, 0.18776056170463562, 0.193670392036438, 0.19958020746707916]}, "gradients/graph_1net.0.in_w.bias": {"_type": "histogram", "values": [1.0, 0.0, 0.0, 0.0, 0.0, 0.0, 1.0, 0.0, 0.0, 1.0, 1.0, 1.0, 0.0, 1.0, 0.0, 0.0, 1.0, 1.0, 4.0, 1.0, 0.0, 4.0, 2.0, 5.0, 3.0, 2.0, 4.0, 6.0, 4.0, 6.0, 16.0, 11.0, 9.0, 1.0, 10.0, 7.0, 6.0, 2.0, 2.0, 1.0, 0.0, 0.0, 1.0, 2.0, 1.0, 0.0, 1.0, 1.0, 1.0, 2.0, 0.0, 0.0, 0.0, 0.0, 0.0, 2.0, 0.0, 0.0, 0.0, 0.0, 0.0, 0.0, 0.0, 3.0], "bins": [-0.03932654485106468, -0.038047026842832565, -0.03676751255989075, -0.03548799455165863, -0.03420848026871681, -0.032928962260484695, -0.03164944797754288, -0.03036992996931076, -0.029090413823723793, -0.027810897678136826, -0.026531381532549858, -0.02525186538696289, -0.023972347378730774, -0.022692831233143806, -0.02141331508755684, -0.02013379894196987, -0.018854282796382904, -0.017574766650795937, -0.01629525050520897, -0.015015733428299427, -0.01373621728271246, -0.012456701137125492, -0.01117718406021595, -0.009897667914628983, -0.008618151769042015, -0.007338635623455048, -0.006059119012206793, -0.004779602400958538, -0.0035000862553715706, -0.0022205698769539595, -0.0009410534985363483, 0.0003384628798812628, 0.0016179829835891724, 0.0028974993620067835, 0.004177015740424395, 0.005456532351672649, 0.006736048497259617, 0.008015564642846584, 0.009295081719756126, 0.010574597865343094, 0.011854114010930061, 0.013133630156517029, 0.014413146302103996, 0.015692662447690964, 0.01697218045592308, 0.018251696601510048, 0.019531212747097015, 0.020810728892683983, 0.02209024503827095, 0.023369761183857918, 0.024649277329444885, 0.025928793475031853, 0.02720830962061882, 0.028487827628850937, 0.029767343774437904, 0.031046859920024872, 0.03232637792825699, 0.03360589221119881, 0.03488541021943092, 0.03616492450237274, 0.03744444251060486, 0.03872395679354668, 0.04000347480177879, 0.04128298908472061, 0.04256250709295273]}, "gradients/graph_1net.0.in_w.weight": {"_type": "histogram", "values": [1.0, 2.0, 1.0, 1.0, 1.0, 0.0, 1.0, 1.0, 0.0, 2.0, 0.0, 3.0, 1.0, 3.0, 5.0, 6.0, 8.0, 11.0, 13.0, 15.0, 37.0, 43.0, 23.0, 26.0, 9.0, 7.0, 10.0, 1.0, 4.0, 5.0, 1.0, 0.0, 2.0, 3.0, 0.0, 1.0, 2.0, 1.0, 1.0, 0.0, 0.0, 0.0, 1.0, 0.0, 0.0, 1.0, 0.0, 0.0, 0.0, 0.0, 0.0, 1.0, 0.0, 0.0, 0.0, 0.0, 0.0, 0.0, 0.0, 0.0, 0.0, 1.0, 0.0, 1.0], "bins": [-0.1375998854637146, -0.13123591244220734, -0.12487195432186127, -0.118507981300354, -0.11214401572942734, -0.10578005015850067, -0.099416084587574, -0.09305211901664734, -0.08668814599514008, -0.08032418042421341, -0.07396021485328674, -0.06759624928236008, -0.06123228371143341, -0.054868314415216446, -0.04850434884428978, -0.042140379548072815, -0.03577641397714615, -0.029412446543574333, -0.023048479110002518, -0.01668451353907585, -0.010320546105504036, -0.003956579137593508, 0.0024073878303170204, 0.008771354332566261, 0.015135321766138077, 0.021499289199709892, 0.027863256633281708, 0.034227222204208374, 0.04059118777513504, 0.046955157071352005, 0.05331912264227867, 0.059683091938495636, 0.0660470575094223, 0.07241102308034897, 0.07877498865127563, 0.0851389616727829, 0.09150292724370956, 0.09786689281463623, 0.1042308583855629, 0.11059482395648956, 0.11695879697799683, 0.12332276254892349, 0.12968672811985016, 0.13605070114135742, 0.1424146592617035, 0.14877863228321075, 0.15514259040355682, 0.1615065634250641, 0.16787052154541016, 0.17423449456691742, 0.18059846758842468, 0.18696242570877075, 0.19332639873027802, 0.19969035685062408, 0.20605432987213135, 0.2124183028936386, 0.21878226101398468, 0.22514623403549194, 0.231510192155838, 0.23787416517734528, 0.24423813819885254, 0.2506020963191986, 0.2569660544395447, 0.26333004236221313, 0.2696940004825592]}, "train_loss_d3": 4.80257511138916, "train_H_d3": 22.2286434173584, "test_loss_d3": 3.939046859741211, "test_H_d3": 15.925239562988281, "parameters/graph_2net.0.in_w.weight": {"_type": "histogram", "values": [1.0, 1.0, 0.0, 0.0, 0.0, 1.0, 0.0, 0.0, 1.0, 0.0, 1.0, 1.0, 2.0, 2.0, 7.0, 4.0, 5.0, 3.0, 3.0, 3.0, 4.0, 1.0, 10.0, 5.0, 1.0, 2.0, 6.0, 7.0, 8.0, 4.0, 6.0, 6.0, 6.0, 8.0, 12.0, 8.0, 6.0, 5.0, 6.0, 6.0, 7.0, 6.0, 11.0, 3.0, 5.0, 3.0, 6.0, 8.0, 4.0, 3.0, 7.0, 5.0, 5.0, 5.0, 7.0, 3.0, 2.0, 2.0, 5.0, 3.0, 1.0, 1.0, 0.0, 2.0], "bins": [-0.9782944917678833, -0.9501852989196777, -0.9220760464668274, -0.8939668536186218, -0.8658576011657715, -0.8377484083175659, -0.8096392154693604, -0.78152996301651, -0.7534207701683044, -0.7253115773200989, -0.6972023248672485, -0.669093132019043, -0.6409839391708374, -0.6128746867179871, -0.5847654938697815, -0.5566562414169312, -0.5285470485687256, -0.50043785572052, -0.4723286032676697, -0.4442194104194641, -0.41611018776893616, -0.3880009651184082, -0.35989177227020264, -0.3317825496196747, -0.30367332696914673, -0.2755641043186188, -0.24745489656925201, -0.21934568881988525, -0.1912364661693573, -0.16312724351882935, -0.13501803576946259, -0.10690882056951523, -0.07879966497421265, -0.05069044977426529, -0.022581234574317932, 0.005527980625629425, 0.03363719582557678, 0.06174641102552414, 0.0898556262254715, 0.11796484142541885, 0.1460740566253662, 0.17418327927589417, 0.20229248702526093, 0.23040169477462769, 0.25851091742515564, 0.2866201400756836, 0.31472933292388916, 0.3428385555744171, 0.37094777822494507, 0.399057000875473, 0.427166223526001, 0.45527541637420654, 0.4833846390247345, 0.5114938616752625, 0.539603054523468, 0.5677123069763184, 0.5958214998245239, 0.6239306926727295, 0.6520399451255798, 0.6801491379737854, 0.7082583904266357, 0.7363675832748413, 0.7644767761230469, 0.7925860285758972, 0.8206952214241028]}, "parameters/graph_2net.0.in_w.bias": {"_type": "histogram", "values": [1.0, 2.0, 4.0, 0.0, 1.0, 2.0, 2.0, 2.0, 1.0, 3.0, 2.0, 1.0, 0.0, 3.0, 1.0, 1.0, 1.0, 2.0, 3.0, 3.0, 4.0, 1.0, 3.0, 2.0, 2.0, 1.0, 3.0, 1.0, 4.0, 2.0, 2.0, 2.0, 1.0, 2.0, 1.0, 1.0, 4.0, 2.0, 3.0, 0.0, 1.0, 2.0, 1.0, 1.0, 3.0, 3.0, 0.0, 3.0, 2.0, 1.0, 0.0, 3.0, 2.0, 1.0, 2.0, 1.0, 0.0, 7.0, 3.0, 4.0, 3.0, 4.0, 4.0, 1.0], "bins": [-0.9956909418106079, -0.9651860594749451, -0.934681236743927, -0.9041763544082642, -0.8736715316772461, -0.8431666493415833, -0.8126618266105652, -0.7821569442749023, -0.7516521215438843, -0.7211472392082214, -0.6906424164772034, -0.6601375341415405, -0.6296327114105225, -0.5991278290748596, -0.5686230063438416, -0.5381181240081787, -0.5076133012771606, -0.4771084189414978, -0.44660356640815735, -0.4160987138748169, -0.38559386134147644, -0.355089008808136, -0.32458415627479553, -0.2940793037414551, -0.26357442140579224, -0.23306958377361298, -0.20256473124027252, -0.17205987870693207, -0.14155501127243042, -0.11105016618967056, -0.08054530620574951, -0.05004045367240906, -0.019535601139068604, 0.010969253256917, 0.0414741076529026, 0.07197896391153336, 0.10248381644487381, 0.13298867642879486, 0.16349352896213531, 0.19399838149547577, 0.22450323402881622, 0.25500810146331787, 0.2855129539966583, 0.3160178065299988, 0.34652265906333923, 0.3770275115966797, 0.40753236413002014, 0.4380372166633606, 0.46854206919670105, 0.4990469217300415, 0.5295518040657043, 0.5600566267967224, 0.5905615091323853, 0.6210663318634033, 0.6515712141990662, 0.6820760369300842, 0.7125809192657471, 0.7430857419967651, 0.773590624332428, 0.804095447063446, 0.8346003293991089, 0.865105152130127, 0.8956100344657898, 0.9261148571968079, 0.9566197395324707]}, "parameters/graph_2net.0.out_w.weight": {"_type": "histogram", "values": [2.0, 1.0, 1.0, 2.0, 1.0, 1.0, 4.0, 0.0, 2.0, 1.0, 5.0, 3.0, 5.0, 6.0, 5.0, 4.0, 3.0, 2.0, 7.0, 5.0, 7.0, 6.0, 6.0, 3.0, 6.0, 9.0, 9.0, 12.0, 14.0, 10.0, 5.0, 10.0, 6.0, 1.0, 8.0, 7.0, 5.0, 4.0, 5.0, 7.0, 4.0, 7.0, 5.0, 6.0, 5.0, 2.0, 7.0, 3.0, 5.0, 2.0, 3.0, 2.0, 1.0, 1.0, 0.0, 0.0, 1.0, 1.0, 0.0, 0.0, 0.0, 0.0, 0.0, 1.0], "bins": [-0.8808033466339111, -0.8511654138565063, -0.8215274810791016, -0.7918896079063416, -0.7622516751289368, -0.732613742351532, -0.7029758095741272, -0.6733379364013672, -0.6437000036239624, -0.6140620708465576, -0.5844241380691528, -0.554786205291748, -0.525148332118988, -0.49551039934158325, -0.46587246656417847, -0.43623456358909607, -0.4065966308116913, -0.3769586980342865, -0.3473207950592041, -0.3176828622817993, -0.2880449593067169, -0.25840702652931213, -0.22876910865306854, -0.19913119077682495, -0.16949327290058136, -0.13985535502433777, -0.11021743714809418, -0.08057951182126999, -0.0509415939450264, -0.021303674206137657, 0.008334245532751083, 0.03797216713428497, 0.06761008501052856, 0.09724800288677216, 0.12688592076301575, 0.15652383863925934, 0.18616175651550293, 0.21579968929290771, 0.2454376071691513, 0.2750755250453949, 0.3047134280204773, 0.3343513607978821, 0.36398929357528687, 0.39362719655036926, 0.42326512932777405, 0.45290303230285645, 0.48254096508026123, 0.512178897857666, 0.5418168306350708, 0.5714547038078308, 0.6010926365852356, 0.6307305693626404, 0.6603685021400452, 0.6900063753128052, 0.71964430809021, 0.7492822408676147, 0.7789201736450195, 0.8085581064224243, 0.8381959795951843, 0.8678339123725891, 0.8974718451499939, 0.9271097779273987, 0.9567476511001587, 0.9863855838775635, 1.0160235166549683]}, "parameters/graph_2net.0.out_w.bias": {"_type": "histogram", "values": [2.0, 0.0, 1.0, 1.0, 1.0, 1.0, 3.0, 1.0, 1.0, 2.0, 3.0, 3.0, 3.0, 1.0, 2.0, 2.0, 2.0, 1.0, 2.0, 7.0, 1.0, 2.0, 1.0, 1.0, 1.0, 2.0, 6.0, 6.0, 3.0, 2.0, 3.0, 0.0, 1.0, 4.0, 3.0, 0.0, 0.0, 3.0, 1.0, 4.0, 3.0, 2.0, 1.0, 2.0, 4.0, 2.0, 0.0, 3.0, 3.0, 3.0, 1.0, 1.0, 3.0, 3.0, 1.0, 2.0, 0.0, 0.0, 2.0, 0.0, 3.0, 0.0, 3.0, 3.0], "bins": [-1.0198546648025513, -0.9884486198425293, -0.9570425748825073, -0.9256364703178406, -0.8942304253578186, -0.8628243803977966, -0.8314182758331299, -0.8000122308731079, -0.7686061859130859, -0.737200140953064, -0.705794095993042, -0.6743879914283752, -0.6429819464683533, -0.6115759015083313, -0.5801697969436646, -0.5487637519836426, -0.5173577070236206, -0.48595166206359863, -0.4545455873012543, -0.4231395125389099, -0.39173346757888794, -0.36032742261886597, -0.3289213478565216, -0.29751527309417725, -0.2661092281341553, -0.2347031682729721, -0.20329710841178894, -0.17189104855060577, -0.1404849886894226, -0.10907892882823944, -0.07767286896705627, -0.04626680910587311, -0.01486063003540039, 0.016545429825782776, 0.04795148968696594, 0.07935754954814911, 0.11076360940933228, 0.14216966927051544, 0.1735757291316986, 0.20498178899288177, 0.23638784885406494, 0.2677938938140869, 0.2991999685764313, 0.33060604333877563, 0.3620120882987976, 0.3934181332588196, 0.42482420802116394, 0.4562302827835083, 0.4876363277435303, 0.5190423727035522, 0.5504484176635742, 0.581854522228241, 0.6132605671882629, 0.6446666121482849, 0.6760727167129517, 0.7074787616729736, 0.7388848066329956, 0.7702908515930176, 0.8016968965530396, 0.8331030011177063, 0.8645090460777283, 0.8959150910377502, 0.927321195602417, 0.958727240562439, 0.9901332855224609]}, "parameters/graph_2net.2.in_w.weight": {"_type": "histogram", "values": [5.0, 3.0, 8.0, 5.0, 5.0, 11.0, 10.0, 8.0, 11.0, 9.0, 12.0, 9.0, 18.0, 13.0, 19.0, 22.0, 12.0, 12.0, 11.0, 27.0, 27.0, 22.0, 25.0, 23.0, 21.0, 28.0, 22.0, 18.0, 22.0, 26.0, 23.0, 20.0, 29.0, 21.0, 13.0, 22.0, 25.0, 19.0, 13.0, 15.0, 9.0, 7.0, 12.0, 6.0, 9.0, 11.0, 8.0, 7.0, 2.0, 8.0, 3.0, 2.0, 5.0, 7.0, 0.0, 4.0, 1.0, 1.0, 0.0, 0.0, 0.0, 1.0, 0.0, 1.0], "bins": [-0.24072265625, -0.23187950253486633, -0.22303634881973267, -0.214193195104599, -0.20535004138946533, -0.19650688767433167, -0.187663733959198, -0.17882058024406433, -0.16997742652893066, -0.1611342579126358, -0.15229110419750214, -0.14344795048236847, -0.1346047967672348, -0.12576164305210114, -0.11691848933696747, -0.1080753356218338, -0.09923218190670013, -0.09038902819156647, -0.0815458744764328, -0.07270272076129913, -0.06385956704616547, -0.0550164096057415, -0.046173252165317535, -0.03733009845018387, -0.0284869447350502, -0.019643791019916534, -0.010800635442137718, -0.0019574807956814766, 0.006885673850774765, 0.015728827565908432, 0.024571983143687248, 0.033415138721466064, 0.04225829243659973, 0.0511014461517334, 0.059944599866867065, 0.06878775358200073, 0.0776309072971344, 0.08647406846284866, 0.09531722217798233, 0.104160375893116, 0.11300352960824966, 0.12184668332338333, 0.1306898444890976, 0.13953299820423126, 0.14837615191936493, 0.1572193056344986, 0.16606245934963226, 0.17490561306476593, 0.1837487667798996, 0.19259192049503326, 0.20143507421016693, 0.2102782279253006, 0.21912138164043427, 0.22796453535556793, 0.2368076890707016, 0.24565084278583527, 0.2544940114021301, 0.2633371651172638, 0.27218031883239746, 0.28102347254753113, 0.2898666262626648, 0.29870977997779846, 0.30755293369293213, 0.3163960874080658, 0.32523924112319946]}, "parameters/graph_2net.2.in_w.bias": {"_type": "histogram", "values": [1.0, 0.0, 0.0, 0.0, 0.0, 0.0, 0.0, 0.0, 0.0, 0.0, 0.0, 1.0, 0.0, 0.0, 0.0, 1.0, 0.0, 0.0, 0.0, 0.0, 0.0, 0.0, 0.0, 0.0, 0.0, 0.0, 0.0, 0.0, 0.0, 0.0, 1.0, 0.0, 0.0, 0.0, 0.0, 0.0, 0.0, 0.0, 0.0, 0.0, 0.0, 0.0, 0.0, 1.0, 0.0, 0.0, 0.0, 0.0, 0.0, 0.0, 0.0, 0.0, 0.0, 0.0, 0.0, 0.0, 0.0, 0.0, 0.0, 0.0, 0.0, 0.0, 0.0, 1.0], "bins": [0.12584064900875092, 0.12811005115509033, 0.13037946820259094, 0.13264887034893036, 0.13491827249526978, 0.1371876746416092, 0.1394570916891098, 0.14172649383544922, 0.14399589598178864, 0.14626529812812805, 0.14853471517562866, 0.15080411732196808, 0.1530735194683075, 0.1553429216146469, 0.15761233866214752, 0.15988174080848694, 0.16215114295482635, 0.16442056000232697, 0.16668996214866638, 0.1689593642950058, 0.17122876644134521, 0.17349818348884583, 0.17576758563518524, 0.17803698778152466, 0.18030638992786407, 0.18257580697536469, 0.1848452091217041, 0.18711461126804352, 0.18938401341438293, 0.19165343046188354, 0.19392283260822296, 0.19619223475456238, 0.198461651802063, 0.2007310539484024, 0.20300045609474182, 0.20526985824108124, 0.20753927528858185, 0.20980867743492126, 0.21207807958126068, 0.2143474817276001, 0.2166168987751007, 0.21888630092144012, 0.22115570306777954, 0.22342510521411896, 0.22569452226161957, 0.22796392440795898, 0.2302333265542984, 0.23250272870063782, 0.23477214574813843, 0.23704154789447784, 0.23931095004081726, 0.24158036708831787, 0.2438497692346573, 0.2461191713809967, 0.24838857352733612, 0.25065797567367554, 0.25292739272117615, 0.25519680976867676, 0.257466197013855, 0.2597356140613556, 0.2620050013065338, 0.2642744183540344, 0.26654383540153503, 0.26881322264671326, 0.27108263969421387]}, "parameters/graph_2net.2.out_w.weight": {"_type": "histogram", "values": [3.0, 0.0, 1.0, 1.0, 1.0, 4.0, 2.0, 5.0, 8.0, 7.0, 5.0, 10.0, 14.0, 10.0, 9.0, 17.0, 13.0, 13.0, 22.0, 9.0, 17.0, 30.0, 22.0, 19.0, 18.0, 21.0, 22.0, 29.0, 27.0, 20.0, 25.0, 28.0, 15.0, 20.0, 23.0, 21.0, 16.0, 9.0, 24.0, 20.0, 21.0, 18.0, 12.0, 13.0, 24.0, 15.0, 13.0, 15.0, 7.0, 7.0, 2.0, 3.0, 2.0, 6.0, 3.0, 6.0, 2.0, 4.0, 1.0, 3.0, 6.0, 1.0, 2.0, 2.0], "bins": [-0.2871350049972534, -0.27808523178100586, -0.2690354883670807, -0.25998571515083313, -0.25093597173690796, -0.2418861985206604, -0.23283644020557404, -0.22378668189048767, -0.2147369235754013, -0.20568716526031494, -0.19663740694522858, -0.1875876486301422, -0.17853787541389465, -0.1694881170988083, -0.16043835878372192, -0.15138860046863556, -0.1423388421535492, -0.13328908383846283, -0.12423932552337646, -0.1151895597577095, -0.10613980144262314, -0.09709004312753677, -0.08804027736186981, -0.07899051904678345, -0.06994076073169708, -0.06089100241661072, -0.051841240376234055, -0.04279147833585739, -0.03374172002077103, -0.024691959843039513, -0.015642199665308, -0.006592439487576485, 0.0024572908878326416, 0.011507051065564156, 0.02055681124329567, 0.029606571421027184, 0.0386563315987587, 0.04770608991384506, 0.056755851954221725, 0.06580561399459839, 0.07485537230968475, 0.08390513062477112, 0.09295488893985748, 0.10200465470552444, 0.11105441302061081, 0.12010417133569717, 0.12915393710136414, 0.1382036954164505, 0.14725345373153687, 0.15630321204662323, 0.1653529703617096, 0.17440272867679596, 0.18345248699188232, 0.19250226020812988, 0.20155201852321625, 0.2106017768383026, 0.21965153515338898, 0.22870129346847534, 0.2377510517835617, 0.24680081009864807, 0.25585058331489563, 0.2649003267288208, 0.27395009994506836, 0.28299984335899353, 0.2920496165752411]}, "parameters/graph_2net.2.out_w.bias": {"_type": "histogram", "values": [1.0, 0.0, 0.0, 0.0, 0.0, 0.0, 0.0, 0.0, 0.0, 0.0, 0.0, 0.0, 0.0, 0.0, 0.0, 0.0, 0.0, 0.0, 0.0, 0.0, 0.0, 0.0, 0.0, 0.0, 0.0, 0.0, 0.0, 0.0, 0.0, 1.0, 0.0, 0.0, 0.0, 0.0, 0.0, 0.0, 0.0, 0.0, 1.0, 0.0, 0.0, 0.0, 1.0, 0.0, 0.0, 0.0, 0.0, 0.0, 0.0, 0.0, 0.0, 0.0, 0.0, 0.0, 0.0, 0.0, 0.0, 0.0, 0.0, 0.0, 1.0, 0.0, 0.0, 1.0], "bins": [0.11690039932727814, 0.1194165050983429, 0.12193261086940765, 0.12444871664047241, 0.12696482241153717, 0.12948092818260193, 0.1319970339536667, 0.13451312482357025, 0.137029230594635, 0.13954533636569977, 0.14206144213676453, 0.14457754790782928, 0.14709365367889404, 0.1496097594499588, 0.15212586522102356, 0.15464197099208832, 0.15715807676315308, 0.15967418253421783, 0.1621902883052826, 0.16470639407634735, 0.16722248494625092, 0.16973859071731567, 0.17225469648838043, 0.1747708022594452, 0.17728690803050995, 0.1798030138015747, 0.18231911957263947, 0.18483522534370422, 0.18735133111476898, 0.18986743688583374, 0.1923835426568985, 0.19489964842796326, 0.19741573929786682, 0.19993184506893158, 0.20244795083999634, 0.2049640566110611, 0.20748016238212585, 0.2099962681531906, 0.21251237392425537, 0.21502847969532013, 0.2175445854663849, 0.22006069123744965, 0.2225767970085144, 0.22509290277957916, 0.22760900855064392, 0.23012509942054749, 0.23264120519161224, 0.235157310962677, 0.23767341673374176, 0.24018952250480652, 0.24270562827587128, 0.24522173404693604, 0.2477378398180008, 0.25025394558906555, 0.2527700364589691, 0.25528615713119507, 0.25780224800109863, 0.2603183686733246, 0.26283445954322815, 0.2653505802154541, 0.26786667108535767, 0.2703827917575836, 0.2728988826274872, 0.27541500329971313, 0.2779310941696167]}, "_wandb": {"runtime": 5121}}