{"train_loss": 0.004226864315569401, "test_loss": 0.005151259712874889, "_timestamp": 1717542246.521215, "_runtime": 331.27312898635864, "_step": 499, "parameters/net.0.weight": {"_type": "histogram", "values": [1.0, 0.0, 0.0, 0.0, 1.0, 2.0, 2.0, 3.0, 6.0, 3.0, 11.0, 9.0, 19.0, 26.0, 33.0, 27.0, 33.0, 53.0, 67.0, 76.0, 94.0, 122.0, 110.0, 145.0, 159.0, 194.0, 223.0, 258.0, 250.0, 272.0, 292.0, 294.0, 292.0, 302.0, 285.0, 274.0, 278.0, 281.0, 250.0, 219.0, 204.0, 148.0, 162.0, 132.0, 101.0, 97.0, 75.0, 45.0, 48.0, 43.0, 24.0, 23.0, 19.0, 14.0, 10.0, 14.0, 7.0, 1.0, 4.0, 3.0, 2.0, 0.0, 1.0, 1.0], "bins": [-0.39051443338394165, -0.37858667969703674, -0.36665892601013184, -0.35473117232322693, -0.342803418636322, -0.3308756649494171, -0.3189479112625122, -0.3070201873779297, -0.2950924038887024, -0.2831646502017975, -0.2712368965148926, -0.25930914282798767, -0.24738138914108276, -0.23545363545417786, -0.22352589666843414, -0.21159814298152924, -0.19967040419578552, -0.18774265050888062, -0.1758148968219757, -0.1638871431350708, -0.1519593894481659, -0.140031635761261, -0.12810389697551727, -0.11617614328861237, -0.10424838960170746, -0.09232063591480255, -0.08039288222789764, -0.06846513599157333, -0.056537382304668427, -0.04460962861776352, -0.03268188238143921, -0.020754128694534302, -0.008826375007629395, 0.0031013768166303635, 0.015029128640890121, 0.02695687860250473, 0.03888463228940964, 0.050812385976314545, 0.06274013221263885, 0.07466788589954376, 0.08659563958644867, 0.09852339327335358, 0.11045114696025848, 0.1223788931965828, 0.1343066394329071, 0.146234393119812, 0.15816214680671692, 0.17008990049362183, 0.18201765418052673, 0.19394540786743164, 0.20587316155433655, 0.21780091524124146, 0.22972866892814636, 0.24165642261505127, 0.2535841464996338, 0.2655119299888611, 0.2774396538734436, 0.2893674075603485, 0.3012951612472534, 0.3132229149341583, 0.32515066862106323, 0.33707842230796814, 0.34900617599487305, 0.36093389987945557, 0.37286168336868286]}, "parameters/net.0.bias": {"_type": "histogram", "values": [1.0, 0.0, 0.0, 0.0, 0.0, 0.0, 0.0, 0.0, 0.0, 0.0, 0.0, 0.0, 0.0, 1.0, 0.0, 0.0, 0.0, 0.0, 1.0, 0.0, 0.0, 0.0, 1.0, 0.0, 0.0, 0.0, 0.0, 0.0, 0.0, 0.0, 0.0, 0.0, 0.0, 2.0, 3.0, 0.0, 4.0, 2.0, 3.0, 5.0, 7.0, 22.0, 17.0, 40.0, 70.0, 130.0, 85.0, 46.0, 24.0, 15.0, 10.0, 8.0, 5.0, 0.0, 2.0, 2.0, 1.0, 1.0, 2.0, 1.0, 0.0, 0.0, 0.0, 1.0], "bins": [-0.22124584019184113, -0.21638694405555725, -0.21152806282043457, -0.2066691815853119, -0.20181028544902802, -0.19695138931274414, -0.19209250807762146, -0.18723362684249878, -0.1823747307062149, -0.17751583456993103, -0.17265695333480835, -0.16779807209968567, -0.1629391759634018, -0.15808027982711792, -0.15322139859199524, -0.14836251735687256, -0.14350362122058868, -0.1386447250843048, -0.13378584384918213, -0.12892696261405945, -0.12406806647777557, -0.1192091777920723, -0.11435028910636902, -0.10949140042066574, -0.10463251173496246, -0.09977362304925919, -0.09491473436355591, -0.09005584567785263, -0.08519695699214935, -0.08033806830644608, -0.0754791796207428, -0.07062029093503952, -0.06576138734817505, -0.06090249866247177, -0.056043609976768494, -0.051184721291065216, -0.04632583260536194, -0.04146694391965866, -0.03660805523395538, -0.031749166548252106, -0.026890277862548828, -0.02203138917684555, -0.017172500491142273, -0.012313611805438995, -0.007454723119735718, -0.00259583443403244, 0.0022630542516708374, 0.007121942937374115, 0.011980831623077393, 0.01683972030878067, 0.021698608994483948, 0.026557497680187225, 0.0314163863658905, 0.03627527505159378, 0.04113416373729706, 0.045993052423000336, 0.05085194110870361, 0.05571082979440689, 0.06056971848011017, 0.06542860716581345, 0.07028749585151672, 0.07514638453722, 0.08000527322292328, 0.08486416190862656, 0.08972305059432983]}, "parameters/net.2.weight": {"_type": "histogram", "values": [3.0, 1.0, 1.0, 4.0, 6.0, 6.0, 8.0, 11.0, 17.0, 17.0, 38.0, 27.0, 43.0, 56.0, 54.0, 77.0, 68.0, 92.0, 104.0, 138.0, 134.0, 175.0, 194.0, 205.0, 215.0, 259.0, 245.0, 267.0, 281.0, 248.0, 264.0, 258.0, 283.0, 227.0, 247.0, 236.0, 243.0, 193.0, 182.0, 162.0, 150.0, 139.0, 100.0, 85.0, 86.0, 67.0, 51.0, 44.0, 33.0, 24.0, 23.0, 11.0, 10.0, 7.0, 5.0, 7.0, 4.0, 1.0, 5.0, 0.0, 0.0, 2.0, 0.0, 1.0], "bins": [-0.3237111270427704, -0.31308701634407043, -0.3024629056453705, -0.2918388247489929, -0.28121471405029297, -0.270590603351593, -0.25996649265289307, -0.24934238195419312, -0.23871828615665436, -0.2280941754579544, -0.21747007966041565, -0.2068459689617157, -0.19622185826301575, -0.185597762465477, -0.17497365176677704, -0.16434955596923828, -0.15372544527053833, -0.14310133457183838, -0.13247723877429962, -0.12185312807559967, -0.11122902482748032, -0.10060492157936096, -0.08998081088066101, -0.07935670763254166, -0.0687326043844223, -0.05810850113630295, -0.047484394162893295, -0.03686028718948364, -0.02623618394136429, -0.015612080693244934, -0.004987969994544983, 0.005636133253574371, 0.016260266304016113, 0.026884371414780617, 0.03750847652554512, 0.04813258349895477, 0.05875668674707413, 0.06938078999519348, 0.08000490069389343, 0.09062900394201279, 0.10125310719013214, 0.1118772104382515, 0.12250131368637085, 0.1331254243850708, 0.14374953508377075, 0.1543736308813095, 0.16499774158000946, 0.17562183737754822, 0.18624594807624817, 0.19687005877494812, 0.20749415457248688, 0.21811826527118683, 0.22874236106872559, 0.23936647176742554, 0.2499905824661255, 0.26061469316482544, 0.2712388038635254, 0.28186291456222534, 0.2924870252609253, 0.30311113595962524, 0.3137352168560028, 0.32435932755470276, 0.3349834382534027, 0.34560754895210266, 0.3562316298484802]}, "parameters/net.2.bias": {"_type": "histogram", "values": [1.0, 0.0, 0.0, 0.0, 0.0, 1.0, 0.0, 0.0, 0.0, 0.0, 0.0, 0.0, 0.0, 0.0, 0.0, 0.0, 0.0, 1.0, 0.0, 0.0, 0.0, 0.0, 2.0, 0.0, 0.0, 0.0, 0.0, 0.0, 0.0, 1.0, 0.0, 0.0, 0.0, 0.0, 0.0, 1.0, 1.0, 0.0, 0.0, 0.0, 0.0, 1.0, 1.0, 0.0, 0.0, 0.0, 0.0, 0.0, 0.0, 0.0, 0.0, 0.0, 0.0, 0.0, 0.0, 0.0, 0.0, 0.0, 1.0, 0.0, 0.0, 0.0, 0.0, 1.0], "bins": [-0.002995737362653017, -0.0028889994136989117, -0.0027822614647448063, -0.002675523515790701, -0.0025687855668365955, -0.00246204761788249, -0.0023553099017590284, -0.002248571952804923, -0.0021418340038508177, -0.0020350960548967123, -0.001928358105942607, -0.0018216202734038234, -0.001714882324449718, -0.0016081443754956126, -0.001501406542956829, -0.0013946685940027237, -0.0012879306450486183, -0.001181192696094513, -0.0010744547471404076, -0.000967716914601624, -0.0008609789656475186, -0.0007542410166934133, -0.0006475031259469688, -0.0005407652352005243, -0.00043402728624641895, -0.00032728936639614403, -0.0002205514465458691, -0.00011381352669559419, -7.075606845319271e-06, 9.96623421087861e-05, 0.00020640023285523057, 0.00031313812360167503, 0.00041987630538642406, 0.0005266142543405294, 0.0006333521450869739, 0.0007400900358334184, 0.0008468279847875237, 0.0009535659337416291, 0.0010603037662804127, 0.001167041715234518, 0.0012737796641886234, 0.0013805176131427288, 0.0014872555620968342, 0.0015939933946356177, 0.0017007313435897231, 0.0018074692925438285, 0.001914207125082612, 0.0020209450740367174, 0.002127683022990823, 0.002234420971944928, 0.0023411589208990335, 0.002447896869853139, 0.0025546345859766006, 0.002661372534930706, 0.0027681104838848114, 0.0028748484328389168, 0.002981586381793022, 0.0030883243307471275, 0.003195062279701233, 0.0033018002286553383, 0.0034085381776094437, 0.003515276126563549, 0.0036220138426870108, 0.003728751791641116, 0.0038354897405952215]}, "gradients/net.2.bias": {"_type": "histogram", "values": [1.0, 0.0, 0.0, 0.0, 0.0, 0.0, 0.0, 0.0, 0.0, 0.0, 0.0, 0.0, 1.0, 0.0, 1.0, 0.0, 0.0, 0.0, 0.0, 1.0, 0.0, 1.0, 0.0, 0.0, 0.0, 0.0, 0.0, 0.0, 1.0, 0.0, 0.0, 1.0, 0.0, 0.0, 0.0, 0.0, 0.0, 0.0, 0.0, 0.0, 0.0, 1.0, 0.0, 0.0, 0.0, 0.0, 1.0, 0.0, 1.0, 0.0, 0.0, 0.0, 0.0, 0.0, 0.0, 0.0, 0.0, 0.0, 0.0, 1.0, 0.0, 0.0, 0.0, 1.0], "bins": [-0.09844014793634415, -0.09533829241991043, -0.09223643690347672, -0.089134581387043, -0.08603271842002869, -0.08293086290359497, -0.07982900738716125, -0.07672715187072754, -0.07362529635429382, -0.07052344083786011, -0.06742158532142639, -0.06431972980499268, -0.06121787056326866, -0.058116015046834946, -0.05501415580511093, -0.051912300288677216, -0.0488104447722435, -0.045708589255809784, -0.04260673373937607, -0.039504874497652054, -0.03640301898121834, -0.03330116346478462, -0.030199306085705757, -0.027097448706626892, -0.023995593190193176, -0.02089373767375946, -0.017791880294680595, -0.014690023846924305, -0.011588167399168015, -0.008486310951411724, -0.005384454503655434, -0.0022825971245765686, 0.0008192658424377441, 0.003921122290194035, 0.007022978737950325, 0.010124835185706615, 0.013226691633462906, 0.01632854714989662, 0.019430404528975487, 0.022532261908054352, 0.025634117424488068, 0.028735972940921783, 0.0318378284573555, 0.034939687699079514, 0.03804154321551323, 0.041143398731946945, 0.04424525797367096, 0.047347113490104675, 0.05044896900653839, 0.05355082452297211, 0.05665268003940582, 0.05975453928112984, 0.06285639107227325, 0.06595825403928757, 0.06906010955572128, 0.072161965072155, 0.07526382058858871, 0.07836567610502243, 0.08146753162145615, 0.08456938713788986, 0.08767125010490417, 0.09077310562133789, 0.0938749611377716, 0.09697681665420532, 0.10007867217063904]}, "gradients/net.2.weight": {"_type": "histogram", "values": [2.0, 0.0, 0.0, 0.0, 0.0, 0.0, 1.0, 1.0, 2.0, 0.0, 2.0, 4.0, 4.0, 1.0, 7.0, 3.0, 5.0, 10.0, 10.0, 20.0, 21.0, 19.0, 31.0, 52.0, 73.0, 72.0, 112.0, 170.0, 213.0, 303.0, 440.0, 657.0, 859.0, 871.0, 674.0, 409.0, 250.0, 216.0, 139.0, 104.0, 106.0, 74.0, 48.0, 37.0, 30.0, 16.0, 15.0, 13.0, 14.0, 8.0, 8.0, 4.0, 3.0, 2.0, 0.0, 1.0, 2.0, 2.0, 1.0, 1.0, 1.0, 0.0, 0.0, 1.0], "bins": [-0.07487548142671585, -0.0726054459810257, -0.07033540308475494, -0.06806536763906479, -0.06579533219337463, -0.06352528929710388, -0.06125525385141373, -0.05898521840572357, -0.05671517923474312, -0.054445140063762665, -0.05217510461807251, -0.049905065447092056, -0.0476350262761116, -0.04536499083042145, -0.043094951659440994, -0.04082491248846054, -0.038554877042770386, -0.03628483787178993, -0.03401480242609978, -0.031744763255119324, -0.02947472594678402, -0.027204688638448715, -0.02493464946746826, -0.022664612159132957, -0.020394574850797653, -0.01812453754246235, -0.015854500234127045, -0.013584461063146591, -0.011314423754811287, -0.009044386446475983, -0.006774348206818104, -0.004504309967160225, -0.0022342726588249207, 3.5765115171670914e-05, 0.0023058028891682625, 0.004575840663164854, 0.006845878437161446, 0.00911591574549675, 0.011385953985154629, 0.013655992224812508, 0.015926029533147812, 0.018196066841483116, 0.02046610414981842, 0.022736143320798874, 0.025006180629134178, 0.027276217937469482, 0.029546257108449936, 0.03181629627943039, 0.034086331725120544, 0.036356370896101, 0.03862640634179115, 0.040896445512771606, 0.04316648095846176, 0.045436520129442215, 0.04770655930042267, 0.049976594746112823, 0.05224663391709328, 0.05451667308807373, 0.056786708533763885, 0.05905674770474434, 0.06132678687572479, 0.06359682232141495, 0.0658668577671051, 0.06813690066337585, 0.07040693610906601]}, "gradients/net.0.bias": {"_type": "histogram", "values": [1.0, 0.0, 0.0, 2.0, 1.0, 0.0, 0.0, 1.0, 1.0, 1.0, 4.0, 4.0, 2.0, 2.0, 6.0, 4.0, 6.0, 7.0, 11.0, 12.0, 18.0, 17.0, 12.0, 14.0, 15.0, 20.0, 23.0, 20.0, 17.0, 25.0, 28.0, 19.0, 16.0, 15.0, 18.0, 21.0, 13.0, 22.0, 19.0, 13.0, 10.0, 7.0, 7.0, 12.0, 5.0, 6.0, 1.0, 6.0, 4.0, 3.0, 3.0, 2.0, 3.0, 2.0, 1.0, 2.0, 1.0, 3.0, 1.0, 2.0, 0.0, 0.0, 0.0, 1.0], "bins": [-0.053568992763757706, -0.0518064871430397, -0.0500439815223217, -0.0482814759016037, -0.046518970280885696, -0.044756464660167694, -0.04299395903944969, -0.04123145341873169, -0.03946894779801369, -0.037706442177295685, -0.03594393655657768, -0.03418143093585968, -0.03241892531514168, -0.030656419694423676, -0.028893914073705673, -0.02713140845298767, -0.02536890283226967, -0.023606397211551666, -0.021843891590833664, -0.02008138597011566, -0.01831888034939766, -0.016556374728679657, -0.014793869107961655, -0.013031363487243652, -0.01126885786652565, -0.009506352245807648, -0.007743846625089645, -0.005981341004371643, -0.004218835383653641, -0.0024563297629356384, -0.0006938241422176361, 0.0010686814785003662, 0.00283118337392807, 0.004593688994646072, 0.006356194615364075, 0.008118700236082077, 0.00988120585680008, 0.011643711477518082, 0.013406217098236084, 0.015168722718954086, 0.01693122833967209, 0.01869373396039009, 0.020456239581108093, 0.022218745201826096, 0.023981250822544098, 0.0257437564432621, 0.027506262063980103, 0.029268767684698105, 0.031031273305416107, 0.03279377892613411, 0.03455628454685211, 0.036318790167570114, 0.038081295788288116, 0.03984380140900612, 0.04160630702972412, 0.04336881265044212, 0.045131318271160126, 0.04689382389187813, 0.04865632951259613, 0.05041883513331413, 0.052181340754032135, 0.05394384637475014, 0.05570635199546814, 0.05746885761618614, 0.059231363236904144]}, "gradients/net.0.weight": {"_type": "histogram", "values": [1.0, 1.0, 0.0, 3.0, 3.0, 1.0, 2.0, 3.0, 3.0, 2.0, 8.0, 9.0, 10.0, 7.0, 24.0, 15.0, 35.0, 37.0, 58.0, 60.0, 63.0, 104.0, 112.0, 132.0, 171.0, 214.0, 232.0, 333.0, 447.0, 518.0, 617.0, 603.0, 468.0, 374.0, 279.0, 241.0, 156.0, 161.0, 140.0, 100.0, 76.0, 66.0, 53.0, 36.0, 33.0, 26.0, 22.0, 13.0, 18.0, 5.0, 12.0, 12.0, 10.0, 1.0, 2.0, 4.0, 3.0, 1.0, 0.0, 1.0, 1.0, 1.0, 0.0, 1.0], "bins": [-0.04831717535853386, -0.04674797132611275, -0.04517876356840134, -0.043609559535980225, -0.042040351778268814, -0.0404711477458477, -0.03890193998813629, -0.03733273595571518, -0.03576353192329407, -0.034194327890872955, -0.032625120133161545, -0.031055916100740433, -0.02948671020567417, -0.02791750431060791, -0.02634829841554165, -0.024779092520475388, -0.023209886625409126, -0.021640680730342865, -0.020071474835276604, -0.018502268940210342, -0.01693306490778923, -0.015363859012722969, -0.013794653117656708, -0.012225448153913021, -0.01065624225884676, -0.009087036363780499, -0.007517831400036812, -0.0059486255049705505, -0.0043794200755655766, -0.0028102146461606026, -0.0012410087510943413, 0.0003281962126493454, 0.0018974021077156067, 0.0034666075371205807, 0.005035812966525555, 0.006605018861591816, 0.008174223825335503, 0.009743429720401764, 0.011312635615468025, 0.012881840579211712, 0.014451046474277973, 0.01602025143802166, 0.01758945733308792, 0.019158663228154182, 0.020727869123220444, 0.022297073155641556, 0.023866280913352966, 0.02543548494577408, 0.02700469084084034, 0.0285738967359066, 0.030143102630972862, 0.031712308526039124, 0.033281512558460236, 0.03485071659088135, 0.03641992434859276, 0.03798912838101387, 0.03955833613872528, 0.04112754017114639, 0.0426967479288578, 0.044265951961278915, 0.045835159718990326, 0.04740436375141144, 0.04897356778383255, 0.05054277554154396, 0.05211197957396507]}, "_wandb": {"runtime": 330}}