{"train_loss": 8.069510840869043e-06, "test_loss": 5.548412445932627e-06, "_timestamp": 1717579922.665807, "_runtime": 49.09202694892883, "_step": 499, "parameters/net.0.weight": {"_type": "histogram", "values": [2.0, 2.0, 0.0, 0.0, 2.0, 3.0, 4.0, 4.0, 4.0, 8.0, 15.0, 10.0, 15.0, 18.0, 22.0, 32.0, 20.0, 41.0, 36.0, 49.0, 61.0, 59.0, 81.0, 73.0, 76.0, 101.0, 104.0, 110.0, 109.0, 132.0, 133.0, 134.0, 136.0, 129.0, 122.0, 118.0, 109.0, 110.0, 107.0, 104.0, 107.0, 88.0, 86.0, 58.0, 63.0, 59.0, 33.0, 34.0, 36.0, 19.0, 15.0, 18.0, 8.0, 15.0, 8.0, 10.0, 4.0, 3.0, 5.0, 4.0, 1.0, 1.0, 0.0, 2.0], "bins": [-0.33378562331199646, -0.32346197962760925, -0.31313830614089966, -0.30281466245651245, -0.29249101877212524, -0.28216734528541565, -0.27184370160102844, -0.26152002811431885, -0.25119638442993164, -0.24087272584438324, -0.23054906725883484, -0.22022542357444763, -0.20990176498889923, -0.19957810640335083, -0.18925446271896362, -0.17893080413341522, -0.16860714554786682, -0.15828348696231842, -0.14795982837677002, -0.1376361846923828, -0.1273125261068344, -0.11698886752128601, -0.1066652163863182, -0.0963415652513504, -0.086017906665802, -0.0756942480802536, -0.0653705969452858, -0.055046942085027695, -0.04472328722476959, -0.03439963236451149, -0.024075977504253387, -0.013752326369285583, -0.003428637981414795, 0.0068950168788433075, 0.01721867173910141, 0.027542326599359512, 0.037865981459617615, 0.04818963631987572, 0.05851329118013382, 0.06883694231510162, 0.07916060090065002, 0.08948425948619843, 0.09980791062116623, 0.11013156175613403, 0.12045522034168243, 0.13077887892723083, 0.14110252261161804, 0.15142618119716644, 0.16174983978271484, 0.17207349836826324, 0.18239715695381165, 0.19272080063819885, 0.20304445922374725, 0.21336811780929565, 0.22369176149368286, 0.23401542007923126, 0.24433907866477966, 0.25466272234916687, 0.26498639583587646, 0.27531003952026367, 0.2856336832046509, 0.2959573566913605, 0.3062810003757477, 0.3166046738624573, 0.3269283175468445]}, "parameters/net.0.bias": {"_type": "histogram", "values": [1.0, 0.0, 0.0, 0.0, 0.0, 0.0, 1.0, 0.0, 0.0, 0.0, 1.0, 0.0, 0.0, 1.0, 1.0, 2.0, 3.0, 5.0, 8.0, 2.0, 4.0, 10.0, 2.0, 6.0, 6.0, 7.0, 6.0, 11.0, 3.0, 9.0, 13.0, 6.0, 6.0, 7.0, 3.0, 6.0, 7.0, 9.0, 8.0, 4.0, 10.0, 1.0, 4.0, 6.0, 3.0, 9.0, 7.0, 6.0, 8.0, 14.0, 10.0, 6.0, 2.0, 4.0, 3.0, 1.0, 1.0, 0.0, 1.0, 1.0, 0.0, 0.0, 0.0, 1.0], "bins": [-0.017581356689333916, -0.017090795561671257, -0.016600236296653748, -0.01610967516899109, -0.01561911404132843, -0.015128553844988346, -0.014637993648648262, -0.014147432520985603, -0.01365687232464552, -0.013166312128305435, -0.012675751000642776, -0.012185190804302692, -0.011694630607962608, -0.01120406948029995, -0.010713509283959866, -0.010222949087619781, -0.009732387959957123, -0.009241827763617039, -0.00875126663595438, -0.008260706439614296, -0.007770145777612925, -0.007279585115611553, -0.006789024919271469, -0.006298464257270098, -0.005807903595268726, -0.005317342933267355, -0.004826782271265984, -0.0043362220749258995, -0.003845661412924528, -0.0033551007509231567, -0.002864540321752429, -0.0023739798925817013, -0.0018834173679351807, -0.001392856822349131, -0.0009022962767630816, -0.000411735731177032, 7.882481440901756e-05, 0.000569385476410389, 0.0010599459055811167, 0.0015505063347518444, 0.002041066996753216, 0.002531627658754587, 0.003022188087925315, 0.0035127485170960426, 0.004003309179097414, 0.004493869841098785, 0.0049844300374388695, 0.005474990699440241, 0.005965551361441612, 0.006456112023442984, 0.006946672685444355, 0.007437232881784439, 0.007927794009447098, 0.008418354205787182, 0.008908914402127266, 0.009399475529789925, 0.009890035726130009, 0.010380595922470093, 0.010871157050132751, 0.011361717246472836, 0.01185227744281292, 0.012342838570475578, 0.012833398766815662, 0.013323958963155746, 0.013814520090818405]}, "parameters/net.2.weight": {"_type": "histogram", "values": [1.0, 1.0, 2.0, 5.0, 2.0, 9.0, 6.0, 12.0, 39.0, 33.0, 54.0, 97.0, 91.0, 157.0, 236.0, 306.0, 400.0, 534.0, 685.0, 868.0, 1046.0, 1307.0, 1519.0, 1911.0, 2053.0, 2430.0, 2750.0, 2914.0, 3156.0, 3401.0, 3459.0, 3524.0, 3454.0, 3509.0, 3315.0, 3170.0, 2883.0, 2617.0, 2338.0, 2091.0, 1883.0, 1523.0, 1295.0, 1045.0, 855.0, 650.0, 525.0, 375.0, 283.0, 210.0, 173.0, 95.0, 92.0, 55.0, 34.0, 24.0, 8.0, 12.0, 4.0, 2.0, 4.0, 1.0, 0.0, 3.0], "bins": [-0.4297311007976532, -0.4162757098674774, -0.402820348739624, -0.38936495780944824, -0.37590956687927246, -0.36245420575141907, -0.3489988148212433, -0.3355434536933899, -0.3220880627632141, -0.30863267183303833, -0.29517731070518494, -0.28172191977500916, -0.26826655864715576, -0.25481116771698, -0.2413557767868042, -0.2279004007577896, -0.21444502472877502, -0.20098964869976044, -0.18753427267074585, -0.17407888174057007, -0.16062350571155548, -0.1471681296825409, -0.1337127387523651, -0.12025736272335052, -0.10680198669433594, -0.09334661066532135, -0.07989122718572617, -0.06643584370613098, -0.052980467677116394, -0.03952509164810181, -0.026069708168506622, -0.012614324688911438, 0.0008410215377807617, 0.014296401292085648, 0.027751781046390533, 0.04120716080069542, 0.054662540555000305, 0.06811791658401489, 0.08157330006361008, 0.09502868354320526, 0.10848405957221985, 0.12193943560123444, 0.13539481163024902, 0.1488502025604248, 0.1623055785894394, 0.17576095461845398, 0.18921634554862976, 0.20267172157764435, 0.21612709760665894, 0.22958247363567352, 0.2430378496646881, 0.2564932405948639, 0.2699486017227173, 0.28340399265289307, 0.29685938358306885, 0.31031477451324463, 0.323770135641098, 0.3372255265712738, 0.3506808876991272, 0.364136278629303, 0.37759166955947876, 0.39104703068733215, 0.40450242161750793, 0.41795778274536133, 0.4314131736755371]}, "parameters/net.2.bias": {"_type": "histogram", "values": [2.0, 0.0, 0.0, 0.0, 1.0, 0.0, 0.0, 0.0, 0.0, 0.0, 0.0, 0.0, 2.0, 3.0, 2.0, 9.0, 5.0, 3.0, 5.0, 6.0, 6.0, 8.0, 10.0, 5.0, 3.0, 6.0, 7.0, 5.0, 6.0, 10.0, 10.0, 8.0, 1.0, 4.0, 5.0, 11.0, 11.0, 5.0, 9.0, 5.0, 7.0, 12.0, 15.0, 10.0, 5.0, 8.0, 2.0, 1.0, 4.0, 6.0, 2.0, 2.0, 4.0, 1.0, 0.0, 0.0, 1.0, 1.0, 0.0, 0.0, 0.0, 0.0, 0.0, 2.0], "bins": [-0.017333371564745903, -0.016779275611042976, -0.0162251815199852, -0.015671085566282272, -0.01511699054390192, -0.014562895521521568, -0.014008799567818642, -0.01345470454543829, -0.012900609523057938, -0.012346514500677586, -0.011792418546974659, -0.011238323524594307, -0.010684228502213955, -0.010130133479833603, -0.009576037526130676, -0.009021942503750324, -0.008467846550047398, -0.007913751527667046, -0.007359656039625406, -0.006805560551583767, -0.006251465529203415, -0.005697370041161776, -0.005143274553120136, -0.004589179530739784, -0.004035084042698145, -0.0034809887874871492, -0.0029268935322761536, -0.0023727980442345142, -0.0018187027890235186, -0.0012646075338125229, -0.0007105120457708836, -0.00015641679055988789, 0.0003976784646511078, 0.0009517737780697644, 0.001505869091488421, 0.0020599644631147385, 0.002614059718325734, 0.00316815497353673, 0.003722250461578369, 0.004276345483958721, 0.0048304409720003605, 0.005384536460042, 0.005938631482422352, 0.006492726970463991, 0.0070468224585056305, 0.0076009174808859825, 0.008155012503266335, 0.008709108456969261, 0.009263203479349613, 0.009817298501729965, 0.010371394455432892, 0.010925489477813244, 0.011479584500193596, 0.012033680453896523, 0.012587775476276875, 0.013141870498657227, 0.013695966452360153, 0.014250061474740505, 0.014804157428443432, 0.015358252450823784, 0.01591234840452671, 0.016466442495584488, 0.017020538449287415, 0.01757463440299034, 0.01812872849404812]}, "parameters/net.4.weight": {"_type": "histogram", "values": [2.0, 1.0, 3.0, 6.0, 4.0, 3.0, 1.0, 11.0, 12.0, 11.0, 12.0, 18.0, 12.0, 24.0, 30.0, 30.0, 49.0, 45.0, 63.0, 57.0, 62.0, 64.0, 66.0, 79.0, 110.0, 92.0, 102.0, 91.0, 119.0, 114.0, 117.0, 126.0, 108.0, 131.0, 112.0, 118.0, 117.0, 121.0, 114.0, 97.0, 77.0, 65.0, 65.0, 59.0, 57.0, 51.0, 49.0, 41.0, 21.0, 29.0, 21.0, 17.0, 20.0, 6.0, 10.0, 5.0, 3.0, 4.0, 5.0, 2.0, 4.0, 2.0, 2.0, 3.0], "bins": [-0.3142865300178528, -0.30442386865615845, -0.2945612072944641, -0.2846985459327698, -0.27483588457107544, -0.2649732530117035, -0.25511059165000916, -0.24524793028831482, -0.23538526892662048, -0.22552260756492615, -0.2156599462032318, -0.20579729974269867, -0.19593463838100433, -0.18607197701931, -0.17620933055877686, -0.16634666919708252, -0.15648400783538818, -0.14662134647369385, -0.1367586851119995, -0.12689603865146637, -0.11703337728977203, -0.1071707159280777, -0.09730806201696396, -0.08744540810585022, -0.07758274674415588, -0.06772008538246155, -0.05785743147134781, -0.04799477383494377, -0.038132116198539734, -0.028269458562135696, -0.01840680092573166, -0.00854414701461792, 0.0013185441493988037, 0.011181201785802841, 0.02104385942220688, 0.030906517058610916, 0.040769174695014954, 0.05063183233141899, 0.06049448996782303, 0.07035714387893677, 0.0802198052406311, 0.09008246660232544, 0.09994512051343918, 0.10980777442455292, 0.11967043578624725, 0.1295330971479416, 0.13939574360847473, 0.14925840497016907, 0.1591210663318634, 0.16898372769355774, 0.17884638905525208, 0.18870903551578522, 0.19857169687747955, 0.2084343582391739, 0.21829700469970703, 0.22815966606140137, 0.2380223274230957, 0.24788498878479004, 0.2577476501464844, 0.2676103115081787, 0.27747297286987305, 0.287335604429245, 0.29719826579093933, 0.30706092715263367, 0.316923588514328]}, "parameters/net.4.bias": {"_type": "histogram", "values": [1.0, 0.0, 0.0, 0.0, 1.0, 0.0, 0.0, 1.0, 0.0, 0.0, 1.0, 0.0, 0.0, 0.0, 0.0, 0.0, 0.0, 0.0, 0.0, 1.0, 0.0, 0.0, 0.0, 0.0, 0.0, 0.0, 0.0, 0.0, 1.0, 1.0, 0.0, 1.0, 0.0, 0.0, 0.0, 1.0, 0.0, 0.0, 0.0, 0.0, 0.0, 0.0, 0.0, 0.0, 0.0, 0.0, 0.0, 0.0, 0.0, 0.0, 1.0, 0.0, 0.0, 0.0, 0.0, 0.0, 0.0, 0.0, 0.0, 0.0, 0.0, 0.0, 0.0, 2.0], "bins": [-0.005137759260833263, -0.004974849056452513, -0.004811938386410475, -0.004649028182029724, -0.004486117511987686, -0.0043232073076069355, -0.004160297103226185, -0.003997386433184147, -0.0038344762288033962, -0.003671565791592002, -0.0035086553543806076, -0.003345745149999857, -0.0031828347127884626, -0.0030199242755770683, -0.0028570140711963177, -0.0026941036339849234, -0.002531193196773529, -0.0023682827595621347, -0.0022053723223507404, -0.0020424621179699898, -0.0018795516807585955, -0.0017166412435472012, -0.0015537309227511287, -0.0013908206019550562, -0.0012279101647436619, -0.0010649997275322676, -0.0009020894067361951, -0.0007391790277324617, -0.0005762686487287283, -0.0004133582697249949, -0.0002504478907212615, -8.753756992518902e-05, 7.537240162491798e-05, 0.00023828278062865138, 0.0004011931596323848, 0.0005641035386361182, 0.0007270139176398516, 0.000889924296643585, 0.0010528346756473184, 0.0012157449964433908, 0.0013786554336547852, 0.0015415658708661795, 0.001704476191662252, 0.0018673865124583244, 0.0020302969496697187, 0.002193207386881113, 0.0023561175912618637, 0.002519028028473258, 0.0026819384656846523, 0.0028448489028960466, 0.003007759340107441, 0.0031706695444881916, 0.003333579981699586, 0.0034964904189109802, 0.003659400623291731, 0.003822311060503125, 0.0039852214977145195, 0.00414813170209527, 0.004311042372137308, 0.004473952576518059, 0.004636863246560097, 0.004799773450940847, 0.004962683655321598, 0.005125594325363636, 0.005288504529744387]}, "gradients/net.4.bias": {"_type": "histogram", "values": [1.0, 0.0, 0.0, 1.0, 0.0, 0.0, 0.0, 0.0, 0.0, 0.0, 1.0, 0.0, 0.0, 0.0, 0.0, 0.0, 0.0, 0.0, 0.0, 0.0, 0.0, 0.0, 1.0, 0.0, 0.0, 0.0, 0.0, 1.0, 0.0, 0.0, 0.0, 0.0, 1.0, 0.0, 0.0, 0.0, 0.0, 0.0, 3.0, 0.0, 0.0, 0.0, 1.0, 0.0, 0.0, 0.0, 0.0, 0.0, 0.0, 0.0, 1.0, 0.0, 0.0, 0.0, 0.0, 0.0, 0.0, 0.0, 0.0, 0.0, 0.0, 0.0, 0.0, 1.0], "bins": [-0.00014985213056206703, -0.00014485295105259866, -0.00013985377154313028, -0.0001348545920336619, -0.00012985541252419353, -0.00012485623301472515, -0.00011985705350525677, -0.0001148578739957884, -0.00010985869448632002, -0.00010485951497685164, -9.986033546738327e-05, -9.486115595791489e-05, -8.986197644844651e-05, -8.486279693897814e-05, -7.986361742950976e-05, -7.486443792004138e-05, -6.986525113461539e-05, -6.486607162514701e-05, -5.986689211567864e-05, -5.486771260621026e-05, -4.9868533096741885e-05, -4.486935358727351e-05, -3.9870170439826325e-05, -3.487099093035795e-05, -2.987181142088957e-05, -2.4872631911421195e-05, -1.9873452401952818e-05, -1.4874271073495038e-05, -9.875091564026661e-06, -4.875912054558285e-06, 1.232692738994956e-07, 5.122448783367872e-06, 1.0121628292836249e-05, 1.5120807802304626e-05, 2.0119987311773002e-05, 2.5119168640230782e-05, 3.011834814969916e-05, 3.511752584017813e-05, 4.0116708987625316e-05, 4.511588849709369e-05, 5.011506800656207e-05, 5.5114247516030446e-05, 6.011342702549882e-05, 6.5112610172946e-05, 7.011178968241438e-05, 7.511096919188276e-05, 8.011014870135114e-05, 8.510932821081951e-05, 9.010850772028789e-05, 9.510768722975627e-05, 0.00010010686673922464, 0.00010510604624869302, 0.0001101052257581614, 0.00011510440526762977, 0.00012010359205305576, 0.00012510277156252414, 0.00013010195107199252, 0.0001351011305814609, 0.00014010031009092927, 0.00014509948960039765, 0.00015009866910986602, 0.0001550978486193344, 0.00016009702812880278, 0.00016509620763827115, 0.00017009538714773953]}, "gradients/net.4.weight": {"_type": "histogram", "values": [1.0, 0.0, 0.0, 1.0, 1.0, 0.0, 1.0, 1.0, 1.0, 1.0, 4.0, 2.0, 1.0, 5.0, 3.0, 5.0, 6.0, 7.0, 12.0, 9.0, 7.0, 11.0, 18.0, 29.0, 29.0, 32.0, 51.0, 60.0, 57.0, 83.0, 93.0, 140.0, 152.0, 170.0, 191.0, 252.0, 282.0, 267.0, 220.0, 193.0, 144.0, 117.0, 99.0, 54.0, 55.0, 42.0, 43.0, 37.0, 14.0, 19.0, 16.0, 10.0, 9.0, 3.0, 4.0, 5.0, 1.0, 0.0, 0.0, 1.0, 0.0, 0.0, 0.0, 1.0], "bins": [-0.00011967234604526311, -0.00011632366658886895, -0.0001129749944084324, -0.00010962631495203823, -0.00010627763549564406, -0.0001029289560392499, -9.958028385881335e-05, -9.623160440241918e-05, -9.288292494602501e-05, -8.953424548963085e-05, -8.61855733091943e-05, -8.283689385280013e-05, -7.948821439640597e-05, -7.61395349400118e-05, -7.279086275957525e-05, -6.944218330318108e-05, -6.609351112274453e-05, -6.274483166635036e-05, -5.9396155847935006e-05, -5.604748002951965e-05, -5.269880057312548e-05, -4.935012475471012e-05, -4.6001448936294764e-05, -4.26527694799006e-05, -3.930409366148524e-05, -3.595541784306988e-05, -3.2606738386675715e-05, -2.9258062568260357e-05, -2.5909384930855595e-05, -2.2560707293450832e-05, -1.9212031475035474e-05, -1.586335383763071e-05, -1.251467620022595e-05, -9.165998562821187e-06, -5.817321834911127e-06, -2.468645107001066e-06, 8.80032530403696e-07, 4.228710167808458e-06, 7.577385986223817e-06, 1.0926063623628579e-05, 1.4274741261033341e-05, 1.7623418898438103e-05, 2.0972096535842866e-05, 2.4320772354258224e-05, 2.7669449991662987e-05, 3.101812762906775e-05, 3.436680344748311e-05, 3.7715479265898466e-05, 4.106415872229263e-05, 4.441283454070799e-05, 4.7761513997102156e-05, 5.1110189815517515e-05, 5.445886927191168e-05, 5.780754509032704e-05, 6.11562209087424e-05, 6.450490036513656e-05, 6.785357254557312e-05, 7.120225200196728e-05, 7.455092418240383e-05, 7.7899603638798e-05, 8.124828309519216e-05, 8.459696255158633e-05, 8.794563473202288e-05, 9.129431418841705e-05, 9.464299364481121e-05]}, "gradients/net.2.bias": {"_type": "histogram", "values": [1.0, 0.0, 2.0, 1.0, 1.0, 0.0, 1.0, 2.0, 4.0, 2.0, 3.0, 4.0, 6.0, 5.0, 9.0, 11.0, 6.0, 10.0, 4.0, 18.0, 14.0, 10.0, 14.0, 13.0, 15.0, 10.0, 14.0, 7.0, 9.0, 9.0, 6.0, 5.0, 0.0, 6.0, 8.0, 5.0, 2.0, 0.0, 5.0, 1.0, 3.0, 0.0, 2.0, 0.0, 0.0, 1.0, 0.0, 3.0, 0.0, 1.0, 2.0, 0.0, 0.0, 0.0, 0.0, 0.0, 0.0, 0.0, 0.0, 0.0, 0.0, 0.0, 0.0, 1.0], "bins": [-4.9625006795395166e-05, -4.738095958600752e-05, -4.513690873864107e-05, -4.289286152925342e-05, -4.064881068188697e-05, -3.8404763472499326e-05, -3.616071626311168e-05, -3.391666541574523e-05, -3.1672618206357583e-05, -2.9428569177980535e-05, -2.7184520149603486e-05, -2.494047294021584e-05, -2.2696423911838792e-05, -2.0452374883461744e-05, -1.82083276740741e-05, -1.596427864569705e-05, -1.3720229617320001e-05, -1.1476180588942952e-05, -9.232132470060606e-06, -6.988083896430908e-06, -4.74403532280121e-06, -2.4999862944241613e-06, -2.559381755418144e-07, 1.9881099433405325e-06, 4.232158971717581e-06, 6.476207545347279e-06, 8.720256118976977e-06, 1.0964304237859324e-05, 1.3208353266236372e-05, 1.545240229461342e-05, 1.7696449504001066e-05, 1.9940498532378115e-05, 2.2184554836712778e-05, 2.4428603865089826e-05, 2.6672652893466875e-05, 2.891670010285452e-05, 3.116075095022097e-05, 3.340479815960862e-05, 3.564884536899626e-05, 3.7892896216362715e-05, 4.013694342575036e-05, 4.2380990635138005e-05, 4.462504148250446e-05, 4.68690886918921e-05, 4.911313590127975e-05, 5.13571867486462e-05, 5.3601233958033845e-05, 5.584528116742149e-05, 5.808933201478794e-05, 6.033337922417559e-05, 6.257742643356323e-05, 6.482147728092968e-05, 6.706552812829614e-05, 6.930957897566259e-05, 7.155362254707143e-05, 7.379767339443788e-05, 7.604171696584672e-05, 7.828576781321317e-05, 8.052981138462201e-05, 8.277386223198846e-05, 8.501791307935491e-05, 8.726195665076375e-05, 8.95060074981302e-05, 9.175005834549665e-05, 9.39941091928631e-05]}, "gradients/net.2.weight": {"_type": "histogram", "values": [1.0, 0.0, 0.0, 1.0, 3.0, 1.0, 2.0, 1.0, 5.0, 2.0, 5.0, 8.0, 7.0, 8.0, 14.0, 28.0, 30.0, 32.0, 36.0, 71.0, 106.0, 150.0, 215.0, 322.0, 471.0, 685.0, 1040.0, 1860.0, 2925.0, 4908.0, 8037.0, 14286.0, 11897.0, 7063.0, 4249.0, 2489.0, 1553.0, 970.0, 660.0, 422.0, 285.0, 203.0, 146.0, 99.0, 73.0, 49.0, 36.0, 17.0, 16.0, 13.0, 8.0, 2.0, 7.0, 4.0, 9.0, 2.0, 1.0, 2.0, 0.0, 0.0, 0.0, 0.0, 0.0, 1.0], "bins": [-4.048745904583484e-05, -3.92160945921205e-05, -3.794473013840616e-05, -3.6673369322670624e-05, -3.540200486895628e-05, -3.413064041524194e-05, -3.28592759615276e-05, -3.158791150781326e-05, -3.0316548873088323e-05, -2.904518441937398e-05, -2.7773821784649044e-05, -2.6502457330934703e-05, -2.5231092877220362e-05, -2.3959730242495425e-05, -2.2688365788781084e-05, -2.1417003154056147e-05, -2.0145638700341806e-05, -1.8874274246627465e-05, -1.7602911611902528e-05, -1.6331547158188187e-05, -1.5060183613968547e-05, -1.3788820069748908e-05, -1.2517455616034567e-05, -1.1246092071814928e-05, -9.974728527595289e-06, -8.70336498337565e-06, -7.43200098440866e-06, -6.16063698544167e-06, -4.889273441222031e-06, -3.6179098970023915e-06, -2.3465458980354015e-06, -1.0751818990684114e-06, 1.961816451512277e-07, 1.4675454167445423e-06, 2.738909188337857e-06, 4.010273187304847e-06, 5.281636731524486e-06, 6.553000275744125e-06, 7.824364729458466e-06, 9.095728273678105e-06, 1.0367091817897744e-05, 1.1638455362117384e-05, 1.2909818906337023e-05, 1.4181183360051364e-05, 1.5452547813765705e-05, 1.6723910448490642e-05, 1.7995274902204983e-05, 1.926663753692992e-05, 2.053800199064426e-05, 2.1809366444358602e-05, 2.308072907908354e-05, 2.435209353279788e-05, 2.5623456167522818e-05, 2.689482062123716e-05, 2.81661850749515e-05, 2.943754952866584e-05, 3.070891398238018e-05, 3.198027843609452e-05, 3.3251642889808863e-05, 3.45230037055444e-05, 3.579436815925874e-05, 3.706573261297308e-05, 3.833709706668742e-05, 3.960846152040176e-05, 4.0879822336137295e-05]}, "gradients/net.0.bias": {"_type": "histogram", "values": [1.0, 1.0, 0.0, 0.0, 1.0, 0.0, 0.0, 1.0, 1.0, 3.0, 2.0, 1.0, 0.0, 2.0, 3.0, 4.0, 5.0, 2.0, 6.0, 3.0, 1.0, 8.0, 8.0, 6.0, 11.0, 12.0, 8.0, 5.0, 9.0, 10.0, 8.0, 12.0, 10.0, 10.0, 11.0, 4.0, 6.0, 6.0, 4.0, 11.0, 16.0, 8.0, 4.0, 3.0, 4.0, 3.0, 2.0, 3.0, 2.0, 1.0, 2.0, 2.0, 0.0, 1.0, 2.0, 1.0, 2.0, 2.0, 1.0, 0.0, 0.0, 0.0, 0.0, 1.0], "bins": [-9.84264916041866e-05, -9.525279892841354e-05, -9.20791135285981e-05, -8.890542085282505e-05, -8.57317354530096e-05, -8.255804277723655e-05, -7.93843501014635e-05, -7.621066470164806e-05, -7.3036972025875e-05, -6.986327935010195e-05, -6.668959395028651e-05, -6.351590127451345e-05, -6.0342212236719206e-05, -5.716852319892496e-05, -5.399483416113071e-05, -5.0821145123336464e-05, -4.764745608554222e-05, -4.447376704774797e-05, -4.130007800995372e-05, -3.8126388972159475e-05, -3.495269629638642e-05, -3.1779007258592173e-05, -2.8605318220797926e-05, -2.5431627364014275e-05, -2.2257938326220028e-05, -1.908424928842578e-05, -1.591055843164213e-05, -1.2736869393847883e-05, -9.563179446558934e-06, -6.389489499269985e-06, -3.2158004614757374e-06, -4.210960469208658e-08, 3.1315794331021607e-06, 6.30526938039111e-06, 9.478959327680059e-06, 1.2652648365474306e-05, 1.5826339222257957e-05, 1.9000028260052204e-05, 2.217371729784645e-05, 2.5347408154630102e-05, 2.852109719242435e-05, 3.1694788049208e-05, 3.486847708700225e-05, 3.8042166124796495e-05, 4.121585516259074e-05, 4.4389547838363796e-05, 4.756323323817924e-05, 5.073692591395229e-05, 5.391061495174654e-05, 5.7084303989540786e-05, 6.025799302733503e-05, 6.343168206512928e-05, 6.660537474090233e-05, 6.977906741667539e-05, 7.295275281649083e-05, 7.612644549226388e-05, 7.930013089207932e-05, 8.247382356785238e-05, 8.564750896766782e-05, 8.882120164344087e-05, 9.199488704325631e-05, 9.516857971902937e-05, 9.834226511884481e-05, 0.00010151595779461786, 0.00010468965047039092]}, "gradients/net.0.weight": {"_type": "histogram", "values": [1.0, 0.0, 0.0, 0.0, 0.0, 0.0, 0.0, 1.0, 1.0, 0.0, 0.0, 2.0, 2.0, 1.0, 0.0, 3.0, 4.0, 4.0, 6.0, 15.0, 17.0, 12.0, 26.0, 24.0, 50.0, 71.0, 76.0, 99.0, 144.0, 135.0, 175.0, 181.0, 221.0, 252.0, 241.0, 223.0, 225.0, 162.0, 147.0, 129.0, 128.0, 73.0, 57.0, 38.0, 29.0, 32.0, 14.0, 15.0, 10.0, 5.0, 6.0, 6.0, 1.0, 1.0, 1.0, 3.0, 1.0, 0.0, 0.0, 0.0, 0.0, 0.0, 1.0, 1.0], "bins": [-0.00011472047481220216, -0.00011134710803162307, -0.00010797374125104398, -0.00010460037447046489, -0.00010122701496584341, -9.785364818526432e-05, -9.448028140468523e-05, -9.110691462410614e-05, -8.773355511948466e-05, -8.436018833890557e-05, -8.098682155832648e-05, -7.761345477774739e-05, -7.424009527312592e-05, -7.086672849254683e-05, -6.749336171196774e-05, -6.411999493138865e-05, -6.0746628150809556e-05, -5.7373261370230466e-05, -5.399989822763018e-05, -5.062653144705109e-05, -4.725316830445081e-05, -4.387980152387172e-05, -4.050643474329263e-05, -3.713306796271354e-05, -3.3759704820113257e-05, -3.038633985852357e-05, -2.7012974896933883e-05, -2.3639608116354793e-05, -2.0266243154765107e-05, -1.689287819317542e-05, -1.351951141259633e-05, -1.0146146451006643e-05, -6.772788765374571e-06, -3.3994233490375336e-06, -2.6057932700496167e-08, 3.347307938383892e-06, 6.720672899973579e-06, 1.0094037861563265e-05, 1.3467404642142355e-05, 1.6840769603732042e-05, 2.021413456532173e-05, 2.3587499526911415e-05, 2.6960864488501102e-05, 3.0334231269080192e-05, 3.370759804965928e-05, 3.7080961192259565e-05, 4.0454327972838655e-05, 4.382769111543894e-05, 4.720105789601803e-05, 5.057442467659712e-05, 5.39477878191974e-05, 5.732115459977649e-05, 6.0694517742376775e-05, 6.406788452295586e-05, 6.744125130353495e-05, 7.081461808411404e-05, 7.418797758873552e-05, 7.756134436931461e-05, 8.09347111498937e-05, 8.430807793047279e-05, 8.768143743509427e-05, 9.105480421567336e-05, 9.442817099625245e-05, 9.780153777683154e-05, 0.00010117490455741063]}, "_wandb": {"runtime": 48}}