{"train_loss": 0.00709642143920064, "train_grad": 0.006588058080524206, "train_H": 0.00011529779294505715, "test_loss": 0.005586511455476284, "test_grad": 0.005277440883219242, "test_h": 0, "test_H": 4.209147300571203e-05, "_timestamp": 1717627143.1433866, "_runtime": 268.4668846130371, "_step": 499, "gradients/NN.net.2.bias": {"_type": "histogram", "values": [0.0, 0.0, 0.0, 0.0, 0.0, 0.0, 0.0, 0.0, 0.0, 0.0, 0.0, 0.0, 0.0, 0.0, 0.0, 0.0, 0.0, 0.0, 0.0, 0.0, 0.0, 0.0, 0.0, 0.0, 0.0, 0.0, 0.0, 0.0, 0.0, 0.0, 0.0, 0.0, 1.0, 0.0, 0.0, 0.0, 0.0, 0.0, 0.0, 0.0, 0.0, 0.0, 0.0, 0.0, 0.0, 0.0, 0.0, 0.0, 0.0, 0.0, 0.0, 0.0, 0.0, 0.0, 0.0, 0.0, 0.0, 0.0, 0.0, 0.0, 0.0, 0.0, 0.0, 0.0], "bins": [-0.005059309769421816, -0.005059309769421816, -0.005059309769421816, -0.005059309769421816, -0.005059309769421816, -0.005059309769421816, -0.005059309769421816, -0.005059309769421816, -0.005059309769421816, -0.005059309769421816, -0.005059309769421816, -0.005059309769421816, -0.005059309769421816, -0.005059309769421816, -0.005059309769421816, -0.005059309769421816, -0.005059309769421816, -0.005059309769421816, -0.005059309769421816, -0.005059309769421816, -0.005059309769421816, -0.005059309769421816, -0.005059309769421816, -0.005059309769421816, -0.005059309769421816, -0.005059309769421816, -0.005059309769421816, -0.005059309769421816, -0.005059309769421816, -0.005059309769421816, -0.005059309769421816, -0.005059309769421816, -0.005059309769421816, -0.005059309769421816, -0.005059309769421816, -0.005059309769421816, -0.005059309769421816, -0.005059309769421816, -0.005059309769421816, -0.005059309769421816, -0.005059309769421816, -0.005059309769421816, -0.005059309769421816, -0.005059309769421816, -0.005059309769421816, -0.005059309769421816, -0.005059309769421816, -0.005059309769421816, -0.005059309769421816, -0.005059309769421816, -0.005059309769421816, -0.005059309769421816, -0.005059309769421816, -0.005059309769421816, -0.005059309769421816, -0.005059309769421816, -0.005059309769421816, -0.005059309769421816, -0.005059309769421816, -0.005059309769421816, -0.005059309769421816, -0.005059309769421816, -0.005059309769421816, -0.005059309769421816, -0.005059309769421816]}, "gradients/NN.net.2.weight": {"_type": "histogram", "values": [1.0, 0.0, 0.0, 0.0, 0.0, 0.0, 1.0, 0.0, 1.0, 1.0, 0.0, 0.0, 2.0, 5.0, 4.0, 4.0, 4.0, 4.0, 3.0, 6.0, 6.0, 5.0, 8.0, 7.0, 5.0, 7.0, 11.0, 8.0, 13.0, 13.0, 18.0, 9.0, 28.0, 24.0, 28.0, 20.0, 27.0, 25.0, 28.0, 18.0, 22.0, 13.0, 18.0, 10.0, 15.0, 19.0, 11.0, 7.0, 3.0, 7.0, 7.0, 3.0, 6.0, 2.0, 5.0, 3.0, 2.0, 5.0, 3.0, 5.0, 1.0, 0.0, 0.0, 1.0], "bins": [-0.012377212755382061, -0.012036328203976154, -0.011695442721247673, -0.011354558169841766, -0.011013672687113285, -0.010672788135707378, -0.010331902652978897, -0.00999101810157299, -0.009650133550167084, -0.009309248998761177, -0.008968363516032696, -0.008627478964626789, -0.008286593481898308, -0.007945708930492401, -0.007604823913425207, -0.007263938896358013, -0.006923053413629532, -0.006582168396562338, -0.006241283379495144, -0.005900398828089237, -0.005559513345360756, -0.005218628793954849, -0.004877743776887655, -0.004536858759820461, -0.004195973742753267, -0.0038550887256860733, -0.0035142037086188793, -0.003173318924382329, -0.002832433907315135, -0.002491548890247941, -0.0021506641060113907, -0.0018097790889441967, -0.0014688950031995773, -0.0011280099861323833, -0.0007871250854805112, -0.00044624018482863903, -0.00010535516776144505, 0.00023552984930574894, 0.0005764146335422993, 0.0009172996506094933, 0.0012581846676766872, 0.0015990696847438812, 0.0019399545853957534, 0.0022808394860476255, 0.0026217245031148195, 0.0029626095201820135, 0.003303494304418564, 0.003644379321485758, 0.003985264338552952, 0.004326149355620146, 0.00466703437268734, 0.0050079189240932465, 0.005348804406821728, 0.005689688958227634, 0.006030573975294828, 0.006371458992362022, 0.006712344009429216, 0.00705322902649641, 0.007394114043563604, 0.007734999060630798, 0.008075883612036705, 0.008416769094765186, 0.008757653646171093, 0.009098539128899574, 0.009439423680305481]}, "gradients/NN.net.0.bias": {"_type": "histogram", "values": [1.0, 0.0, 2.0, 1.0, 1.0, 1.0, 0.0, 3.0, 5.0, 1.0, 2.0, 1.0, 6.0, 4.0, 10.0, 9.0, 10.0, 9.0, 17.0, 23.0, 20.0, 29.0, 29.0, 39.0, 26.0, 18.0, 27.0, 29.0, 23.0, 27.0, 25.0, 25.0, 13.0, 15.0, 9.0, 8.0, 8.0, 7.0, 6.0, 2.0, 6.0, 3.0, 2.0, 1.0, 1.0, 3.0, 2.0, 0.0, 0.0, 1.0, 0.0, 0.0, 1.0, 0.0, 0.0, 0.0, 0.0, 0.0, 0.0, 0.0, 0.0, 0.0, 0.0, 1.0], "bins": [-0.0020135734230279922, -0.0019355500116944313, -0.0018575266003608704, -0.0017795031890273094, -0.0017014797776937485, -0.0016234563663601875, -0.0015454329550266266, -0.0014674095436930656, -0.0013893861323595047, -0.0013113627210259438, -0.0012333393096923828, -0.0011553158983588219, -0.001077292487025261, -0.0009992690756917, -0.0009212457225658, -0.000843222311232239, -0.000765198958106339, -0.000687175546772778, -0.0006091521354392171, -0.0005311287241056561, -0.00045310534187592566, -0.0003750819305423647, -0.00029705854831263423, -0.00021903513697907329, -0.00014101172564551234, -6.298832158790901e-05, 1.5035082469694316e-05, 9.305847925134003e-05, 0.00017108189058490098, 0.0002491053019184619, 0.0003271286841481924, 0.00040515209548175335, 0.0004831755068153143, 0.0005611989181488752, 0.0006392223294824362, 0.0007172457408159971, 0.0007952691521495581, 0.000873292563483119, 0.000951315916609019, 0.001029339386150241, 0.0011073627974838018, 0.0011853862088173628, 0.0012634096201509237, 0.0013414330314844847, 0.0014194564428180456, 0.0014974798541516066, 0.0015755032654851675, 0.0016535266768187284, 0.0017315499717369676, 0.0018095733830705285, 0.0018875967944040895, 0.0019656200893223286, 0.0020436435006558895, 0.0021216669119894505, 0.0021996903233230114, 0.0022777137346565723, 0.0023557371459901333, 0.0024337605573236942, 0.002511783968657255, 0.002589807379990816, 0.002667830791324377, 0.002745854202657938, 0.002823877613991499, 0.00290190102532506, 0.002979924436658621]}, "gradients/NN.net.0.weight": {"_type": "histogram", "values": [1.0, 3.0, 1.0, 2.0, 2.0, 4.0, 4.0, 5.0, 11.0, 18.0, 19.0, 14.0, 26.0, 24.0, 29.0, 51.0, 48.0, 59.0, 97.0, 118.0, 112.0, 141.0, 182.0, 224.0, 312.0, 425.0, 544.0, 823.0, 676.0, 460.0, 342.0, 267.0, 204.0, 189.0, 137.0, 113.0, 86.0, 77.0, 62.0, 50.0, 37.0, 34.0, 25.0, 21.0, 17.0, 12.0, 7.0, 11.0, 4.0, 4.0, 3.0, 1.0, 2.0, 1.0, 1.0, 0.0, 1.0, 0.0, 0.0, 0.0, 0.0, 0.0, 0.0, 1.0], "bins": [-0.003049348248168826, -0.0029394414741545916, -0.0028295349329710007, -0.002719628158956766, -0.0026097213849425316, -0.0024998148437589407, -0.002389908069744706, -0.0022800015285611153, -0.0021700947545468807, -0.002060187980532646, -0.0019502814393490553, -0.0018403746653348207, -0.001730468007735908, -0.0016205613501369953, -0.0015106545761227608, -0.001400747918523848, -0.0012908412609249353, -0.0011809346033260226, -0.00107102794572711, -0.0009611211717128754, -0.0008512145141139627, -0.0007413078565150499, -0.0006314011407084763, -0.0005214944249019027, -0.00041158776730298996, -0.0003016810806002468, -0.00019177439389750361, -8.186770719476044e-05, 2.803897950798273e-05, 0.00013794563710689545, 0.0002478523529134691, 0.0003577590687200427, 0.0004676659591495991, 0.0005775726167485118, 0.0006874793325550854, 0.000797386048361659, 0.0009072927059605718, 0.0010171993635594845, 0.001127106137573719, 0.0012370127951726317, 0.0013469194527715445, 0.0014568261103704572, 0.0015667327679693699, 0.0016766395419836044, 0.0017865461995825171, 0.0018964528571814299, 0.0020063596311956644, 0.0021162661723792553, 0.00222617294639349, 0.0023360797204077244, 0.0024459862615913153, 0.00255589303560555, 0.0026657995767891407, 0.0027757063508033752, 0.00288561312481761, 0.0029955198988318443, 0.0031054264400154352, 0.0032153332140296698, 0.0033252397552132607, 0.003435146529227495, 0.0035450533032417297, 0.0036549598444253206, 0.003764866618439555, 0.003874773159623146, 0.003984679933637381]}, "_wandb": {"runtime": 268}}