{"train_loss": 11.837224960327148, "test_loss": 11.702779769897461, "_timestamp": 1717445015.3593454, "_runtime": 23.40595054626465, "_step": 99, "gradients/net.4.bias": {"_type": "histogram", "values": [1.0, 0.0, 0.0, 0.0, 0.0, 0.0, 0.0, 0.0, 0.0, 0.0, 1.0, 0.0, 0.0, 0.0, 0.0, 0.0, 0.0, 0.0, 0.0, 0.0, 0.0, 0.0, 0.0, 0.0, 0.0, 1.0, 0.0, 0.0, 0.0, 0.0, 1.0, 0.0, 0.0, 0.0, 0.0, 0.0, 0.0, 0.0, 0.0, 0.0, 0.0, 1.0, 0.0, 0.0, 0.0, 1.0, 2.0, 0.0, 0.0, 0.0, 1.0, 0.0, 0.0, 0.0, 1.0, 0.0, 0.0, 0.0, 0.0, 1.0, 0.0, 0.0, 0.0, 1.0], "bins": [-0.055120062083005905, -0.05363745987415314, -0.05215485766530037, -0.0506722554564476, -0.04918965324759483, -0.047707051038742065, -0.046224452555179596, -0.04474184662103653, -0.04325924813747406, -0.04177664592862129, -0.040294043719768524, -0.038811441510915756, -0.03732883930206299, -0.03584623709321022, -0.03436363488435745, -0.03288103640079498, -0.031398430466651917, -0.02991582825779915, -0.02843322604894638, -0.026950623840093613, -0.025468021631240845, -0.023985419422388077, -0.022502819076180458, -0.02102021686732769, -0.019537614658474922, -0.018055012449622154, -0.016572410240769386, -0.015089808963239193, -0.013607206754386425, -0.012124604545533657, -0.010642003268003464, -0.009159401059150696, -0.007676795125007629, -0.0061941929161548615, -0.004711591172963381, -0.0032289894297719, -0.0017463872209191322, -0.0002637850120663643, 0.001218816265463829, 0.002701418474316597, 0.004184020683169365, 0.005666622892022133, 0.0071492246352136135, 0.008631826378405094, 0.010114428587257862, 0.01159703079611063, 0.013079632073640823, 0.014562234282493591, 0.01604483649134636, 0.017527438700199127, 0.019010040909051895, 0.020492643117904663, 0.02197524532675743, 0.0234578475356102, 0.024940447881817818, 0.026423050090670586, 0.027905652299523354, 0.02938825450837612, 0.03087085671722889, 0.03235345706343651, 0.033836059272289276, 0.035318661481142044, 0.03680126368999481, 0.03828386589884758, 0.03976646810770035]}, "gradients/net.4.weight": {"_type": "histogram", "values": [71.0, 44.0, 0.0, 0.0, 0.0, 0.0, 0.0, 0.0, 0.0, 50.0, 102.0, 110.0, 3.0, 0.0, 0.0, 0.0, 0.0, 36.0, 105.0, 0.0, 0.0, 0.0, 0.0, 0.0, 0.0, 0.0, 94.0, 110.0, 212.0, 223.0, 263.0, 5.0, 0.0, 0.0, 0.0, 0.0, 0.0, 132.0, 0.0, 0.0, 0.0, 25.0, 61.0, 164.0, 0.0, 304.0, 135.0, 129.0, 200.0, 0.0, 0.0, 0.0, 0.0, 0.0, 103.0, 21.0, 0.0, 0.0, 2.0, 163.0, 5.0, 0.0, 16.0, 184.0], "bins": [-0.042249683290719986, -0.04110095649957657, -0.03995223343372345, -0.03880350664258003, -0.037654779851436615, -0.036506056785583496, -0.03535732999444008, -0.03420860320329666, -0.03305988013744354, -0.031911153346300125, -0.030762428417801857, -0.02961370348930359, -0.02846497856080532, -0.027316253632307053, -0.026167526841163635, -0.025018801912665367, -0.02387007512152195, -0.02272135019302368, -0.021572623401880264, -0.020423898473381996, -0.019275173544883728, -0.01812644675374031, -0.016977721825242043, -0.015828996896743774, -0.014680271036922932, -0.013531545177102089, -0.01238282024860382, -0.011234094388782978, -0.010085368528962135, -0.008936643600463867, -0.0077879177406430244, -0.006639192812144756, -0.005490466952323914, -0.004341741558164358, -0.003193015931174159, -0.00204429030418396, -0.0008955649100244045, 0.0002531604841351509, 0.0014018863439559937, 0.0025506112724542618, 0.0036993371322751045, 0.00484806252643466, 0.005996787920594215, 0.007145513780415058, 0.008294239640235901, 0.009442964568734169, 0.010591690428555012, 0.01174041535705328, 0.012889141216874123, 0.014037867076694965, 0.015186592005193233, 0.016335317865014076, 0.017484042793512344, 0.01863276958465576, 0.01978149451315403, 0.020930219441652298, 0.022078946232795715, 0.023227671161293983, 0.0243763979524374, 0.02552512288093567, 0.026673847809433937, 0.027822572737932205, 0.028971299529075623, 0.03012002445757389, 0.03126874938607216]}, "gradients/net.2.bias": {"_type": "histogram", "values": [1.0, 0.0, 0.0, 1.0, 1.0, 3.0, 4.0, 6.0, 7.0, 4.0, 6.0, 11.0, 12.0, 10.0, 10.0, 7.0, 6.0, 11.0, 5.0, 4.0, 7.0, 6.0, 4.0, 2.0, 2.0, 1.0, 0.0, 1.0, 1.0, 0.0, 0.0, 0.0, 0.0, 0.0, 0.0, 0.0, 1.0, 0.0, 0.0, 2.0, 0.0, 1.0, 3.0, 7.0, 2.0, 6.0, 12.0, 5.0, 10.0, 9.0, 10.0, 10.0, 5.0, 9.0, 10.0, 4.0, 2.0, 1.0, 2.0, 5.0, 4.0, 1.0, 0.0, 2.0], "bins": [-0.017827611416578293, -0.017281999811530113, -0.016736386343836784, -0.016190774738788605, -0.015645161271095276, -0.015099548734724522, -0.014553936198353767, -0.014008324593305588, -0.013462711125612259, -0.012917098589241505, -0.01237148605287075, -0.011825873516499996, -0.011280260980129242, -0.010734648443758488, -0.010189035907387733, -0.009643424302339554, -0.0090978117659688, -0.008552199229598045, -0.008006586693227291, -0.007460974156856537, -0.006915361620485783, -0.006369749084115028, -0.0058241370134055614, -0.005278524477034807, -0.004732911940664053, -0.004187299404293299, -0.0036416868679225445, -0.003096074564382434, -0.0025504620280116796, -0.0020048494916409254, -0.0014592371881008148, -0.0009136246517300606, -0.00036801211535930634, 0.000177600362803787, 0.0007232128409668803, 0.0012688252609223127, 0.001814437797293067, 0.0023600503336638212, 0.002905662637203932, 0.003451275173574686, 0.00399688770994544, 0.0045425002463161945, 0.005088112782686949, 0.005633724853396416, 0.00617933738976717, 0.006724949926137924, 0.0072705624625086784, 0.007816174998879433, 0.008361787535250187, 0.008907400071620941, 0.009453012607991695, 0.00999862514436245, 0.010544237680733204, 0.011089850217103958, 0.011635461822152138, 0.012181075289845467, 0.012726686894893646, 0.0132722994312644, 0.013817911967635155, 0.014363524504005909, 0.014909137040376663, 0.015454749576747417, 0.01600036211311817, 0.01654597371816635, 0.01709158718585968]}, "gradients/net.2.weight": {"_type": "histogram", "values": [210.0, 26136.0, 6428.0, 75.0, 0.0, 0.0, 0.0, 0.0, 0.0, 0.0, 0.0, 0.0, 0.0, 0.0, 0.0, 0.0, 0.0, 0.0, 0.0, 0.0, 0.0, 0.0, 0.0, 0.0, 0.0, 0.0, 0.0, 0.0, 0.0, 0.0, 0.0, 0.0, 0.0, 0.0, 0.0, 0.0, 0.0, 0.0, 0.0, 0.0, 0.0, 0.0, 0.0, 0.0, 0.0, 0.0, 0.0, 0.0, 0.0, 0.0, 0.0, 0.0, 0.0, 0.0, 0.0, 0.0, 0.0, 0.0, 0.0, 0.0, 60.0, 3832.0, 28480.0, 315.0], "bins": [-0.010620242916047573, -0.010288816876709461, -0.009957389906048775, -0.009625963866710663, -0.009294537827372551, -0.008963110856711864, -0.008631684817373753, -0.008300257846713066, -0.007968831807374954, -0.007637405302375555, -0.007305978797376156, -0.006974552758038044, -0.006643126253038645, -0.006311699748039246, -0.005980273708701134, -0.0056488472037017345, -0.005317420698702335, -0.004985994193702936, -0.004654567688703537, -0.004323141649365425, -0.003991715144366026, -0.0036602886393666267, -0.003328862367197871, -0.0029974360950291157, -0.0026660095900297165, -0.0023345830850303173, -0.0020031568128615618, -0.0016717304242774844, -0.001340304035693407, -0.0010088776471093297, -0.0006774512585252523, -0.0003460249863564968, -1.4598481357097626e-05, 0.00031682790722697973, 0.0006482542958110571, 0.0009796806843951344, 0.0013111070729792118, 0.0016425334615632892, 0.0019739598501473665, 0.002305386122316122, 0.0026368126273155212, 0.0029682391323149204, 0.003299665404483676, 0.0036310916766524315, 0.003962518181651831, 0.00429394468665123, 0.004625370725989342, 0.004956797230988741, 0.00528822373598814, 0.005619650240987539, 0.0059510767459869385, 0.00628250278532505, 0.0066139292903244495, 0.006945355795323849, 0.007276781834661961, 0.00760820833966136, 0.007939634844660759, 0.00827106088399887, 0.008602487854659557, 0.00893391389399767, 0.009265340864658356, 0.009596766903996468, 0.00992819294333458, 0.010259618982672691, 0.010591045953333378]}, "gradients/net.0.bias": {"_type": "histogram", "values": [3.0, 1.0, 3.0, 4.0, 1.0, 6.0, 5.0, 5.0, 11.0, 11.0, 13.0, 9.0, 12.0, 10.0, 12.0, 7.0, 6.0, 3.0, 1.0, 4.0, 2.0, 0.0, 0.0, 0.0, 0.0, 0.0, 0.0, 0.0, 0.0, 0.0, 0.0, 0.0, 0.0, 0.0, 0.0, 0.0, 0.0, 0.0, 0.0, 0.0, 0.0, 1.0, 0.0, 1.0, 3.0, 1.0, 3.0, 3.0, 8.0, 6.0, 10.0, 6.0, 15.0, 10.0, 12.0, 9.0, 5.0, 8.0, 10.0, 4.0, 5.0, 1.0, 4.0, 2.0], "bins": [-0.014828106388449669, -0.014369363896548748, -0.013910621404647827, -0.013451878912746906, -0.012993136420845985, -0.01253439486026764, -0.012075652368366718, -0.011616909876465797, -0.011158167384564877, -0.010699424892663956, -0.010240682400763035, -0.009781939908862114, -0.009323198348283768, -0.008864454925060272, -0.008405713364481926, -0.007946970872581005, -0.007488228380680084, -0.007029485888779163, -0.0065707433968782425, -0.006112001370638609, -0.005653258878737688, -0.005194516386836767, -0.004735774360597134, -0.004277031868696213, -0.003818289376795292, -0.003359546884894371, -0.002900804625824094, -0.0024420623667538166, -0.0019833198748528957, -0.0015245773829519749, -0.0010658351238816977, -0.0006070928648114204, -0.0001483513042330742, 0.00031039107125252485, 0.0007691334467381239, 0.001227875822223723, 0.001686618197709322, 0.002145360689610243, 0.00260410294868052, 0.0030628452077507973, 0.003521587699651718, 0.003980330191552639, 0.00443907268345356, 0.0048978147096931934, 0.005356557201594114, 0.005815299693495035, 0.006274041719734669, 0.00673278421163559, 0.0071915267035365105, 0.007650269195437431, 0.008109011687338352, 0.008567754179239273, 0.00902649573981762, 0.009485239163041115, 0.009943980723619461, 0.010402723215520382, 0.010861465707421303, 0.011320208199322224, 0.011778950691223145, 0.012237693183124065, 0.012696435675024986, 0.013155177235603333, 0.013613919727504253, 0.014072662219405174, 0.014531404711306095]}, "gradients/net.0.weight": {"_type": "histogram", "values": [8.0, 13.0, 47.0, 175.0, 980.0, 229.0, 74.0, 25.0, 3.0, 1.0, 0.0, 0.0, 0.0, 0.0, 0.0, 0.0, 0.0, 0.0, 0.0, 0.0, 0.0, 0.0, 0.0, 0.0, 0.0, 0.0, 0.0, 0.0, 0.0, 0.0, 0.0, 0.0, 0.0, 0.0, 0.0, 0.0, 0.0, 0.0, 0.0, 0.0, 0.0, 0.0, 0.0, 0.0, 0.0, 0.0, 0.0, 0.0, 0.0, 0.0, 0.0, 0.0, 0.0, 1.0, 2.0, 10.0, 31.0, 92.0, 349.0, 838.0, 140.0, 33.0, 15.0, 6.0], "bins": [-0.011673041619360447, -0.011306963860988617, -0.010940885171294212, -0.010574807412922382, -0.010208729654550552, -0.009842650964856148, -0.009476573206484318, -0.009110495448112488, -0.008744416758418083, -0.008378339000046253, -0.008012260310351849, -0.007646182551980019, -0.007280104793608189, -0.006914026569575071, -0.006547948345541954, -0.006181870587170124, -0.005815792828798294, -0.005449714604765177, -0.005083636846393347, -0.0047175586223602295, -0.0043514808639883995, -0.003985402639955282, -0.003619324415922165, -0.0032532464247196913, -0.0028871684335172176, -0.002521090442314744, -0.0021550124511122704, -0.001788934227079153, -0.0014228562358766794, -0.0010567782446742058, -0.0006907000206410885, -0.00032462202943861485, 4.145503044128418e-05, 0.00040753307985141873, 0.0007736111292615533, 0.0011396892368793488, 0.0015057672280818224, 0.001871845219284296, 0.0022379234433174133, 0.002604001434519887, 0.0029700794257223606, 0.0033361574169248343, 0.003702235408127308, 0.004068313632160425, 0.0044343918561935425, 0.0048004696145653725, 0.00516654783859849, 0.005532626062631607, 0.005898703821003437, 0.006264782045036554, 0.006630859803408384, 0.006996938027441502, 0.007363015785813332, 0.007729094009846449, 0.008095172233879566, 0.008461249992251396, 0.0088273286819458, 0.00919340644031763, 0.009559485130012035, 0.009925562888383865, 0.010291640646755695, 0.010657718405127525, 0.01102379709482193, 0.01138987485319376, 0.01175595261156559]}, "_wandb": {"runtime": 22}}