{"train_loss": 0.0012741605751216412, "train_grad": 0.0011537299724295735, "train_H": 0.00011903311678906903, "test_loss": 0.0015161280753090978, "test_grad": 0.0014132384676486254, "test_h": 0, "test_H": 0.00010116414341609925, "_timestamp": 1717581784.0200214, "_runtime": 45.39807748794556, "_step": 499, "gradients/NN.net.2.bias": {"_type": "histogram", "values": [0.0, 0.0, 0.0, 0.0, 0.0, 0.0, 0.0, 0.0, 0.0, 0.0, 0.0, 0.0, 0.0, 0.0, 0.0, 0.0, 0.0, 0.0, 0.0, 0.0, 0.0, 0.0, 0.0, 0.0, 0.0, 0.0, 0.0, 0.0, 0.0, 0.0, 0.0, 0.0, 1.0, 0.0, 0.0, 0.0, 0.0, 0.0, 0.0, 0.0, 0.0, 0.0, 0.0, 0.0, 0.0, 0.0, 0.0, 0.0, 0.0, 0.0, 0.0, 0.0, 0.0, 0.0, 0.0, 0.0, 0.0, 0.0, 0.0, 0.0, 0.0, 0.0, 0.0, 0.0], "bins": [-0.03136333078145981, -0.03136333078145981, -0.03136333078145981, -0.03136333078145981, -0.03136333078145981, -0.03136333078145981, -0.03136333078145981, -0.03136333078145981, -0.03136333078145981, -0.03136333078145981, -0.03136333078145981, -0.03136333078145981, -0.03136333078145981, -0.03136333078145981, -0.03136333078145981, -0.03136333078145981, -0.03136333078145981, -0.03136333078145981, -0.03136333078145981, -0.03136333078145981, -0.03136333078145981, -0.03136333078145981, -0.03136333078145981, -0.03136333078145981, -0.03136333078145981, -0.03136333078145981, -0.03136333078145981, -0.03136333078145981, -0.03136333078145981, -0.03136333078145981, -0.03136333078145981, -0.03136333078145981, -0.03136333078145981, -0.03136333078145981, -0.03136333078145981, -0.03136333078145981, -0.03136333078145981, -0.03136333078145981, -0.03136333078145981, -0.03136333078145981, -0.03136333078145981, -0.03136333078145981, -0.03136333078145981, -0.03136333078145981, -0.03136333078145981, -0.03136333078145981, -0.03136333078145981, -0.03136333078145981, -0.03136333078145981, -0.03136333078145981, -0.03136333078145981, -0.03136333078145981, -0.03136333078145981, -0.03136333078145981, -0.03136333078145981, -0.03136333078145981, -0.03136333078145981, -0.03136333078145981, -0.03136333078145981, -0.03136333078145981, -0.03136333078145981, -0.03136333078145981, -0.03136333078145981, -0.03136333078145981, -0.03136333078145981]}, "gradients/NN.net.2.weight": {"_type": "histogram", "values": [1.0, 0.0, 1.0, 0.0, 0.0, 0.0, 1.0, 1.0, 0.0, 0.0, 0.0, 0.0, 4.0, 1.0, 0.0, 0.0, 0.0, 1.0, 0.0, 3.0, 3.0, 2.0, 5.0, 8.0, 8.0, 6.0, 6.0, 16.0, 15.0, 14.0, 13.0, 20.0, 25.0, 26.0, 23.0, 56.0, 53.0, 38.0, 19.0, 26.0, 24.0, 18.0, 13.0, 3.0, 7.0, 8.0, 9.0, 6.0, 7.0, 7.0, 1.0, 1.0, 1.0, 4.0, 3.0, 1.0, 0.0, 2.0, 0.0, 0.0, 0.0, 1.0, 0.0, 1.0], "bins": [-0.03737907111644745, -0.036340031772851944, -0.03530099242925644, -0.03426195681095123, -0.03322291746735573, -0.03218387812376022, -0.03114483878016472, -0.030105799436569214, -0.02906676009297371, -0.028027720749378204, -0.02698868326842785, -0.025949643924832344, -0.02491060458123684, -0.023871567100286484, -0.02283252775669098, -0.021793488413095474, -0.02075445093214512, -0.019715411588549614, -0.01867637410759926, -0.017637334764003754, -0.01659829542040825, -0.015559257008135319, -0.014520218595862389, -0.013481179252266884, -0.012442140839993954, -0.011403102427721024, -0.010364063084125519, -0.009325024671852589, -0.008285986259579659, -0.007246946915984154, -0.006207908503711224, -0.005168869625777006, -0.0041298288851976395, -0.003090790007263422, -0.002051751362159848, -0.0010127127170562744, 2.632616087794304e-05, 0.0010653650388121605, 0.0021044034510850906, 0.003143442329019308, 0.0041824812069535255, 0.005221520084887743, 0.0062605589628219604, 0.007299597375094891, 0.00833863578736782, 0.009377675130963326, 0.010416713543236256, 0.011455751955509186, 0.01249479129910469, 0.01353382971137762, 0.014572869054973125, 0.015611907467246056, 0.01665094681084156, 0.017689984291791916, 0.01872902363538742, 0.019768062978982925, 0.02080710232257843, 0.021846141666173935, 0.02288517914712429, 0.023924218490719795, 0.0249632578343153, 0.026002295315265656, 0.02704133465886116, 0.028080374002456665, 0.02911941148340702]}, "gradients/NN.net.0.bias": {"_type": "histogram", "values": [1.0, 0.0, 2.0, 2.0, 2.0, 0.0, 1.0, 5.0, 2.0, 2.0, 1.0, 5.0, 7.0, 5.0, 4.0, 9.0, 10.0, 14.0, 15.0, 15.0, 14.0, 12.0, 15.0, 13.0, 17.0, 17.0, 8.0, 15.0, 81.0, 13.0, 12.0, 12.0, 17.0, 15.0, 18.0, 21.0, 14.0, 10.0, 11.0, 10.0, 8.0, 13.0, 10.0, 4.0, 6.0, 6.0, 4.0, 3.0, 0.0, 3.0, 1.0, 0.0, 0.0, 2.0, 2.0, 0.0, 1.0, 0.0, 0.0, 1.0, 0.0, 0.0, 0.0, 1.0], "bins": [-0.009494522586464882, -0.009160787798464298, -0.008827053010463715, -0.008493318222463131, -0.008159583434462547, -0.007825848646461964, -0.00749211385846138, -0.007158379070460796, -0.006824644282460213, -0.006490909494459629, -0.006157174706459045, -0.005823439918458462, -0.005489705130457878, -0.0051559703424572945, -0.004822235554456711, -0.004488500766456127, -0.0041547659784555435, -0.00382103119045496, -0.0034872964024543762, -0.0031535616144537926, -0.002819826826453209, -0.0024860920384526253, -0.0021523572504520416, -0.001818622462451458, -0.0014848876744508743, -0.0011511528864502907, -0.000817418098449707, -0.0004836833104491234, -0.00014994852244853973, 0.00018378626555204391, 0.0005175210535526276, 0.0008512558415532112, 0.0011849906295537949, 0.0015187254175543785, 0.0018524602055549622, 0.002186194993555546, 0.0025199297815561295, 0.002853664569556713, 0.0031873993575572968, 0.0035211341455578804, 0.003854868933558464, 0.004188603721559048, 0.004522338509559631, 0.004856073297560215, 0.005189808085560799, 0.005523542873561382, 0.005857277661561966, 0.00619101244956255, 0.006524747237563133, 0.006858482025563717, 0.0071922168135643005, 0.007525951601564884, 0.007859686389565468, 0.008193421177566051, 0.008527155965566635, 0.008860890753567219, 0.009194625541567802, 0.009528360329568386, 0.00986209511756897, 0.010195829905569553, 0.010529564693570137, 0.01086329948157072, 0.011197034269571304, 0.011530769057571888, 0.011864503845572472]}, "gradients/NN.net.0.weight": {"_type": "histogram", "values": [1.0, 0.0, 0.0, 0.0, 1.0, 0.0, 1.0, 2.0, 4.0, 1.0, 2.0, 2.0, 3.0, 1.0, 7.0, 7.0, 9.0, 19.0, 17.0, 20.0, 28.0, 24.0, 38.0, 34.0, 58.0, 76.0, 92.0, 120.0, 147.0, 202.0, 297.0, 427.0, 653.0, 1842.0, 570.0, 347.0, 255.0, 182.0, 153.0, 99.0, 89.0, 64.0, 49.0, 41.0, 26.0, 26.0, 27.0, 21.0, 13.0, 12.0, 2.0, 4.0, 3.0, 3.0, 8.0, 2.0, 1.0, 3.0, 6.0, 2.0, 0.0, 0.0, 0.0, 1.0], "bins": [-0.010855361819267273, -0.01052939984947443, -0.010203436948359013, -0.00987747497856617, -0.009551512077450752, -0.00922555010765791, -0.008899587206542492, -0.008573625236749649, -0.008247662335634232, -0.007921700365841389, -0.007595737464725971, -0.007269775029271841, -0.006943812593817711, -0.006617850158363581, -0.0062918877229094505, -0.005965925753116608, -0.0056399633176624775, -0.005314000882208347, -0.004988038446754217, -0.004662076011300087, -0.004336113575845957, -0.004010151140391827, -0.00368418893776834, -0.00335822650231421, -0.0030322640668600798, -0.0027063016314059496, -0.0023803391959518194, -0.002054376993328333, -0.001728414441458881, -0.0014024520060047507, -0.0010764896869659424, -0.0007505272515118122, -0.00042456481605768204, -9.860240970738232e-05, 0.0002273599966429174, 0.0005533223738893867, 0.0008792848093435168, 0.001205247244797647, 0.0015312095638364553, 0.0018571719992905855, 0.0021831344347447157, 0.002509096870198846, 0.002835059305652976, 0.0031610215082764626, 0.0034869839437305927, 0.003812946379184723, 0.004138908814638853, 0.004464871250092983, 0.004790833685547113, 0.005116796121001244, 0.005442758556455374, 0.005768720991909504, 0.006094683427363634, 0.006420645862817764, 0.006746607832610607, 0.007072570733726025, 0.0073985327035188675, 0.007724495138972998, 0.008050457574427128, 0.00837641954421997, 0.008702382445335388, 0.009028344415128231, 0.009354307316243649, 0.009680269286036491, 0.010006232187151909]}, "_wandb": {"runtime": 44}}