{"train_loss": 3.3560284009581665e-06, "test_loss": 1.5334499039454386e-05, "_timestamp": 1717601500.2033412, "_runtime": 414.274539232254, "_step": 499, "parameters/net.0.weight": {"_type": "histogram", "values": [1.0, 0.0, 0.0, 1.0, 0.0, 3.0, 3.0, 3.0, 5.0, 12.0, 16.0, 18.0, 19.0, 23.0, 35.0, 35.0, 47.0, 46.0, 66.0, 94.0, 80.0, 101.0, 92.0, 121.0, 125.0, 131.0, 130.0, 166.0, 152.0, 144.0, 136.0, 146.0, 166.0, 120.0, 117.0, 102.0, 88.0, 95.0, 67.0, 71.0, 59.0, 51.0, 44.0, 35.0, 22.0, 17.0, 16.0, 17.0, 5.0, 11.0, 4.0, 8.0, 0.0, 2.0, 1.0, 0.0, 0.0, 1.0, 1.0, 0.0, 0.0, 0.0, 0.0, 1.0], "bins": [-0.26478463411331177, -0.25565579533576965, -0.24652692675590515, -0.23739807307720184, -0.22826921939849854, -0.21914036571979523, -0.21001151204109192, -0.2008826732635498, -0.1917538046836853, -0.182624951004982, -0.1734960973262787, -0.16436724364757538, -0.15523838996887207, -0.14610953629016876, -0.13698068261146545, -0.12785184383392334, -0.11872299015522003, -0.10959413647651672, -0.10046528279781342, -0.09133642911911011, -0.0822075754404068, -0.07307872176170349, -0.06394987553358078, -0.05482102185487747, -0.045692168176174164, -0.036563314497470856, -0.027434462681412697, -0.018305610865354538, -0.00917675718665123, -4.790350794792175e-05, 0.009080946445465088, 0.018209800124168396, 0.027338653802871704, 0.03646750748157501, 0.04559636116027832, 0.05472521111369133, 0.06385406851768494, 0.07298292219638824, 0.08211176842451096, 0.09124062210321426, 0.10036947578191757, 0.10949832946062088, 0.11862718313932419, 0.1277560293674469, 0.1368848830461502, 0.14601373672485352, 0.15514259040355682, 0.16427144408226013, 0.17340029776096344, 0.18252915143966675, 0.19165800511837006, 0.20078685879707336, 0.20991571247577667, 0.21904456615447998, 0.2281734049320221, 0.2373022735118866, 0.2464311122894287, 0.2555599510669708, 0.2646888196468353, 0.27381765842437744, 0.28294652700424194, 0.29207536578178406, 0.30120423436164856, 0.3103330731391907, 0.3194619417190552]}, "parameters/net.0.bias": {"_type": "histogram", "values": [1.0, 1.0, 2.0, 0.0, 0.0, 1.0, 2.0, 2.0, 4.0, 1.0, 2.0, 3.0, 3.0, 3.0, 7.0, 5.0, 4.0, 7.0, 3.0, 5.0, 4.0, 5.0, 6.0, 5.0, 6.0, 8.0, 13.0, 8.0, 9.0, 8.0, 5.0, 10.0, 13.0, 8.0, 6.0, 4.0, 9.0, 5.0, 11.0, 5.0, 5.0, 10.0, 5.0, 2.0, 3.0, 4.0, 4.0, 4.0, 2.0, 2.0, 2.0, 2.0, 3.0, 0.0, 1.0, 1.0, 0.0, 0.0, 0.0, 0.0, 0.0, 0.0, 1.0, 1.0], "bins": [-0.026984309777617455, -0.02610083296895027, -0.02521735616028309, -0.024333879351615906, -0.023450400680303574, -0.02256692387163639, -0.021683447062969208, -0.020799970254302025, -0.019916493445634842, -0.01903301663696766, -0.018149539828300476, -0.017266061156988144, -0.01638258434832096, -0.015499107539653778, -0.014615630730986595, -0.013732153922319412, -0.01284867525100708, -0.011965198442339897, -0.01108172070235014, -0.010198243893682957, -0.0093147661536932, -0.008431289345026016, -0.007547812536358833, -0.006664335262030363, -0.005780857987701893, -0.004897380713373423, -0.004013903439044952, -0.0031304266303777695, -0.0022469493560492992, -0.001363472081720829, -0.0004799952730536461, 0.00040348200127482414, 0.0012869574129581451, 0.0021704346872866154, 0.003053911728784442, 0.0039373887702822685, 0.004820866044610739, 0.005704343318939209, 0.006587820127606392, 0.007471297401934862, 0.008354774676263332, 0.009238251484930515, 0.010121729224920273, 0.011005206033587456, 0.011888682842254639, 0.012772160582244396, 0.013655637390911579, 0.014539115130901337, 0.01542259193956852, 0.016306068748235703, 0.017189545556902885, 0.01807302236557007, 0.0189565010368824, 0.019839977845549583, 0.020723454654216766, 0.02160693146288395, 0.022490408271551132, 0.023373885080218315, 0.024257361888885498, 0.02514084056019783, 0.026024317368865013, 0.026907794177532196, 0.02779127098619938, 0.028674747794866562, 0.029558226466178894]}, "parameters/net.2.weight": {"_type": "histogram", "values": [2.0, 1.0, 3.0, 7.0, 11.0, 14.0, 15.0, 35.0, 39.0, 54.0, 60.0, 125.0, 190.0, 256.0, 320.0, 390.0, 516.0, 675.0, 752.0, 910.0, 1174.0, 1355.0, 1596.0, 1807.0, 2090.0, 2353.0, 2532.0, 2767.0, 2986.0, 3036.0, 3069.0, 3219.0, 3239.0, 3269.0, 3193.0, 2950.0, 2788.0, 2670.0, 2342.0, 2080.0, 1836.0, 1617.0, 1464.0, 1222.0, 975.0, 826.0, 622.0, 492.0, 392.0, 339.0, 236.0, 195.0, 127.0, 86.0, 67.0, 56.0, 35.0, 27.0, 8.0, 8.0, 5.0, 2.0, 6.0, 3.0], "bins": [-0.34192976355552673, -0.3312634229660034, -0.3205970823764801, -0.3099307417869568, -0.29926443099975586, -0.28859809041023254, -0.27793174982070923, -0.2672654092311859, -0.2565990686416626, -0.24593272805213928, -0.23526640236377716, -0.22460006177425385, -0.21393373608589172, -0.2032673954963684, -0.1926010549068451, -0.18193471431732178, -0.17126840353012085, -0.16060206294059753, -0.1499357372522354, -0.1392693966627121, -0.12860307097434998, -0.11793673038482666, -0.10727038979530334, -0.09660405665636063, -0.08593772351741791, -0.07527139037847519, -0.06460505723953247, -0.053938716650009155, -0.04327238351106644, -0.03260605037212372, -0.021939709782600403, -0.011273376643657684, -0.0006070733070373535, 0.010059261694550514, 0.020725596696138382, 0.0313919335603714, 0.04205826669931412, 0.052724599838256836, 0.06339094042778015, 0.07405727356672287, 0.08472360670566559, 0.0953899398446083, 0.10605627298355103, 0.11672261357307434, 0.12738895416259766, 0.13805527985095978, 0.1487216204404831, 0.15938794612884521, 0.17005428671836853, 0.18072062730789185, 0.19138695299625397, 0.20205329358577728, 0.2127196192741394, 0.22338595986366272, 0.23405230045318604, 0.24471864104270935, 0.25538498163223267, 0.266051322221756, 0.2767176628112793, 0.2873839735984802, 0.29805031418800354, 0.30871665477752686, 0.31938299536705017, 0.3300493359565735, 0.3407156467437744]}, "parameters/net.2.bias": {"_type": "histogram", "values": [1.0, 0.0, 0.0, 0.0, 0.0, 0.0, 0.0, 1.0, 0.0, 1.0, 0.0, 1.0, 0.0, 0.0, 1.0, 1.0, 2.0, 4.0, 2.0, 2.0, 3.0, 2.0, 0.0, 2.0, 4.0, 3.0, 5.0, 8.0, 5.0, 12.0, 9.0, 12.0, 12.0, 10.0, 13.0, 8.0, 14.0, 6.0, 14.0, 8.0, 10.0, 9.0, 11.0, 14.0, 9.0, 2.0, 7.0, 8.0, 3.0, 2.0, 4.0, 4.0, 3.0, 0.0, 0.0, 1.0, 2.0, 0.0, 0.0, 0.0, 0.0, 0.0, 0.0, 1.0], "bins": [-0.05818631872534752, -0.05648168921470642, -0.05477705970406532, -0.053072430193424225, -0.05136779695749283, -0.04966316744685173, -0.04795853793621063, -0.046253908425569534, -0.044549278914928436, -0.04284464940428734, -0.04114001989364624, -0.039435386657714844, -0.037730757147073746, -0.03602612763643265, -0.03432149812579155, -0.03261686861515045, -0.030912237241864204, -0.029207607731223106, -0.02750297635793686, -0.02579834684729576, -0.024093717336654663, -0.022389087826013565, -0.020684456452727318, -0.01897982694208622, -0.017275195568799973, -0.0155705651268363, -0.013865935616195202, -0.01216130517423153, -0.010456675663590431, -0.008752045221626759, -0.007047414779663086, -0.005342785269021988, -0.00363815575838089, -0.0019335256656631827, -0.00022889557294547558, 0.0014757346361875534, 0.0031803646124899387, 0.004884994588792324, 0.006589625030755997, 0.008294254541397095, 0.009998884983360767, 0.01170351542532444, 0.013408144935965538, 0.01511277537792921, 0.016817405819892883, 0.01852203533053398, 0.02022666484117508, 0.021931294351816177, 0.023635925725102425, 0.025340555235743523, 0.02704518660902977, 0.028749816119670868, 0.030454445630311966, 0.032159075140953064, 0.03386370837688446, 0.03556833416223526, 0.037272967398166656, 0.038977596908807755, 0.04068222641944885, 0.04238685965538025, 0.04409148916602135, 0.045796118676662445, 0.04750074818730354, 0.04920537769794464, 0.05091000720858574]}, "parameters/net.4.weight": {"_type": "histogram", "values": [1.0, 0.0, 1.0, 1.0, 1.0, 1.0, 6.0, 1.0, 2.0, 3.0, 13.0, 5.0, 11.0, 21.0, 20.0, 12.0, 36.0, 46.0, 45.0, 51.0, 50.0, 72.0, 86.0, 101.0, 137.0, 130.0, 140.0, 141.0, 159.0, 154.0, 139.0, 152.0, 150.0, 145.0, 144.0, 129.0, 116.0, 122.0, 84.0, 72.0, 66.0, 65.0, 41.0, 47.0, 35.0, 26.0, 30.0, 15.0, 14.0, 10.0, 10.0, 4.0, 2.0, 3.0, 2.0, 1.0, 0.0, 0.0, 0.0, 0.0, 0.0, 0.0, 0.0, 1.0], "bins": [-0.27614256739616394, -0.26713690161705017, -0.258131206035614, -0.24912554025650024, -0.24011985957622528, -0.23111417889595032, -0.22210851311683655, -0.21310283243656158, -0.20409715175628662, -0.19509147107601166, -0.1860858052968979, -0.17708012461662292, -0.16807444393634796, -0.159068763256073, -0.15006309747695923, -0.14105741679668427, -0.1320517510175705, -0.12304607778787613, -0.11404039710760117, -0.1050347238779068, -0.09602904319763184, -0.08702336996793747, -0.0780176967382431, -0.06901201605796814, -0.06000634282827377, -0.05100066587328911, -0.04199498891830444, -0.03298931568861008, -0.023983638733625412, -0.014977961778640747, -0.005972288548946381, 0.0030333921313285828, 0.01203906536102295, 0.021044742316007614, 0.03005041740834713, 0.039056092500686646, 0.04806176945567131, 0.057067446410655975, 0.06607311964035034, 0.0750788003206253, 0.08408447355031967, 0.09309014678001404, 0.102095827460289, 0.11110150068998337, 0.12010717391967773, 0.1291128545999527, 0.13811853528022766, 0.14712420105934143, 0.1561298817396164, 0.16513556241989136, 0.17414122819900513, 0.1831469088792801, 0.19215258955955505, 0.20115825533866882, 0.2101639360189438, 0.21916961669921875, 0.22817528247833252, 0.23718096315860748, 0.24618662893772125, 0.2551923096179962, 0.26419797539711, 0.27320367097854614, 0.2822093367576599, 0.2912150025367737, 0.30022069811820984]}, "parameters/net.4.bias": {"_type": "histogram", "values": [1.0, 0.0, 0.0, 1.0, 0.0, 1.0, 0.0, 0.0, 0.0, 0.0, 0.0, 0.0, 1.0, 0.0, 0.0, 0.0, 0.0, 1.0, 1.0, 0.0, 0.0, 0.0, 0.0, 0.0, 0.0, 1.0, 0.0, 0.0, 0.0, 0.0, 1.0, 0.0, 0.0, 0.0, 0.0, 0.0, 1.0, 0.0, 0.0, 0.0, 0.0, 0.0, 0.0, 0.0, 0.0, 0.0, 0.0, 0.0, 0.0, 0.0, 1.0, 0.0, 0.0, 0.0, 1.0, 0.0, 0.0, 0.0, 0.0, 0.0, 0.0, 0.0, 0.0, 1.0], "bins": [-0.007349331863224506, -0.007087806239724159, -0.006826281081885099, -0.006564755458384752, -0.006303229834884405, -0.006041704677045345, -0.005780179053544998, -0.005518653430044651, -0.005257127806544304, -0.004995602183043957, -0.004734077025204897, -0.00447255140170455, -0.004211025778204203, -0.003949500620365143, -0.0036879749968647957, -0.0034264493733644485, -0.0031649242155253887, -0.0029033988248556852, -0.002641873201355338, -0.0023803478106856346, -0.0021188221871852875, -0.001857296796515584, -0.0015957714058458805, -0.0013342458987608552, -0.0010727203916758299, -0.0008111948845908046, -0.0005496694357134402, -0.0002881439868360758, -2.6618479751050472e-05, 0.00023490702733397484, 0.0004964324180036783, 0.0007579579250887036, 0.001019483432173729, 0.0012810089392587543, 0.0015425344463437796, 0.001804059837013483, 0.00206558546051383, 0.0023271108511835337, 0.002588636241853237, 0.0028501618653535843, 0.0031116872560232878, 0.0033732126466929913, 0.0036347382701933384, 0.003896263660863042, 0.004157789051532745, 0.0044193146750330925, 0.00468084029853344, 0.0049423654563724995, 0.005203891079872847, 0.005465416703373194, 0.005726941861212254, 0.005988467484712601, 0.006249993108212948, 0.006511518731713295, 0.006773043889552355, 0.007034569513052702, 0.007296094670891762, 0.007557620294392109, 0.007819145917892456, 0.008080670610070229, 0.008342196233570576, 0.008603721857070923, 0.00886524748057127, 0.009126773104071617, 0.009388298727571964]}, "gradients/net.4.bias": {"_type": "histogram", "values": [1.0, 0.0, 0.0, 0.0, 0.0, 0.0, 0.0, 0.0, 0.0, 0.0, 0.0, 0.0, 1.0, 1.0, 1.0, 0.0, 0.0, 0.0, 0.0, 0.0, 0.0, 0.0, 0.0, 0.0, 0.0, 1.0, 0.0, 0.0, 0.0, 0.0, 0.0, 0.0, 0.0, 0.0, 0.0, 1.0, 0.0, 0.0, 0.0, 1.0, 0.0, 0.0, 0.0, 0.0, 0.0, 0.0, 0.0, 0.0, 1.0, 0.0, 1.0, 0.0, 0.0, 0.0, 0.0, 0.0, 0.0, 0.0, 0.0, 1.0, 0.0, 0.0, 0.0, 2.0], "bins": [-0.0002727608080022037, -0.0002661077887751162, -0.0002594547695480287, -0.00025280177942477167, -0.00024614876019768417, -0.00023949574097059667, -0.0002328427362954244, -0.00022618973162025213, -0.00021953671239316463, -0.00021288369316607714, -0.00020623068849090487, -0.0001995776838157326, -0.0001929246645886451, -0.0001862716453615576, -0.00017961864068638533, -0.00017296563601121306, -0.00016631261678412557, -0.00015965959755703807, -0.0001530065928818658, -0.00014635358820669353, -0.00013970056897960603, -0.00013304754975251853, -0.00012639454507734627, -0.00011974153312621638, -0.0001130885211750865, -0.00010643550922395661, -9.978249727282673e-05, -9.312948532169685e-05, -8.647647337056696e-05, -7.982346141943708e-05, -7.31704494683072e-05, -6.651743751717731e-05, -5.986444011796266e-05, -5.3211428166832775e-05, -4.655841621570289e-05, -3.990540426457301e-05, -3.3252392313443124e-05, -2.659938036231324e-05, -1.9946368411183357e-05, -1.3293356460053474e-05, -6.64034450892359e-06, 1.2667442206293344e-08, 6.665679393336177e-06, 1.331869134446606e-05, 1.9971703295595944e-05, 2.6624715246725827e-05, 3.327772719785571e-05, 3.9930739148985595e-05, 4.658375110011548e-05, 5.323676305124536e-05, 5.9889775002375245e-05, 6.654278695350513e-05, 7.319579890463501e-05, 7.98488108557649e-05, 8.650182280689478e-05, 9.315483475802466e-05, 9.980784670915455e-05, 0.00010646085866028443, 0.00011311387061141431, 0.0001197668825625442, 0.00012641989451367408, 0.00013307289918884635, 0.00013972591841593385, 0.00014637893764302135, 0.00015303194231819361]}, "gradients/net.4.weight": {"_type": "histogram", "values": [1.0, 0.0, 2.0, 2.0, 0.0, 1.0, 0.0, 2.0, 1.0, 4.0, 6.0, 8.0, 6.0, 12.0, 10.0, 13.0, 21.0, 22.0, 21.0, 29.0, 33.0, 45.0, 40.0, 56.0, 50.0, 71.0, 74.0, 83.0, 83.0, 87.0, 84.0, 134.0, 113.0, 152.0, 158.0, 219.0, 251.0, 168.0, 140.0, 149.0, 105.0, 113.0, 97.0, 70.0, 48.0, 41.0, 39.0, 29.0, 41.0, 21.0, 17.0, 14.0, 11.0, 11.0, 12.0, 6.0, 13.0, 6.0, 4.0, 7.0, 4.0, 5.0, 4.0, 3.0], "bins": [-0.00010998164361808449, -0.00010693032527342439, -0.00010387900692876428, -0.00010082768858410418, -9.777637023944408e-05, -9.472505189478397e-05, -9.167373355012387e-05, -8.862240792950615e-05, -8.557108958484605e-05, -8.251977124018595e-05, -7.946845289552584e-05, -7.641713455086574e-05, -7.336581620620564e-05, -7.031449058558792e-05, -6.726317224092782e-05, -6.421185389626771e-05, -6.116053555160761e-05, -5.8109217206947505e-05, -5.50578988622874e-05, -5.20065805176273e-05, -4.895525853498839e-05, -4.5903940190328285e-05, -4.285262184566818e-05, -3.980129986302927e-05, -3.674998879432678e-05, -3.369867044966668e-05, -3.0647352105006576e-05, -2.759603194135707e-05, -2.4544711777707562e-05, -2.149339343304746e-05, -1.8442075088387355e-05, -1.539075492473785e-05, -1.2339434761088341e-05, -9.288115506933536e-06, -6.236796707526082e-06, -3.185477908118628e-06, -1.3415865396382287e-07, 2.9171606001909822e-06, 5.9684789448510855e-06, 9.019799108500592e-06, 1.2071117453160696e-05, 1.51224367073155e-05, 1.8173755961470306e-05, 2.122507430613041e-05, 2.4276392650790513e-05, 2.732771281444002e-05, 3.0379031159100123e-05, 3.343035132274963e-05, 3.648166966740973e-05, 3.9532988012069836e-05, 4.258430635672994e-05, 4.563562833936885e-05, 4.868694668402895e-05, 5.173826502868906e-05, 5.478958337334916e-05, 5.784090171800926e-05, 6.0892220062669367e-05, 6.394353840732947e-05, 6.699485675198957e-05, 7.004617509664968e-05, 7.309749344130978e-05, 7.61488190619275e-05, 7.92001374065876e-05, 8.22514557512477e-05, 8.530277409590781e-05]}, "gradients/net.2.bias": {"_type": "histogram", "values": [1.0, 0.0, 0.0, 0.0, 0.0, 0.0, 0.0, 1.0, 1.0, 0.0, 0.0, 1.0, 0.0, 0.0, 0.0, 3.0, 0.0, 1.0, 1.0, 7.0, 4.0, 6.0, 4.0, 9.0, 7.0, 8.0, 3.0, 8.0, 2.0, 6.0, 6.0, 9.0, 9.0, 5.0, 12.0, 10.0, 12.0, 11.0, 13.0, 7.0, 6.0, 5.0, 7.0, 9.0, 6.0, 9.0, 6.0, 4.0, 4.0, 3.0, 5.0, 3.0, 3.0, 2.0, 4.0, 1.0, 2.0, 2.0, 2.0, 0.0, 2.0, 0.0, 0.0, 4.0], "bins": [-8.1015816249419e-05, -7.875567098380998e-05, -7.649553299415857e-05, -7.423538772854954e-05, -7.197524246294051e-05, -6.971509719733149e-05, -6.745495193172246e-05, -6.519481394207105e-05, -6.293466867646202e-05, -6.0674523410853e-05, -5.841438178322278e-05, -5.615424015559256e-05, -5.3894094889983535e-05, -5.163394962437451e-05, -4.937380799674429e-05, -4.711366636911407e-05, -4.4853521103505045e-05, -4.259337583789602e-05, -4.03332342102658e-05, -3.807309258263558e-05, -3.5812947317026556e-05, -3.355280205141753e-05, -3.129266042378731e-05, -2.903251697716769e-05, -2.6772373530548066e-05, -2.4512230083928443e-05, -2.225208663730882e-05, -1.99919431906892e-05, -1.7731799744069576e-05, -1.5471656297449954e-05, -1.3211512850830331e-05, -1.0951369404210709e-05, -8.691225957591087e-06, -6.431082510971464e-06, -4.170939064351842e-06, -1.9107956177322194e-06, 3.49347828887403e-07, 2.6094912755070254e-06, 4.869634722126648e-06, 7.12977816874627e-06, 9.389921615365893e-06, 1.1650065061985515e-05, 1.3910208508605137e-05, 1.617035195522476e-05, 1.8430495401844382e-05, 2.0690638848464005e-05, 2.2950782295083627e-05, 2.521092574170325e-05, 2.7471069188322872e-05, 2.9731212634942494e-05, 3.199135608156212e-05, 3.4251497709192336e-05, 3.651164297480136e-05, 3.877178824041039e-05, 4.1031929868040606e-05, 4.3292071495670825e-05, 4.555221676127985e-05, 4.781236202688888e-05, 5.0072503654519096e-05, 5.2332645282149315e-05, 5.459279054775834e-05, 5.685293581336737e-05, 5.9113077440997586e-05, 6.13732190686278e-05, 6.363336433423683e-05]}, "gradients/net.2.weight": {"_type": "histogram", "values": [1.0, 0.0, 0.0, 0.0, 0.0, 0.0, 2.0, 1.0, 6.0, 6.0, 11.0, 9.0, 6.0, 17.0, 24.0, 27.0, 45.0, 54.0, 65.0, 109.0, 165.0, 216.0, 298.0, 466.0, 712.0, 1059.0, 1633.0, 2527.0, 4306.0, 8103.0, 19106.0, 11590.0, 5740.0, 3242.0, 1949.0, 1324.0, 836.0, 592.0, 375.0, 290.0, 186.0, 123.0, 93.0, 58.0, 45.0, 36.0, 22.0, 15.0, 15.0, 9.0, 6.0, 2.0, 1.0, 3.0, 4.0, 0.0, 2.0, 1.0, 0.0, 0.0, 1.0, 0.0, 0.0, 2.0], "bins": [-3.117157393717207e-05, -3.0157349101500586e-05, -2.9143126084818505e-05, -2.8128903068136424e-05, -2.711467823246494e-05, -2.6100453396793455e-05, -2.5086230380111374e-05, -2.4072007363429293e-05, -2.305778252775781e-05, -2.2043557692086324e-05, -2.1029334675404243e-05, -2.0015111658722162e-05, -1.9000886823050678e-05, -1.7986661987379193e-05, -1.6972438970697112e-05, -1.595821595401503e-05, -1.4943991118343547e-05, -1.3929767192166764e-05, -1.2915543265989982e-05, -1.1901319339813199e-05, -1.0887095413636416e-05, -9.872871487459633e-06, -8.85864756128285e-06, -7.844423635106068e-06, -6.830199708929285e-06, -5.815975782752503e-06, -4.80175185657572e-06, -3.7875279303989373e-06, -2.7733040042221546e-06, -1.759080078045372e-06, -7.448561518685892e-07, 2.693677743081935e-07, 1.283588062506169e-06, 2.2978119886829518e-06, 3.3120359148597345e-06, 4.326259841036517e-06, 5.3404837672133e-06, 6.3547076933900826e-06, 7.368931619566865e-06, 8.383155545743648e-06, 9.39737947192043e-06, 1.0411603398097213e-05, 1.1425827324273996e-05, 1.2440051250450779e-05, 1.3454275176627561e-05, 1.4468499102804344e-05, 1.5482723028981127e-05, 1.6496946045663208e-05, 1.7511170881334692e-05, 1.8525395717006177e-05, 1.9539618733688258e-05, 2.055384175037034e-05, 2.1568066586041823e-05, 2.2582291421713307e-05, 2.359651443839539e-05, 2.461073745507747e-05, 2.5624962290748954e-05, 2.6639187126420438e-05, 2.765341014310252e-05, 2.86676331597846e-05, 2.9681857995456085e-05, 3.069608283112757e-05, 3.1710304028820246e-05, 3.272452886449173e-05, 3.3738753700163215e-05]}, "gradients/net.0.bias": {"_type": "histogram", "values": [1.0, 0.0, 0.0, 1.0, 2.0, 2.0, 4.0, 1.0, 1.0, 1.0, 2.0, 1.0, 5.0, 1.0, 6.0, 5.0, 9.0, 3.0, 4.0, 3.0, 7.0, 7.0, 9.0, 10.0, 10.0, 6.0, 2.0, 10.0, 9.0, 5.0, 6.0, 12.0, 13.0, 13.0, 6.0, 6.0, 7.0, 5.0, 6.0, 13.0, 2.0, 7.0, 4.0, 3.0, 4.0, 2.0, 2.0, 3.0, 3.0, 1.0, 1.0, 2.0, 1.0, 2.0, 1.0, 2.0, 0.0, 0.0, 0.0, 0.0, 0.0, 1.0, 0.0, 1.0], "bins": [-9.580890036886558e-05, -9.250349830836058e-05, -8.919808897189796e-05, -8.589268691139296e-05, -8.258728485088795e-05, -7.928187551442534e-05, -7.597647345392033e-05, -7.267107139341533e-05, -6.936566205695271e-05, -6.606025999644771e-05, -6.27548506599851e-05, -5.944944859948009e-05, -5.614404290099628e-05, -5.283863720251247e-05, -4.953323514200747e-05, -4.622782944352366e-05, -4.292242374503985e-05, -3.961701804655604e-05, -3.631161234807223e-05, -3.300621028756723e-05, -2.9700804589083418e-05, -2.639539889059961e-05, -2.3089995011105202e-05, -1.9784591131610796e-05, -1.6479185433126986e-05, -1.3173780644137878e-05, -9.86837585514877e-06, -6.562971066159662e-06, -3.257566277170554e-06, 4.7839421313256025e-08, 3.3532433008076623e-06, 6.658647180302069e-06, 9.964045602828264e-06, 1.3269450391817372e-05, 1.657485518080648e-05, 1.9880259060300887e-05, 2.3185664758784696e-05, 2.6491070457268506e-05, 2.9796474336762913e-05, 3.310187821625732e-05, 3.640728391474113e-05, 3.971268961322494e-05, 4.301809531170875e-05, 4.632349737221375e-05, 4.962890307069756e-05, 5.293430876918137e-05, 5.6239710829686373e-05, 5.954511652817018e-05, 6.285052222665399e-05, 6.6155924287159e-05, 6.946133362362161e-05, 7.276673568412662e-05, 7.607214502058923e-05, 7.937754708109424e-05, 8.268294914159924e-05, 8.598835847806185e-05, 8.929376053856686e-05, 9.259916259907186e-05, 9.590457193553448e-05, 9.920997399603948e-05, 0.00010251537605654448, 0.0001058207853930071, 0.0001091261874535121, 0.0001124315895140171, 0.00011573699885047972]}, "gradients/net.0.weight": {"_type": "histogram", "values": [1.0, 1.0, 0.0, 1.0, 0.0, 0.0, 1.0, 1.0, 2.0, 6.0, 2.0, 3.0, 4.0, 5.0, 8.0, 15.0, 11.0, 15.0, 19.0, 43.0, 41.0, 47.0, 56.0, 78.0, 89.0, 107.0, 128.0, 142.0, 203.0, 197.0, 223.0, 229.0, 215.0, 199.0, 187.0, 163.0, 116.0, 86.0, 109.0, 70.0, 52.0, 45.0, 40.0, 15.0, 21.0, 15.0, 8.0, 18.0, 8.0, 8.0, 3.0, 0.0, 2.0, 1.0, 6.0, 2.0, 0.0, 2.0, 1.0, 0.0, 0.0, 0.0, 1.0, 1.0], "bins": [-9.994278661906719e-05, -9.675524779595435e-05, -9.356770169688389e-05, -9.038016287377104e-05, -8.719261677470058e-05, -8.400507795158774e-05, -8.081753185251728e-05, -7.762999302940443e-05, -7.444244693033397e-05, -7.125490810722113e-05, -6.806736200815067e-05, -6.487982318503782e-05, -6.169227708596736e-05, -5.8504738262854517e-05, -5.531719216378406e-05, -5.212965334067121e-05, -4.894211087957956e-05, -4.5754568418487906e-05, -4.2567025957396254e-05, -3.93794834963046e-05, -3.619194103521295e-05, -3.3004398574121296e-05, -2.9816857932019047e-05, -2.6629315470927395e-05, -2.3441773009835742e-05, -2.025423054874409e-05, -1.7066688087652437e-05, -1.3879146536055487e-05, -1.0691604074963834e-05, -7.504062523366883e-06, -4.316520062275231e-06, -1.1289776011835784e-06, 2.058564859908074e-06, 5.246107320999727e-06, 8.43364978209138e-06, 1.162119133368833e-05, 1.4808733794779982e-05, 1.7996275346376933e-05, 2.1183817807468586e-05, 2.4371360268560238e-05, 2.755890272965189e-05, 3.074644337175414e-05, 3.393398583284579e-05, 3.7121528293937445e-05, 4.03090707550291e-05, 4.349661321612075e-05, 4.66841556772124e-05, 4.9871698138304055e-05, 5.305924059939571e-05, 5.624678306048736e-05, 5.943432552157901e-05, 6.262186798267066e-05, 6.580940680578351e-05, 6.899695290485397e-05, 7.218449172796682e-05, 7.537203782703727e-05, 7.855957665015012e-05, 8.174711547326297e-05, 8.493466157233343e-05, 8.812220039544627e-05, 9.130974649451673e-05, 9.449728531762958e-05, 9.768483141670004e-05, 0.00010087237023981288, 0.00010405991633888334]}, "_wandb": {"runtime": 413}}