{"train_loss": 9.038011739903595e-06, "test_loss": 7.071333584462991e-06, "_timestamp": 1717621830.8184195, "_runtime": 74.9856424331665, "_step": 85, "parameters/net.0.weight": {"_type": "histogram", "values": [5.0, 0.0, 0.0, 1.0, 2.0, 0.0, 1.0, 1.0, 2.0, 3.0, 9.0, 13.0, 15.0, 21.0, 23.0, 24.0, 38.0, 45.0, 38.0, 49.0, 65.0, 62.0, 98.0, 95.0, 108.0, 97.0, 129.0, 116.0, 120.0, 137.0, 128.0, 137.0, 137.0, 127.0, 111.0, 123.0, 104.0, 115.0, 91.0, 92.0, 92.0, 87.0, 71.0, 60.0, 45.0, 26.0, 30.0, 42.0, 23.0, 28.0, 18.0, 11.0, 16.0, 10.0, 4.0, 8.0, 7.0, 3.0, 0.0, 3.0, 1.0, 1.0, 3.0, 1.0], "bins": [-0.329796701669693, -0.3194533884525299, -0.3091100752353668, -0.29876676201820374, -0.28842341899871826, -0.2780801057815552, -0.2677367925643921, -0.257393479347229, -0.24705016613006592, -0.23670685291290283, -0.22636353969573975, -0.21602021157741547, -0.20567689836025238, -0.1953335851430893, -0.18499025702476501, -0.17464694380760193, -0.16430363059043884, -0.15396031737327576, -0.14361700415611267, -0.1332736760377884, -0.1229303628206253, -0.11258704960346222, -0.10224372893571854, -0.09190040826797485, -0.08155709505081177, -0.07121378183364868, -0.060870461165905, -0.050527144223451614, -0.04018382728099823, -0.029840510338544846, -0.01949719339609146, -0.009153872728347778, 0.00118941068649292, 0.011532727628946304, 0.02187604457139969, 0.03221936151385307, 0.04256267845630646, 0.05290599539875984, 0.06324931234121323, 0.07359263300895691, 0.08393594622612, 0.09427925944328308, 0.10462258011102676, 0.11496590077877045, 0.12530921399593353, 0.13565252721309662, 0.1459958553314209, 0.15633916854858398, 0.16668248176574707, 0.17702579498291016, 0.18736910820007324, 0.19771243631839752, 0.2080557495355606, 0.2183990627527237, 0.22874239087104797, 0.23908570408821106, 0.24942901730537415, 0.25977233052253723, 0.2701156437397003, 0.2804589569568634, 0.2908022999763489, 0.30114561319351196, 0.31148892641067505, 0.32183223962783813, 0.3321755528450012]}, "parameters/net.0.bias": {"_type": "histogram", "values": [1.0, 1.0, 1.0, 1.0, 1.0, 3.0, 2.0, 1.0, 0.0, 2.0, 1.0, 2.0, 4.0, 2.0, 3.0, 5.0, 9.0, 6.0, 3.0, 6.0, 7.0, 7.0, 5.0, 7.0, 3.0, 8.0, 7.0, 9.0, 8.0, 1.0, 8.0, 5.0, 11.0, 2.0, 7.0, 3.0, 3.0, 10.0, 3.0, 4.0, 11.0, 3.0, 10.0, 3.0, 9.0, 3.0, 7.0, 4.0, 5.0, 4.0, 2.0, 2.0, 1.0, 1.0, 4.0, 3.0, 1.0, 1.0, 4.0, 3.0, 0.0, 1.0, 0.0, 2.0], "bins": [-0.02173909917473793, -0.02105894312262535, -0.02037878707051277, -0.019698631018400192, -0.019018474966287613, -0.018338318914175034, -0.017658162862062454, -0.016978006809949875, -0.016297850757837296, -0.015617694705724716, -0.014937538653612137, -0.014257382601499557, -0.013577226549386978, -0.012897070497274399, -0.012216915376484394, -0.011536759324371815, -0.01085660420358181, -0.01017644815146923, -0.009496292099356651, -0.008816136047244072, -0.008135979995131493, -0.007455824408680201, -0.0067756688222289085, -0.006095512770116329, -0.00541535671800375, -0.0047352006658911705, -0.004055044613778591, -0.003374889027327299, -0.0026947329752147198, -0.0020145769231021404, -0.0013344213366508484, -0.000654265284538269, 2.5892630219459534e-05, 0.000706048565916717, 0.0013862045016139746, 0.0020663603208959103, 0.0027465163730084896, 0.003426672425121069, 0.004106828011572361, 0.00478698406368494, 0.00546714011579752, 0.006147296167910099, 0.006827452220022678, 0.00750760780647397, 0.008187763392925262, 0.008867919445037842, 0.009548075497150421, 0.010228231549263, 0.01090838760137558, 0.01158854365348816, 0.012268699705600739, 0.012948855757713318, 0.013629011809825897, 0.014309167861938477, 0.014989322982728481, 0.015669479966163635, 0.016349636018276215, 0.017029792070388794, 0.017709948122501373, 0.018390104174613953, 0.019070260226726532, 0.01975041627883911, 0.02043057233095169, 0.02111072838306427, 0.0217908825725317]}, "parameters/net.2.weight": {"_type": "histogram", "values": [1.0, 3.0, 2.0, 3.0, 4.0, 10.0, 16.0, 17.0, 30.0, 52.0, 64.0, 84.0, 154.0, 178.0, 240.0, 329.0, 402.0, 547.0, 704.0, 875.0, 1009.0, 1279.0, 1492.0, 1753.0, 1961.0, 2207.0, 2402.0, 2723.0, 2851.0, 3064.0, 3139.0, 3308.0, 3307.0, 3247.0, 3191.0, 3114.0, 2892.0, 2696.0, 2510.0, 2299.0, 1983.0, 1729.0, 1544.0, 1222.0, 1035.0, 882.0, 700.0, 580.0, 444.0, 374.0, 268.0, 202.0, 131.0, 102.0, 68.0, 39.0, 22.0, 18.0, 15.0, 9.0, 4.0, 3.0, 2.0, 1.0], "bins": [-0.40108540654182434, -0.3887880742549896, -0.3764907121658325, -0.3641933798789978, -0.3518960475921631, -0.339598685503006, -0.32730135321617126, -0.31500399112701416, -0.30270665884017944, -0.2904093265533447, -0.2781119644641876, -0.2658146321773529, -0.2535172700881958, -0.24121993780136108, -0.22892260551452637, -0.21662525832653046, -0.20432791113853455, -0.19203056395053864, -0.17973321676254272, -0.167435884475708, -0.1551385372877121, -0.1428411900997162, -0.13054385781288147, -0.11824651062488556, -0.10594916343688965, -0.09365181624889374, -0.08135447651147842, -0.06905713677406311, -0.0567597895860672, -0.04446244612336159, -0.032165102660655975, -0.01986776292324066, -0.007570445537567139, 0.0047268979251384735, 0.017024241387844086, 0.029321584850549698, 0.04161892831325531, 0.05391627177596092, 0.06621361523866653, 0.07851095497608185, 0.09080830216407776, 0.10310564935207367, 0.11540298908948898, 0.1277003288269043, 0.1399976760149002, 0.15229502320289612, 0.16459235548973083, 0.17688970267772675, 0.18918704986572266, 0.20148439705371857, 0.21378174424171448, 0.2260790765285492, 0.2383764237165451, 0.250673770904541, 0.26297110319137573, 0.27526843547821045, 0.28756579756736755, 0.29986312985420227, 0.3121604919433594, 0.3244578242301941, 0.3367551565170288, 0.3490525186061859, 0.36134985089302063, 0.37364721298217773, 0.38594454526901245]}, "parameters/net.2.bias": {"_type": "histogram", "values": [1.0, 0.0, 0.0, 0.0, 0.0, 0.0, 0.0, 0.0, 0.0, 0.0, 0.0, 0.0, 0.0, 0.0, 0.0, 2.0, 0.0, 0.0, 3.0, 1.0, 1.0, 2.0, 1.0, 5.0, 1.0, 6.0, 6.0, 6.0, 2.0, 5.0, 5.0, 9.0, 6.0, 11.0, 8.0, 6.0, 11.0, 10.0, 7.0, 6.0, 12.0, 14.0, 10.0, 9.0, 11.0, 7.0, 9.0, 13.0, 5.0, 7.0, 9.0, 6.0, 6.0, 0.0, 4.0, 3.0, 0.0, 3.0, 0.0, 3.0, 0.0, 1.0, 1.0, 2.0], "bins": [-0.04020565375685692, -0.03915144503116608, -0.038097236305475235, -0.03704302757978439, -0.03598881885409355, -0.03493461012840271, -0.03388040140271187, -0.03282619267702103, -0.031771983951330185, -0.030717775225639343, -0.0296635664999485, -0.02860935777425766, -0.027555149048566818, -0.026500940322875977, -0.025446731597185135, -0.024392522871494293, -0.023338312283158302, -0.02228410355746746, -0.02122989483177662, -0.020175686106085777, -0.019121477380394936, -0.018067268654704094, -0.017013058066368103, -0.01595884934067726, -0.014904641546308994, -0.013850432820618153, -0.012796224094927311, -0.011742014437913895, -0.010687805712223053, -0.009633596986532211, -0.00857938826084137, -0.007525179535150528, -0.006470970809459686, -0.005416762083768845, -0.004362553358078003, -0.003308344166725874, -0.0022541354410350323, -0.0011999267153441906, -0.00014571752399206161, 0.0009084912016987801, 0.0019626999273896217, 0.0030169086530804634, 0.004071117378771305, 0.005125326570123434, 0.006179535295814276, 0.007233744021505117, 0.008287953212857246, 0.009342161938548088, 0.01039637066423893, 0.011450579389929771, 0.012504788115620613, 0.013558996841311455, 0.014613205567002296, 0.015667414292693138, 0.01672162488102913, 0.01777583360671997, 0.018830042332410812, 0.019884251058101654, 0.020938459783792496, 0.021992668509483337, 0.02304687723517418, 0.02410108596086502, 0.025155294686555862, 0.026209503412246704, 0.027263712137937546]}, "parameters/net.4.weight": {"_type": "histogram", "values": [2.0, 0.0, 0.0, 3.0, 2.0, 0.0, 0.0, 3.0, 11.0, 1.0, 7.0, 10.0, 14.0, 13.0, 14.0, 24.0, 21.0, 31.0, 36.0, 46.0, 41.0, 55.0, 60.0, 89.0, 97.0, 96.0, 99.0, 111.0, 142.0, 137.0, 116.0, 130.0, 121.0, 130.0, 153.0, 133.0, 141.0, 129.0, 111.0, 103.0, 107.0, 81.0, 72.0, 69.0, 69.0, 47.0, 40.0, 34.0, 22.0, 19.0, 18.0, 9.0, 12.0, 9.0, 7.0, 5.0, 6.0, 2.0, 6.0, 3.0, 0.0, 0.0, 2.0, 1.0], "bins": [-0.35000377893447876, -0.3393726944923401, -0.3287416100502014, -0.31811052560806274, -0.3074794411659241, -0.2968483567237854, -0.28621727228164673, -0.27558618783950806, -0.2649551033973694, -0.2543240189552307, -0.24369293451309204, -0.23306185007095337, -0.2224307656288147, -0.21179968118667603, -0.20116861164569855, -0.19053752720355988, -0.1799064576625824, -0.16927537322044373, -0.15864428877830505, -0.14801320433616638, -0.1373821198940277, -0.12675103545188904, -0.11611996591091156, -0.10548888146877289, -0.09485779702663422, -0.08422671258449554, -0.07359562814235687, -0.0629645511507988, -0.052333466708660126, -0.041702382266521454, -0.03107130527496338, -0.020440220832824707, -0.009809166193008423, 0.0008219163864850998, 0.011452998965978622, 0.022084079682826996, 0.03271516412496567, 0.04334624856710434, 0.053977325558662415, 0.06460841000080109, 0.07523949444293976, 0.08587057888507843, 0.0965016633272171, 0.10713274031877518, 0.11776382476091385, 0.12839490175247192, 0.1390259861946106, 0.14965707063674927, 0.16028815507888794, 0.1709192395210266, 0.18155032396316528, 0.19218140840530396, 0.20281249284744263, 0.2134435772895813, 0.22407464683055878, 0.23470573127269745, 0.24533681571483612, 0.2559678852558136, 0.26659896969795227, 0.27723005414009094, 0.2878611385822296, 0.2984922230243683, 0.30912330746650696, 0.31975439190864563, 0.3303854763507843]}, "parameters/net.4.bias": {"_type": "histogram", "values": [1.0, 1.0, 0.0, 0.0, 1.0, 0.0, 0.0, 0.0, 0.0, 1.0, 0.0, 0.0, 0.0, 0.0, 0.0, 1.0, 0.0, 0.0, 0.0, 0.0, 1.0, 0.0, 0.0, 1.0, 0.0, 0.0, 0.0, 0.0, 0.0, 0.0, 0.0, 0.0, 0.0, 1.0, 0.0, 0.0, 0.0, 0.0, 0.0, 0.0, 0.0, 0.0, 0.0, 0.0, 0.0, 0.0, 1.0, 0.0, 0.0, 0.0, 0.0, 0.0, 0.0, 0.0, 1.0, 1.0, 0.0, 0.0, 0.0, 0.0, 0.0, 0.0, 0.0, 1.0], "bins": [-0.006406878586858511, -0.0062025259248912334, -0.005998173262923956, -0.005793821066617966, -0.005589468404650688, -0.005385115742683411, -0.005180763080716133, -0.004976410418748856, -0.004772057756781578, -0.0045677050948143005, -0.004363352432847023, -0.0041589997708797455, -0.003954647574573755, -0.0037502949126064777, -0.0035459422506392, -0.0033415895886719227, -0.0031372373923659325, -0.002932884730398655, -0.002728532301262021, -0.0025241796392947435, -0.0023198272101581097, -0.002115474548190832, -0.0019111218862235546, -0.001706769340671599, -0.0015024167951196432, -0.0012980642495676875, -0.0010937117040157318, -0.0008893590420484543, -0.0006850064964964986, -0.0004806539509445429, -0.00027630128897726536, -7.194874342530966e-05, 0.00013240333646535873, 0.0003367559111211449, 0.000541108485776931, 0.0007454610895365477, 0.0009498136350885034, 0.001154166180640459, 0.0013585188426077366, 0.0015628713881596923, 0.001767223933711648, 0.0019715765956789255, 0.0021759290248155594, 0.002380281686782837, 0.0025846343487501144, 0.0027889867778867483, 0.002993339439854026, 0.0031976918689906597, 0.0034020445309579372, 0.0036063971929252148, 0.0038107496220618486, 0.0040151020511984825, 0.00421945471316576, 0.004423807375133038, 0.004628160037100315, 0.004832512699067593, 0.00503686536103487, 0.005241218023002148, 0.005445570684969425, 0.005649923346936703, 0.005854275543242693, 0.0060586282052099705, 0.006262980867177248, 0.0064673335291445255, 0.006671685725450516]}, "gradients/net.4.bias": {"_type": "histogram", "values": [1.0, 0.0, 0.0, 0.0, 0.0, 0.0, 0.0, 0.0, 0.0, 0.0, 1.0, 0.0, 0.0, 0.0, 1.0, 1.0, 0.0, 0.0, 1.0, 0.0, 0.0, 0.0, 1.0, 0.0, 0.0, 1.0, 0.0, 0.0, 0.0, 0.0, 0.0, 0.0, 0.0, 0.0, 0.0, 0.0, 0.0, 0.0, 0.0, 0.0, 0.0, 0.0, 0.0, 0.0, 0.0, 0.0, 0.0, 0.0, 0.0, 0.0, 2.0, 0.0, 0.0, 0.0, 0.0, 0.0, 0.0, 0.0, 0.0, 0.0, 2.0, 0.0, 0.0, 1.0], "bins": [-0.00010782683966681361, -0.00010321277659386396, -9.859871352091432e-05, -9.398465044796467e-05, -8.937058737501502e-05, -8.475652430206537e-05, -8.014246850507334e-05, -7.552840543212369e-05, -7.091434235917404e-05, -6.63002792862244e-05, -6.168621621327475e-05, -5.7072156778303906e-05, -5.245809370535426e-05, -4.784403063240461e-05, -4.322997119743377e-05, -3.861590812448412e-05, -3.4001845051534474e-05, -2.9387781978584826e-05, -2.477372072462458e-05, -2.0159659470664337e-05, -1.554559639771469e-05, -1.0931533324765041e-05, -6.317472070804797e-06, -1.7034108168445528e-06, 2.910652256105095e-06, 7.524714419560041e-06, 1.2138776583014987e-05, 1.6752837836975232e-05, 2.136690090992488e-05, 2.5980963982874528e-05, 3.059502341784537e-05, 3.5209086490795016e-05, 3.9823135011829436e-05, 4.4437198084779084e-05, 4.905126115772873e-05, 5.366532059269957e-05, 5.827938366564922e-05, 6.289345037657768e-05, 6.750750617356971e-05, 7.212156924651936e-05, 7.6735632319469e-05, 8.134969539241865e-05, 8.59637584653683e-05, 9.057782153831795e-05, 9.519187733530998e-05, 9.980594040825963e-05, 0.00010442000348120928, 0.00010903406655415893, 0.00011364812962710857, 0.00011826219270005822, 0.00012287625577300787, 0.00012749031884595752, 0.00013210438191890717, 0.0001367184449918568, 0.00014133250806480646, 0.0001459465711377561, 0.00015056063421070576, 0.0001551746972836554, 0.00015978876035660505, 0.0001644028234295547, 0.00016901688650250435, 0.000173630949575454, 0.00017824501264840364, 0.0001828590757213533, 0.0001874731242423877]}, "gradients/net.4.weight": {"_type": "histogram", "values": [1.0, 1.0, 1.0, 0.0, 1.0, 0.0, 1.0, 1.0, 0.0, 2.0, 2.0, 2.0, 5.0, 5.0, 4.0, 4.0, 5.0, 12.0, 14.0, 23.0, 15.0, 26.0, 47.0, 46.0, 54.0, 74.0, 83.0, 108.0, 120.0, 142.0, 238.0, 288.0, 291.0, 254.0, 228.0, 210.0, 163.0, 114.0, 93.0, 72.0, 55.0, 50.0, 38.0, 39.0, 26.0, 32.0, 16.0, 10.0, 7.0, 7.0, 7.0, 10.0, 7.0, 3.0, 2.0, 0.0, 3.0, 2.0, 3.0, 1.0, 0.0, 1.0, 1.0, 2.0], "bins": [-0.00013242736167740077, -0.00012822328426409513, -0.0001240192068507895, -0.00011981513671344146, -0.00011561106657609344, -0.0001114069891627878, -0.00010720291174948215, -0.00010299883433617651, -9.879476419882849e-05, -9.459068678552285e-05, -9.038661664817482e-05, -8.618253923486918e-05, -8.197846182156354e-05, -7.777439168421552e-05, -7.357031427090988e-05, -6.936624413356185e-05, -6.516216672025621e-05, -6.0958092944929376e-05, -5.675401916960254e-05, -5.25499417562969e-05, -4.834586798097007e-05, -4.414179420564324e-05, -3.9937716792337596e-05, -3.573364301701076e-05, -3.152956924168393e-05, -2.7325495466357097e-05, -2.312141987204086e-05, -1.8917344277724624e-05, -1.471327050239779e-05, -1.0509196727070957e-05, -6.305121132754721e-06, -2.101045538438484e-06, 2.103028236888349e-06, 6.307102921709884e-06, 1.0511177606531419e-05, 1.4715252291352954e-05, 1.891932697617449e-05, 2.3123400751501322e-05, 2.732747634581756e-05, 3.1531551940133795e-05, 3.573562571546063e-05, 3.993969949078746e-05, 4.4143773266114295e-05, 4.8347850679419935e-05, 5.255192445474677e-05, 5.67559982300736e-05, 6.096007564337924e-05, 6.516414578072727e-05, 6.936822319403291e-05, 7.357230060733855e-05, 7.777637074468657e-05, 8.198044815799221e-05, 8.618451829534024e-05, 9.038859570864588e-05, 9.459267312195152e-05, 9.879675053525716e-05, 0.00010300082067260519, 0.00010720489808591083, 0.00011140896822325885, 0.00011561304563656449, 0.00011981712304987013, 0.00012402120046317577, 0.00012822526332456619, 0.00013242934073787183, 0.00013663341815117747]}, "gradients/net.2.bias": {"_type": "histogram", "values": [1.0, 0.0, 1.0, 0.0, 1.0, 1.0, 1.0, 0.0, 1.0, 1.0, 0.0, 4.0, 0.0, 1.0, 1.0, 3.0, 3.0, 5.0, 0.0, 5.0, 6.0, 6.0, 10.0, 6.0, 5.0, 5.0, 17.0, 11.0, 6.0, 11.0, 10.0, 10.0, 10.0, 13.0, 11.0, 7.0, 8.0, 7.0, 3.0, 7.0, 10.0, 4.0, 6.0, 4.0, 6.0, 1.0, 4.0, 6.0, 3.0, 2.0, 3.0, 1.0, 0.0, 3.0, 1.0, 0.0, 0.0, 0.0, 1.0, 1.0, 1.0, 0.0, 0.0, 1.0], "bins": [-7.858061144361272e-05, -7.602527330163866e-05, -7.346992788370699e-05, -7.091458974173293e-05, -6.835925159975886e-05, -6.580390618182719e-05, -6.324856803985313e-05, -6.0693229897879064e-05, -5.8137888117926195e-05, -5.5582546337973326e-05, -5.3027208195999265e-05, -5.0471866416046396e-05, -4.791652463609353e-05, -4.5361186494119465e-05, -4.2805844714166597e-05, -4.025050293421373e-05, -3.7695164792239666e-05, -3.51398230122868e-05, -3.2584484870312735e-05, -3.0029143090359867e-05, -2.74738031293964e-05, -2.4918463168432936e-05, -2.2363121388480067e-05, -1.9807781427516602e-05, -1.7252441466553137e-05, -1.4697101505589671e-05, -1.2141760635131504e-05, -9.586419764673337e-06, -7.031079803709872e-06, -4.475739842746407e-06, -1.920398062793538e-06, 6.349418981699273e-07, 3.1902891350910068e-06, 5.745629550801823e-06, 8.300969966512639e-06, 1.0856310836970806e-05, 1.3411650797934271e-05, 1.5966990758897737e-05, 1.8522332538850605e-05, 2.107767249981407e-05, 2.3633012460777536e-05, 2.6188352421741e-05, 2.8743692382704467e-05, 3.1299034162657335e-05, 3.3854375942610204e-05, 3.6409714084584266e-05, 3.8965055864537135e-05, 4.1520397644490004e-05, 4.4075735786464065e-05, 4.6631077566416934e-05, 4.9186415708390996e-05, 5.1741757488343865e-05, 5.4297095630317926e-05, 5.6852437410270795e-05, 5.9407779190223664e-05, 6.196311733219773e-05, 6.45184627501294e-05, 6.707380089210346e-05, 6.962914631003514e-05, 7.21844844520092e-05, 7.473982259398326e-05, 7.729516073595732e-05, 7.9850506153889e-05, 8.240584429586306e-05, 8.496118243783712e-05]}, "gradients/net.2.weight": {"_type": "histogram", "values": [1.0, 2.0, 0.0, 2.0, 4.0, 3.0, 6.0, 9.0, 13.0, 9.0, 8.0, 18.0, 31.0, 22.0, 39.0, 74.0, 85.0, 147.0, 163.0, 250.0, 357.0, 542.0, 771.0, 1141.0, 1821.0, 2960.0, 5151.0, 9593.0, 15574.0, 11273.0, 5988.0, 3387.0, 2080.0, 1305.0, 813.0, 560.0, 390.0, 271.0, 192.0, 128.0, 80.0, 78.0, 42.0, 34.0, 38.0, 16.0, 21.0, 10.0, 11.0, 2.0, 6.0, 1.0, 6.0, 1.0, 3.0, 0.0, 0.0, 0.0, 1.0, 1.0, 1.0, 0.0, 0.0, 1.0], "bins": [-4.887011891696602e-05, -4.7163084673229605e-05, -4.545605042949319e-05, -4.374901982373558e-05, -4.2041985579999164e-05, -4.033495133626275e-05, -3.862791709252633e-05, -3.692088648676872e-05, -3.5213852243032306e-05, -3.350681799929589e-05, -3.1799783755559474e-05, -3.009275133081246e-05, -2.838571890606545e-05, -2.6678684662329033e-05, -2.4971650418592617e-05, -2.3264617993845604e-05, -2.1557583750109188e-05, -1.9850549506372772e-05, -1.814351708162576e-05, -1.6436482837889344e-05, -1.4729450413142331e-05, -1.3022416169405915e-05, -1.13153828351642e-05, -9.608349500922486e-06, -7.901316166680772e-06, -6.1942828324390575e-06, -4.487249498197343e-06, -2.780215709208278e-06, -1.0731823749665637e-06, 6.338514140225016e-07, 2.340884748264216e-06, 4.04791808250593e-06, 5.7549514167476445e-06, 7.461984750989359e-06, 9.169018085231073e-06, 1.087605232896749e-05, 1.2583084753714502e-05, 1.4290118997450918e-05, 1.5997153241187334e-05, 1.7704185665934347e-05, 1.941121809068136e-05, 2.1118252334417775e-05, 2.2825284759164788e-05, 2.4532319002901204e-05, 2.6239351427648216e-05, 2.7946385671384633e-05, 2.965341991512105e-05, 3.1360454158857465e-05, 3.306748840259388e-05, 3.47745226463303e-05, 3.648155689006671e-05, 3.818858749582432e-05, 3.989562173956074e-05, 4.1602655983297154e-05, 4.330969022703357e-05, 4.501672083279118e-05, 4.6723755076527596e-05, 4.843078932026401e-05, 5.013782356400043e-05, 5.184485416975804e-05, 5.355188841349445e-05, 5.525892265723087e-05, 5.6965956900967285e-05, 5.8672987506724894e-05, 6.038002175046131e-05]}, "gradients/net.0.bias": {"_type": "histogram", "values": [2.0, 1.0, 0.0, 1.0, 0.0, 0.0, 3.0, 1.0, 0.0, 1.0, 3.0, 0.0, 2.0, 1.0, 3.0, 1.0, 1.0, 2.0, 5.0, 7.0, 1.0, 5.0, 5.0, 12.0, 3.0, 4.0, 8.0, 9.0, 7.0, 10.0, 8.0, 6.0, 9.0, 9.0, 7.0, 7.0, 12.0, 6.0, 9.0, 12.0, 11.0, 9.0, 8.0, 6.0, 10.0, 2.0, 5.0, 6.0, 3.0, 1.0, 2.0, 1.0, 2.0, 2.0, 0.0, 1.0, 1.0, 1.0, 1.0, 0.0, 0.0, 0.0, 0.0, 1.0], "bins": [-0.0001354588457616046, -0.00013139183283783495, -0.00012732480536215007, -0.00012325779243838042, -0.00011919077223865315, -0.00011512375203892589, -0.00011105673183919862, -0.00010698971163947135, -0.0001029226987157017, -9.885567851597443e-05, -9.478865831624717e-05, -9.072164539247751e-05, -8.665462519275025e-05, -8.258760499302298e-05, -7.852058479329571e-05, -7.445356459356844e-05, -7.038654439384118e-05, -6.631952419411391e-05, -6.225250399438664e-05, -5.818548743263818e-05, -5.411847087088972e-05, -5.0051450671162456e-05, -4.598443047143519e-05, -4.191741027170792e-05, -3.785039370995946e-05, -3.3783373510232195e-05, -2.9716356948483735e-05, -2.5649336748756468e-05, -2.1582318368018605e-05, -1.751529998728074e-05, -1.3448279787553474e-05, -9.38126140681561e-06, -5.314243026077747e-06, -1.247224190592533e-06, 2.8197946448926814e-06, 6.886813935125247e-06, 1.095383231586311e-05, 1.5020850696600974e-05, 1.908787089632824e-05, 2.3154889277066104e-05, 2.7221907657803968e-05, 3.1288927857531235e-05, 3.5355944419279695e-05, 3.942296461900696e-05, 4.348998481873423e-05, 4.755700138048269e-05, 5.1624021580209956e-05, 5.5691038141958416e-05, 5.975805834168568e-05, 6.382507854141295e-05, 6.789209874114022e-05, 7.195911894086748e-05, 7.602613186463714e-05, 8.00931520643644e-05, 8.416017226409167e-05, 8.822719246381894e-05, 9.22942126635462e-05, 9.636123286327347e-05, 0.00010042825306300074, 0.00010449526598677039, 0.00010856228618649766, 0.00011262930638622493, 0.00011669632658595219, 0.00012076334678567946, 0.0001248303597094491]}, "gradients/net.0.weight": {"_type": "histogram", "values": [1.0, 0.0, 0.0, 0.0, 0.0, 2.0, 1.0, 0.0, 2.0, 0.0, 3.0, 0.0, 7.0, 7.0, 5.0, 3.0, 8.0, 13.0, 20.0, 22.0, 28.0, 25.0, 29.0, 42.0, 48.0, 81.0, 84.0, 113.0, 169.0, 192.0, 203.0, 271.0, 294.0, 257.0, 214.0, 197.0, 163.0, 128.0, 107.0, 71.0, 50.0, 46.0, 28.0, 35.0, 30.0, 17.0, 13.0, 16.0, 7.0, 4.0, 5.0, 2.0, 1.0, 3.0, 1.0, 1.0, 0.0, 0.0, 0.0, 0.0, 0.0, 2.0, 0.0, 1.0], "bins": [-0.00014893610205035657, -0.00014435035700444132, -0.00013976459740661085, -0.0001351788523606956, -0.00013059310731478035, -0.0001260073622688651, -0.00012142160267103463, -0.00011683585762511939, -0.00011225010530324653, -0.00010766435298137367, -0.00010307860793545842, -9.849285561358556e-05, -9.39071032917127e-05, -8.932135824579746e-05, -8.47356059239246e-05, -8.014985360205173e-05, -7.556410855613649e-05, -7.097835623426363e-05, -6.639261118834838e-05, -6.180685886647552e-05, -5.722111018258147e-05, -5.2635361498687416e-05, -4.8049609176814556e-05, -4.34638604929205e-05, -3.887811180902645e-05, -3.42923631251324e-05, -2.970661262224894e-05, -2.5120862119365484e-05, -2.053511343547143e-05, -1.5949364751577377e-05, -1.136361424869392e-05, -6.777863745810464e-06, -2.1921005100011826e-06, 2.3936490833875723e-06, 6.979398676776327e-06, 1.1565148270165082e-05, 1.6150897863553837e-05, 2.073664654744789e-05, 2.5322397050331347e-05, 2.9908147553214803e-05, 3.4493896237108856e-05, 3.907964492100291e-05, 4.366539360489696e-05, 4.825114592676982e-05, 5.2836894610663876e-05, 5.742264329455793e-05, 6.200839561643079e-05, 6.659414793830365e-05, 7.11798929842189e-05, 7.576564530609176e-05, 8.0351390352007e-05, 8.493714267387986e-05, 8.952288771979511e-05, 9.410864004166797e-05, 9.869439236354083e-05, 0.00010328013740945607, 0.00010786588973132893, 0.0001124516420532018, 0.00011703738709911704, 0.0001216231394209899, 0.00012620889174286276, 0.000130794636788778, 0.00013538038183469325, 0.00013996614143252373, 0.00014455188647843897]}, "_wandb": {"runtime": 74}}