{"train_loss": 0.003798379097133875, "train_grad": 0.002080417238175869, "train_H": 0.0012389910407364368, "test_loss": 0.007402939721941948, "test_grad": 0.004795555956661701, "test_h": 0, "test_H": 0.0013947904808446765, "_timestamp": 1717581713.3860972, "_runtime": 46.18989109992981, "_step": 499, "gradients/NN.net.2.bias": {"_type": "histogram", "values": [0.0, 0.0, 0.0, 0.0, 0.0, 0.0, 0.0, 0.0, 0.0, 0.0, 0.0, 0.0, 0.0, 0.0, 0.0, 0.0, 0.0, 0.0, 0.0, 0.0, 0.0, 0.0, 0.0, 0.0, 0.0, 0.0, 0.0, 0.0, 0.0, 0.0, 0.0, 0.0, 1.0, 0.0, 0.0, 0.0, 0.0, 0.0, 0.0, 0.0, 0.0, 0.0, 0.0, 0.0, 0.0, 0.0, 0.0, 0.0, 0.0, 0.0, 0.0, 0.0, 0.0, 0.0, 0.0, 0.0, 0.0, 0.0, 0.0, 0.0, 0.0, 0.0, 0.0, 0.0], "bins": [0.04668086767196655, 0.04668086767196655, 0.04668086767196655, 0.04668086767196655, 0.04668086767196655, 0.04668086767196655, 0.04668086767196655, 0.04668086767196655, 0.04668086767196655, 0.04668086767196655, 0.04668086767196655, 0.04668086767196655, 0.04668086767196655, 0.04668086767196655, 0.04668086767196655, 0.04668086767196655, 0.04668086767196655, 0.04668086767196655, 0.04668086767196655, 0.04668086767196655, 0.04668086767196655, 0.04668086767196655, 0.04668086767196655, 0.04668086767196655, 0.04668086767196655, 0.04668086767196655, 0.04668086767196655, 0.04668086767196655, 0.04668086767196655, 0.04668086767196655, 0.04668086767196655, 0.04668086767196655, 0.04668086767196655, 0.04668086767196655, 0.04668086767196655, 0.04668086767196655, 0.04668086767196655, 0.04668086767196655, 0.04668086767196655, 0.04668086767196655, 0.04668086767196655, 0.04668086767196655, 0.04668086767196655, 0.04668086767196655, 0.04668086767196655, 0.04668086767196655, 0.04668086767196655, 0.04668086767196655, 0.04668086767196655, 0.04668086767196655, 0.04668086767196655, 0.04668086767196655, 0.04668086767196655, 0.04668086767196655, 0.04668086767196655, 0.04668086767196655, 0.04668086767196655, 0.04668086767196655, 0.04668086767196655, 0.04668086767196655, 0.04668086767196655, 0.04668086767196655, 0.04668086767196655, 0.04668086767196655, 0.04668086767196655]}, "gradients/NN.net.2.weight": {"_type": "histogram", "values": [1.0, 0.0, 1.0, 0.0, 0.0, 0.0, 0.0, 1.0, 1.0, 0.0, 1.0, 3.0, 2.0, 1.0, 2.0, 2.0, 2.0, 4.0, 4.0, 3.0, 6.0, 6.0, 12.0, 7.0, 8.0, 14.0, 15.0, 11.0, 13.0, 12.0, 18.0, 22.0, 27.0, 55.0, 50.0, 23.0, 27.0, 22.0, 12.0, 19.0, 16.0, 12.0, 10.0, 7.0, 10.0, 3.0, 4.0, 4.0, 8.0, 4.0, 6.0, 2.0, 5.0, 2.0, 2.0, 1.0, 3.0, 0.0, 0.0, 1.0, 2.0, 2.0, 0.0, 1.0], "bins": [-0.07911714911460876, -0.07678736001253128, -0.0744575709104538, -0.07212778180837631, -0.06979799270629883, -0.06746821105480194, -0.06513842195272446, -0.06280863285064697, -0.06047884374856949, -0.058149054646492004, -0.05581926554441452, -0.053489480167627335, -0.05115969106554985, -0.048829901963472366, -0.04650011658668518, -0.0441703274846077, -0.04184053838253021, -0.03951074928045273, -0.037180960178375244, -0.03485117480158806, -0.032521385699510574, -0.03019159659743309, -0.027861809358000755, -0.02553202211856842, -0.023202233016490936, -0.020872443914413452, -0.018542656674981117, -0.016212869435548782, -0.013883080333471298, -0.011553292162716389, -0.00922350399196148, -0.006893716752529144, -0.004563920199871063, -0.0022341320291161537, 9.56561416387558e-05, 0.0024254443123936653, 0.004755232483148575, 0.007085020653903484, 0.009414808824658394, 0.011744596064090729, 0.014074385166168213, 0.016404174268245697, 0.018733961507678032, 0.021063748747110367, 0.02339353784918785, 0.025723326951265335, 0.02805311419069767, 0.030382901430130005, 0.03271269053220749, 0.03504247963428497, 0.03737226873636246, 0.03970205411314964, 0.04203184321522713, 0.04436163231730461, 0.0466914176940918, 0.04902120679616928, 0.051350995898246765, 0.05368078500032425, 0.05601057410240173, 0.05834035947918892, 0.0606701485812664, 0.06299993395805359, 0.06532972306013107, 0.06765951216220856, 0.06998930126428604]}, "gradients/NN.net.0.bias": {"_type": "histogram", "values": [1.0, 0.0, 0.0, 0.0, 0.0, 0.0, 0.0, 0.0, 0.0, 0.0, 1.0, 0.0, 0.0, 0.0, 0.0, 1.0, 1.0, 3.0, 0.0, 1.0, 2.0, 1.0, 0.0, 3.0, 4.0, 7.0, 5.0, 7.0, 9.0, 10.0, 14.0, 10.0, 14.0, 13.0, 15.0, 20.0, 17.0, 24.0, 103.0, 27.0, 19.0, 25.0, 27.0, 9.0, 15.0, 14.0, 13.0, 15.0, 8.0, 8.0, 11.0, 6.0, 5.0, 4.0, 5.0, 3.0, 4.0, 2.0, 2.0, 0.0, 0.0, 0.0, 2.0, 2.0], "bins": [-0.01659252494573593, -0.01616263948380947, -0.01573275215923786, -0.015302866697311401, -0.014872981235384941, -0.014443094842135906, -0.014013208448886871, -0.013583322986960411, -0.013153436593711376, -0.012723550200462341, -0.012293664738535881, -0.011863778345286846, -0.011433891952037811, -0.011004006490111351, -0.010574120096862316, -0.010144233703613281, -0.009714348241686821, -0.009284461848437786, -0.008854576386511326, -0.008424689993262291, -0.00799480453133583, -0.007564918138086796, -0.007135031744837761, -0.006705145817250013, -0.006275259889662266, -0.005845373962074518, -0.005415488034486771, -0.004985601641237736, -0.004555715713649988, -0.004125829786062241, -0.0036959436256438494, -0.003266057465225458, -0.002836170606315136, -0.0024062846787273884, -0.001976398518308997, -0.0015465124743059278, -0.0011166264303028584, -0.0006867405027151108, -0.00025685434229671955, 0.00017303181812167168, 0.0006029177457094193, 0.0010328037897124887, 0.001462689833715558, 0.0018925758777186275, 0.002322461921721697, 0.0027523478493094444, 0.0031822340097278357, 0.003612120170146227, 0.0040420060977339745, 0.004471892025321722, 0.00490177795290947, 0.0053316643461585045, 0.005761550273746252, 0.006191436201334, 0.0066213225945830345, 0.007051208522170782, 0.00748109444975853, 0.007910980843007565, 0.008340866304934025, 0.00877075269818306, 0.00920063816010952, 0.009630524553358555, 0.01006041094660759, 0.01049029640853405, 0.010920182801783085]}, "gradients/NN.net.0.weight": {"_type": "histogram", "values": [1.0, 1.0, 0.0, 0.0, 0.0, 1.0, 1.0, 0.0, 2.0, 5.0, 5.0, 3.0, 6.0, 10.0, 9.0, 9.0, 9.0, 24.0, 18.0, 28.0, 30.0, 29.0, 46.0, 55.0, 51.0, 56.0, 65.0, 96.0, 144.0, 245.0, 424.0, 781.0, 2150.0, 680.0, 329.0, 200.0, 123.0, 83.0, 66.0, 47.0, 43.0, 36.0, 45.0, 36.0, 33.0, 22.0, 18.0, 10.0, 14.0, 6.0, 15.0, 10.0, 5.0, 2.0, 6.0, 3.0, 3.0, 1.0, 0.0, 0.0, 2.0, 1.0, 0.0, 1.0], "bins": [-0.03283228725194931, -0.0318165197968483, -0.030800752341747284, -0.02978498488664627, -0.028769217431545258, -0.027753449976444244, -0.02673768252134323, -0.025721915066242218, -0.024706147611141205, -0.02369038015604019, -0.02267461270093918, -0.021658845245838165, -0.020643077790737152, -0.01962731033563614, -0.018611542880535126, -0.017595775425434113, -0.0165800079703331, -0.015564240515232086, -0.014548473060131073, -0.01353270560503006, -0.012516938149929047, -0.011501170694828033, -0.01048540323972702, -0.009469635784626007, -0.008453868329524994, -0.007438100874423981, -0.0064223334193229675, -0.005406565964221954, -0.004390798509120941, -0.003375031054019928, -0.002359263598918915, -0.0013434961438179016, -0.00032772868871688843, 0.0006880387663841248, 0.001703806221485138, 0.002719573676586151, 0.0037353411316871643, 0.0047511085867881775, 0.005766876041889191, 0.006782643496990204, 0.007798410952091217, 0.00881417840719223, 0.009829945862293243, 0.010845713317394257, 0.01186148077249527, 0.012877248227596283, 0.013893015682697296, 0.01490878313779831, 0.015924550592899323, 0.016940318048000336, 0.01795608550310135, 0.018971852958202362, 0.019987620413303375, 0.02100338786840439, 0.0220191553235054, 0.023034922778606415, 0.024050690233707428, 0.02506645768880844, 0.026082225143909454, 0.027097992599010468, 0.02811376005411148, 0.029129527509212494, 0.030145294964313507, 0.03116106241941452, 0.03217682987451553]}, "_wandb": {"runtime": 45}}