{"train_loss": 4.079154014587402, "test_loss": 4.060879230499268, "_timestamp": 1717525770.0560074, "_runtime": 1309.0348584651947, "_step": 149, "parameters/net.layer1.NN.weight": {"_type": "histogram", "values": [1.0, 0.0, 0.0, 2.0, 1.0, 1.0, 1.0, 0.0, 1.0, 1.0, 1.0, 2.0, 3.0, 1.0, 2.0, 2.0, 2.0, 1.0, 0.0, 3.0, 6.0, 9.0, 7.0, 7.0, 6.0, 5.0, 4.0, 8.0, 11.0, 11.0, 4.0, 4.0, 9.0, 11.0, 9.0, 9.0, 7.0, 8.0, 7.0, 6.0, 10.0, 7.0, 8.0, 5.0, 3.0, 2.0, 7.0, 7.0, 5.0, 5.0, 1.0, 4.0, 0.0, 1.0, 4.0, 2.0, 4.0, 0.0, 4.0, 1.0, 0.0, 1.0, 1.0, 1.0], "bins": [-0.2829287648200989, -0.2746181786060333, -0.26630762219429016, -0.2579970359802246, -0.24968644976615906, -0.2413758784532547, -0.23306530714035034, -0.2247547209262848, -0.21644414961338043, -0.20813357830047607, -0.19982299208641052, -0.19151242077350616, -0.1832018494606018, -0.17489126324653625, -0.1665806919336319, -0.15827012062072754, -0.149959534406662, -0.14164896309375763, -0.13333837687969208, -0.12502780556678772, -0.11671722680330276, -0.10840664803981781, -0.10009607672691345, -0.0917854979634285, -0.08347491919994354, -0.07516434043645859, -0.06685376167297363, -0.058543190360069275, -0.05023261159658432, -0.041922032833099365, -0.03361145779490471, -0.025300882756710052, -0.01699031889438629, -0.008679741993546486, -0.0003691650927066803, 0.007941411808133125, 0.01625198870897293, 0.024562567472457886, 0.03287314251065254, 0.0411837175488472, 0.04949429631233215, 0.05780487507581711, 0.06611545383930206, 0.07442602515220642, 0.08273660391569138, 0.09104718267917633, 0.09935775399208069, 0.10766833275556564, 0.1159789115190506, 0.12428949028253555, 0.1326000690460205, 0.14091064035892487, 0.14922121167182922, 0.15753179788589478, 0.16584236919879913, 0.1741529405117035, 0.18246352672576904, 0.1907740980386734, 0.19908468425273895, 0.2073952555656433, 0.21570584177970886, 0.22401641309261322, 0.23232698440551758, 0.24063757061958313, 0.2489481419324875]}, "parameters/net.layer1.NN.bias": {"_type": "histogram", "values": [1.0, 0.0, 0.0, 0.0, 0.0, 0.0, 1.0, 0.0, 0.0, 1.0, 0.0, 1.0, 1.0, 0.0, 1.0, 1.0, 0.0, 1.0, 4.0, 3.0, 2.0, 4.0, 2.0, 3.0, 7.0, 3.0, 8.0, 5.0, 6.0, 2.0, 1.0, 2.0, 0.0, 1.0, 3.0, 1.0, 0.0, 1.0, 0.0, 1.0, 5.0, 4.0, 3.0, 1.0, 3.0, 4.0, 4.0, 2.0, 4.0, 2.0, 2.0, 1.0, 3.0, 6.0, 2.0, 5.0, 5.0, 0.0, 0.0, 3.0, 0.0, 0.0, 1.0, 1.0], "bins": [-0.08524282276630402, -0.08292094618082047, -0.08059906959533691, -0.07827719300985336, -0.07595531642436981, -0.07363344728946686, -0.0713115707039833, -0.06898969411849976, -0.0666678175330162, -0.06434594094753265, -0.0620240643620491, -0.05970219150185585, -0.0573803149163723, -0.05505843833088875, -0.052736565470695496, -0.050414688885211945, -0.048092812299728394, -0.04577093571424484, -0.04344905912876129, -0.04112718626856804, -0.03880530968308449, -0.03648343309760094, -0.034161560237407684, -0.03183968365192413, -0.029517807066440582, -0.02719593048095703, -0.02487405575811863, -0.022552181035280228, -0.020230304449796677, -0.017908427864313126, -0.015586553141474724, -0.013264678418636322, -0.010942801833152771, -0.008620926178991795, -0.006299050524830818, -0.003977174870669842, -0.0016552992165088654, 0.000666576437652111, 0.0029884520918130875, 0.005310326814651489, 0.00763220340013504, 0.009954079054296017, 0.012275954708456993, 0.01459783036261797, 0.016919706016778946, 0.019241582602262497, 0.0215634573251009, 0.0238853320479393, 0.02620720863342285, 0.028529085218906403, 0.030850959941744804, 0.033172834664583206, 0.03549471125006676, 0.03781658783555031, 0.04013846069574356, 0.04246033728122711, 0.04478221386671066, 0.047104090452194214, 0.049425967037677765, 0.05174783989787102, 0.05406971648335457, 0.05639159306883812, 0.05871346592903137, 0.06103534251451492, 0.06335721909999847]}, "parameters/net.layer2.NN.weight": {"_type": "histogram", "values": [1.0, 0.0, 1.0, 1.0, 4.0, 3.0, 5.0, 11.0, 16.0, 16.0, 20.0, 30.0, 47.0, 68.0, 92.0, 105.0, 147.0, 180.0, 209.0, 284.0, 306.0, 358.0, 410.0, 500.0, 532.0, 590.0, 674.0, 736.0, 781.0, 812.0, 819.0, 782.0, 811.0, 767.0, 775.0, 734.0, 661.0, 581.0, 521.0, 550.0, 448.0, 403.0, 325.0, 251.0, 211.0, 193.0, 144.0, 118.0, 99.0, 75.0, 55.0, 28.0, 29.0, 26.0, 14.0, 9.0, 4.0, 1.0, 2.0, 1.0, 3.0, 0.0, 2.0, 3.0], "bins": [-0.40146884322166443, -0.38878268003463745, -0.37609654664993286, -0.3634103834629059, -0.3507242202758789, -0.3380380868911743, -0.32535192370414734, -0.31266576051712036, -0.29997962713241577, -0.2872934639453888, -0.2746073305606842, -0.2619211673736572, -0.24923500418663025, -0.23654885590076447, -0.22386270761489868, -0.2111765444278717, -0.19849038124084473, -0.18580423295497894, -0.17311806976795197, -0.16043192148208618, -0.1477457582950592, -0.13505961000919342, -0.12237346172332764, -0.10968730598688126, -0.09700115025043488, -0.0843149945139885, -0.07162883877754211, -0.05894269049167633, -0.04625653475522995, -0.03357037901878357, -0.020884230732917786, -0.008198074996471405, 0.004488050937652588, 0.01717420481145382, 0.02986035868525505, 0.04254651069641113, 0.05523266643285751, 0.0679188221693039, 0.08060497045516968, 0.09329112619161606, 0.10597728192806244, 0.11866343766450882, 0.1313495934009552, 0.14403574168682098, 0.15672188997268677, 0.16940805315971375, 0.18209420144557953, 0.1947803497314453, 0.2074665129184723, 0.22015266120433807, 0.23283882439136505, 0.24552497267723083, 0.2582111358642578, 0.2708972692489624, 0.2835834324359894, 0.29626959562301636, 0.30895572900772095, 0.3216418921947479, 0.3343280255794525, 0.3470141887664795, 0.35970035195350647, 0.37238651514053345, 0.38507264852523804, 0.397758811712265, 0.410444974899292]}, "parameters/net.layer2.NN.bias": {"_type": "histogram", "values": [1.0, 0.0, 0.0, 0.0, 1.0, 1.0, 1.0, 0.0, 0.0, 0.0, 0.0, 4.0, 2.0, 2.0, 3.0, 3.0, 4.0, 4.0, 6.0, 6.0, 6.0, 4.0, 0.0, 5.0, 10.0, 5.0, 4.0, 1.0, 3.0, 1.0, 2.0, 0.0, 0.0, 0.0, 1.0, 1.0, 0.0, 0.0, 1.0, 0.0, 0.0, 0.0, 1.0, 0.0, 2.0, 2.0, 1.0, 2.0, 3.0, 0.0, 5.0, 2.0, 7.0, 2.0, 3.0, 4.0, 3.0, 1.0, 0.0, 3.0, 2.0, 0.0, 1.0, 2.0], "bins": [-0.060948632657527924, -0.05938655138015747, -0.057824473828077316, -0.05626239255070686, -0.05470031499862671, -0.053138233721256256, -0.0515761524438858, -0.05001407116651535, -0.048451993614435196, -0.04688991233706474, -0.04532783478498459, -0.043765753507614136, -0.04220367223024368, -0.04064159467816353, -0.039079513400793076, -0.03751743584871292, -0.03595535457134247, -0.034393273293972015, -0.03283119574189186, -0.03126911446452141, -0.029707035049796104, -0.0281449556350708, -0.026582874357700348, -0.025020794942975044, -0.02345871552824974, -0.021896636113524437, -0.020334556698799133, -0.01877247542142868, -0.017210396006703377, -0.015648316591978073, -0.014086236245930195, -0.012524155899882317, -0.010962072759866714, -0.00939999334514141, -0.007837912999093533, -0.006275833118706942, -0.004713753238320351, -0.0031516733579337597, -0.0015895934775471687, -2.7513131499290466e-05, 0.0015345662832260132, 0.003096646163612604, 0.004658726043999195, 0.006220805924385786, 0.007782885804772377, 0.00934496521949768, 0.010907045565545559, 0.012469125911593437, 0.01403120532631874, 0.015593284741044044, 0.017155364155769348, 0.0187174454331398, 0.020279524847865105, 0.02184160426259041, 0.02340368553996086, 0.024965764954686165, 0.02652784436941147, 0.028089923784136772, 0.029652003198862076, 0.03121408447623253, 0.03277616202831268, 0.034338243305683136, 0.03590032458305359, 0.03746240586042404, 0.039024483412504196]}, "parameters/net.layer3.NN.weight": {"_type": "histogram", "values": [2.0, 0.0, 1.0, 0.0, 0.0, 0.0, 0.0, 0.0, 1.0, 2.0, 4.0, 1.0, 3.0, 6.0, 1.0, 3.0, 4.0, 7.0, 6.0, 6.0, 2.0, 6.0, 4.0, 5.0, 6.0, 18.0, 9.0, 14.0, 7.0, 10.0, 11.0, 7.0, 12.0, 8.0, 5.0, 7.0, 4.0, 4.0, 6.0, 8.0, 5.0, 10.0, 5.0, 4.0, 5.0, 6.0, 6.0, 3.0, 3.0, 2.0, 1.0, 2.0, 0.0, 1.0, 0.0, 0.0, 0.0, 0.0, 0.0, 1.0, 0.0, 0.0, 0.0, 2.0], "bins": [-0.2845139801502228, -0.2755696773529053, -0.2666253447532654, -0.2576810419559479, -0.24873673915863037, -0.23979243636131287, -0.23084811866283417, -0.22190380096435547, -0.21295949816703796, -0.20401519536972046, -0.19507087767124176, -0.18612655997276306, -0.17718225717544556, -0.16823795437812805, -0.15929363667964935, -0.15034931898117065, -0.14140501618385315, -0.13246071338653564, -0.12351639568805695, -0.11457208544015884, -0.10562777519226074, -0.09668346494436264, -0.08773915469646454, -0.07879484444856644, -0.06985053420066833, -0.06090622395277023, -0.05196191370487213, -0.04301760345697403, -0.03407329320907593, -0.025128982961177826, -0.016184672713279724, -0.007240362465381622, 0.0017039179801940918, 0.010648228228092194, 0.019592538475990295, 0.028536848723888397, 0.0374811589717865, 0.0464254692196846, 0.0553697794675827, 0.0643140897154808, 0.0732583999633789, 0.08220271021127701, 0.09114702045917511, 0.10009133070707321, 0.10903564095497131, 0.11797995120286942, 0.12692426145076752, 0.13586857914924622, 0.14481288194656372, 0.15375718474388123, 0.16270150244235992, 0.17164582014083862, 0.18059012293815613, 0.18953442573547363, 0.19847874343395233, 0.20742306113243103, 0.21636736392974854, 0.22531166672706604, 0.23425598442554474, 0.24320030212402344, 0.25214460492134094, 0.26108890771865845, 0.27003324031829834, 0.27897754311561584, 0.28792184591293335]}, "parameters/net.layer3.NN.bias": {"_type": "histogram", "values": [1.0, 0.0, 0.0, 0.0, 0.0, 0.0, 0.0, 0.0, 0.0, 0.0, 0.0, 0.0, 0.0, 0.0, 0.0, 0.0, 0.0, 0.0, 0.0, 0.0, 0.0, 0.0, 0.0, 0.0, 0.0, 0.0, 0.0, 0.0, 0.0, 0.0, 0.0, 0.0, 0.0, 0.0, 0.0, 0.0, 0.0, 0.0, 0.0, 0.0, 0.0, 0.0, 0.0, 0.0, 0.0, 0.0, 0.0, 0.0, 0.0, 0.0, 0.0, 0.0, 0.0, 0.0, 0.0, 0.0, 0.0, 0.0, 0.0, 0.0, 0.0, 0.0, 0.0, 1.0], "bins": [-0.028155367821455002, -0.02734636701643467, -0.026537366211414337, -0.025728365406394005, -0.024919364601373672, -0.02411036379635334, -0.023301362991333008, -0.022492362186312675, -0.021683361381292343, -0.02087436057627201, -0.02006535977125168, -0.019256358966231346, -0.018447358161211014, -0.01763835735619068, -0.01682935655117035, -0.016020355746150017, -0.01521135400980711, -0.014402353204786777, -0.013593352399766445, -0.012784351594746113, -0.01197535078972578, -0.011166349053382874, -0.010357348248362541, -0.009548347443342209, -0.008739346638321877, -0.007930345833301544, -0.007121345028281212, -0.0063123442232608795, -0.005503343418240547, -0.0046943421475589275, -0.003885341342538595, -0.003076340537518263, -0.002267340198159218, -0.0014583393931388855, -0.0006493384717032313, 0.00015966244973242283, 0.0009686632547527552, 0.0017776642926037312, 0.0025866650976240635, 0.003395665902644396, 0.004204666707664728, 0.0050136675126850605, 0.005822668317705393, 0.0066316695883870125, 0.007440670393407345, 0.008249671198427677, 0.00905867200344801, 0.009867672808468342, 0.010676673613488674, 0.011485674418509007, 0.012294675223529339, 0.013103676028549671, 0.013912676833570004, 0.01472167856991291, 0.015530679374933243, 0.016339680179953575, 0.017148680984973907, 0.01795768178999424, 0.018766682595014572, 0.019575683400034904, 0.020384684205055237, 0.02119368501007557, 0.0220026858150959, 0.022811686620116234, 0.023620687425136566]}, "gradients/net.layer3.NN.bias": {"_type": "histogram", "values": [1.0, 0.0, 0.0, 0.0, 0.0, 0.0, 0.0, 0.0, 0.0, 0.0, 0.0, 0.0, 0.0, 0.0, 0.0, 0.0, 0.0, 0.0, 0.0, 0.0, 0.0, 0.0, 0.0, 0.0, 0.0, 0.0, 0.0, 0.0, 0.0, 0.0, 0.0, 0.0, 0.0, 0.0, 0.0, 0.0, 0.0, 0.0, 0.0, 0.0, 0.0, 0.0, 0.0, 0.0, 0.0, 0.0, 0.0, 0.0, 0.0, 0.0, 0.0, 0.0, 0.0, 0.0, 0.0, 0.0, 0.0, 0.0, 0.0, 0.0, 0.0, 0.0, 0.0, 1.0], "bins": [-27041748.0, -26478810.0, -25915872.0, -25352932.0, -24789994.0, -24227056.0, -23664116.0, -23101178.0, -22538240.0, -21975302.0, -21412364.0, -20849424.0, -20286486.0, -19723548.0, -19160608.0, -18597670.0, -18034732.0, -17471794.0, -16908856.0, -16345916.0, -15782978.0, -15220040.0, -14657101.0, -14094162.0, -13531224.0, -12968286.0, -12405347.0, -11842408.0, -11279470.0, -10716532.0, -10153593.0, -9590654.0, -9027715.0, -8464776.0, -7901838.0, -7338899.5, -6775961.0, -6213022.5, -5650084.0, -5087145.5, -4524207.0, -3961268.5, -3398330.0, -2835391.5, -2272453.0, -1709514.5, -1146576.0, -583637.5, -20699.0, 542239.5, 1105178.0, 1668116.5, 2231055.0, 2793993.5, 3356932.0, 3919870.5, 4482809.0, 5045747.5, 5608686.0, 6171624.5, 6734563.0, 7297501.5, 7860440.0, 8423378.0, 8986317.0]}, "gradients/net.layer3.NN.weight": {"_type": "histogram", "values": [1.0, 0.0, 0.0, 0.0, 0.0, 0.0, 0.0, 0.0, 0.0, 0.0, 0.0, 1.0, 0.0, 0.0, 1.0, 0.0, 0.0, 0.0, 0.0, 0.0, 1.0, 0.0, 1.0, 1.0, 3.0, 0.0, 0.0, 1.0, 1.0, 1.0, 1.0, 1.0, 3.0, 2.0, 2.0, 1.0, 0.0, 5.0, 2.0, 1.0, 6.0, 2.0, 1.0, 3.0, 3.0, 5.0, 6.0, 8.0, 21.0, 19.0, 24.0, 29.0, 26.0, 27.0, 18.0, 15.0, 2.0, 7.0, 0.0, 2.0, 1.0, 0.0, 0.0, 1.0], "bins": [-105958088.0, -103927416.0, -101896736.0, -99866064.0, -97835392.0, -95804720.0, -93774040.0, -91743368.0, -89712688.0, -87682016.0, -85651336.0, -83620664.0, -81589992.0, -79559312.0, -77528640.0, -75497968.0, -73467296.0, -71436624.0, -69405944.0, -67375272.0, -65344600.0, -63313924.0, -61283248.0, -59252576.0, -57221900.0, -55191224.0, -53160552.0, -51129876.0, -49099200.0, -47068528.0, -45037852.0, -43007176.0, -40976508.0, -38945832.0, -36915160.0, -34884484.0, -32853810.0, -30823136.0, -28792460.0, -26761786.0, -24731112.0, -22700438.0, -20669764.0, -18639088.0, -16608414.0, -14577740.0, -12547065.0, -10516390.0, -8485716.0, -6455041.5, -4424367.0, -2393692.5, -363018.0, 1667656.0, 3698331.0, 5729006.0, 7759680.0, 9790354.0, 11821029.0, 13851704.0, 15882378.0, 17913052.0, 19943728.0, 21974402.0, 24005076.0]}, "gradients/net.layer2.NN.bias": {"_type": "histogram", "values": [1.0, 0.0, 0.0, 0.0, 0.0, 0.0, 0.0, 2.0, 0.0, 1.0, 1.0, 1.0, 1.0, 1.0, 0.0, 0.0, 1.0, 1.0, 3.0, 2.0, 2.0, 1.0, 3.0, 3.0, 7.0, 10.0, 21.0, 19.0, 6.0, 5.0, 7.0, 3.0, 1.0, 1.0, 2.0, 4.0, 2.0, 0.0, 4.0, 0.0, 2.0, 1.0, 0.0, 1.0, 1.0, 0.0, 1.0, 0.0, 0.0, 1.0, 1.0, 1.0, 0.0, 0.0, 0.0, 1.0, 0.0, 0.0, 0.0, 0.0, 1.0, 0.0, 0.0, 1.0], "bins": [-13405272.0, -12911185.0, -12417099.0, -11923012.0, -11428925.0, -10934839.0, -10440752.0, -9946666.0, -9452579.0, -8958492.0, -8464406.0, -7970319.0, -7476232.5, -6982146.0, -6488059.0, -5993972.5, -5499885.5, -5005799.0, -4511712.0, -4017625.5, -3523539.0, -3029452.25, -2535365.5, -2041279.0, -1547192.25, -1053105.625, -559018.9375, -64932.25, 429154.375, 923241.0, 1417327.75, 1911414.25, 2405501.0, 2899587.75, 3393674.25, 3887761.0, 4381847.5, 4875934.0, 5370021.0, 5864107.5, 6358194.0, 6852280.5, 7346367.5, 7840454.0, 8334540.5, 8828627.0, 9322714.0, 9816800.0, 10310888.0, 10804975.0, 11299061.0, 11793148.0, 12287235.0, 12781321.0, 13275408.0, 13769494.0, 14263581.0, 14757668.0, 15251754.0, 15745841.0, 16239928.0, 16734014.0, 17228100.0, 17722188.0, 18216274.0]}, "gradients/net.layer2.NN.weight": {"_type": "histogram", "values": [2.0, 1.0, 2.0, 1.0, 2.0, 2.0, 1.0, 1.0, 1.0, 2.0, 7.0, 2.0, 9.0, 12.0, 9.0, 12.0, 16.0, 23.0, 27.0, 39.0, 44.0, 64.0, 65.0, 82.0, 84.0, 136.0, 152.0, 181.0, 245.0, 321.0, 461.0, 916.0, 3247.0, 6613.0, 1253.0, 580.0, 349.0, 282.0, 222.0, 176.0, 155.0, 123.0, 100.0, 70.0, 53.0, 34.0, 29.0, 32.0, 28.0, 22.0, 19.0, 12.0, 9.0, 11.0, 9.0, 6.0, 6.0, 3.0, 4.0, 6.0, 1.0, 3.0, 0.0, 5.0], "bins": [-11495961.0, -11149529.0, -10803098.0, -10456666.0, -10110234.0, -9763803.0, -9417371.0, -9070940.0, -8724508.0, -8378076.5, -8031645.0, -7685213.0, -7338781.5, -6992350.0, -6645918.0, -6299486.5, -5953055.0, -5606623.5, -5260192.0, -4913760.0, -4567328.5, -4220897.0, -3874465.25, -3528033.5, -3181602.0, -2835170.5, -2488738.75, -2142307.0, -1795875.5, -1449443.875, -1103012.25, -756580.5, -410149.0, -63717.375, 282714.25, 629145.875, 975577.5, 1322009.125, 1668440.75, 2014872.5, 2361304.0, 2707735.5, 3054167.25, 3400599.0, 3747030.5, 4093462.0, 4439894.0, 4786325.5, 5132757.0, 5479188.5, 5825620.0, 6172052.0, 6518483.5, 6864915.0, 7211347.0, 7557778.5, 7904210.0, 8250641.5, 8597073.0, 8943505.0, 9289936.0, 9636368.0, 9982800.0, 10329232.0, 10675663.0]}, "gradients/net.layer1.NN.bias": {"_type": "histogram", "values": [1.0, 0.0, 0.0, 0.0, 0.0, 0.0, 1.0, 2.0, 0.0, 0.0, 1.0, 0.0, 1.0, 0.0, 2.0, 2.0, 2.0, 1.0, 1.0, 5.0, 1.0, 0.0, 1.0, 8.0, 5.0, 1.0, 3.0, 11.0, 3.0, 3.0, 3.0, 3.0, 3.0, 4.0, 5.0, 8.0, 7.0, 2.0, 4.0, 7.0, 2.0, 6.0, 4.0, 1.0, 2.0, 2.0, 1.0, 1.0, 2.0, 0.0, 0.0, 3.0, 0.0, 1.0, 0.0, 0.0, 1.0, 0.0, 0.0, 0.0, 0.0, 0.0, 0.0, 1.0], "bins": [-28174378.0, -27228032.0, -26281688.0, -25335342.0, -24388996.0, -23442650.0, -22496304.0, -21549960.0, -20603614.0, -19657268.0, -18710924.0, -17764578.0, -16818232.0, -15871886.0, -14925541.0, -13979196.0, -13032850.0, -12086504.0, -11140159.0, -10193814.0, -9247468.0, -8301122.5, -7354777.0, -6408431.5, -5462086.0, -4515740.5, -3569395.0, -2623049.5, -1676704.0, -730358.5, 215987.0, 1162332.5, 2108680.0, 3055025.5, 4001371.0, 4947716.5, 5894062.0, 6840407.5, 7786753.0, 8733098.0, 9679444.0, 10625790.0, 11572135.0, 12518480.0, 13464826.0, 14411172.0, 15357517.0, 16303862.0, 17250208.0, 18196554.0, 19142900.0, 20089244.0, 21035590.0, 21981936.0, 22928280.0, 23874626.0, 24820972.0, 25767318.0, 26713664.0, 27660008.0, 28606354.0, 29552700.0, 30499044.0, 31445390.0, 32391736.0]}, "gradients/net.layer1.NN.weight": {"_type": "histogram", "values": [2.0, 0.0, 1.0, 0.0, 1.0, 2.0, 0.0, 0.0, 0.0, 5.0, 5.0, 1.0, 3.0, 4.0, 2.0, 6.0, 2.0, 5.0, 5.0, 9.0, 13.0, 13.0, 19.0, 18.0, 27.0, 11.0, 12.0, 16.0, 13.0, 7.0, 7.0, 9.0, 6.0, 4.0, 7.0, 5.0, 3.0, 2.0, 1.0, 1.0, 0.0, 1.0, 0.0, 0.0, 0.0, 2.0, 2.0, 1.0, 0.0, 1.0, 0.0, 0.0, 0.0, 0.0, 0.0, 0.0, 0.0, 0.0, 0.0, 0.0, 0.0, 0.0, 1.0, 1.0], "bins": [-54129920.0, -51907284.0, -49684648.0, -47462008.0, -45239372.0, -43016736.0, -40794100.0, -38571464.0, -36348824.0, -34126188.0, -31903550.0, -29680914.0, -27458276.0, -25235640.0, -23013004.0, -20790368.0, -18567732.0, -16345095.0, -14122458.0, -11899822.0, -9677185.0, -7454548.0, -5231912.0, -3009275.0, -786638.0, 1435998.75, 3658635.5, 5881272.0, 8103909.0, 10326546.0, 12549182.0, 14771819.0, 16994456.0, 19217092.0, 21439730.0, 23662366.0, 25885004.0, 28107640.0, 30330276.0, 32552912.0, 34775552.0, 36998188.0, 39220824.0, 41443464.0, 43666100.0, 45888736.0, 48111372.0, 50334008.0, 52556644.0, 54779280.0, 57001916.0, 59224552.0, 61447192.0, 63669828.0, 65892464.0, 68115104.0, 70337736.0, 72560376.0, 74783008.0, 77005648.0, 79228280.0, 81450920.0, 83673552.0, 85896192.0, 88118832.0]}, "_wandb": {"runtime": 1652}}