{"gradients/net.0.weight": {"_type": "histogram", "values": [2.0, 1.0, 0.0, 3.0, 2.0, 9.0, 8.0, 1.0, 5.0, 10.0, 10.0, 14.0, 11.0, 21.0, 25.0, 32.0, 23.0, 45.0, 59.0, 58.0, 66.0, 65.0, 76.0, 87.0, 125.0, 138.0, 125.0, 112.0, 152.0, 161.0, 154.0, 162.0, 154.0, 153.0, 108.0, 115.0, 108.0, 98.0, 90.0, 67.0, 75.0, 69.0, 46.0, 43.0, 41.0, 31.0, 18.0, 16.0, 17.0, 15.0, 9.0, 9.0, 6.0, 6.0, 4.0, 2.0, 2.0, 3.0, 1.0, 1.0, 0.0, 2.0, 0.0, 1.0], "bins": [-7.389829988824204e-05, -7.147939322749153e-05, -6.90604792907834e-05, -6.66415726300329e-05, -6.422266596928239e-05, -6.180375203257427e-05, -5.938484537182376e-05, -5.696593871107325e-05, -5.4547028412343934e-05, -5.212811811361462e-05, -4.970921145286411e-05, -4.7290301154134795e-05, -4.487139085540548e-05, -4.245248419465497e-05, -4.0033573895925656e-05, -3.761466723517515e-05, -3.519575693644583e-05, -3.277684663771652e-05, -3.035793997696601e-05, -2.7939029678236693e-05, -2.552012119849678e-05, -2.310121271875687e-05, -2.0682302420027554e-05, -1.8263393940287642e-05, -1.584448546054773e-05, -1.3425576980807818e-05, -1.1006667591573205e-05, -8.587758202338591e-06, -6.168849722598679e-06, -3.7499407881114166e-06, -1.3310318536241539e-06, 1.0878770808631089e-06, 3.5067932913079858e-06, 5.9257022257952485e-06, 8.344611160282511e-06, 1.0763520549517125e-05, 1.3182429029257037e-05, 1.560133750899695e-05, 1.8020247807726264e-05, 2.0439156287466176e-05, 2.2858064767206088e-05, 2.5276973246946e-05, 2.769588172668591e-05, 3.0114792025415227e-05, 3.253370232414454e-05, 3.495260898489505e-05, 3.7371519283624366e-05, 3.9790425944374874e-05, 4.220933624310419e-05, 4.4628246541833505e-05, 4.704715320258401e-05, 4.946606350131333e-05, 5.188497016206384e-05, 5.430388046079315e-05, 5.672279075952247e-05, 5.9141697420272976e-05, 6.15606113569811e-05, 6.397951801773161e-05, 6.639842467848212e-05, 6.881733133923262e-05, 7.123624527594075e-05, 7.365515193669125e-05, 7.607405859744176e-05, 7.849297253414989e-05, 8.09118791949004e-05]}, "_timestamp": 1720043470.6126215, "gradients/net.2.weight": {"_type": "histogram", "values": [1.0, 1.0, 1.0, 3.0, 2.0, 2.0, 1.0, 3.0, 6.0, 3.0, 7.0, 13.0, 23.0, 26.0, 34.0, 38.0, 69.0, 85.0, 127.0, 153.0, 230.0, 314.0, 438.0, 552.0, 791.0, 1110.0, 1590.0, 2292.0, 3270.0, 4616.0, 6919.0, 9992.0, 9934.0, 6917.0, 4631.0, 3237.0, 2241.0, 1573.0, 1216.0, 813.0, 620.0, 417.0, 337.0, 224.0, 185.0, 120.0, 116.0, 72.0, 39.0, 34.0, 32.0, 15.0, 18.0, 8.0, 8.0, 5.0, 4.0, 1.0, 1.0, 2.0, 0.0, 1.0, 1.0, 2.0], "bins": [-4.490448554861359e-05, -4.3501811887836084e-05, -4.2099138227058575e-05, -4.0696464566281065e-05, -3.9293790905503556e-05, -3.789111724472605e-05, -3.648844358394854e-05, -3.508576992317103e-05, -3.368309262441471e-05, -3.22804189636372e-05, -3.0877745302859694e-05, -2.9475073461071588e-05, -2.8072397981304675e-05, -2.6669724320527166e-05, -2.5267050659749657e-05, -2.3864376998972148e-05, -2.246170333819464e-05, -2.105902967741713e-05, -1.965635601663962e-05, -1.825368235586211e-05, -1.68510086950846e-05, -1.544833321531769e-05, -1.404565955454018e-05, -1.264298589376267e-05, -1.1240312232985161e-05, -9.837638572207652e-06, -8.434964911430143e-06, -7.032290341157932e-06, -5.629616680380423e-06, -4.226943019602913e-06, -2.8242689040780533e-06, -1.4215950159268687e-06, -1.8921127775684e-08, 1.3837527603755007e-06, 2.7864266485266853e-06, 4.189100764051545e-06, 5.591774424829055e-06, 6.994448085606564e-06, 8.397122655878775e-06, 9.799796316656284e-06, 1.1202469977433793e-05, 1.2605143638211302e-05, 1.4007817298988812e-05, 1.541049095976632e-05, 1.6813166439533234e-05, 1.8215840100310743e-05, 1.9618513761088252e-05, 2.102118742186576e-05, 2.242386108264327e-05, 2.382653474342078e-05, 2.522920840419829e-05, 2.6631882064975798e-05, 2.8034555725753307e-05, 2.943723120552022e-05, 3.0839903047308326e-05, 3.2242576708085835e-05, 3.3645250368863344e-05, 3.504792766761966e-05, 3.645060132839717e-05, 3.785327498917468e-05, 3.925594864995219e-05, 4.06586223107297e-05, 4.2061295971507207e-05, 4.3463969632284716e-05, 4.4866643293062225e-05]}, "gradients/net.4.bias": {"_type": "histogram", "values": [1.0, 0.0, 0.0, 0.0, 0.0, 0.0, 0.0, 0.0, 0.0, 0.0, 0.0, 0.0, 0.0, 0.0, 0.0, 0.0, 0.0, 0.0, 0.0, 1.0, 0.0, 1.0, 0.0, 0.0, 0.0, 0.0, 0.0, 0.0, 0.0, 0.0, 0.0, 0.0, 0.0, 0.0, 0.0, 1.0, 0.0, 1.0, 1.0, 1.0, 0.0, 0.0, 0.0, 0.0, 0.0, 0.0, 0.0, 0.0, 0.0, 0.0, 0.0, 0.0, 0.0, 0.0, 0.0, 1.0, 0.0, 1.0, 0.0, 0.0, 1.0, 0.0, 1.0, 1.0], "bins": [-0.00021078999270685017, -0.00020398246124386787, -0.00019717492978088558, -0.0001903674128698185, -0.0001835598814068362, -0.00017675234994385391, -0.00016994483303278685, -0.00016313730156980455, -0.00015632977010682225, -0.00014952223864383996, -0.00014271470718085766, -0.0001359071902697906, -0.0001290996588068083, -0.000122292127343826, -0.00011548460315680131, -0.00010867707896977663, -0.00010186954750679433, -9.506201604381204e-05, -8.825449185678735e-05, -8.144696766976267e-05, -7.463943620678037e-05, -6.783190474379808e-05, -6.1024380556773394e-05, -5.4216852731769904e-05, -4.7409324906766415e-05, -4.0601797081762925e-05, -3.3794269256759435e-05, -2.6986741431755945e-05, -2.0179213606752455e-05, -1.3371685781748965e-05, -6.5641579567454755e-06, 2.433698682580143e-07, 7.050897693261504e-06, 1.3858425518264994e-05, 2.0665953343268484e-05, 2.7473481168271974e-05, 3.4281008993275464e-05, 4.1088536818278953e-05, 4.789606464328244e-05, 5.470359246828593e-05, 6.151112029328942e-05, 6.831865175627172e-05, 7.51261759432964e-05, 8.193370013032109e-05, 8.874123159330338e-05, 9.554876305628568e-05, 0.00010235628724331036, 0.00010916381143033504, 0.00011597134289331734, 0.00012277887435629964, 0.00012958640581928194, 0.000136393922730349, 0.0001432014541933313, 0.0001500089856563136, 0.00015681650256738067, 0.00016362403403036296, 0.00017043156549334526, 0.00017723909695632756, 0.00018404662841930985, 0.00019085414533037692, 0.00019766167679335922, 0.00020446920825634152, 0.00021127672516740859, 0.00021808425663039088, 0.00022489178809337318]}, "gradients/net.4.weight": {"_type": "histogram", "values": [1.0, 0.0, 0.0, 0.0, 1.0, 1.0, 2.0, 0.0, 0.0, 0.0, 2.0, 0.0, 0.0, 1.0, 1.0, 3.0, 3.0, 8.0, 2.0, 7.0, 7.0, 7.0, 12.0, 15.0, 16.0, 20.0, 16.0, 53.0, 54.0, 87.0, 134.0, 154.0, 174.0, 196.0, 268.0, 194.0, 230.0, 180.0, 193.0, 187.0, 157.0, 138.0, 114.0, 101.0, 72.0, 52.0, 50.0, 28.0, 34.0, 19.0, 21.0, 10.0, 6.0, 13.0, 10.0, 4.0, 2.0, 2.0, 4.0, 0.0, 3.0, 1.0, 1.0, 1.0], "bins": [-0.0003132931888103485, -0.0003041898598894477, -0.0002950865600723773, -0.0002859832311514765, -0.00027687993133440614, -0.0002677766024135053, -0.0002586732734926045, -0.00024956997367553413, -0.0002404666447546333, -0.00023136333038564771, -0.00022226001601666212, -0.00021315670164767653, -0.00020405338727869093, -0.00019495007290970534, -0.00018584674398880452, -0.00017674342961981893, -0.00016764011525083333, -0.00015853680088184774, -0.00014943348651286215, -0.00014033015759196132, -0.00013122684322297573, -0.00012212352885399014, -0.00011302021448500454, -0.00010391689284006134, -9.481357847107574e-05, -8.571026410209015e-05, -7.660694245714694e-05, -6.750362808816135e-05, -5.840031008119695e-05, -4.929699207423255e-05, -4.0193677705246955e-05, -3.1090359698282555e-05, -2.1987041691318154e-05, -1.2883724593848456e-05, -3.780407496378757e-06, 5.322909601090942e-06, 1.442622669856064e-05, 2.352954470552504e-05, 3.2632859074510634e-05, 4.1736177081475034e-05, 5.0839495088439435e-05, 5.9942813095403835e-05, 6.904613110236824e-05, 7.814944547135383e-05, 8.725275984033942e-05, 9.635608148528263e-05, 0.00010545939585426822, 0.00011456271749921143, 0.00012366603186819702, 0.00013276934623718262, 0.0001418726606061682, 0.00015097598952706903, 0.00016007930389605463, 0.00016918261826504022, 0.0001782859326340258, 0.0001873892470030114, 0.000196492561371997, 0.00020559589029289782, 0.00021469920466188341, 0.000223802519030869, 0.0002329058333998546, 0.0002420091477688402, 0.000251112476689741, 0.0002602157765068114, 0.0002693191054277122]}, "gradients/net.0.bias": {"_type": "histogram", "values": [2.0, 0.0, 0.0, 1.0, 0.0, 1.0, 0.0, 2.0, 1.0, 1.0, 2.0, 7.0, 2.0, 4.0, 8.0, 7.0, 5.0, 8.0, 8.0, 4.0, 5.0, 7.0, 11.0, 6.0, 12.0, 13.0, 7.0, 10.0, 7.0, 10.0, 15.0, 8.0, 3.0, 6.0, 6.0, 10.0, 5.0, 4.0, 3.0, 6.0, 6.0, 10.0, 6.0, 2.0, 1.0, 2.0, 1.0, 4.0, 1.0, 0.0, 1.0, 0.0, 0.0, 0.0, 0.0, 1.0, 1.0, 0.0, 1.0, 0.0, 0.0, 1.0, 0.0, 1.0], "bins": [-0.00010510913853067905, -0.0001013319197227247, -9.755470091477036e-05, -9.377748210681602e-05, -9.000026329886168e-05, -8.622304449090734e-05, -8.2445825682953e-05, -7.866860687499866e-05, -7.489138806704432e-05, -7.111416925908998e-05, -6.733695045113564e-05, -6.35597316431813e-05, -5.9782509197248146e-05, -5.6005290389293805e-05, -5.2228071581339464e-05, -4.845085277338512e-05, -4.467363396543078e-05, -4.089641515747644e-05, -3.71191963495221e-05, -3.334197754156776e-05, -2.9564758733613417e-05, -2.5787538106669672e-05, -2.201031929871533e-05, -1.823310049076099e-05, -1.4455881682806648e-05, -1.0678662874852307e-05, -6.901443612150615e-06, -3.1242245768225985e-06, 6.529944585054182e-07, 4.430213266459759e-06, 8.207432983908802e-06, 1.1984651791863143e-05, 1.5761870599817485e-05, 1.9539089407771826e-05, 2.3316308215726167e-05, 2.7093527023680508e-05, 3.087074583163485e-05, 3.464796463958919e-05, 3.842518344754353e-05, 4.220240225549787e-05, 4.5979621063452214e-05, 4.975684350938536e-05, 5.3534062317339703e-05, 5.7311281125294045e-05, 6.108849629526958e-05, 6.486571510322392e-05, 6.864293391117826e-05, 7.24201527191326e-05, 7.619737880304456e-05, 7.99745976109989e-05, 8.375181641895324e-05, 8.752903522690758e-05, 9.130625403486192e-05, 9.508347284281626e-05, 9.88606916507706e-05, 0.00010263791045872495, 0.00010641512926667929, 0.00011019234807463363, 0.00011396956688258797, 0.00011774678569054231, 0.00012152400449849665, 0.00012530121603049338, 0.00012907844211440533, 0.00013285565364640206, 0.00013663287973031402]}, "gradients/net.2.bias": {"_type": "histogram", "values": [1.0, 1.0, 0.0, 2.0, 0.0, 0.0, 0.0, 1.0, 1.0, 0.0, 1.0, 2.0, 3.0, 3.0, 1.0, 1.0, 1.0, 6.0, 4.0, 1.0, 8.0, 7.0, 9.0, 8.0, 6.0, 13.0, 4.0, 9.0, 9.0, 6.0, 12.0, 6.0, 12.0, 11.0, 11.0, 9.0, 7.0, 6.0, 7.0, 10.0, 8.0, 1.0, 4.0, 5.0, 5.0, 4.0, 6.0, 4.0, 1.0, 3.0, 3.0, 3.0, 2.0, 0.0, 1.0, 0.0, 1.0, 1.0, 1.0, 1.0, 1.0, 0.0, 1.0, 1.0], "bins": [-8.306893869303167e-05, -8.045028516789898e-05, -7.783163891872391e-05, -7.521298539359123e-05, -7.259433914441615e-05, -6.997568561928347e-05, -6.735703209415078e-05, -6.473838584497571e-05, -6.211973231984302e-05, -5.9501082432689145e-05, -5.6882432545535266e-05, -5.426377902040258e-05, -5.16451291332487e-05, -4.902647924609482e-05, -4.640782572096214e-05, -4.378917583380826e-05, -4.117052594665438e-05, -3.85518760595005e-05, -3.593322617234662e-05, -3.3314572647213936e-05, -3.069592276006006e-05, -2.8077272872906178e-05, -2.5458621166762896e-05, -2.2839969460619614e-05, -2.0221319573465735e-05, -1.7602669686311856e-05, -1.4984017980168574e-05, -1.2365367183519993e-05, -9.746716386871412e-06, -7.128065590222832e-06, -4.509414793574251e-06, -1.8907639969256707e-06, 7.278795237652957e-07, 3.3465303204138763e-06, 5.965181117062457e-06, 8.583831913711037e-06, 1.1202482710359618e-05, 1.3821133507008199e-05, 1.643978430365678e-05, 1.905843600980006e-05, 2.167708589695394e-05, 2.429573578410782e-05, 2.69143874902511e-05, 2.9533039196394384e-05, 3.215168908354826e-05, 3.477033897070214e-05, 3.738899249583483e-05, 4.0007642382988706e-05, 4.2626292270142585e-05, 4.5244942157296464e-05, 4.786359204445034e-05, 5.048224556958303e-05, 5.310089545673691e-05, 5.5719545343890786e-05, 5.833819886902347e-05, 6.095684875617735e-05, 6.357549864333123e-05, 6.619415216846392e-05, 6.881279841763899e-05, 7.143145194277167e-05, 7.405009819194674e-05, 7.666875171707943e-05, 7.928740524221212e-05, 8.190605149138719e-05, 8.452470501651987e-05]}, "train_loss": 1.2203639926156029e-05, "train_grad": 2.9175496365496656e-06, "test_loss": 1.3210765246185474e-05, "test_grad": 3.4216511721751885e-06, "_runtime": 1129.095446586609, "_step": 99, "_wandb": {"runtime": 1128}}